{"version": "0.5.2", "metadata": {"date": {"year": 2023, "month": 11, "day": 21, "hour": 19, "minute": 38, "second": 47}, "loudness": -20.620922088623047, "gain": 0.8013750547421784, "name": "SinMix 5153Red", "modeled_by": "SinMix", "gear_type": "amp_cab", "gear_make": "EVH 5150III Rectifier 212", "gear_model": "www.sinmix.pl", "tone_type": "hi_gain"}, "architecture": "WaveNet", "config": {"layers": [{"input_size": 1, "condition_size": 1, "head_size": 8, "channels": 16, "kernel_size": 3, "dilations": [1, 2, 4, 8, 16, 32, 64, 128, 256, 512], "activation": "Tanh", "gated": false, "head_bias": false}, {"input_size": 16, "condition_size": 1, "head_size": 1, "channels": 8, "kernel_size": 3, "dilations": [1, 2, 4, 8, 16, 32, 64, 128, 256, 512], "activation": "Tanh", "gated": false, "head_bias": true}], "head": null, "head_scale": 0.02}, "weights": [-0.10988602042198181, 0.5540383458137512, -0.6065736413002014, -0.6945891380310059, -0.25189489126205444, -0.056757986545562744, 0.04730246961116791, 0.5986741781234741, -0.01032169908285141, 0.18348845839500427, -0.036948516964912415, -0.025223586708307266, -0.8513399958610535, -0.460640549659729, -0.22157008945941925, -0.12964627146720886, 0.041470251977443695, 0.26682958006858826, -0.01989050582051277, -0.15432778000831604, 0.04732856899499893, 0.04865807294845581, 0.06267774850130081, 0.11459759622812271, 0.04494480788707733, 0.10519406944513321, 0.13385552167892456, -0.06596474349498749, -0.0018877999391406775, -0.0316057987511158, 0.014190392568707466, 0.09657066315412521, 0.054648641496896744, -0.2482929676771164, -0.10635204613208771, -0.2893049418926239, -0.06700826436281204, 0.029601704329252243, 0.0531604178249836, -0.0021748493891209364, 0.14529483020305634, -0.0778937041759491, 0.23931166529655457, -0.22008098661899567, -0.10746157169342041, -0.13457539677619934, 0.17585110664367676, 0.08094954490661621, 0.008714801631867886, -0.010438801720738411, -0.0011221799068152905, 0.20415432751178741, 0.1509016901254654, 0.027016155421733856, 0.1672346144914627, 0.010224692523479462, 0.03710627555847168, -0.042154546827077866, -0.005153368227183819, -0.058147065341472626, 0.13749250769615173, -0.08335137367248535, -0.09182250499725342, -0.18672136962413788, -0.035659369081258774, -0.24700137972831726, -0.1144142597913742, -0.028736498206853867, -0.030846789479255676, 0.21378596127033234, -0.04360485076904297, 0.06995711475610733, -0.012045561335980892, 0.18573065102100372, 0.24522484838962555, 0.05803864449262619, 0.0932069718837738, -0.0060839541256427765, -0.05966950207948685, -0.05270133912563324, -0.21293747425079346, 0.18562628328800201, 0.10769882053136826, -0.022675510495901108, -0.10632546991109848, -0.08853129297494888, -0.14129386842250824, 0.0029859088826924562, 0.01108432374894619, 0.014875048771500587, 0.05452684313058853, 0.01588790863752365, -0.01204195898026228, 0.12587574124336243, -0.08671240508556366, 0.019095249474048615, 0.004143074620515108, -0.03800806403160095, -0.026378927752375603, -0.2695329487323761, 0.20088504254817963, 0.21717019379138947, -0.13299405574798584, 0.028160063549876213, -0.01814459264278412, -0.07165040075778961, -0.061802808195352554, -0.012882650829851627, -0.09703893959522247, -0.050039924681186676, -0.20452600717544556, -0.14995743334293365, 0.05005817860364914, 0.15132233500480652, 0.09506692737340927, -0.0801750123500824, 0.23088602721691132, -0.05189503729343414, -0.0323534719645977, -0.2416747361421585, 0.10603677481412888, -0.04146762192249298, -0.3498769700527191, 0.12045790255069733, -0.15438514947891235, -0.32805606722831726, 0.039599958807229996, -0.03288738802075386, 0.05242659151554108, -0.15411370992660522, 0.006241640076041222, 0.06945358961820602, -0.14735931158065796, 0.04266753047704697, 0.3841955363750458, -0.07172694802284241, -0.007558110635727644, 0.07055726647377014, 0.11136049777269363, 0.10662729293107986, 0.3637448251247406, -0.00021796548389829695, 0.11126532405614853, -0.2445801943540573, -0.041800741106271744, -0.05151469632983208, 0.05747451260685921, 0.05747894570231438, -0.12437157332897186, -0.3943615257740021, -0.08394064009189606, -0.17013755440711975, -0.2997027337551117, 0.13611921668052673, 0.055283863097429276, -0.3755151331424713, 0.1660248339176178, -0.021469034254550934, -0.06125914677977562, -0.14773759245872498, -0.06231311336159706, -0.24156713485717773, -0.04702362045645714, -0.32105422019958496, -0.16435395181179047, -0.029733140021562576, 0.1359556019306183, 0.20428672432899475, -0.09670237451791763, 0.1915820688009262, 0.27889829874038696, -0.022158730775117874, 0.29499566555023193, 0.17185957729816437, -0.11996587365865707, -0.010223418474197388, -0.09774923324584961, -0.01201385073363781, 0.10156982392072678, -0.06238977611064911, -0.071816086769104, -0.22883258759975433, -0.05232183635234833, 0.010421146638691425, 0.1718023270368576, 0.02114247716963291, -0.0550529770553112, -0.19245080649852753, -0.22173701226711273, 0.08299719542264938, 0.2826566994190216, 0.2179412543773651, -0.11116863042116165, 0.08406095951795578, -0.12583482265472412, -0.12063217163085938, 0.1192810982465744, 0.20678159594535828, -0.05013919621706009, 0.19328396022319794, 0.1514749825000763, 0.12201056629419327, 0.05669999495148659, 0.017513202503323555, -0.06995636969804764, 0.0031108930706977844, -0.18327857553958893, 0.16102665662765503, -0.0875600129365921, -0.16502870619297028, 0.036112889647483826, 0.027688737958669662, 0.07954631745815277, -0.09166121482849121, -0.05399294197559357, -0.04085488244891167, -0.05183733254671097, -0.1290782243013382, 0.05902094021439552, -0.05610222741961479, -0.0664551854133606, 0.08461295813322067, 0.10393716394901276, -0.08380462229251862, -0.23264874517917633, 0.09872729331254959, -0.007898300886154175, 0.0628059059381485, -0.04867720976471901, 0.03449218347668648, 0.05899583920836449, 0.06397443264722824, 0.037549614906311035, 0.13162626326084137, 0.021365398541092873, -0.03484778478741646, 0.12154152244329453, -0.1457621306180954, -0.09047096222639084, 0.007817324250936508, 0.08465779572725296, 0.12915250658988953, -0.020414549857378006, 0.010146080516278744, 0.017903141677379608, -0.19891142845153809, 0.16253770887851715, -0.17375412583351135, -0.05463993176817894, 0.03076987899839878, -0.13150490820407867, -0.033702313899993896, 0.1654769629240036, -0.08301028609275818, -0.14343269169330597, 0.12601713836193085, -0.04161600023508072, 0.09140438586473465, -0.10411851108074188, -0.022746551781892776, 0.1499919295310974, 0.021397674456238747, -0.009189552627503872, -0.1288103461265564, 0.1045546904206276, -0.13025180995464325, -0.2839624285697937, 0.09793531894683838, 0.06972359865903854, -0.16941863298416138, 0.008993690833449364, -0.02702929824590683, -0.027838293462991714, -0.042374398559331894, 0.0021577333100140095, -0.18886983394622803, 0.17373648285865784, -0.011602620594203472, 0.22787418961524963, -0.018096890300512314, -0.04040198400616646, -0.08098320662975311, -0.06874166429042816, 0.16139449179172516, 0.2149927020072937, 0.027084385976195335, -0.10374978184700012, -0.15715648233890533, 0.060167163610458374, 0.027207110077142715, -0.12143826484680176, 0.1479959785938263, -0.03923756256699562, -0.25084859132766724, 0.022039255127310753, -0.1696099489927292, -0.13498708605766296, -0.048981498926877975, 0.005156329832971096, -0.24875697493553162, 0.006322079338133335, 0.10657814890146255, -0.0456785224378109, -0.0315772145986557, 0.17806826531887054, -0.17234820127487183, -0.02317112684249878, 0.12966933846473694, 0.29525113105773926, -0.11768240481615067, -0.19959014654159546, -0.2664903402328491, 0.13934357464313507, -0.1294894516468048, -0.19516132771968842, 0.1891433745622635, -0.12030443549156189, -0.2132703959941864, 0.17362773418426514, 0.08492114394903183, 0.1262558251619339, -0.06629042327404022, -0.09083839505910873, -0.009390797466039658, 0.0603313073515892, 0.20663191378116608, 0.3345707356929779, -0.07780865579843521, -0.01402126345783472, -0.038055311888456345, -0.01273613516241312, -0.08391786366701126, 0.34128138422966003, -0.04002543166279793, -0.1549268364906311, -0.15168575942516327, 0.23480695486068726, 0.13509394228458405, 0.08229464292526245, 0.21317484974861145, -0.11230986565351486, -0.30310285091400146, 0.21087715029716492, 0.005596766714006662, -0.32713669538497925, 0.22570325434207916, 0.01878512091934681, -0.13064126670360565, 0.02146286517381668, 0.11681608855724335, -0.05601374804973602, -0.017995955422520638, 0.012781184166669846, 0.19478446245193481, -0.024581417441368103, 0.10519803315401077, -0.12552382051944733, 0.10818389058113098, -0.14363281428813934, 0.10555842518806458, -0.13232925534248352, -0.18796980381011963, -0.045533280819654465, 0.0724015086889267, 0.04516134411096573, 0.2153436541557312, 0.08729664236307144, -0.11322777718305588, 0.023464184254407883, 0.08263612538576126, -0.07437439262866974, 0.1347656548023224, -0.04269322007894516, -0.024751676246523857, -0.20500057935714722, -0.0441199354827404, 0.15819349884986877, 0.07853401452302933, 0.08049379289150238, 0.14897474646568298, 0.04886510968208313, -0.015401779673993587, 0.030383242294192314, 0.1860543042421341, 0.021021641790866852, 0.12438558042049408, 0.09126964211463928, 0.032266147434711456, -0.09753663092851639, 0.13732920587062836, -0.02461930550634861, -0.08075209707021713, -0.01238745916634798, -0.11639579385519028, -0.15204867720603943, 0.16571401059627533, 0.07337908446788788, -0.07425761222839355, 0.0009885522304102778, 0.09550367295742035, -0.0013767356285825372, -0.1580536812543869, -0.29315274953842163, 0.14070503413677216, 0.24337221682071686, -0.13228771090507507, 0.12054748088121414, -0.0766051858663559, -0.034559465944767, 0.06950566172599792, -0.27092063426971436, -0.0008885697461664677, 0.13009284436702728, -0.16322366893291473, -0.06769541651010513, -0.035605207085609436, 0.07088664174079895, -0.08567942678928375, 0.034388624131679535, 0.0609511137008667, -0.02051154337823391, -0.07662565261125565, 0.19612614810466766, 0.04249044135212898, 0.09943004697561264, -0.09731050580739975, 0.06154721602797508, -0.11420499533414841, 0.09395582228899002, 0.008640381507575512, -0.10865803807973862, -0.10574774444103241, 0.16855590045452118, 0.07994754612445831, -0.17021876573562622, 0.022019648924469948, 0.01669245958328247, -0.30318018794059753, 0.09190928936004639, -0.14236129820346832, -0.31999683380126953, -0.1153506264090538, -0.018149737268686295, -0.05624385550618172, -0.0933748260140419, 0.26608848571777344, 0.05575188621878624, 0.053241364657878876, -0.001462139654904604, -0.11517268419265747, -0.009324867278337479, 0.27730631828308105, 0.25134167075157166, 0.017880773171782494, -0.2982230484485626, 0.007249259389936924, 0.060754407197237015, -0.13297782838344574, -0.2271508276462555, 0.011099996976554394, -0.33440545201301575, -0.1629890650510788, 0.08265659958124161, -0.08308765292167664, 0.01791648380458355, 0.047778695821762085, 0.0995679423213005, -0.019312726333737373, 0.11186781525611877, 0.15325938165187836, 0.17789752781391144, 0.08762678503990173, 0.03723791986703873, -0.02301836758852005, 0.009713596664369106, 0.04726088047027588, -0.021584464237093925, 0.002923401538282633, -0.25252851843833923, -0.02269977331161499, -0.029638301581144333, -0.11662472784519196, -0.08546019345521927, 0.2159983068704605, -0.21749119460582733, -0.004030116368085146, 0.14179638028144836, -0.11850392073392868, -0.10510822385549545, 0.012521889992058277, -0.2201392501592636, -0.08615882694721222, 0.1259116530418396, -0.09604185819625854, 0.11304023861885071, -0.04100256413221359, -0.2970446050167084, -0.20120319724082947, 0.08319725096225739, -0.06795421987771988, -0.06377872079610825, 0.2141272872686386, 0.2745260000228882, 0.011295441538095474, 0.012699954211711884, 0.12282893061637878, -0.02267136611044407, -0.051177553832530975, 0.15439841151237488, -0.019174346700310707, -0.1500588208436966, 0.16082707047462463, -0.06710635870695114, 0.06950121372938156, 0.02999047003686428, -0.011819933541119099, -0.19430267810821533, -0.18759974837303162, 0.15118397772312164, 0.09387972950935364, 0.026386210694909096, 0.013044711202383041, -0.044353172183036804, -0.2892458736896515, -0.015102808363735676, 0.042621511965990067, 0.3115137815475464, -0.0903385803103447, -0.09664122015237808, -0.04927869886159897, 0.09678161144256592, -0.014530004933476448, 0.09445726126432419, -0.18567626178264618, -0.2176617980003357, 0.19707107543945312, -0.10621319711208344, -0.20456953346729279, 0.13872596621513367, -0.036255162209272385, -0.18817885220050812, 0.29590973258018494, -0.03731369227170944, 0.07796827703714371, 0.0628959983587265, 0.295393168926239, 0.08944843709468842, -0.18675287067890167, -0.383163720369339, 0.16841554641723633, 0.06376665830612183, 0.19675803184509277, 0.12077678740024567, 0.10815516114234924, 0.36835038661956787, -0.03494265675544739, 0.13451813161373138, 0.2720867395401001, 0.04850494861602783, -0.09448360651731491, -0.2672145962715149, -0.041249509900808334, -0.08999954164028168, 0.05712177976965904, -0.08839938044548035, -0.059923022985458374, -0.37183159589767456, 0.0027840151451528072, 0.20071808993816376, 0.04732159152626991, 0.029550008475780487, -0.08105345070362091, -0.33439764380455017, -0.03759430721402168, 0.15567295253276825, 0.41121506690979004, -0.10928494483232498, -0.010899243876338005, 0.18647530674934387, 0.11274880915880203, 0.15917935967445374, 0.22354525327682495, -0.15379874408245087, 0.23032984137535095, 0.31824132800102234, -0.10196074098348618, 0.19849832355976105, 0.3521184027194977, 0.07109813392162323, 0.10656008869409561, 0.04129461944103241, 0.06648113578557968, -0.1156553328037262, 0.05190667137503624, 0.07616247236728668, 0.08959232270717621, -0.0024464267771691084, 0.04147283732891083, 0.10003536194562912, -0.0016004563076421618, -0.03694700449705124, -0.08690245449542999, -0.23029476404190063, 0.22319437563419342, -0.085030198097229, -0.18545900285243988, 0.1667739301919937, -0.025377687066793442, -0.0005751877906732261, 0.028285788372159004, -0.035735487937927246, -0.08770488947629929, 0.014618456363677979, -0.03373415023088455, 0.18202000856399536, 0.033370934426784515, -0.05212392285466194, -0.0768706202507019, 0.03884292393922806, 0.03699514642357826, 0.03960486128926277, 0.027876397594809532, 0.009714007377624512, -0.2529125213623047, 0.05738328769803047, -0.11031977087259293, 0.031072912737727165, 0.050416916608810425, -0.16410773992538452, -0.14127683639526367, 0.17877362668514252, 0.0059682447463274, -0.07998722791671753, 0.10594099014997482, 0.023224228993058205, -0.15534012019634247, 0.03247509151697159, -0.18329818546772003, -0.23107701539993286, -0.05359680578112602, -0.14666961133480072, -0.06544312089681625, 0.10269428044557571, 0.06256098300218582, -0.2554384469985962, 0.03368384763598442, -0.12680000066757202, 0.28507474064826965, -0.0074354615062475204, -0.08159204572439194, 0.24684877693653107, 0.04811060056090355, 0.04811210185289383, 0.042113739997148514, -0.037901122123003006, -0.08226916939020157, -0.1673165261745453, 0.06417187303304672, -0.08302205801010132, 0.19276395440101624, 0.07472337037324905, 0.011800144799053669, -0.06433656811714172, -0.21420061588287354, -0.02276104874908924, 0.14177574217319489, 0.006551444064825773, 0.18249382078647614, -0.1702067106962204, 0.03847026452422142, -0.19366101920604706, 0.12039163708686829, 0.048195309937000275, -0.09573356807231903, 0.08809927850961685, 0.1445385366678238, -0.06354822963476181, 0.168784961104393, 0.2081230878829956, -0.08384139090776443, 0.2884898781776428, 0.00726869935169816, -0.08708412200212479, 0.11985652148723602, 0.14140155911445618, -0.10766714066267014, -0.21483884751796722, -0.19925187528133392, 0.02066897600889206, -0.13120071589946747, -0.10679913312196732, 0.02977537177503109, 0.4469577372074127, 0.10238013416528702, -0.11804156005382538, -0.4954148530960083, 0.12916545569896698, -0.23232178390026093, -0.3310805857181549, 0.05175595358014107, -0.16057653725147247, -0.28077903389930725, -0.0812072828412056, 0.05383757874369621, 0.023844614624977112, -0.04701698571443558, 0.06864657998085022, 0.153774231672287, -0.16827429831027985, 0.21702846884727478, 0.3456154763698578, -0.10454161465167999, -0.15855659544467926, -0.13840647041797638, 0.17537274956703186, 0.05541606619954109, 0.3206932842731476, -0.022558853030204773, -0.0005308068939484656, -0.1930663287639618, 0.18039365112781525, -0.10756666958332062, -0.1027783751487732, -0.01165249664336443, -0.21049387753009796, -0.3336501121520996, 0.16615407168865204, -0.23736806213855743, -0.2648918032646179, -0.038792096078395844, -0.1192006915807724, -0.200377956032753, 0.021819433197379112, 0.06758486479520798, -0.13625754415988922, 0.047960471361875534, 0.016374239698052406, -0.17268016934394836, 0.2133191078901291, -0.4047067165374756, -0.30210208892822266, 0.012721353210508823, 0.42378222942352295, 0.15811820328235626, 0.06933131068944931, 0.4308641254901886, 0.29651403427124023, -0.07501322031021118, 0.25464728474617004, 0.11875218152999878, -0.13864122331142426, -0.10175623744726181, -0.011914708651602268, 0.1744694709777832, 0.09377805888652802, -0.027002492919564247, -0.03250748664140701, -0.19355039298534393, -0.2637811005115509, -0.09470414370298386, 0.13458643853664398, 0.019524849951267242, -0.24502386152744293, -0.13577240705490112, -0.09977561235427856, -0.05916669964790344, 0.23393604159355164, 0.2879275381565094, -0.1570701003074646, 0.12552955746650696, 0.07068900018930435, -0.17581266164779663, 0.38751745223999023, 0.2801421582698822, 0.09030285477638245, 0.20877620577812195, 0.33651748299598694, -0.09351643919944763, 0.4149276614189148, 0.021238001063466072, -0.1539185792207718, 0.05399417132139206, -0.10545841604471207, 0.19353650510311127, -0.0357496477663517, 0.003333552973344922, -0.09363448619842529, -0.30477187037467957, -0.028346365317702293, 0.09714361280202866, 0.034208137542009354, -0.022453652694821358, 0.013738834299147129, 0.24241426587104797, 0.051782865077257156, 0.01847069151699543, -0.02732110768556595, 0.11427749693393707, -0.09490010142326355, -0.005082312040030956, 0.374268501996994, -0.3615214228630066, 0.7632462382316589, -0.7533423900604248, -0.062327973544597626, 0.8619373440742493, 0.9189736843109131, -0.5327105522155762, 0.17155443131923676, 0.07009927183389664, -0.3641582727432251, -0.3379444479942322, 0.1882590651512146, -0.8213049173355103, 0.15012705326080322, 0.414234459400177, -0.047400545328855515, 0.2935310900211334, 0.08991110324859619, 0.0379226915538311, -0.03224992752075195, -0.029318369925022125, 0.2881251573562622, 0.050350118428468704, -0.12604698538780212, -0.03219925984740257, 0.09682846814393997, -0.10677500814199448, -0.042874280363321304, -0.0007417755550704896, 0.2621039152145386, -0.1668148934841156, -0.005643476266413927, -0.13294826447963715, -0.21556739509105682, 0.12301009148359299, 0.027693403884768486, -0.05776623636484146, -0.12069083750247955, 0.07542098313570023, 0.03361957147717476, 0.1744883805513382, -0.0809488445520401, 0.028267566114664078, 0.15175706148147583, -0.09346190840005875, 0.05048324167728424, 0.22428268194198608, 0.17243267595767975, 0.18705521523952484, -0.05498647317290306, 0.4190402925014496, -0.043015699833631516, -0.27763083577156067, -0.01340573187917471, -0.15021628141403198, -0.0778743177652359, -0.33694684505462646, 0.14357025921344757, -0.08173706382513046, 0.14115124940872192, 0.31928637623786926, -0.0020537045784294605, 0.15723282098770142, -0.05270408093929291, -0.21584388613700867, -0.14082756638526917, -0.2976219654083252, 0.03090636618435383, 0.11788184195756912, 0.031006155535578728, 0.16807134449481964, -0.04343453049659729, 0.2322462946176529, -0.13673828542232513, -0.059969883412122726, 0.17580117285251617, 0.2669859230518341, -0.10169846564531326, -0.18287800252437592, -0.17566487193107605, -0.3202003538608551, -0.2743031978607178, 0.11142516881227493, -0.03886478394269943, 0.1306779384613037, 0.07240861654281616, 0.016533436253666878, 0.07072335481643677, 0.3503624200820923, -0.23826566338539124, 0.28353118896484375, -0.12158329784870148, 0.15072110295295715, -0.18300840258598328, 0.037609219551086426, -0.07169216126203537, -0.0026627297047525644, 0.03634857386350632, 0.08056749403476715, 0.15864744782447815, 0.1206372082233429, 0.16037467122077942, 0.0141578558832407, 0.11543092131614685, -0.05947452411055565, -0.2183254212141037, -0.011024459265172482, -0.05163929983973503, -0.05652780458331108, 0.06826841831207275, 0.07236722111701965, -0.09153439104557037, 0.049993447959423065, 0.21289150416851044, 0.1675591617822647, 0.08246438950300217, -0.2411423772573471, 0.05915355309844017, -0.025138670578598976, -0.02089192532002926, -0.24691729247570038, -0.10119792073965073, 0.23356731235980988, 0.16637682914733887, -0.14481787383556366, 0.08300530165433884, -0.08453382551670074, 0.32911211252212524, 0.20059515535831451, 0.2780173420906067, -0.16381630301475525, -0.10844414681196213, 0.08697088062763214, 0.20597051084041595, -0.10384122282266617, 0.04221021756529808, -0.3389429450035095, 0.19834862649440765, -0.1507381945848465, -0.04595383256673813, -0.17262937128543854, -0.12296539545059204, 0.14214256405830383, -0.030189117416739464, -0.021318988874554634, -0.2349969744682312, -0.2507782280445099, 0.055632174015045166, 0.03500359505414963, -0.17023056745529175, -0.04882856085896492, -0.07133817672729492, -0.15699028968811035, 0.11779534816741943, 0.041887715458869934, 0.20395618677139282, -0.19075721502304077, 0.03275366127490997, 0.11080151051282883, -0.240780770778656, -0.019114956259727478, 0.12527476251125336, -0.35798215866088867, 0.029591580852866173, 0.0496259368956089, 0.1601346880197525, 0.10516262799501419, 0.021991314366459846, 0.25587594509124756, -0.09144868701696396, 0.08288794755935669, 0.19077716767787933, 0.2481772005558014, -0.17496474087238312, -0.0616716630756855, 0.059201546013355255, 0.18703095614910126, -0.4152520000934601, 0.24762994050979614, -0.016208453103899956, -0.31737446784973145, -0.09421464055776596, -0.030529331415891647, -0.06752359122037888, -0.18573807179927826, -0.11815094202756882, 0.08949419856071472, -0.07336141914129257, 0.31973758339881897, -0.14155049622058868, 0.3289814591407776, -0.17624817788600922, -0.09936126321554184, 0.06040418520569801, 0.07894961535930634, 0.10117385536432266, -0.11909676343202591, -0.07617471367120743, 0.1894475668668747, -0.09195372462272644, -0.16616873443126678, -0.20551644265651703, -0.120999276638031, -0.12842996418476105, 0.17126169800758362, -0.21963945031166077, -0.07488889992237091, -0.04207189381122589, 0.0035029465798288584, 0.027137385681271553, 0.10024181753396988, 0.05877121165394783, -0.1517573893070221, -0.04002946987748146, -0.10780313611030579, 0.18926168978214264, -0.07315290719270706, 0.09540111571550369, 0.08539123833179474, 0.19691771268844604, -0.12156429886817932, -0.13837279379367828, 0.247033953666687, 0.05819348245859146, -0.05658673867583275, -0.1811152994632721, 0.20230920612812042, -0.037704095244407654, 0.1610732525587082, 0.10032486170530319, -0.0594075582921505, -0.058381423354148865, -0.158200204372406, 0.07051901519298553, 0.0922231674194336, -0.09798996150493622, -0.04334305226802826, -0.2962687909603119, 0.3706989288330078, -0.04272175952792168, 0.2258407473564148, -0.037472616881132126, -0.2395380586385727, 0.016258852556347847, 0.09806112200021744, 0.18630611896514893, -0.08680704981088638, -0.1945517361164093, 0.12899379432201385, 0.1241992935538292, -0.032910242676734924, 0.10541434586048126, 0.14723487198352814, -0.19961366057395935, -0.022224294021725655, 0.13210159540176392, 0.17794309556484222, 0.1766839325428009, -0.11473031342029572, -0.10871817171573639, 0.07758881896734238, 0.11857490986585617, 0.2976086139678955, -0.24270972609519958, -0.11866655200719833, -0.1793413609266281, -0.18375621736049652, -0.15420439839363098, 0.29206499457359314, 0.1271897554397583, -0.25926417112350464, 0.20177406072616577, -0.18399769067764282, -0.013485262170433998, -0.17233118414878845, -0.05589797720313072, -0.1614455282688141, 0.17807546257972717, -0.0428951233625412, -0.027680445462465286, -0.12359346449375153, 0.02275988459587097, 0.06726374477148056, 0.02040894143283367, 0.03565375134348869, 0.09102781862020493, -0.043927665799856186, -0.004692402668297291, 0.14618881046772003, -0.03113863430917263, 0.21805933117866516, -0.03894639387726784, 0.14546218514442444, -0.06687504053115845, -0.11760427057743073, 0.11340653151273727, -0.2923830449581146, -0.1591012328863144, -0.21166691184043884, -0.12926837801933289, -0.19572561979293823, -0.07755026966333389, 0.1380813717842102, 0.03000260703265667, 0.010378401726484299, -0.12734286487102509, -0.1461794674396515, 0.03526304289698601, 0.017082801088690758, 0.04747392609715462, -0.22868084907531738, 0.04397144168615341, 0.001935716369189322, 0.0808560699224472, -0.1850513070821762, 0.08372034132480621, -0.1980893313884735, -0.08774745464324951, -0.20532821118831635, 0.09797600656747818, -0.10339152067899704, -0.16931109130382538, 0.07347708195447922, -0.08270624279975891, -0.07244404405355453, 0.07392465323209763, -0.06675738096237183, -0.04979875683784485, -0.03140592202544212, -0.32677847146987915, -0.06740719825029373, 0.008321360684931278, -0.05290714278817177, -0.006159340497106314, -0.2909700572490692, -0.004880489781498909, 0.2692798376083374, 0.1459963619709015, -0.2552179992198944, -0.14051461219787598, 0.1001545786857605, 0.13519465923309326, -0.1883389949798584, 0.10556332021951675, -0.20675775408744812, -0.15592750906944275, -0.09831975400447845, 0.03215793892741203, -0.18718412518501282, 0.24662372469902039, -0.2444685399532318, -0.0430099256336689, -0.08374457061290741, 0.19421100616455078, -0.08336428552865982, -0.2661973536014557, -0.0014426145935431123, 0.0758582353591919, -0.10054098814725876, -0.022114736959338188, -0.11621638387441635, 0.019602254033088684, -0.12928763031959534, 0.06307018548250198, -0.18391968309879303, 0.16062317788600922, -0.1651311069726944, 0.046227067708969116, -0.0954461470246315, -0.18431369960308075, 0.08691498637199402, 0.1676567643880844, -0.16367383301258087, 0.02006383426487446, 0.16514886915683746, -0.04388365522027016, 0.10450398176908493, -0.18506604433059692, -0.11922228336334229, -0.036302290856838226, -0.21682965755462646, 0.1928766965866089, -0.22617536783218384, -0.12076485902070999, 0.006855021696537733, -0.13171061873435974, 0.1852858066558838, 0.1661062389612198, -0.07969436794519424, -0.016001110896468163, -0.08306103944778442, 0.2023400366306305, 0.27555087208747864, 0.04313670098781586, 0.05605573579668999, 0.33414191007614136, 0.08892747759819031, 0.19142384827136993, 0.08944175392389297, 0.26637741923332214, 0.14792500436306, -0.0044557941146194935, -0.19893719255924225, -0.14041993021965027, -0.04190893471240997, 0.03170153871178627, 0.0025552944280207157, -0.03321089595556259, -0.19514748454093933, 0.11255781352519989, -0.03667838126420975, 0.11389260739088058, -0.3011147677898407, -0.1758880615234375, -0.32288825511932373, 0.16598360240459442, 0.11107192188501358, -0.15504087507724762, 0.1975833773612976, 0.1369122713804245, -0.03732661157846451, 0.18367719650268555, -0.012125653214752674, -0.11266375333070755, 0.24075672030448914, -0.22585709393024445, -0.13338658213615417, 0.11176932603120804, -0.06608328968286514, 0.31321579217910767, 0.11847288906574249, -0.20868363976478577, -0.1575445830821991, 0.04279487580060959, -0.16533833742141724, 0.11140176653862, 0.13809284567832947, 0.19167520105838776, -0.17635922133922577, -0.19432181119918823, 0.21599167585372925, 0.10444603115320206, -0.20793356001377106, 0.03329054266214371, -0.02455739863216877, -0.12893804907798767, -0.1020255759358406, 0.15663522481918335, 0.14064037799835205, 0.21430924534797668, 0.3745841979980469, 0.3104630708694458, -0.20163558423519135, 0.1094243973493576, 0.21992996335029602, 0.18297484517097473, -0.13569170236587524, 0.05618143826723099, 0.030546167865395546, -0.15366697311401367, 0.08927151560783386, 0.1671462506055832, -0.12630966305732727, -0.08605769276618958, 0.22098486125469208, 0.09665333479642868, 0.02410168945789337, 0.24360547959804535, 0.08298949152231216, -0.16871696710586548, 0.17309577763080597, -0.16484349966049194, -0.19665294885635376, 0.005152360536158085, -0.14761991798877716, 0.14539144933223724, 0.004824298433959484, 0.12182903289794922, 0.19692037999629974, -0.2280622124671936, -0.019687116146087646, 0.019917095080018044, 0.23787230253219604, 0.5597623586654663, 0.14552555978298187, 0.10957980901002884, -0.07963760197162628, 0.014667622745037079, -0.16204075515270233, -0.3101469874382019, 0.1789470911026001, -0.001783151994459331, -0.21108312904834747, -0.009397033601999283, -0.07630960643291473, 0.3535119891166687, 0.044431377202272415, 0.36465948820114136, 0.0512583889067173, -0.08911765366792679, 0.018471432849764824, 0.44969362020492554, 0.10890039056539536, -0.016642024740576744, -0.05995769798755646, -0.22431766986846924, -0.1289830207824707, -0.0013323776656761765, 0.082807756960392, 0.16516008973121643, -0.2540591061115265, -0.08760344237089157, 0.01128645520657301, -0.24083127081394196, 0.0627826675772667, -0.09761086106300354, -0.3641791045665741, 0.06064378470182419, -0.01755833439528942, -0.23964430391788483, -0.11120040714740753, -0.21023209393024445, -0.490793377161026, -0.12094700336456299, 0.09050687402486801, 0.0309140682220459, 0.0768350213766098, 0.13593295216560364, -0.11871128529310226, -0.1000485047698021, -0.14396898448467255, 0.10049889981746674, 0.06824340671300888, -0.31024855375289917, 0.026820193976163864, -0.014603379182517529, -0.12047815322875977, 0.058482035994529724, -0.04544661194086075, -0.1327507644891739, -0.0028546862304210663, -0.003005148144438863, 0.2772429883480072, -0.15026578307151794, -0.09262759238481522, 0.21456030011177063, 0.06537254899740219, 0.21868407726287842, 0.2809596061706543, -0.2125367820262909, 0.09290488809347153, -0.05042724683880806, 0.17342320084571838, 0.017899753525853157, 0.3404645621776581, -0.06316918879747391, -0.06105087697505951, -0.12541572749614716, 0.1545545905828476, 0.15421847999095917, 0.0437522828578949, 0.011973928660154343, 0.17984114587306976, -0.2239958792924881, 0.16734860837459564, 0.07059796899557114, -0.26205888390541077, -0.09077535569667816, 0.13538587093353271, 0.04096238687634468, 0.20680125057697296, -0.19252672791481018, 0.2367638349533081, -0.033790018409490585, -0.03257302939891815, -0.12489704042673111, 0.21102118492126465, 0.02080697752535343, -0.029666973277926445, 0.04821660742163658, 0.0315479151904583, 0.16384997963905334, -0.24037781357765198, 0.05737047642469406, 0.2170463502407074, 0.028752285987138748, -0.02181725949048996, -0.17134132981300354, -0.024384453892707825, -0.05452468618750572, -0.0001201143822981976, 0.2070082277059555, 0.1852511614561081, 0.2789039611816406, 0.029382508248090744, 0.08711879700422287, -0.17980171740055084, 0.2671380639076233, 0.055122144520282745, 0.11893843114376068, -0.29471907019615173, -0.1916683316230774, -0.15463483333587646, 0.08758176118135452, 0.0915672704577446, 0.24192900955677032, -0.2750239670276642, -0.0237581767141819, 0.08214761316776276, -0.02806694805622101, -0.05539871007204056, 0.3282541334629059, -0.007458335720002651, 0.009057306684553623, 0.17930759489536285, -0.06701111048460007, -0.21351496875286102, -0.32471132278442383, -0.19778992235660553, -0.2050313502550125, -0.30734768509864807, 0.08065860718488693, -0.0339563712477684, -0.10165389627218246, 0.17804692685604095, 0.09013765305280685, -0.035528648644685745, -0.1046006977558136, -0.08817704021930695, 0.03158823028206825, -0.07951129227876663, 0.2856549322605133, 0.005139960441738367, -0.15926417708396912, -0.26448994874954224, -0.15449760854244232, -0.28096774220466614, -0.2597883641719818, 0.15362763404846191, 0.10516001284122467, -0.01918335072696209, 0.17031657695770264, 0.13184311985969543, 0.298883855342865, -0.020064491778612137, 0.07305274903774261, -0.10470648109912872, 0.01525091752409935, -0.2540169656276703, 0.278650164604187, 0.025215256959199905, 0.14800281822681427, -0.1273914873600006, 0.11666171997785568, -0.29651129245758057, 0.08349292725324631, -0.04329036921262741, -0.2246585488319397, 0.014094558544456959, 0.06514886766672134, -0.09513770788908005, 0.0687701404094696, -0.09237901121377945, -0.11494486033916473, -0.014256011694669724, 0.04974343255162239, -0.08901244401931763, 0.10122720152139664, -0.08803530782461166, 0.08100547641515732, -0.12090194970369339, 0.1842443346977234, -0.06375888735055923, 0.04782746732234955, -0.15350711345672607, -0.0361381359398365, -0.3060069680213928, -0.028451181948184967, 0.11854910850524902, 0.019204262644052505, -0.13525287806987762, 0.09382553398609161, -0.0330868735909462, -0.13602907955646515, 0.06729140132665634, -0.12631532549858093, -0.12316172569990158, -0.17795665562152863, -0.08881686627864838, 0.3258644938468933, -0.17682945728302002, -0.05118929222226143, -0.017005175352096558, -0.2976246774196625, 0.1688980907201767, -0.012230970896780491, 0.07491035759449005, -0.0025631957687437534, 0.005596867762506008, 0.04343957453966141, 0.008215494453907013, 0.02359595336019993, 0.21179188787937164, -0.18909496068954468, 0.058271780610084534, 0.19924570620059967, 0.2690030336380005, -0.11492032557725906, 0.22386111319065094, -0.03003421239554882, -0.035482101142406464, 0.09775366634130478, -0.25211018323898315, -0.061655450612306595, -0.1005917340517044, 0.134917750954628, -0.07184503972530365, -0.27195900678634644, -0.003566508647054434, 0.07582058757543564, -0.013744567520916462, -0.08125905692577362, -0.006135129369795322, 0.04608022794127464, 0.2884349822998047, -0.05675896629691124, 0.0835597813129425, -0.09640317410230637, -0.20238620042800903, 0.38409480452537537, -0.07124821096658707, -0.08909276872873306, 0.056963998824357986, -0.04034190624952316, -0.016602439805865288, -0.15004828572273254, 0.09313566237688065, 0.24927599728107452, -0.21603935956954956, 0.028715120628476143, 0.0027943793684244156, -0.08500999212265015, 0.2536073923110962, 0.100725919008255, 0.18837690353393555, 0.05773760378360748, -0.20678287744522095, -0.06844313442707062, 0.18511821329593658, -0.08689670264720917, 0.1408732682466507, 0.07247081398963928, -0.16561613976955414, -0.019406208768486977, -0.14571848511695862, 0.007543155923485756, -0.004260343499481678, -0.237406387925148, -0.09130941331386566, 0.05026711896061897, -0.055811215192079544, -0.10725892335176468, -0.03026750311255455, 0.02258463017642498, -0.13324347138404846, -0.008780778385698795, -0.06558092683553696, -0.08071907609701157, 0.20555444061756134, -0.11292017996311188, -0.1958187371492386, 0.05890452861785889, -0.09107746183872223, 0.040651991963386536, -0.10031568259000778, 0.09132213890552521, -0.05134234204888344, -0.20639704167842865, -0.010466457344591618, 0.10609642416238785, -0.021043909713625908, -0.06156046316027641, 0.010736977681517601, 0.17640121281147003, 0.01666192337870598, -0.07786572724580765, 0.34065213799476624, 0.19278937578201294, -0.0644625872373581, 0.25748687982559204, 0.03759672865271568, -0.0510273277759552, -0.0816926434636116, 0.17131203413009644, -0.12113030254840851, -0.1678621619939804, -0.15669144690036774, 0.09685984253883362, -0.2297016829252243, -0.05814289674162865, 0.1246451810002327, -0.05104994401335716, -0.1402931660413742, 0.1147218644618988, -0.10022388398647308, 0.06066058948636055, 0.05222250521183014, -0.14944010972976685, 0.09522178024053574, 0.09855193644762039, 0.03900369256734848, 0.09837459027767181, -0.013487206771969795, -0.04702229052782059, -0.012397759594023228, 0.3965717852115631, 0.16160307824611664, -0.7129306197166443, 0.03708382695913315, -0.3510984778404236, 0.3667466938495636, -0.4822086989879608, 0.2581857740879059, 0.4953276515007019, -0.3201863765716553, 0.5716597437858582, -0.04762930050492287, -0.3520483076572418, 0.09609484672546387, -0.06328260898590088, 0.47841495275497437, 0.1520857810974121, -0.2708597779273987, -0.17451636493206024, -0.37544071674346924, 0.056291498243808746, 0.6789039969444275, 0.11797203868627548, -0.2700079381465912, -0.17227306962013245, -0.23488710820674896, 0.5524637699127197, 0.18332204222679138, 0.20783838629722595, -0.3684815466403961, -0.6090829372406006, -0.10773194581270218, 0.44065484404563904, -0.44428083300590515, 0.22087818384170532, 0.22832639515399933, -0.4542583227157593, -0.02655164897441864, 0.524886429309845, -0.32205894589424133, -0.12087448686361313, 0.3228021562099457, -0.04988092929124832, 0.1666988730430603, -0.40673965215682983, 0.201136514544487, 0.36759835481643677, -0.5040299296379089, -0.10224314033985138, 0.060829855501651764, -0.07994619756937027, 0.24675998091697693, 0.043458759784698486, 0.004158901982009411, 0.11498837172985077, 0.14878958463668823, -0.15426845848560333, -0.0823444053530693, 0.08749638497829437, -0.0346599780023098, 0.10204008221626282, -0.01701166294515133, 0.028838446363806725, -0.06667076796293259, -0.10753548890352249, 0.18687334656715393, -0.19994141161441803, -0.19228944182395935, -0.1317388117313385, -0.12227948009967804, -0.1423395723104477, 0.12110242247581482, 0.00022230949252843857, -0.0047829244285821915, -0.08473391830921173, -0.03467211499810219, 0.08238407224416733, -0.006248258985579014, 0.19083578884601593, 0.18080906569957733, -0.022578367963433266, 0.0002978304401040077, -0.13665087521076202, -0.0949176475405693, -0.032560501247644424, -0.159794420003891, -0.07891968637704849, -0.024409301578998566, -0.08757418394088745, -0.20808883011341095, 0.16528214514255524, 0.12791752815246582, -0.04144401475787163, 0.04473094642162323, 0.17869172990322113, 0.15422752499580383, -0.1186847984790802, -0.08946884423494339, 0.03400760516524315, -0.08318603783845901, 0.1321709305047989, 0.1401749700307846, 0.13428299129009247, -0.2648058235645294, -0.006430271081626415, 0.11266032606363297, -0.21146969497203827, -0.19110286235809326, 0.26917150616645813, 0.11450459063053131, 0.2052207738161087, -0.15621407330036163, 0.14578412473201752, 0.026429420337080956, -0.277177631855011, 0.10870025306940079, -0.03580276295542717, -0.05842725187540054, 0.1389644891023636, 0.06084615737199783, 0.06263770163059235, -0.04329623654484749, 0.13116206228733063, 0.07996349036693573, -0.11374596506357193, 0.13956129550933838, 0.06280509382486343, -0.0481671579182148, -0.0861230418086052, 0.1970546394586563, -0.009764784947037697, -0.21567781269550323, 0.010743693448603153, -0.061577361077070236, -0.037211064249277115, 0.1540103405714035, 0.10736944526433945, -0.08478517830371857, 0.095790334045887, -0.1594890058040619, -0.12857402861118317, -0.07880443334579468, -0.13981443643569946, -0.011438443325459957, -0.14029523730278015, -0.04842371121048927, -0.20652292668819427, 0.07266099005937576, -0.00931481458246708, 0.033635955303907394, -0.1414162665605545, 0.10961063951253891, -0.09506502002477646, -0.24228698015213013, 0.22644121944904327, -0.07489176839590073, -0.1538323312997818, 0.2241014689207077, 0.020699184387922287, 0.18197613954544067, -0.11154400557279587, -0.03701743483543396, 0.31020551919937134, 0.025949090719223022, 0.17700360715389252, 0.07727928459644318, -0.1380055546760559, -0.003889824263751507, 0.08545856177806854, -0.24039530754089355, -0.0867469385266304, -0.17648397386074066, -0.12294786423444748, 0.12318890541791916, 0.005614918656647205, 0.1553994119167328, 0.06040424108505249, -0.06591519713401794, 0.028088796883821487, -0.09088394045829773, 0.012886733748018742, 0.09660597145557404, -0.029190802946686745, -0.051817286759614944, -0.05332759767770767, -0.086020328104496, -0.30885472893714905, 0.03807106986641884, -0.33468326926231384, 0.08054181933403015, 0.04901045188307762, -0.033466339111328125, -0.12659676373004913, -0.0069700321182608604, -0.12720204889774323, 0.14047928154468536, 0.03151695057749748, 0.107818603515625, -0.0006149826804175973, 0.24665644764900208, 0.06949730217456818, -0.0149854626506567, 0.19786569476127625, -0.06039847061038017, -0.13571208715438843, -0.0501854345202446, -0.0014258880401030183, 0.0860552191734314, -0.10163693130016327, 0.08644503355026245, -0.043711837381124496, 0.025514883920550346, -0.23272210359573364, 0.1263422816991806, -0.24282123148441315, -0.059099070727825165, -0.16198037564754486, -0.1186998039484024, -0.22457517683506012, -0.04198736697435379, 0.11657008528709412, 0.23962460458278656, 0.03190531209111214, 0.25675928592681885, -0.12507091462612152, -0.10588469356298447, 0.06355757266283035, 0.003691805526614189, -0.19851350784301758, -0.041130587458610535, -0.031619586050510406, 0.010853754356503487, 0.17417378723621368, -0.16432321071624756, -0.10230503231287003, -0.04728257283568382, -0.11934170126914978, 0.12651783227920532, 0.1833006739616394, 0.2507275342941284, 0.13819070160388947, 0.18623098731040955, -0.14258575439453125, 0.027965519577264786, -0.3025165796279907, 0.13587923347949982, 0.14127182960510254, 0.1433035433292389, 0.033899225294589996, -0.0999283716082573, 0.06726306676864624, -0.15767663717269897, 0.09365968406200409, 0.028250422328710556, 0.07956334203481674, -0.21303582191467285, -0.46464622020721436, 0.27529996633529663, 0.0802062451839447, -0.5433481931686401, 0.1253141313791275, -0.5357199311256409, -0.23991405963897705, -0.6228741407394409, 0.9537443518638611, -0.6492574214935303, -0.5757120847702026, -0.9741725921630859, 0.34660953283309937, -0.6822319626808167, 0.5212927460670471, -0.5845122337341309, -0.14277619123458862, 0.03307601809501648, -0.05730517953634262, 0.17031118273735046, 0.18198761343955994, -0.08651749044656754, 0.007821649312973022, -0.11079743504524231, 0.13365383446216583, 0.14189061522483826, -0.09092533588409424, -0.0951094850897789, 0.19479747116565704, 0.10366779565811157, 0.108824223279953, 0.1116863340139389, 0.017111917957663536, 0.005910436622798443, -0.05480513721704483, -0.031195636838674545, -0.22871176898479462, 0.11156957596540451, -0.0890386700630188, -0.016257384791970253, 0.06647558510303497, -0.12338555604219437, 0.04874308779835701, 0.1574731171131134, -0.022950798273086548, 0.021838556975126266, 0.08275708556175232, 0.12182565033435822, -0.04846399277448654, -0.33226367831230164, -0.14943170547485352, -0.1724240779876709, 0.021015970036387444, 0.4316364526748657, -0.2806628942489624, -0.13465538620948792, 0.22424344718456268, 0.11021672934293747, -0.3839665651321411, -0.2981378138065338, -0.039122313261032104, -0.13703705370426178, 0.25511494278907776, 0.19686539471149445, 0.019869724288582802, 0.29127660393714905, -0.14918504655361176, 0.39292001724243164, -0.07426223158836365, -0.45934808254241943, 0.32275065779685974, 0.029513616114854813, -0.0777617022395134, -0.04492604359984398, 0.2907792627811432, 0.5263508558273315, 0.1708165854215622, 0.3661139905452728, -0.08071356266736984, -0.10570019483566284, 0.22785831987857819, 0.3566048741340637, -0.13401512801647186, -0.004673105198889971, 0.10155481100082397, -0.19122332334518433, 0.39025089144706726, 0.3674262762069702, -0.07489021122455597, -0.026239637285470963, 0.05060641095042229, 0.3769661784172058, 0.015809930860996246, -0.1738167107105255, 0.026109769940376282, -0.17543640732765198, -0.07238201797008514, -0.11160489916801453, -0.22393836081027985, -0.34558364748954773, -0.05179431661963463, 0.04910269379615784, -0.1813766062259674, -0.09899410605430603, 0.08128304779529572, 0.1856430023908615, -0.16461069881916046, -0.35531601309776306, -0.14327901601791382, -0.09027846902608871, 0.06234116479754448, 0.12478382885456085, 0.12560993432998657, -0.08665233105421066, 0.06261070817708969, -0.5611834526062012, -0.004596290178596973, 0.46407103538513184, -0.48937055468559265, -0.09947662055492401, 0.026807382702827454, -0.15077100694179535, -0.1415131688117981, 0.4202221930027008, -0.06551036983728409, 0.06106467545032501, -0.1104569137096405, 0.16630347073078156, -0.09821785986423492, 0.04090169817209244, -0.020424596965312958, 0.1025489792227745, -0.03229989483952522, -0.1537816971540451, 0.051371894776821136, -0.10840904712677002, 0.0762767642736435, 0.3761606216430664, -0.3640548288822174, -0.13892792165279388, 0.1224985122680664, -0.09726119041442871, 0.2546089291572571, 0.17662958800792694, -0.1406620591878891, 0.1718180924654007, -0.165816068649292, 0.04745811969041824, -0.2333424985408783, -0.2704099416732788, 0.16463603079319, -0.07441020756959915, 0.06999852508306503, -0.04031242057681084, 0.10951611399650574, -0.3549974262714386, 0.1115439385175705, 0.10155085474252701, 0.02210008166730404, 0.16694319248199463, -0.10607825964689255, 0.09566926211118698, 0.032674890011548996, 0.18783190846443176, -0.025424150750041008, -0.254541277885437, 0.1160399317741394, -0.08764851838350296, 0.00725624430924654, 0.01707013137638569, 0.08968449383974075, 0.24658018350601196, 0.20842209458351135, -0.026256822049617767, 0.0824241191148758, -0.2623497545719147, -0.18890568614006042, -0.09352441132068634, -0.23550549149513245, 0.056323129683732986, 0.016112152487039566, -0.07150374352931976, 0.0006287639844231308, -0.1179201602935791, 0.24198457598686218, 0.2626349627971649, -0.2528877258300781, 0.049195971339941025, 0.12899258732795715, 0.020467786118388176, 0.1371714472770691, 0.1408587396144867, 0.371498703956604, 0.3449743688106537, 0.03497717157006264, -0.3961262106895447, -0.026827268302440643, 0.08142450451850891, 0.006929831113666296, 0.531769335269928, -0.3191065192222595, 0.030862627550959587, 0.40805962681770325, 0.2059072107076645, -0.32805293798446655, -0.26542162895202637, 0.2156739979982376, -0.16710074245929718, -0.30105477571487427, -0.21475248038768768, -0.23559458553791046, 0.1618916094303131, 0.07915820926427841, -0.015354479663074017, -0.055290043354034424, -0.05116346850991249, 0.10571033507585526, -0.012126609683036804, -0.15912945568561554, -0.27726247906684875, 0.3220857083797455, -0.07714498043060303, 0.044988784939050674, 0.16539639234542847, -0.016103239730000496, 0.03643161803483963, -0.24978482723236084, 0.07777749747037888, -0.25264155864715576, 0.0721345990896225, -0.0023087388835847378, -0.08734705299139023, 0.31576967239379883, 0.18934449553489685, -0.08139495551586151, -0.30901703238487244, 0.2532108724117279, 0.01881382241845131, 0.1748403012752533, 0.08249638229608536, -0.11633419990539551, 0.33413776755332947, -0.04600861296057701, 0.19407248497009277, -0.29686635732650757, -0.2680013179779053, 0.4174172878265381, -0.012492450885474682, 0.12145936489105225, 0.060641560703516006, -0.029208030551671982, 0.048845741897821426, 0.1748531311750412, 0.10401926934719086, 0.19741633534431458, 0.049016520380973816, 0.14254634082317352, -0.215463787317276, -0.054430484771728516, -0.07918021827936172, -0.19341418147087097, 0.13393595814704895, -0.16680623590946198, 0.0277207363396883, -0.05632627010345459, -0.05603973940014839, 0.07187037914991379, 0.15322145819664001, -0.1376143842935562, 0.02278272807598114, -0.12805204093456268, -0.1274106651544571, -0.053201351314783096, -0.06823520362377167, -0.2248815894126892, 0.05227532610297203, 0.06053045392036438, -0.13981927931308746, 0.15068094432353973, 0.1503574550151825, -0.0053941658698022366, 0.0890151709318161, -0.0769009068608284, -0.05381528660655022, -0.03871268406510353, -0.3144509792327881, -0.0027501375880092382, -0.0356932058930397, -0.07673756778240204, -0.08642090111970901, 0.016833754256367683, 0.16505759954452515, -0.12573209404945374, -0.14130868017673492, 0.15566183626651764, 0.036219414323568344, -0.11181424558162689, 0.5799416899681091, 0.1392362117767334, -0.2786422669887543, 0.19814850389957428, 0.05687951296567917, -0.17050284147262573, -0.13152216374874115, 0.07747220993041992, 0.17931151390075684, 0.11295295506715775, 0.2345375269651413, 0.22501885890960693, -0.20658394694328308, 0.015587388537824154, -0.02701185643672943, 0.004208650905638933, 0.05127692595124245, -0.10693424195051193, -0.06117067486047745, 0.04113304615020752, 0.07969937473535538, 0.1601872444152832, 0.019684143364429474, -0.19815298914909363, 0.06171981617808342, 0.20351490378379822, -0.08337454497814178, 0.12149965763092041, -0.1341380774974823, -0.17435763776302338, 0.11444217711687088, 0.05734959617257118, -0.2447260171175003, 0.2909599840641022, 0.09493906050920486, -0.15928848087787628, -0.05943315476179123, -0.10676749050617218, 0.17915746569633484, -0.25375768542289734, -0.13009437918663025, 0.2106831967830658, 0.007389280945062637, 0.18669886887073517, -0.2724360525608063, 0.2594275176525116, 0.12983593344688416, -0.037339236587285995, 0.16484977304935455, -0.2655755877494812, -0.11770705133676529, 0.10698416084051132, -0.06385185569524765, 0.0020853979513049126, -0.18866245448589325, 0.2562718391418457, -0.09632715582847595, -0.01858200505375862, -0.038402341306209564, -0.21938014030456543, -0.2555829882621765, -0.06858399510383606, 0.11441177874803543, 0.16572165489196777, -0.06169234216213226, -0.2910272181034088, 0.00332454196177423, 0.18571829795837402, 0.28461599349975586, 0.3245840072631836, 0.022581959143280983, -0.19484303891658783, 0.05565783381462097, -0.03839752823114395, -0.2446826696395874, 0.11521688848733902, 0.06357613205909729, -0.2110261470079422, 0.14506518840789795, -0.0387662835419178, -0.3034438192844391, 0.05119800940155983, 0.06768742203712463, -0.12000839412212372, -0.05303165316581726, 0.005818092729896307, 0.1633942723274231, -0.025736549869179726, -0.04360633343458176, 0.07311557978391647, -0.039895690977573395, -0.291280061006546, -0.26699498295783997, 0.11298868060112, 0.11039456725120544, -0.03985906019806862, -0.010835589841008186, -0.27776357531547546, 0.11235880851745605, 0.09167230874300003, -0.20636823773384094, 0.13515932857990265, -0.2822358012199402, 0.09221884608268738, -0.17974697053432465, -0.04801186919212341, 0.13470901548862457, 0.07115931063890457, -0.14367151260375977, 0.04122605919837952, 0.11706963181495667, 0.09553270787000656, 0.11726561933755875, -0.16119033098220825, -0.007796861231327057, -0.025679266080260277, 0.0269167460501194, -0.03846358880400658, 0.1452166736125946, -0.1325816959142685, 0.20921634137630463, 0.06226204335689545, 0.006285617593675852, 0.08110304176807404, 0.0657850056886673, -0.12040113657712936, 0.010869355872273445, 0.09203416854143143, -0.07457879930734634, 0.08453629910945892, 0.02607627771794796, -0.2558630704879761, -0.20598472654819489, -0.12121938169002533, 0.2519407570362091, -0.16398289799690247, 0.0032874757889658213, 0.4874768853187561, 0.12527306377887726, 0.31468313932418823, -0.476939857006073, 0.2051718533039093, 0.24900922179222107, -0.2995753288269043, 0.49970486760139465, 0.0009310138993896544, -0.5369353890419006, 0.24089497327804565, 0.09836626797914505, -0.09134641289710999, -0.1912861466407776, 0.20972490310668945, 0.5311345458030701, 0.16039568185806274, 0.20513874292373657, -0.9310333728790283, -0.2079700380563736, -0.0015028854832053185, 0.37957531213760376, 0.020251400768756866, 0.01433185301721096, -0.025958694517612457, -0.22150345146656036, -0.2012065351009369, -0.01946299523115158, 0.1782025843858719, 0.06289015710353851, -0.21668437123298645, 0.262673556804657, -0.10597914457321167, -0.47602519392967224, 0.13225619494915009, -0.05996338278055191, -0.1833098977804184, 0.2790999114513397, 0.004935854114592075, -0.03879725560545921, -0.02257360704243183, -0.13987070322036743, 0.03636295720934868, -0.18665018677711487, 0.07156216353178024, 0.20401425659656525, 0.2896093726158142, -0.1389976292848587, -0.14687404036521912, 0.024344319477677345, 0.06860784441232681, -0.006094028241932392, -0.22918565571308136, 0.05372045189142227, 0.08924911171197891, -0.018765296787023544, 0.1561659276485443, -0.029990294948220253, -0.10255425423383713, -0.1751476675271988, -0.1506318598985672, -0.07833630591630936, 0.02202550694346428, 0.005668590776622295, 0.14636564254760742, -0.0907573476433754, -0.1365727037191391, 0.09378675371408463, -0.15967626869678497, -0.04817286133766174, -0.21157830953598022, -0.09159548580646515, 0.315232515335083, 0.24120385944843292, 0.06757590174674988, -0.09481284767389297, -0.29554715752601624, 0.011824598535895348, 0.2681306302547455, 0.03069230541586876, 0.05166100338101387, -0.2310624122619629, -0.3065417408943176, 0.12185291200876236, 0.2002348005771637, -0.28991004824638367, -0.05590212345123291, 0.31028372049331665, -0.3656017780303955, -0.1760672628879547, 0.3602428734302521, 0.30782774090766907, -0.1273389607667923, -0.34719833731651306, -0.06767363101243973, 0.054140955209732056, 0.12761268019676208, 0.1476307064294815, -0.13405171036720276, -0.13945293426513672, 0.1365429162979126, -0.07082592695951462, -0.26615506410598755, 0.06119712442159653, -0.14173981547355652, -0.08152691274881363, -0.01771586202085018, 0.06260354071855545, 0.06664188206195831, -0.35535287857055664, -0.07866990566253662, 0.07603956013917923, 0.044736478477716446, 0.1732839196920395, -0.07539883255958557, -0.35159122943878174, -0.10595345497131348, 0.22592011094093323, 0.25123506784439087, -0.03939557075500488, -0.1975383758544922, -0.2922746241092682, 0.009231994859874249, 0.10498564690351486, 0.29333990812301636, -0.010822922922670841, -0.15453185141086578, 0.11950626969337463, 0.08417879790067673, -0.19170473515987396, 0.30312228202819824, -0.12123828381299973, -0.242241770029068, 0.20543664693832397, -0.013744557276368141, -0.09738322347402573, 0.20174773037433624, 0.0014309268444776535, -0.15639957785606384, -0.06595272570848465, 0.04506408050656319, 0.1627783328294754, -0.10401277989149094, -0.11328409612178802, -0.18163298070430756, 0.12393864244222641, -0.2581338584423065, 0.014828874729573727, 0.14753302931785583, -0.29542532563209534, 0.028422486037015915, -0.0507994070649147, 0.40136879682540894, 0.05187445506453514, -0.18969537317752838, 0.19404800236225128, 0.15430250763893127, -0.11062508076429367, -0.3162355124950409, -0.11421641707420349, 0.13225021958351135, -0.569547712802887, -0.18103671073913574, 0.15472766757011414, 0.14047127962112427, -0.15230980515480042, -0.051047902554273605, -0.05690295994281769, 0.31555116176605225, -0.08482399582862854, 0.34744006395339966, -0.1434101015329361, -0.126516655087471, -0.06334154307842255, 0.048164594918489456, -0.3700468838214874, -0.08565475046634674, -0.16141429543495178, -0.05485248565673828, -0.18192772567272186, 0.2518302798271179, 0.0001235829695360735, -0.22604456543922424, 0.13979466259479523, -0.09260118007659912, 0.09704993665218353, 0.3691774606704712, 0.2228098064661026, -0.025188807398080826, -0.19134646654129028, 0.004534830339252949, 0.2519807815551758, -0.006121740210801363, 0.37189748883247375, -0.10425075143575668, 0.2877359986305237, 0.1358650028705597, 0.22812199592590332, -0.058972690254449844, -0.04072680324316025, -0.025949936360120773, -0.04710014536976814, -0.2055601179599762, 0.408631831407547, -0.004116020165383816, 0.17022225260734558, 0.3162256181240082, 0.13967682421207428, 0.027197057381272316, -0.055288996547460556, 0.7261078953742981, -0.15229755640029907, 0.13940612971782684, -0.0470341295003891, 0.07292167097330093, 0.043795324862003326, -0.2949516475200653, -0.23670119047164917, 0.13076302409172058, -0.10979000478982925, 0.2850184142589569, -0.14147743582725525, -0.05842076614499092, -0.2873426675796509, -0.09362981468439102, -0.17308631539344788, 0.15517115592956543, 0.024571584537625313, -0.0023918035440146923, 0.016311027109622955, -0.14304974675178528, -0.0840778797864914, 0.17936918139457703, 0.22783227264881134, -0.21008902788162231, -0.2212672084569931, -0.02630411647260189, 0.1657157689332962, 0.015695763751864433, -0.14343376457691193, -0.015545601025223732, 0.07808908820152283, 0.11868978291749954, 0.10768868774175644, -0.06542874872684479, 0.11755908280611038, 0.03067343682050705, 0.18310903012752533, 0.058916039764881134, 0.30723103880882263, 0.3140091896057129, -0.09367424994707108, -0.11674290150403976, 0.20065531134605408, 0.050602834671735764, 0.042074497789144516, 0.24442550539970398, 0.23568138480186462, 0.15496893227100372, 0.13037744164466858, -0.15819674730300903, 0.008976196870207787, 0.02819611132144928, -0.06159493699669838, 0.15135855972766876, 0.14596514403820038, 0.0956551656126976, 0.05815748870372772, -0.07965000718832016, 0.06182419881224632, -0.014134774915874004, 0.038927771151065826, 0.0024624213110655546, -0.18123318254947662, -0.27925726771354675, 0.120763398706913, 0.08764427900314331, -0.043471790850162506, 0.03120625950396061, 0.24691085517406464, 0.04085398465394974, -0.06859728693962097, 0.015503598377108574, 0.16864986717700958, -0.0020790197886526585, -0.1815141886472702, 0.059064820408821106, -0.04280727729201317, -0.42528942227363586, 0.14352525770664215, 0.1288323849439621, 0.2950465679168701, -0.20530129969120026, -0.01686204969882965, 0.2832663953304291, -0.03658951446413994, -0.13214150071144104, -0.18496450781822205, 0.07875433564186096, -0.0832204669713974, 0.12385400384664536, 0.0484771728515625, 0.19261926412582397, -0.04552721232175827, 0.02608502097427845, 0.03548143431544304, 0.05993224307894707, 0.2746461033821106, -0.09179913252592087, -0.3164356052875519, -0.25687310099601746, -0.20299625396728516, 0.1450633406639099, 0.30536341667175293, -0.039607297629117966, -0.1555861383676529, -0.17963220179080963, 0.0032291440293192863, 0.14595648646354675, -0.18745684623718262, 0.0818786472082138, 0.22635604441165924, -0.2219078093767166, 0.00666613457724452, 0.09864232689142227, -0.30098578333854675, -0.1782161444425583, 0.13304589688777924, -0.32603663206100464, 0.02976994402706623, -0.08362111449241638, 0.2901323139667511, 0.02407735586166382, -0.1885487139225006, -0.28465864062309265, -0.10501433908939362, 0.16531023383140564, 0.1266651153564453, 0.2258041352033615, 0.02012224867939949, 0.24560582637786865, 0.12368761003017426, -0.04624644294381142, 0.24317461252212524, -0.11169400811195374, 0.3030676543712616, 0.11635154485702515, -0.18729783594608307, 0.15151453018188477, -0.07939903438091278, 0.19048376381397247, -0.033445294946432114, -0.06282129883766174, 0.11224555224180222, -0.3564404547214508, -0.14855383336544037, 0.09878712147474289, 0.14036574959754944, 0.15667052567005157, 0.10531231760978699, -0.16154488921165466, -0.16404835879802704, -0.0023008401039987803, 0.2677344083786011, 0.2610759735107422, 0.0028885863721370697, -0.13576361536979675, 0.2538800835609436, -0.08747659623622894, -0.016466917470097542, 0.2780793309211731, 0.020058581605553627, -0.18371519446372986, 0.30055513978004456, -0.12217498570680618, -0.2617383599281311, 0.16397725045681, 0.16563738882541656, -0.25609496235847473, -0.20104148983955383, -0.18848614394664764, 0.15165452659130096, 0.13874034583568573, -0.07992337644100189, -0.010016745887696743, 0.04502195119857788, -0.020777489989995956, 0.056758955121040344, -0.032524473965168, -0.026871681213378906, 0.2727155387401581, -0.2695657014846802, 0.039835087954998016, 0.27807697653770447, 0.020315464586019516, 0.04056083783507347, 0.18838627636432648, -0.03449411317706108, -0.1411605179309845, -0.1055290549993515, 0.052366044372320175, -0.05738035961985588, -0.08824097365140915, 0.22782620787620544, -0.03580424562096596, -0.20064012706279755, -0.2270478904247284, 0.07669144123792648, -0.015469990670681, -0.024228623136878014, -0.00925414264202118, -0.17217449843883514, -0.20164112746715546, -0.07686301320791245, 0.020889343693852425, -0.002050564857199788, -0.16697095334529877, 0.13875265419483185, -0.08284127712249756, 0.06555825471878052, 0.12746906280517578, -0.21338115632534027, -0.06431805342435837, 0.21609067916870117, -0.2324928343296051, -0.15888719260692596, 0.1838221400976181, 0.049202367663383484, -0.26705461740493774, -0.3339710235595703, -0.06510331481695175, -0.24477547407150269, 0.2325325608253479, -0.04295816645026207, 0.21780316531658173, -0.3329674005508423, -0.23285895586013794, 0.03860783949494362, -0.1754164844751358, -0.08563849329948425, -0.1926323026418686, 0.47604942321777344, 0.3649967610836029, 0.06873974204063416, 0.36672794818878174, 0.06368214637041092, -0.049572087824344635, -0.4455471634864807, -0.052852336317300797, 0.6911227703094482, -0.4047582745552063, 0.1630074679851532, -0.41424694657325745, -0.07780347019433975, 0.01851825602352619, -0.11793887615203857, 0.11331693083047867, 0.08262726664543152, -0.2609962821006775, 0.06527214497327805, -0.07191028445959091, 0.30126816034317017, -0.02874220907688141, 0.4332733154296875, 0.20792657136917114, 0.33955708146095276, -0.24452614784240723, 0.010675729252398014, -0.1569441556930542, -0.03407055884599686, 0.19605083763599396, 0.005310588516294956, 0.30818843841552734, -0.00018421928689349443, -0.11190331727266312, 0.18719612061977386, 0.07827633619308472, 0.11822230368852615, -0.15006494522094727, -0.05021152272820473, 0.07423239946365356, 0.19967171549797058, -0.12130339443683624, -0.19885751605033875, 0.16560079157352448, 0.12749329209327698, -0.23756834864616394, 0.013954700902104378, -0.5005140900611877, -0.15907195210456848, -0.19774504005908966, -0.020337523892521858, 0.1209350973367691, -0.21088635921478271, 0.24844077229499817, -0.0931229442358017, 0.0868627056479454, 0.06023435667157173, -0.16566284000873566, -0.055274758487939835, 0.11072050034999847, 0.06940585374832153, 0.0076552401296794415, 0.05214105173945427, -0.15875081717967987, -0.011156870983541012, -0.048104725778102875, 0.29766330122947693, 0.08979006856679916, -0.02211788482964039, -0.29125288128852844, 0.09247379004955292, -0.0701591894030571, -0.04203353822231293, -0.011483611539006233, 0.06328701227903366, -0.19374312460422516, 0.07571518421173096, 0.08130241185426712, -0.29469335079193115, 0.0010328973876312375, 0.11747149378061295, -0.2155376374721527, -0.14916114509105682, -0.05757324770092964, 0.1463276743888855, -0.01707478240132332, 0.1568697839975357, 0.12543846666812897, 0.2557472884654999, -0.082339808344841, 0.17224352061748505, 0.1870535910129547, -0.08712500333786011, 0.08837535232305527, 0.21072377264499664, 0.5701703429222107, -0.09891708940267563, -0.16094915568828583, 0.495206743478775, 0.25623196363449097, -0.19561995565891266, -0.4715571701526642, -0.23571273684501648, 0.1948699951171875, -0.2791515290737152, 0.1390957236289978, -0.33572909235954285, -0.24148151278495789, -0.03399379923939705, 0.026930071413517, -0.13282020390033722, -0.03252701088786125, -0.012733949348330498, 0.03145747259259224, 0.05769733339548111, 0.19990816712379456, 0.023170389235019684, 0.03109271079301834, -0.09197162091732025, 0.3003673255443573, -0.12069550901651382, 0.023540543392300606, -0.15472418069839478, -0.22502337396144867, 0.07885768264532089, -0.18166710436344147, -0.011361466720700264, 0.0027294554747641087, -0.12408648431301117, 0.09421856701374054, 0.13884080946445465, 0.2550235092639923, 0.1593800187110901, 0.1237805187702179, 0.0819324254989624, -0.19109615683555603, -0.21330074965953827, -0.22091001272201538, 0.17557933926582336, -0.29581961035728455, -0.008148612454533577, 0.18665200471878052, -0.33739617466926575, -0.12356738746166229, 0.08047602325677872, 0.09669851511716843, 0.1203162893652916, 0.5384500622749329, 0.1271681934595108, -0.1424303948879242, -0.41119831800460815, 0.07900771498680115, -0.16573789715766907, 0.13027407228946686, 0.19983571767807007, 0.11921589076519012, -0.14924763143062592, -0.021251674741506577, 0.026097886264324188, 0.22035154700279236, 0.03997763991355896, 0.07605506479740143, -0.20082049071788788, -0.20140701532363892, -0.16041813790798187, 0.22507646679878235, -0.2612956762313843, -0.05148061737418175, 0.3952619731426239, -0.28349781036376953, 0.11676093935966492, 0.01749022863805294, -0.20230083167552948, 0.04381735622882843, 0.08819825202226639, 0.12057594954967499, 0.10052487999200821, 0.20533591508865356, 0.06927698105573654, -0.05413850024342537, 0.0071942065842449665, 0.1843903809785843, 0.08684656023979187, 0.19674552977085114, -0.2176952362060547, 0.09287548810243607, 0.12152837216854095, -0.08371283859014511, -0.11225871741771698, 0.08201035857200623, -0.05389823764562607, 0.04056713357567787, -0.017371293157339096, -0.0002506054297555238, 0.06424693763256073, 0.032236259430646896, 0.2338932752609253, -0.30583563446998596, -0.41437846422195435, 0.6743162870407104, 0.4598459303379059, -0.3172426223754883, 0.08670442551374435, -0.2042456567287445, -0.1871914118528366, 0.45027419924736023, -0.7200658917427063, 0.8574609756469727, 0.6973552107810974, -0.011199493892490864, -0.3090517520904541, 0.1816614270210266, -0.6113561391830444, 0.3537980318069458, 0.0706644281744957, -0.02931125834584236, -0.2780980169773102, -0.05266133323311806, 0.19875192642211914, 0.28906986117362976, 0.03878981992602348, -0.004623563960194588, -0.048700205981731415, 0.3919388949871063, 0.06585589051246643, -0.09542819112539291, 0.17888936400413513, 0.0649828314781189, -0.3236699104309082, 0.3127106726169586, 0.22173956036567688, 0.1601289063692093, -0.03905625641345978, -0.02326549030840397, 0.39434248208999634, 0.13416364789009094, -0.13633698225021362, -0.4126121997833252, -0.22048410773277283, 0.18682262301445007, -0.24908536672592163, -0.09356867522001266, 0.32359981536865234, 0.3345036506652832, -0.28607654571533203, -0.4039040803909302, -0.6921760439872742, 0.02688017673790455, -0.348906934261322, 0.6614640951156616, -0.4484865069389343, 0.01866910047829151, -0.329373836517334, -0.026011038571596146, 0.5380231738090515, -0.6554375290870667, 0.3447212874889374, 0.21837623417377472, -0.2012186497449875, -0.17605730891227722, 0.4107399582862854, 0.4244699776172638, 0.17958781123161316, 0.3189750611782074, 0.11278548836708069, -0.2181020826101303, 0.2167104035615921, -0.19437886774539948, 0.21980072557926178, 0.0807604193687439, -0.02276667207479477, 0.21951793134212494, 0.1787312626838684, -0.12532106041908264, 0.33011937141418457, 0.12685070931911469, -0.24333816766738892, 0.06803333759307861, -0.21324537694454193, 0.22924254834651947, -0.21709540486335754, 0.42746442556381226, -0.178788423538208, 0.08556574583053589, 0.09050561487674713, 0.084030881524086, 0.02895493246614933, -0.24958564341068268, 0.029145218431949615, -0.17414309084415436, -0.19414353370666504, 0.18488556146621704, -0.1635630577802658, -0.34388068318367004, -0.24402563273906708, -0.004409206099808216, -0.48983240127563477, 0.021573040634393692, -0.23448379337787628, 0.3091581463813782, -0.018840491771697998, 0.031488992273807526, -0.003783110063523054, -0.08797229081392288, 0.2923215925693512, 0.05026576295495033, 0.03143959864974022, 0.008625723421573639, 0.08294306695461273, -0.1285422444343567, 0.20735429227352142, -0.04398007690906525, 0.1628703773021698, -0.1385626643896103, -0.014247073791921139, 0.01883186772465706, -0.1717459261417389, -0.17559035122394562, 0.134196937084198, 0.2735421657562256, -0.12491102516651154, 0.1756402999162674, 0.029091941192746162, 0.11193151026964188, -0.11784173548221588, 0.13013988733291626, 0.050385262817144394, -0.4387384355068207, 0.04764740169048309, 0.22481928765773773, -0.21385839581489563, -0.032744381576776505, -0.11773452162742615, 0.28193986415863037, 0.11737168580293655, -0.05681565776467323, 0.20609016716480255, 0.3588198125362396, -0.23810604214668274, 0.07009220868349075, -0.004588840063661337, -0.08341927081346512, 0.17945308983325958, 0.11413390189409256, 0.05025423690676689, 0.3013657331466675, -0.036119308322668076, -0.013992618769407272, -0.10896658897399902, -0.25935888290405273, 0.1518430858850479, -0.10662513226270676, 0.21412494778633118, -0.10306061804294586, 0.17006473243236542, -0.0888250321149826, -0.04545651748776436, 0.0922098159790039, -0.12801294028759003, -0.06872449815273285, 0.20785509049892426, -0.05316151678562164, 0.2634902000427246, 0.01162372063845396, -0.12189125269651413, 0.035161130130290985, -0.1478969156742096, 0.08924537152051926, -0.13749349117279053, -0.16257141530513763, -0.13634848594665527, 0.21217946708202362, -0.16332882642745972, 0.22780422866344452, -0.286565899848938, -0.10576697438955307, -0.2986827492713928, 0.39558151364326477, -0.22294661402702332, 0.14751414954662323, -0.07178741693496704, 0.07856517285108566, 0.2766035199165344, -0.3314375579357147, 0.057019975036382675, 0.14547228813171387, -0.12081027776002884, 0.14940573275089264, 0.2889045476913452, -0.18178687989711761, -0.10434820502996445, -0.13015249371528625, -0.07187583297491074, -0.29654309153556824, 0.17796683311462402, 0.5159978866577148, 0.10035258531570435, 0.0060517010278999805, -0.18827779591083527, -0.14235688745975494, 0.4754515290260315, -0.4392709732055664, -0.29325228929519653, 0.09818032383918762, 0.11314458400011063, -0.2122790813446045, -0.25115862488746643, -0.06624917685985565, -0.018749216571450233, 0.22038640081882477, 0.07090305536985397, -0.23163412511348724, -0.009103406220674515, 0.22617803514003754, 0.14127211272716522, -0.21441376209259033, 0.07577192783355713, 0.14623509347438812, 0.04737860709428787, 0.1872405856847763, 0.04788931459188461, -0.14855000376701355, 0.08300590515136719, -0.10614873468875885, -0.09220608323812485, 0.06401918083429337, -0.1817244589328766, 0.19462211430072784, -0.11441445350646973, -0.005431838799268007, 0.21172486245632172, 0.09801249206066132, -0.16419485211372375, -0.03868874907493591, 0.19271643459796906, -0.10483341664075851, 0.04969565570354462, -0.3819563686847687, -0.21204140782356262, -0.0890718623995781, 0.17563468217849731, 0.5144321918487549, -0.3911261260509491, -0.019509708508849144, -0.2813512086868286, 0.09802499413490295, 0.45025625824928284, -0.2614973485469818, 0.4509987533092499, 0.0940268263220787, 0.09317658096551895, -0.1038566529750824, -0.13791316747665405, 0.022827958688139915, 0.004891920834779739, -0.025774279609322548, -0.1923127919435501, -0.08962704241275787, -0.06829892098903656, -0.09748062491416931, -0.12009693682193756, -0.13840632140636444, 0.019667552784085274, 0.2128993421792984, 0.04943885654211044, -0.044671401381492615, 0.06339211761951447, -0.011262161657214165, 0.06278520077466965, 0.007707581855356693, -0.09930524230003357, -0.1675071120262146, 0.18817882239818573, -0.03570019081234932, 0.001371784252114594, 0.09778424352407455, 0.03859635442495346, -0.19838671386241913, -0.10605683922767639, -0.14176170527935028, 0.11801550537347794, 0.10722794383764267, -0.0039869085885584354, 0.10422732681035995, 0.01457176636904478, 0.0002560795401223004, -0.200067937374115, -0.09513769298791885, -0.023900210857391357, 0.1452440321445465, 0.12699945271015167, 0.07495059072971344, -0.14342525601387024, 0.10794930160045624, 0.01713182032108307, 0.26119354367256165, 0.1592305451631546, 0.00956748891621828, -0.23767809569835663, -0.19344006478786469, -0.11615628004074097, -0.0787096619606018, -0.06218986213207245, 0.2763310372829437, 0.1129181981086731, 0.03069791942834854, -0.2226642668247223, -0.09750749170780182, -0.0488986000418663, 0.05898992344737053, -0.301716685295105, 0.0642172247171402, 0.11274933069944382, 0.19041533768177032, -0.02214261330664158, -0.07374437153339386, -0.11084576696157455, 0.18893983960151672, -0.0218752920627594, 0.379829078912735, -0.04946991056203842, -0.13992145657539368, -0.12045679986476898, 0.007535935845226049, -0.039470791816711426, -0.12207614630460739, -0.09427599608898163, -0.2570194900035858, -0.317584753036499, -0.15794624388217926, -0.08529265969991684, -0.08217672258615494, -0.13694748282432556, 0.11122024059295654, 0.31494036316871643, -0.1712055653333664, 0.11077678948640823, 0.23510248959064484, -0.13990357518196106, 0.010424071922898293, -0.5032341480255127, 0.1749289333820343, -0.1930466592311859, 0.21141600608825684, 0.12351533025503159, 0.0392620675265789, -0.17674408853054047, 0.22165340185165405, 0.14580924808979034, -0.2139333337545395, -0.091738760471344, -0.1331469714641571, 0.2558428645133972, -0.038294076919555664, 0.09156239032745361, -0.04916086792945862, -0.17691192030906677, -0.017473846673965454, -0.05213484913110733, -0.016831189393997192, -0.09847528487443924, 0.2708362638950348, -0.08841035515069962, -0.03107287921011448, -0.13838663697242737, 0.3489204943180084, -0.18531987071037292, 0.06028081476688385, -0.12458889931440353, -0.09215107560157776, -0.1319083869457245, 0.19447162747383118, -0.15727320313453674, -0.08533833920955658, 0.09722900390625, 0.14384251832962036, -0.09499914944171906, -0.055506691336631775, 0.06324790418148041, 0.11314347386360168, -0.17255567014217377, -0.20791368186473846, -0.17180950939655304, 0.0492456816136837, 0.4329114854335785, 0.03054429404437542, -0.29537710547447205, -0.15386377274990082, 0.17049290239810944, 0.16342705488204956, 0.3321228623390198, 0.14772750437259674, -0.14403359591960907, -0.31262892484664917, -0.11445154994726181, 0.10273853689432144, -0.583660364151001, -0.23962517082691193, 0.11546304076910019, 0.14768317341804504, -0.03006291575729847, -0.02311391569674015, -0.17311042547225952, -0.11446697264909744, 0.10479379445314407, 0.026759447529911995, 0.15025435388088226, -0.1331392377614975, 0.1985892504453659, -0.02988111786544323, 0.09780152142047882, 0.06918519735336304, 0.1605406254529953, -0.23186089098453522, -0.04337204992771149, -0.019724896177649498, -0.02418266236782074, 0.020677054300904274, 0.06766734272241592, -0.1470058560371399, 0.01730155386030674, 0.08516284078359604, -0.19862598180770874, -0.0653567984700203, -0.046293772757053375, 0.05553194507956505, -0.25659435987472534, 0.0005914608482271433, 0.20101627707481384, 0.028763800859451294, 0.13941167294979095, 0.15339761972427368, 0.022243313491344452, -0.10192453861236572, -0.0026148606557399035, 0.2023010402917862, -0.07151494175195694, -0.23478007316589355, 0.1889476180076599, 0.007353103253990412, -0.2758365869522095, -0.13375400006771088, 0.05291689559817314, 0.09000297635793686, -0.2610432207584381, -0.05159062519669533, 0.2906273603439331, -0.05190188065171242, 0.004949251655489206, 0.12314533442258835, -0.14717288315296173, -0.07815250009298325, 0.15125221014022827, 0.2445225715637207, -0.23177970945835114, -0.28946569561958313, -0.22979526221752167, 0.050277747213840485, 0.1218564584851265, 0.25640755891799927, 0.029289500787854195, -0.22496141493320465, 0.04794891178607941, 0.10053190588951111, 0.38209232687950134, 0.08749210089445114, 0.06010512635111809, -0.35267576575279236, 0.28142663836479187, -0.03340515121817589, -0.3142893612384796, -0.25929757952690125, 0.05023921653628349, 0.09349461644887924, -0.18856346607208252, 0.10675512999296188, 0.17382271587848663, -0.04635210335254669, -0.05183003097772598, -0.05757351964712143, -0.11990834772586823, -0.1414063423871994, -0.11024944484233856, -0.01923595368862152, 0.355405330657959, -0.051381949335336685, 0.06016617640852928, -0.023975150659680367, -0.06259726732969284, 0.22802042961120605, 0.11798776686191559, 0.1450563222169876, -0.04349616914987564, 0.09681091457605362, 0.15039344131946564, 0.08891598880290985, -0.10176373273134232, 0.09183871001005173, 0.14173315465450287, 0.03515958413481712, 0.1988561898469925, -0.3019549548625946, 0.2155354917049408, -0.06096070632338524, -0.14215761423110962, -0.1722044199705124, 0.0624564029276371, 0.14714646339416504, 0.21225421130657196, -0.055660512298345566, 0.32467594742774963, -0.12640853226184845, -0.037304576486349106, -0.06975024938583374, 0.15640142560005188, -0.009708236902952194, -0.11227894574403763, 0.036111921072006226, -0.09750206768512726, 0.09503097832202911, 0.14952577650547028, 0.19766411185264587, 0.1022380143404007, -0.1422012895345688, -0.01605537347495556, -0.0181721244007349, -0.04684123396873474, 0.07771077007055283, 0.051581792533397675, 0.06461837887763977, -0.18948815762996674, 0.0346507765352726, 0.25744885206222534, 0.010215401649475098, 0.23762331902980804, 0.22124668955802917, -0.06985855102539062, -0.011852835305035114, -0.06594126671552658, -0.030954644083976746, -0.3355647325515747, -0.31258654594421387, 0.05939362943172455, -0.008161593228578568, -0.007137188222259283, -0.022587355226278305, -0.29588955640792847, -0.07387663424015045, 0.04441322386264801, -0.014537468552589417, 0.1607133150100708, -0.11865383386611938, -0.12956739962100983, -0.0009195675374940038, -0.034261465072631836, 0.1128566786646843, -0.04609096795320511, -0.25905299186706543, 0.2889891564846039, -0.42086225748062134, 0.03759609907865524, 0.0973309800028801, 0.03753257542848587, -0.2797004282474518, 0.2221459001302719, 0.01230509765446186, -0.16733112931251526, -0.05900772288441658, 0.14465604722499847, 0.10380139946937561, -0.08323762565851212, 0.13086654245853424, 0.25651007890701294, 0.020492279902100563, -0.18799901008605957, -0.09923806041479111, -0.10998228937387466, -0.24213838577270508, 0.013167978264391422, 0.08254076540470123, 0.5137400031089783, 0.01788307912647724, -0.03986283391714096, -0.20434114336967468, -0.21019436419010162, -0.06046590954065323, 0.10742869228124619, 0.022128887474536896, -0.17470677196979523, -0.12641850113868713, 0.21109642088413239, -0.1968364417552948, -0.19547411799430847, -0.10701898485422134, 0.08081594854593277, -0.07443541288375854, -0.03938385099172592, 0.05534956231713295, 0.30215030908584595, -0.15429453551769257, 0.10814884305000305, 0.0244870837777853, 0.14757175743579865, 0.07691776007413864, 0.23836252093315125, -0.14808450639247894, 0.010681233368813992, -0.5195020437240601, 0.20284517109394073, 0.20573855936527252, 0.07293497025966644, -0.16673937439918518, -0.09796584397554398, 0.19670256972312927, -0.25004300475120544, -0.07775084674358368, 0.28586891293525696, 0.05200706422328949, -0.09900515526533127, -0.11683477461338043, -0.08981715887784958, -0.109348364174366, -0.15384940803050995, 0.050811510533094406, 0.13741371035575867, 0.02504618652164936, -0.027822883799672127, 0.09683342278003693, -0.43823888897895813, 0.15683777630329132, -0.012132528237998486, 0.2860049307346344, -0.31575682759284973, -0.25836318731307983, 0.159336656332016, 0.2085263878107071, -0.27493149042129517, -0.15834616124629974, 0.04624037817120552, -0.019089138135313988, -0.19888851046562195, -0.18046270310878754, -0.2355148196220398, -0.18005691468715668, -0.0809696763753891, 0.2641737461090088, -0.1445956975221634, 0.05237448215484619, -0.10922901332378387, -0.031020352616906166, -0.025606513023376465, 0.27315405011177063, -0.22659698128700256, -0.2347571700811386, -0.012982773594558239, 0.12985411286354065, -0.021039018407464027, 0.15410254895687103, -0.06393910199403763, -0.0155183719471097, 0.2912760376930237, -0.2608749270439148, -0.13221004605293274, -0.1630174219608307, -0.34271159768104553, -0.0033121502492576838, -0.16756698489189148, -0.09302447736263275, 0.13756294548511505, 0.08186395466327667, 0.33867183327674866, -0.07426430284976959, 0.14169786870479584, 0.12429667264223099, 0.1862095594406128, -0.2192104011774063, -0.17469915747642517, 0.35938721895217896, -0.3214746117591858, -0.1641051322221756, 0.002976200310513377, -0.0014986186288297176, 0.01772860251367092, -0.10038912296295166, 0.1643953174352646, 0.12702247500419617, -0.24389071762561798, -0.15637852251529694, -0.2946699261665344, -0.13235606253147125, 0.14300434291362762, 0.08881437033414841, -0.14836399257183075, -0.2118293195962906, 0.09802355617284775, 0.14118051528930664, 0.19019563496112823, 0.15529599785804749, -0.1252010017633438, -0.27901318669319153, -0.013287544250488281, 0.32463401556015015, -0.07644277065992355, 0.1357695758342743, -0.15023311972618103, -0.0759352594614029, -0.07102939486503601, 0.12045868486166, -0.3898341953754425, 0.1471857726573944, 0.25110483169555664, 0.022039378061890602, 0.06644873321056366, -0.21051281690597534, 0.2736072838306427, -0.015340227633714676, -0.09240933507680893, -0.1297152191400528, 0.1517009437084198, -0.014859017916023731, -0.1466716080904007, -0.20365598797798157, 0.09176556766033173, 0.12140803039073944, -0.12500008940696716, 0.07895397394895554, -0.13022495806217194, -0.064450703561306, 0.1307615041732788, 0.1331966370344162, -0.19073641300201416, -0.06205293908715248, 0.1476151943206787, 0.0580713227391243, -0.32155290246009827, -0.33881473541259766, 0.1137162521481514, 0.43659085035324097, 0.16299112141132355, 0.16601713001728058, 0.06379278004169464, 0.1544472873210907, 0.06115301325917244, 0.11764278262853622, -0.07103736698627472, 0.05111011117696762, 0.1325727254152298, -0.44407224655151367, -0.01917555183172226, 0.06595073640346527, 0.1870020627975464, 0.1950031965970993, -0.1703445017337799, 0.031092096120119095, -0.11543736606836319, 0.0762544497847557, -0.34267160296440125, 0.1364075392484665, 0.06506329029798508, 0.2100118100643158, 0.1306314766407013, -0.18008607625961304, 0.19125896692276, -0.01250462792813778, -0.23849429190158844, -0.025165842846035957, -0.1373426616191864, 0.07920621335506439, -0.10844879597425461, -0.2256835550069809, 0.09289444237947464, 0.11572009325027466, -0.0720423012971878, 0.022205829620361328, 0.10372085124254227, 0.00865002628415823, -0.18793345987796783, 0.0555354505777359, 0.1160956546664238, 0.020605066791176796, 0.13449764251708984, -0.03100268356502056, -0.01995881460607052, 0.22495342791080475, 0.11784856021404266, 0.23972594738006592, -0.1155475452542305, 0.0064911870285868645, 0.04222032427787781, -0.19539619982242584, 0.016889484599232674, 0.07121885567903519, -0.28579139709472656, 0.03938690945506096, -0.12239886820316315, 0.37357115745544434, 0.009197189472615719, -0.11827132850885391, 0.2511920630931854, -0.3002682328224182, -0.030718596652150154, 0.05047636106610298, -0.11534037441015244, -0.009906817227602005, 0.12407317012548447, -0.23735418915748596, -0.08239385485649109, 0.17517487704753876, 0.190452441573143, 0.07950052618980408, 0.24738916754722595, 0.07289481163024902, 0.132414773106575, -0.09736821800470352, 0.14926570653915405, 0.1930067390203476, 0.273310124874115, -0.013943979516625404, -0.0382271409034729, 0.06231265515089035, -0.11753711849451065, 0.12466905266046524, 0.1387632191181183, -0.10679575055837631, -0.0774611160159111, -0.31924867630004883, -0.11249080300331116, 0.08735697716474533, -0.2489158809185028, -0.04663494974374771, 0.0382683165371418, 0.042494483292102814, -0.18967807292938232, 0.02391183376312256, -0.10751950740814209, 0.06395339220762253, 0.06688246130943298, 0.09356322884559631, -0.041848935186862946, -0.04806939885020256, -0.08957908302545547, 0.28170767426490784, 0.1841803342103958, 0.33966711163520813, -0.20063601434230804, -0.05250930413603783, -0.0867706760764122, -0.20039919018745422, 0.34017834067344666, 0.22575296461582184, 0.11259902268648148, -0.25296515226364136, 0.3264249861240387, -0.1017756313085556, -0.06716814637184143, -0.2978210151195526, -0.08605252951383591, -0.16749955713748932, -0.08212807029485703, -0.11503186076879501, 0.2118252068758011, -0.020314959809184074, -0.11818719655275345, -0.18821829557418823, 0.018122849985957146, -0.056562576442956924, -0.07612456381320953, 0.3073507845401764, -0.07057744264602661, -0.12192483246326447, -0.19765126705169678, 0.08705038577318192, -0.2776331305503845, -0.037115152925252914, 0.06367846578359604, -0.18062366545200348, 0.16229763627052307, -0.026797402650117874, -0.02898498997092247, -0.3856469690799713, 0.024481993168592453, 0.03515678271651268, 0.07162632048130035, -0.0063272989355027676, 0.061440061777830124, 0.18219372630119324, -0.04920532554388046, -0.097140371799469, -0.2934888005256653, 0.1295616179704666, -0.143952876329422, 0.19078268110752106, 0.015285779722034931, -0.24544237554073334, -0.05919593945145607, 0.08850684762001038, 0.10958287864923477, 0.1783071607351303, 0.13123930990695953, -0.003373263403773308, 0.3783262372016907, -0.044442318379879, -0.07300039380788803, 0.12118613719940186, 0.033888593316078186, 0.14925236999988556, 0.00837632641196251, 0.035224366933107376, 0.12498961389064789, 0.2581962049007416, -0.016151834279298782, 0.28693220019340515, 0.0418815053999424, 0.10433153063058853, -0.01729597896337509, 0.10341030359268188, -0.06891477108001709, -0.007467992138117552, 0.10919710248708725, -0.12878510355949402, -0.20477330684661865, 0.15828874707221985, -0.046837154775857925, 0.09440881013870239, 0.06289844214916229, 0.10412965714931488, 0.24270612001419067, -0.5256693363189697, -0.04694293811917305, -0.20605191588401794, -0.08791819959878922, -0.11397284269332886, -0.01833101361989975, 0.3912828862667084, -0.03574686124920845, 0.23739172518253326, -0.16173166036605835, -0.11429686844348907, 0.06602457165718079, 0.34243544936180115, -0.1137060672044754, 0.03715669363737106, -0.36890122294425964, 0.017549728974699974, -0.20421479642391205, 0.09013591706752777, -0.0977313220500946, -0.1733720898628235, 0.18151319026947021, -0.17218194901943207, 0.03278997540473938, 0.11447618156671524, -0.2703288495540619, 0.08792862296104431, -0.05814371630549431, 0.12790179252624512, 0.21493518352508545, -0.12500664591789246, -0.21662107110023499, 0.13790668547153473, -0.22386814653873444, -0.03893904387950897, 0.14360830187797546, -0.018277347087860107, 0.1783929169178009, -0.24517080187797546, -0.02964068204164505, 0.06530497968196869, 0.2558707892894745, 0.058691009879112244, -0.01908063516020775, -0.16727225482463837, 0.08305114507675171, -0.15600432455539703, -0.05037510395050049, -0.05311908945441246, -0.008166218176484108, 0.20093150436878204, -0.06058032065629959, -0.1217227503657341, 0.020273899659514427, 0.17973390221595764, 0.1155155673623085, 0.07260455936193466, 0.00474928505718708, 0.07660051435232162, 0.26341918110847473, 0.042622487992048264, -0.0010903037618845701, -0.21226269006729126, 0.1234026700258255, -0.44513440132141113, 0.04135773330926895, -0.056244462728500366, 0.10816437751054764, -0.2351655662059784, 0.058145422488451004, 0.23220519721508026, -0.1818171739578247, 0.06887602806091309, 0.08860641717910767, -0.05794472247362137, -0.21117378771305084, -0.012791598215699196, 0.015859195962548256, -0.10307718813419342, 0.14021822810173035, 0.1178717091679573, -0.08550449460744858, -0.0402958057820797, 0.3004942834377289, -0.15934927761554718, 0.03564417362213135, -0.25286638736724854, -0.04061908647418022, -0.026903027668595314, 0.6849352121353149, 0.09179002791643143, 0.4541615843772888, -0.12308948487043381, -0.012475579045712948, 0.11556839942932129, -0.24792322516441345, 0.1933695524930954, 0.07005801051855087, 0.0024503450840711594, 0.11400946974754333, 0.06207699701189995, -0.1984570473432541, -0.1952507197856903, -0.22271373867988586, -0.030583500862121582, -0.10323609411716461, -0.3523927330970764, 0.007927224040031433, -0.2657112777233124, 0.2096724659204483, -0.05672837421298027, 0.1072688028216362, 0.694855809211731, -0.16795045137405396, -0.1424708217382431, -0.024499544873833656, 0.14348949491977692, -0.31167441606521606, 0.06718815118074417, 0.10215935111045837, 0.06367585062980652, 0.06465809792280197, -0.1658639907836914, 0.16546955704689026, 0.11363689601421356, 0.037130143493413925, 0.040806014090776443, -0.016775403171777725, 0.08414725214242935, -0.0985909029841423, 0.1144675761461258, 0.07724404335021973, -0.17501960694789886, -0.19261085987091064, 0.01458091102540493, 0.2212502658367157, 0.07007714360952377, -0.07085604965686798, 0.2507198452949524, 0.022233450785279274, -0.023983798921108246, 0.33508485555648804, 0.4772508442401886, 0.15473134815692902, 0.4996486306190491, -0.8399298191070557, -0.3762575685977936, 0.16458287835121155, 0.28734174370765686, -0.05049120634794235, 0.27091464400291443, 0.16285210847854614, -0.6082253456115723, 0.2870303690433502, -0.051437895745038986, -0.5110729336738586, 0.11235542595386505, -0.3621956706047058, -0.056593649089336395, -0.29121896624565125, 0.2870289981365204, -0.2690359652042389, -0.04544053226709366, 0.0027827415615320206, 0.0157392006367445, -0.36397337913513184, 0.02524113655090332, 0.11607547104358673, -0.17633749544620514, -0.12502634525299072, -0.033153094351291656, -0.24456968903541565, -0.032625097781419754, 0.13692380487918854, -0.3352774381637573, -0.164123997092247, -0.08880561590194702, -0.130570650100708, 0.1305524706840515, 0.26313450932502747, 0.32983312010765076, -0.22802752256393433, -0.07164405286312103, -0.12901923060417175, 0.020920513197779655, -0.05723060294985771, 0.0028948960825800896, 0.2717767655849457, 0.12430920451879501, 0.05722754821181297, -0.03935450315475464, 0.35500478744506836, -0.2798074781894684, -0.3588237464427948, -0.09666123241186142, -0.16192501783370972, -0.23808710277080536, 0.02883203700184822, 0.30048009753227234, -0.14759255945682526, -0.029425686225295067, -0.19508156180381775, 0.08456249535083771, 0.12332742661237717, -0.09389205276966095, 0.17190766334533691, -0.10145719349384308, 0.018171338364481926, -0.11986442655324936, 0.0758381262421608, 0.10308139026165009, 0.16253964602947235, 0.2591462731361389, 0.10249173641204834, -0.04306057095527649, -0.18066535890102386, 0.18041010200977325, -0.14779044687747955, 0.2153879702091217, 0.10272831469774246, -0.044367704540491104, -0.11369799077510834, 0.03370782732963562, -0.17048315703868866, -0.062248263508081436, -0.14692066609859467, 0.12454041838645935, 0.2111525982618332, 0.2123170793056488, -0.2353944331407547, 0.34025925397872925, 0.21151791512966156, 0.1698448359966278, -0.15879465639591217, -0.3306329846382141, -0.35546520352363586, 0.11909950524568558, -0.04610752686858177, -0.18653975427150726, 0.053916431963443756, 0.09741143882274628, 0.2259383499622345, -0.11939799040555954, 0.23259006440639496, -0.0869925245642662, 0.0020429876167327166, 0.15117493271827698, 0.2385023981332779, -0.15471167862415314, 0.3788681626319885, -0.015998346731066704, 0.18830327689647675, -0.2782030403614044, 0.06399736553430557, -0.045553058385849, -0.11908210068941116, -0.12371917068958282, 0.054417114704847336, -0.3121548295021057, -0.17128804326057434, 0.15056873857975006, 0.39102914929389954, -0.32710006833076477, 0.09463301301002502, 0.019828738644719124, 0.33154240250587463, 0.16925272345542908, 0.038602009415626526, -0.04849996790289879, -0.15197619795799255, -0.15743456780910492, 0.25594866275787354, -0.001181398518383503, 0.19556425511837006, 0.1432679146528244, 0.1698365956544876, -0.16289933025836945, 0.30881789326667786, -0.04215752333402634, 0.023762527853250504, 0.14406447112560272, 0.17040179669857025, -0.08726245164871216, -0.029733896255493164, 0.12921719253063202, -0.18871895968914032, -0.20172105729579926, 0.08725142478942871, 0.20901572704315186, -0.27334195375442505, 0.2939489185810089, -0.23480597138404846, -0.4646366238594055, -0.229157954454422, 0.08208250254392624, -0.15494036674499512, -0.2208399623632431, -0.2603173851966858, 0.1705411970615387, -0.22055189311504364, -0.1033250093460083, 0.19781199097633362, -0.11903686821460724, 0.21025468409061432, -0.37154075503349304, 0.23750829696655273, -0.2155350148677826, 0.04652411863207817, -0.17660421133041382, 0.1771393120288849, -0.4632508158683777, -0.25091126561164856, 0.490105539560318, 0.018303265795111656, 0.5612398386001587, 0.2774243652820587, 0.24122491478919983, -0.18385151028633118, -0.2802717089653015, 0.12585794925689697, -0.16304169595241547, -0.5188480019569397, -0.09208914637565613, 0.08498732000589371, 0.276693195104599, -0.20600546896457672, 0.3827890455722809, 0.013842477463185787, -0.2229800671339035, -0.36501264572143555, -0.15247902274131775, -0.09161602705717087, 0.20298759639263153, 0.0932854413986206, 0.28304415941238403, -0.059310343116521835, -0.2630760073661804, -0.12807784974575043, -0.19386419653892517, -0.2393314391374588, 0.25302597880363464, 0.022830454632639885, -0.08675192296504974, 0.3779137134552002, 0.028491854667663574, 0.4576371908187866, -0.10957048833370209, -0.3307626247406006, 0.017681945115327835, -0.24067340791225433, 0.10316488146781921, 0.1269998699426651, 0.6008384227752686, 0.24630628526210785, -0.07460290193557739, 0.02374202571809292, -0.005001439712941647, 0.018923109397292137, 0.13796138763427734, 0.12304031848907471, -0.5696860551834106, 0.019345378503203392, -0.3273358941078186, -0.15084236860275269, 0.1494404822587967, -0.12662142515182495, 0.12232442200183868, 0.058433905243873596, 0.021347612142562866, 0.08746810257434845, 0.04436243698000908, -0.15722393989562988, -0.11120814830064774, -0.00043027015635743737, 0.27493929862976074, 0.6772798299789429, -0.13391083478927612, -0.16599544882774353, -0.4643286168575287, -0.5627444982528687, -0.06855424493551254, 0.4385055601596832, 0.20334084331989288, 0.2025321125984192, -0.029057806357741356, 0.14946769177913666, -0.2685089409351349, -0.22346587479114532, 0.0068471068516373634, 0.24821676313877106, -0.4191248416900635, 0.08447857946157455, -0.16288943588733673, 0.07834929972887039, 0.12994056940078735, 0.2636858820915222, -0.10051637887954712, -0.0068750325590372086, 0.052694275975227356, 0.19412732124328613, -0.10376378893852234, -0.2825290858745575, -0.23926980793476105, -0.25613000988960266, 0.16523079574108124, -0.060083433985710144, 0.09876887500286102, 0.1763019561767578, -0.39446064829826355, -0.10278303921222687, -0.12344636023044586, -0.22404851019382477, 0.062281619757413864, 0.0350223109126091, -0.22648701071739197, 0.026300841942429543, 0.03242935612797737, 0.015525971539318562, 0.13993501663208008, -0.0652051791548729, 0.1466023176908493, 0.06417154520750046, -0.4111976623535156, -0.03919278457760811, -0.0271931029856205, 0.2757604420185089, 0.20926418900489807, -0.14365115761756897, 0.0027878903783857822, 0.04757469892501831, 0.16707424819469452, -0.09481563419103622, 0.0212111696600914, 0.24483507871627808, 0.26891595125198364, -0.0519607849419117, 0.1730106621980667, -0.6691491007804871, 0.0038318189326673746, 0.0028598003555089235, 0.17229966819286346, -0.0011487116571515799, 0.1799885630607605, -0.07924814522266388, -0.021133139729499817, -0.004194981884211302, 0.08684150874614716, 0.07187888771295547, -0.21337437629699707, 0.4265363812446594, -0.009878620505332947, -0.009936931543052197, 0.2484825849533081, -0.09915526956319809, 0.3297889828681946, -0.5904233455657959, 0.11666985601186752, -0.2597181797027588, 0.6266724467277527, -0.12545402348041534, 0.40990230441093445, -0.43244194984436035, -0.03160503879189491, -0.32175078988075256, 0.3563556373119354, -0.11661984771490097, 0.013750480487942696, -0.16950419545173645, 0.1817834973335266, 0.17079436779022217, -0.49571743607521057, 0.08181058615446091, -0.47940805554389954, -0.17214372754096985, -0.335729718208313, -0.06389277428388596, 0.009360999800264835, -0.03322158008813858, -0.43762826919555664, -0.2715872824192047, 0.11704660207033157, 0.20633189380168915, 0.10706043988466263, -0.20339183509349823, 0.03200535103678703, 0.13183525204658508, -0.14816522598266602, -0.020497288554906845, -0.09294866025447845, -0.30303725600242615, 0.021237554028630257, -0.008016145788133144, 0.029067274183034897, 0.10128869861364365, 0.11130718141794205, 0.12919840216636658, -0.19591695070266724, 0.05137594789266586, 0.2798815965652466, -0.38004493713378906, -0.31040385365486145, -0.16098113358020782, 0.15705297887325287, 0.10682827979326248, -0.23940031230449677, 0.1843024641275406, 0.06528325378894806, 0.1019459143280983, 0.3040880560874939, -0.12279151380062103, -0.1429019272327423, -0.20884141325950623, -0.507565975189209, 0.11617378145456314, -0.011033936403691769, -0.10201044380664825, 0.1571848839521408, -0.06144196167588234, -0.08520829677581787, 0.21345919370651245, -0.04360044375061989, -0.5321478843688965, 0.20355604588985443, -0.2124122828245163, -0.13172926008701324, 0.10383324325084686, -0.053338512778282166, -0.08124615252017975, 0.21486186981201172, -0.21426261961460114, 0.18714210391044617, -0.11410126835107803, -0.26289278268814087, 0.5284501314163208, -0.049484699964523315, -0.12691402435302734, -0.053513575345277786, -0.0936213880777359, 0.11217339336872101, -0.21263939142227173, -0.07865045219659805, -0.009923387318849564, 0.17260465025901794, 0.09426895529031754, -0.009485570713877678, -0.01356631238013506, -0.13457204401493073, -0.02329881675541401, -0.12587448954582214, -0.051982540637254715, -0.1912516951560974, -0.3734579384326935, -0.22916164994239807, -0.1065056174993515, -0.25344014167785645, -0.1881992667913437, -0.047067515552043915, 0.45766839385032654, -0.03449740260839462, 0.2550482451915741, 0.16384290158748627, -0.04505496472120285, -0.046945590525865555, -0.013463327661156654, -0.09742487967014313, 0.3275514841079712, -0.020132597535848618, 0.02687934599816799, 0.3696369230747223, -0.053443361073732376, 0.2549644708633423, 0.20873859524726868, -0.06782398372888565, 0.12895147502422333, 0.09947597980499268, -0.026886234059929848, 0.011446449905633926, -0.3118947446346283, 0.07905059307813644, -0.05962542071938515, 0.005298546515405178, 0.6460026502609253, -0.0051018064841628075, -0.1696663200855255, -0.18061380088329315, 0.16737039387226105, 0.0678078755736351, 0.04476883262395859, 0.006114807911217213, 0.1939968317747116, 0.009728338569402695, 0.0103023461997509, 0.09138789027929306, -0.3146522641181946, 0.07322432100772858, 0.2984189987182617, -0.06192588806152344, -0.16950847208499908, -0.11145684868097305, 0.21414650976657867, 0.16450335085391998, -0.3201812207698822, -0.26404696702957153, 0.08125180006027222, -0.23812557756900787, 0.43256431818008423, 0.03640647977590561, -0.03611473739147186, -0.22239871323108673, 0.024343663826584816, 0.01830199547111988, 0.14050956070423126, -0.0037083220668137074, -0.12269613891839981, 0.1881377100944519, -0.21158429980278015, 0.43385791778564453, -0.11336810886859894, 0.013765247538685799, 0.29576271772384644, 0.01882890798151493, -0.04700450599193573, -0.30852869153022766, -0.0563984140753746, 0.24341146647930145, -0.0005519501282833517, 0.09629514068365097, 0.1588071882724762, -0.12016130238771439, 0.05200541019439697, -0.0004842027265112847, 0.07271713018417358, 0.22317224740982056, 0.01640898734331131, -0.17516285181045532, -0.09914755076169968, 0.16055352985858917, -0.06868505477905273, -0.10354840755462646, 0.004181646276265383, 0.17311598360538483, 0.08696965873241425, -0.1413452923297882, -0.06579611450433731, 0.04692617058753967, 0.19798028469085693, 0.09500022232532501, 0.039607346057891846, 0.10362157970666885, -0.12148203700780869, 0.03957609832286835, 0.026602115482091904, 0.06703728437423706, 0.15592388808727264, -0.30474740266799927, 0.22959479689598083, 0.13160328567028046, -0.3835631012916565, 0.20038346946239471, 0.25436124205589294, -0.05904296413064003, 0.38287487626075745, 0.18898873031139374, -0.2700918912887573, 0.023687079548835754, 0.026010408997535706, 0.12393320351839066, -0.34437379240989685, -0.10753867775201797, 0.17763490974903107, -0.3234058916568756, 0.03832988813519478, -0.08962327986955643, 0.08928108215332031, -0.03617182374000549, 0.22203820943832397, 0.03879420459270477, -0.20550264418125153, 0.1787438839673996, 0.17140217125415802, -0.023574871942400932, -0.05186194181442261, -0.3879276514053345, -0.20298150181770325, 0.07186388224363327, -0.32758575677871704, 0.07164633274078369, 0.19857586920261383, 0.17154070734977722, -0.1031651571393013, -0.08817651867866516, -0.256721168756485, -0.13983650505542755, 0.15370135009288788, -0.01897704042494297, -0.0547977015376091, -0.01894163154065609, 0.06542568653821945, -0.04597214236855507, 0.031193211674690247, 0.30277979373931885, -0.2976672053337097, -0.030284825712442398, 0.0348079651594162, 0.07316437363624573, -0.317081093788147, 0.32612189650535583, -0.07109259068965912, -0.27131155133247375, 0.3218105137348175, -0.08585155010223389, -0.19745005667209625, -0.223976269364357, -0.07323163002729416, 0.14421802759170532, -0.2311817705631256, 0.04273671656847, 0.0038413398433476686, 0.062113773077726364, 0.010104212909936905, 0.0028564301319420338, 0.09317781776189804, 0.057948432862758636, -0.17621676623821259, 0.09122683107852936, 0.22253644466400146, -0.038759153336286545, -0.22355899214744568, 0.0034775533713400364, -0.022691642865538597, 0.2788301706314087, -0.0882585197687149, -0.1150151938199997, 0.23289833962917328, 0.14445403218269348, 0.06878380477428436, -0.15593335032463074, 0.07582930475473404, -0.0044386438094079494, -0.0491366945207119, -0.28200119733810425, -0.1683703511953354, 0.03412538766860962, 0.17392513155937195, 0.07504312694072723, 0.07673237472772598, 0.21139349043369293, 0.0136034544557333, -0.12499447166919708, 0.3040013313293457, 0.035817235708236694, 