{"version": "0.5.2", "metadata": {"date": {"year": 2023, "month": 11, "day": 20, "hour": 21, "minute": 36, "second": 36}, "loudness": -21.072511672973633, "gain": 0.8006431621120873, "name": "SinMix 5150 Metal!", "modeled_by": "SinMix", "gear_type": "amp_pedal_cab", "gear_make": "Peavey 5150 Maxon OD808 Mesa rectifier 412 Shure sm57", "gear_model": "www.sinmix.pl", "tone_type": "hi_gain"}, "architecture": "WaveNet", "config": {"layers": [{"input_size": 1, "condition_size": 1, "head_size": 8, "channels": 16, "kernel_size": 3, "dilations": [1, 2, 4, 8, 16, 32, 64, 128, 256, 512], "activation": "Tanh", "gated": false, "head_bias": false}, {"input_size": 16, "condition_size": 1, "head_size": 1, "channels": 8, "kernel_size": 3, "dilations": [1, 2, 4, 8, 16, 32, 64, 128, 256, 512], "activation": "Tanh", "gated": false, "head_bias": true}], "head": null, "head_scale": 0.02}, "weights": [-0.020688338205218315, 0.6055063009262085, -0.7492315173149109, -0.6807435750961304, -0.1985994577407837, 0.06792044639587402, -0.009015020914375782, 0.7590097784996033, -0.049694690853357315, 0.2847767174243927, -0.14672322571277618, -0.19337113201618195, -0.994780957698822, -0.6443989872932434, -0.36955997347831726, 0.0038911954034119844, 0.15708845853805542, 0.030036626383662224, -0.07894337922334671, -0.16719239950180054, 0.030746428295969963, 0.16559746861457825, 0.07381236553192139, 0.13113941252231598, -0.06955331563949585, 0.11816626042127609, 0.15346622467041016, -0.18166901171207428, 0.016897764056921005, -0.013127443380653858, -0.09140465408563614, 0.04421054944396019, -0.07867369800806046, -0.03380299359560013, 0.015184616670012474, -0.1551315188407898, -0.06376806646585464, 0.01867549680173397, 0.036870818585157394, 0.11435051262378693, 0.10566109418869019, -0.09050504863262177, 0.03526012971997261, -0.24055266380310059, -0.11864832788705826, -0.026365116238594055, 0.1826898157596588, 0.09266779571771622, -0.10722516477108002, 0.09745251387357712, 0.1077166497707367, 0.09968943893909454, 0.16032209992408752, 0.044718459248542786, 0.04814543202519417, 0.0189793910831213, 0.0509035550057888, -0.1577373445034027, 0.007391958963125944, -0.04859993979334831, 0.02477230317890644, 0.1922050267457962, -0.0186306219547987, 0.17474423348903656, -0.11961323767900467, -0.13136088848114014, -0.20436623692512512, -0.00477320421487093, -0.09925445169210434, 0.20297375321388245, -0.06799731403589249, 0.13996200263500214, -0.0036631571128964424, 0.16125841438770294, 0.3171447515487671, 0.06421499699354172, 0.0641869530081749, 0.06167437881231308, -0.05252103880047798, -0.07838021963834763, -0.26929834485054016, 0.23463541269302368, 0.16735301911830902, -0.00010039189510280266, -0.0012793634086847305, -0.06609854847192764, -0.21778389811515808, -0.0034399426076561213, -0.02923022396862507, -0.023768577724695206, -0.1013924703001976, 0.05525084212422371, -0.05145953223109245, 0.1307222992181778, -0.12444819509983063, 0.07721395790576935, -0.015236085280776024, 0.04562472552061081, 0.05616169050335884, -0.17362843453884125, 0.18084190785884857, 0.2914378345012665, -0.1229390799999237, 0.005243322346359491, 0.05656861886382103, -0.06524384021759033, -0.07670222967863083, 0.07212917506694794, -0.08080316334962845, 0.0012436934048309922, -0.08230941742658615, -0.06108483672142029, -0.03482500836253166, -0.065596804022789, -0.0840250626206398, -0.1404583752155304, 0.3016701340675354, 0.03652935102581978, 0.03506837785243988, -0.30540233850479126, 0.025651441887021065, 0.025501416996121407, -0.4090522229671478, 0.04089977964758873, -0.10054175555706024, -0.397491455078125, -0.04167916253209114, -0.15903209149837494, 0.17964717745780945, -0.1568480283021927, -0.020331071689724922, -0.08948425948619843, -0.063321553170681, -0.025098608806729317, 0.44492384791374207, 0.012064275331795216, 0.1529475599527359, -0.15734727680683136, 0.07249151170253754, 0.04596908390522003, 0.4332856237888336, 0.10692398995161057, 0.18484002351760864, -0.3115052282810211, -0.12267542630434036, -0.025713954120874405, -0.21291910111904144, -0.0029543861746788025, -0.060557860881090164, -0.4552573263645172, -0.16862347722053528, -0.10188695788383484, -0.3680838644504547, 0.05395645275712013, 0.10367913544178009, -0.46829602122306824, 0.07259839028120041, -0.21324943006038666, -0.14128805696964264, -0.16816185414791107, -0.10438878834247589, -0.09736340492963791, -0.19452595710754395, -0.14765295386314392, -0.16477538645267487, 0.14423125982284546, -0.036292776465415955, 0.20339272916316986, -0.26676350831985474, 0.017522037029266357, 0.27525874972343445, -0.19973352551460266, 0.1454700082540512, 0.1886993646621704, -0.2761211097240448, 0.08837221562862396, -0.12439306825399399, 0.07363885641098022, 0.11722102016210556, -0.10462303459644318, -0.13019995391368866, -0.05326041579246521, -0.0447186715900898, 0.1847892701625824, 0.04214745759963989, 0.10299563407897949, -0.16363446414470673, -0.03891252726316452, -0.2314084768295288, 0.22983761131763458, 0.12172391265630722, 0.22993041574954987, -0.2534179091453552, 0.018306177109479904, 0.02906017377972603, -0.23372043669223785, -0.05675526335835457, 0.1966094821691513, -0.22825367748737335, 0.01917455531656742, 0.1524805873632431, -0.051434475928545, -0.08557022362947464, 0.04622656852006912, -0.22695432603359222, 0.15643852949142456, -0.0014548007166013122, 0.1358957588672638, -0.17172206938266754, -0.07332726567983627, -0.17474272847175598, 0.24839197099208832, 0.20694473385810852, -0.08660835027694702, -0.2762483060359955, -0.17342354357242584, -0.057840496301651, -0.35098060965538025, -0.07568084448575974, -0.06004811450839043, -0.26481014490127563, -0.039545688778162, 0.11966704577207565, 0.17901527881622314, -0.011828388087451458, -0.034412775188684464, -0.10000154376029968, 0.011800062842667103, 0.18871980905532837, 0.2542852759361267, 0.1998508870601654, 0.06307876855134964, -0.12028897553682327, 0.095229372382164, 0.18234743177890778, 0.17249540984630585, 0.21371279656887054, -0.15663349628448486, -0.29410892724990845, -0.12602324783802032, 0.13349848985671997, -0.13921920955181122, -0.21616710722446442, 0.08149941265583038, -0.20885689556598663, -0.3370727598667145, 0.15638267993927002, -0.3916325271129608, -0.19257712364196777, 0.03393440693616867, -0.3435195982456207, -0.1703202724456787, 0.18359346687793732, -0.06718422472476959, -0.09672436118125916, -0.04467874765396118, -0.03680262342095375, 0.12534943222999573, -0.03507920727133751, -0.07085426151752472, 0.09058985114097595, -0.03309838846325874, 0.044728368520736694, -0.06837437301874161, 0.1640741378068924, -0.07755209505558014, -0.2185656875371933, 0.15863876044750214, 0.10064718872308731, -0.13014239072799683, 0.05444333329796791, -0.10191620141267776, -0.03482789173722267, -0.13317427039146423, -0.09931733459234238, -0.21580669283866882, 0.22623570263385773, -0.065876804292202, 0.1641227751970291, -0.07587762176990509, 0.09525769203901291, -0.11966635286808014, 0.05242320895195007, 0.11599823832511902, 0.15280458331108093, -0.008272780105471611, -0.049959782510995865, -0.11184171587228775, 0.10941234230995178, -0.007655542343854904, -0.24005819857120514, 0.19382081925868988, 0.01257815957069397, -0.18321801722049713, 0.08060071617364883, -0.11567781865596771, -0.07954930514097214, 0.010131582617759705, 0.03680182620882988, -0.22185134887695312, 0.05302935093641281, -0.176831915974617, -0.27751442790031433, -0.1555076539516449, 0.09647418558597565, -0.18505322933197021, 0.009437143802642822, -0.09057313948869705, 0.13979291915893555, -0.007575085386633873, 0.03770240768790245, -0.10099690407514572, 0.04685327783226967, 0.10020142048597336, -0.025489576160907745, 0.0887322649359703, 0.07368528842926025, -0.07882364839315414, 0.055156778544187546, -0.12437693029642105, 0.06995690613985062, 0.002036632038652897, -0.1369936764240265, -0.08899194002151489, 0.06348098069429398, -0.02616761066019535, 0.1624903529882431, 0.022070148959755898, 0.1783469319343567, -0.16426821053028107, -0.11319243907928467, -0.27913424372673035, 0.22762806713581085, 0.10479191690683365, 0.04007866606116295, -0.028900567442178726, 0.10649106651544571, 0.29707399010658264, 0.04568043723702431, 0.10850152373313904, 0.12160385400056839, -0.1330525428056717, 0.11035354435443878, 0.23552238941192627, -0.1676039695739746, 0.12541884183883667, 0.22130179405212402, -0.001586263533681631, -0.0967579111456871, 1.4378409105120227e-05, -0.19194169342517853, 0.08150193840265274, 0.058850936591625214, 0.028122002258896828, 0.016565000638365746, -0.028117401525378227, 0.07932936400175095, 0.15689906477928162, -0.014058760367333889, -0.09816530346870422, -0.18280665576457977, -0.05435558781027794, -0.24651767313480377, 0.031276412308216095, 0.16470861434936523, 0.015368117950856686, 0.040283624082803726, -0.1973010003566742, -0.0017281664768233895, 0.03939537703990936, -0.038369353860616684, 0.05634331703186035, -0.08545517921447754, -0.1581142395734787, -0.00705238152295351, 0.004109411500394344, 0.19550077617168427, 0.028490815311670303, 0.05536603182554245, 0.019743630662560463, 0.24797073006629944, 0.03287743777036667, 0.15078292787075043, 0.014127930626273155, -0.019961129873991013, 0.23640286922454834, -0.04438894987106323, 0.018503855913877487, 0.03753767907619476, -0.06234477087855339, -0.0706082135438919, 0.054874319583177567, -0.21115754544734955, -0.1634676605463028, -0.026200251653790474, -0.03267550840973854, 0.017899584025144577, -0.13927698135375977, -0.18854443728923798, 0.01042577251791954, 0.27350831031799316, 0.05948172137141228, -0.06574798375368118, 0.20033392310142517, 0.3930377662181854, 0.01279034186154604, 0.06662674248218536, -0.22571958601474762, -0.17639793455600739, 0.011712194420397282, -0.4165862500667572, -0.14246699213981628, 0.0692858025431633, -0.31134045124053955, -0.2016894519329071, -0.05390935763716698, 0.19558091461658478, 0.005151154939085245, 0.015869656577706337, 0.040339432656764984, 0.05943109467625618, -0.02042621746659279, 0.3448540270328522, 0.18861903250217438, 0.14681701362133026, -0.2672761380672455, -0.02920840121805668, -0.06521990150213242, 0.2276001125574112, 0.15450052917003632, -0.14954127371311188, -0.25646862387657166, 0.033016834408044815, -0.03225395455956459, -0.39966338872909546, -0.13652482628822327, -0.043783754110336304, -0.4504424035549164, -0.0559794157743454, -0.19906817376613617, -0.47496870160102844, -0.25950297713279724, -0.08899815380573273, -0.22721964120864868, -0.24334755539894104, 0.15247000753879547, 0.02533528208732605, 0.16180694103240967, -0.01757853291928768, 0.014863812364637852, 0.15153762698173523, 0.37856078147888184, 0.20508068799972534, 0.032791975885629654, -0.39944204688072205, 0.051402878016233444, 0.043122582137584686, -0.23527614772319794, -0.18461278080940247, -0.002530067227780819, -0.4337174892425537, -0.12960268557071686, 0.07195157557725906, 0.10295650362968445, 0.07316531985998154, -0.010314302518963814, 0.05845280736684799, 0.04079020395874977, 0.19036749005317688, 0.26011741161346436, 0.13619650900363922, 0.10457715392112732, -0.06258828938007355, 0.04871338978409767, 0.15746121108531952, 0.14464323222637177, -0.09416315704584122, 0.03195358067750931, -0.3462972044944763, 0.012773046270012856, -0.03346583619713783, -0.35223692655563354, -0.17502190172672272, 0.1403055042028427, -0.3249039053916931, 0.04291015863418579, 0.12451236695051193, -0.22143103182315826, -0.06592428684234619, -0.004101983271539211, -0.3327309191226959, -0.054366204887628555, 0.11187887191772461, -0.034234579652547836, 0.21512718498706818, 0.1352788209915161, -0.13732951879501343, 0.22706133127212524, 0.15907569229602814, 0.3719613552093506, -0.3061824142932892, 0.09080059826374054, -0.1740797907114029, 0.24693934619426727, 0.12589149177074432, -0.3200564980506897, 0.20931987464427948, 0.06863671541213989, -0.27410945296287537, 0.20806989073753357, -0.030466966331005096, 0.29860836267471313, -0.17802885174751282, -0.05445464327931404, 0.03971405699849129, 0.1858777552843094, 0.054908882826566696, 0.25326213240623474, -0.08176405727863312, -0.02596387267112732, -0.16777408123016357, 0.15653769671916962, 0.021058104932308197, 0.13821600377559662, -0.2674002945423126, -0.0807606503367424, -0.08677053451538086, 0.1261151283979416, 0.01627102494239807, -0.30603668093681335, 0.31070756912231445, 0.1532481461763382, -0.3522036075592041, 0.05331561714410782, -0.09697949141263962, -0.24053655564785004, 0.12915481626987457, -0.08340530097484589, -0.2931458652019501, 0.18964476883411407, -0.06625165790319443, 0.11894341558218002, 0.053271736949682236, -0.0487247034907341, -0.013522820547223091, 0.19211596250534058, -0.09340529143810272, -0.0029406200628727674, -0.09165098518133163, 0.048286084085702896, -0.12713105976581573, -0.10157056152820587, 0.23543284833431244, -0.08216976374387741, 0.06328978389501572, 0.08185803890228271, -0.021662186831235886, -0.001255637384019792, 0.1832725554704666, -0.027707628905773163, -0.19009819626808167, -0.1917470097541809, -0.04806702956557274, 0.11910269409418106, -0.0023042235989123583, 0.12859795987606049, -0.06237472966313362, -0.11563293635845184, 0.15495231747627258, 0.1640889197587967, 0.2163648009300232, 0.07425785809755325, -0.0989554151892662, -0.19398389756679535, 0.010891953483223915, 0.16178470849990845, 0.054672516882419586, -0.10846066474914551, 0.11108410358428955, 0.25161197781562805, -0.03436405211687088, -0.08554213494062424, -0.04039617255330086, 0.04475187510251999, 0.021753735840320587, 0.018556030467152596, 0.04160494729876518, 0.09189896285533905, 0.2108258306980133, 0.15417596697807312, 0.14280791580677032, -0.009979091584682465, -0.05634284391999245, 0.15683472156524658, 0.07556172460317612, -0.16289347410202026, -0.2971079349517822, 0.22994212806224823, 0.3614022135734558, 0.3035908639431, -0.22015655040740967, 0.1690635085105896, 0.0742279440164566, 0.0345037467777729, 0.14660876989364624, 0.10147809237241745, -0.03248119726777077, -0.20898588001728058, -0.18518851697444916, 0.13722652196884155, -0.005453683435916901, -0.09255977720022202, -0.12948057055473328, -0.2887270450592041, -0.12743839621543884, 0.22388216853141785, 0.1535400152206421, 0.039300184696912766, -0.06035242974758148, -0.19170813262462616, -0.20368072390556335, 0.2438100129365921, 0.2285943180322647, 0.017665289342403412, -0.16530418395996094, 0.10250324010848999, 0.28145381808280945, -0.14725327491760254, 0.09908036887645721, 0.16701115667819977, -0.005412054713815451, 0.2614307105541229, 0.22317218780517578, -0.08621890097856522, 0.2681856155395508, 0.13288094103336334, -0.16791793704032898, -0.07292143255472183, -0.04489464312791824, 0.07386818528175354, -0.28327441215515137, -0.013967500999569893, 0.12341015785932541, 0.008167402818799019, -0.4236050844192505, 0.05239368975162506, -0.07695429772138596, 0.4508880376815796, -0.027059810236096382, -0.029796289280056953, 0.4104132056236267, 0.024284381419420242, 0.1081201434135437, 0.21246352791786194, -0.059251803904771805, 0.0009054906549863517, -0.20941108465194702, 0.12128952890634537, -0.06684263795614243, 0.1900429129600525, -0.047282349318265915, -0.034154608845710754, -0.22836093604564667, -0.19423457980155945, -0.10376349836587906, 0.2710461914539337, -0.01585455983877182, 0.13186293840408325, -0.32848212122917175, 0.04766538739204407, -0.15866708755493164, 0.2832625210285187, 0.027156585827469826, 0.021843524649739265, 0.3548294007778168, 0.15889276564121246, -0.012333810329437256, 0.3308073878288269, 0.1879238486289978, -0.03663909435272217, 0.4595654606819153, -0.013680681586265564, -0.021362394094467163, 0.3129351735115051, 0.13488785922527313, 0.09370320290327072, -0.10606714338064194, -0.2118259221315384, -0.032437022775411606, 0.017783617600798607, -0.1214003786444664, 0.17766079306602478, 0.3651493489742279, 0.10826613008975983, -0.258561372756958, -0.41121533513069153, 0.12760710716247559, -0.37568625807762146, -0.24306735396385193, 0.05201525241136551, -0.30846408009529114, -0.20645835995674133, -0.08136166632175446, 0.1965634524822235, 0.08656347543001175, -0.10330300778150558, -0.043979644775390625, 0.07454679906368256, 0.054178010672330856, 0.3598822057247162, 0.2611617147922516, -0.10071776807308197, -0.24945248663425446, -0.21715033054351807, 0.2086678445339203, 0.21169687807559967, 0.23153096437454224, 0.0003170879208482802, -0.13091881573200226, -0.12541137635707855, 0.17483215034008026, -0.3404107987880707, -0.2656841278076172, -0.02375105582177639, -0.35840892791748047, -0.24580927193164825, 0.162128746509552, -0.3805919289588928, -0.1890660971403122, -0.04173177853226662, -0.28473153710365295, -0.15214645862579346, 0.008846424520015717, -0.054399821907281876, -0.16041414439678192, 0.012236150912940502, 0.14701230823993683, -0.015326210297644138, 0.13536201417446136, -0.1545681655406952, 0.016075696796178818, 0.006563657429069281, 0.16180825233459473, -0.17574337124824524, 0.06501030176877975, 0.17161810398101807, -0.039021093398332596, -0.07594440132379532, 0.02877218835055828, -0.1818157136440277, -0.11502830684185028, -0.03763328865170479, 0.2330859899520874, 0.1031818687915802, 0.09379888325929642, 0.02513996884226799, 0.06132430210709572, 0.05770986154675484, 0.07345090061426163, -0.10254236310720444, 0.06853879988193512, -0.007745712995529175, -0.11288736760616302, 0.07210700958967209, 0.1623145341873169, -0.10840532928705215, 0.009421835653483868, -0.015318069607019424, -0.1118878722190857, 0.01624903455376625, -0.07330062985420227, -0.10762254893779755, 0.12796741724014282, -0.057659778743982315, 0.08764822781085968, -0.042881544679403305, 0.008193450048565865, -0.08593291789293289, 0.19576703011989594, -0.2681448459625244, -0.12365768104791641, 0.10622276365756989, 0.07249992340803146, 0.10850729793310165, -0.004316375125199556, -0.1478101909160614, -0.22168126702308655, -0.050930462777614594, -0.10645230859518051, 0.017893601208925247, 0.004050291143357754, -0.001424263697117567, 0.19263285398483276, 0.10039682686328888, -0.05573540925979614, 0.049391116946935654, 0.008332539349794388, 0.014852895401418209, -0.265686959028244, 0.018942207098007202, 0.4914497435092926, -0.3799450695514679, 0.8402977585792542, -0.5681917667388916, -0.04106007143855095, 0.7979381084442139, 0.9972971677780151, -0.486007422208786, 0.3177867531776428, 0.09063713252544403, -0.47523409128189087, -0.43056949973106384, 0.35345810651779175, -0.7973580360412598, 0.14995858073234558, 0.43877843022346497, 0.18733716011047363, 0.25160354375839233, 0.09021187573671341, 0.2658088505268097, 0.2141178399324417, -0.09238128364086151, 0.1568208932876587, -0.13789881765842438, -0.13280382752418518, -0.11163219064474106, -0.02062269300222397, -0.2171102911233902, 0.26310238242149353, -0.002663677092641592, 0.21763873100280762, 0.03147869184613228, 0.09379289299249649, -0.1834719181060791, -0.2826894223690033, 0.08617639541625977, 0.02456095442175865, -0.05433908849954605, -0.21198396384716034, 0.015330975875258446, 0.09712178260087967, 0.23623093962669373, 0.19185394048690796, 0.0173592958599329, 0.013698451220989227, -0.07342022657394409, 0.0005262595950625837, 0.0833204984664917, -0.03320251405239105, 0.08876652270555496, -0.06292829662561417, 0.1819080263376236, -0.17811743915081024, -0.0785265639424324, 0.017117975279688835, 0.010029741562902927, 0.008872704580426216, -0.15787997841835022, 0.2219369262456894, -0.1531263291835785, 0.17956297099590302, 0.282522052526474, 0.030129089951515198, 0.010941709391772747, 0.0125310393050313, -0.08298468589782715, -0.16130074858665466, -0.12048353254795074, -0.18168365955352783, 0.057770051062107086, 0.04042626544833183, 0.04270632565021515, -0.22959327697753906, -0.07602671533823013, -0.1845317780971527, -0.021755604073405266, 0.254418283700943, 0.28308624029159546, -0.3108394742012024, 0.010823865421116352, 0.16844168305397034, -0.28003087639808655, -0.2822922170162201, 0.1502166986465454, 0.013587811961770058, 0.17016755044460297, 0.21552427113056183, -0.019389713183045387, 0.07492617517709732, 0.15887320041656494, -0.16162484884262085, -0.143555149435997, 0.056077372282743454, 0.20177076756954193, -0.2741016745567322, 0.12361784279346466, -0.16376866400241852, -0.007163028698414564, 0.025142425671219826, 0.09711480885744095, 0.17567746341228485, 0.13884776830673218, 0.03360768407583237, -0.011297984980046749, 0.1520233154296875, -0.04202478751540184, -0.14297518134117126, -0.03631574288010597, 0.026644261553883553, -0.14607907831668854, 0.07392310351133347, -0.11386435478925705, 0.027630101889371872, 0.1429060846567154, 0.11273552477359772, 0.14786867797374725, -0.3417561948299408, -0.2079290747642517, -0.08606062829494476, -0.10653234273195267, 0.013933458365499973, -0.3574390709400177, -0.2060510516166687, 0.08965898305177689, 0.1913178712129593, -0.10088618844747543, -0.0032104512210935354, -0.15189410746097565, 0.10198130458593369, 0.10409794002771378, 0.2283097803592682, -0.10017561912536621, -0.21433432400226593, 0.12257365882396698, 0.17605897784233093, -0.04201645776629448, 0.15704157948493958, -0.21698585152626038, 0.2077294886112213, -0.2818042039871216, 0.1094173863530159, -0.17218901216983795, -0.1420389860868454, -0.024051135405898094, -0.07949768006801605, -0.09786561876535416, -0.16950127482414246, -0.24497346580028534, 0.13551445305347443, 0.029589464887976646, 0.13908007740974426, 0.13514254987239838, -0.16934698820114136, -0.12679360806941986, -0.12013975530862808, 0.12536272406578064, 0.009076197631657124, -0.1673669070005417, 0.08740691095590591, 0.11686161160469055, 0.1744830459356308, -0.14504261314868927, 0.12637324631214142, -0.3034355640411377, -0.2759685814380646, 0.14657260477542877, 0.40693527460098267, -0.003981688525527716, 0.23554740846157074, 0.1616663932800293, -0.23289412260055542, -0.22931504249572754, 0.1506730020046234, 0.06834110617637634, -0.26730966567993164, 0.16790010035037994, 0.14232613146305084, 0.23632878065109253, -0.38887709379196167, 0.165846049785614, -0.29205480217933655, -0.183353453874588, 0.11034230887889862, 0.04747939854860306, 0.005075785797089338, -0.31572991609573364, -0.29920169711112976, -0.1834019124507904, 0.1286359429359436, 0.21908843517303467, -0.15911734104156494, 0.13508638739585876, 0.009778736159205437, -0.08454429358243942, -0.0029840320348739624, -0.0725327730178833, -0.14277301728725433, -0.11020597815513611, 0.20947450399398804, 0.11578844487667084, -0.19271545112133026, -0.31310972571372986, -0.18221509456634521, -0.20841361582279205, -0.08264084905385971, 0.3628678321838379, -0.3772464990615845, 0.0973028689622879, 0.017724504694342613, -0.0306650809943676, 0.1825229972600937, 0.030747320502996445, 0.06050395220518112, -0.07012644410133362, 0.08931449800729752, 0.0037398647982627153, 0.3239062428474426, -0.13607938587665558, -0.3647165596485138, 0.006110535468906164, 0.28015634417533875, -0.33321619033813477, -0.04843201860785484, 0.08942770957946777, -0.09817788749933243, -0.23544321954250336, -0.2033655345439911, 0.046704843640327454, -0.11230427026748657, 0.2312752604484558, 0.05295281112194061, -0.019074123352766037, 0.07266971468925476, -0.047732915729284286, 0.036874573677778244, -0.15059709548950195, -0.19856439530849457, -0.048935770988464355, -0.2842160761356354, 0.016666969284415245, -0.02439408376812935, 0.2558422088623047, -0.17718571424484253, -0.03642898052930832, 0.0006686254637315869, -0.020452585071325302, 0.057515136897563934, -0.005621667951345444, -0.3572949469089508, 0.03969155251979828, 0.0255489069968462, -0.06112171337008476, 0.1281438022851944, 0.32814764976501465, -0.3022572994232178, -0.02721373923122883, -0.03518843278288841, -0.0056376587599515915, 0.24701277911663055, -0.2666844427585602, -0.08569297194480896, 0.2788185179233551, 0.022636983543634415, 0.08294841647148132, -0.22975753247737885, -0.12319028377532959, -0.11932835727930069, -0.08081459254026413, -0.11852605640888214, 0.24085666239261627, 0.11126116663217545, 0.12751471996307373, 0.17810901999473572, -0.10165373235940933, 0.09154993295669556, -0.11102962493896484, -0.07869033515453339, 0.001199799939058721, 0.0207261610776186, -0.07567081600427628, 0.0272116269916296, -0.10314502567052841, 0.027248594909906387, -0.006992422044277191, 0.014694486744701862, -0.004875701852142811, -0.07934945076704025, 0.054732225835323334, -0.022429199889302254, -0.007919472642242908, -0.07317983359098434, 0.4117025136947632, -0.06172493100166321, -0.03891510143876076, -0.2557011544704437, -0.04767169803380966, 0.3420531153678894, -0.3329741656780243, -0.013993901200592518, 0.19917987287044525, -0.26817160844802856, -0.07184478640556335, 0.1972334235906601, 0.302206814289093, -0.079874187707901, -0.26812517642974854, -0.36408674716949463, -0.15772108733654022, 0.2846619188785553, 0.22323523461818695, -0.14135108888149261, -0.4554133415222168, -0.06480205804109573, 0.328870952129364, 0.10825888067483902, -0.13954192399978638, 0.05694250017404556, -0.060608964413404465, -0.3094775676727295, 0.0010850257240235806, 0.3842073380947113, -0.3894515037536621, -0.11994854360818863, 0.33129921555519104, -0.3866642415523529, 0.34597545862197876, 0.15322400629520416, -0.35350969433784485, 0.10679556429386139, 0.1526937335729599, -0.33405905961990356, 0.0784386619925499, 0.36748018860816956, -0.19672173261642456, -0.11647655814886093, 0.0772954672574997, -0.14026272296905518, 0.06921838223934174, 0.03819127753376961, -0.05506635084748268, -0.025737373158335686, 0.10094090551137924, -0.14449821412563324, -0.10454946011304855, 0.23310132324695587, -0.18480323255062103, -0.009355978108942509, -0.030463775619864464, 0.11781732738018036, -0.14999598264694214, 0.17623606324195862, -0.08176680654287338, -0.05235503986477852, -0.1396530270576477, 0.017474915832281113, -0.1286449134349823, 0.10170048475265503, 0.1532651036977768, -0.05997251346707344, -0.06668371707201004, -0.4580487906932831, -0.385969877243042, -0.3009359538555145, 0.23395591974258423, 0.11229997873306274, 0.002082993509247899, 0.008564340882003307, 0.01198106911033392, 0.15490654110908508, -0.13753971457481384, -0.09231094270944595, 0.25740790367126465, -0.2582928538322449, 0.23587703704833984, 0.22509276866912842, -0.030582144856452942, 0.06671614199876785, 0.14444825053215027, -0.1037609651684761, -0.15761275589466095, 0.10364436358213425, -0.0571417510509491, 0.18101271986961365, 0.014903653413057327, -0.4426218569278717, -0.5824102163314819, -0.4752686023712158, 0.16003462672233582, 0.23091432452201843, 0.018391279503703117, 0.008005332201719284, -0.12634071707725525, -0.04641060158610344, 0.24315278232097626, -0.07391209155321121, -0.053820397704839706, 0.25561603903770447, -0.02025029994547367, 0.20016184449195862, -0.07558589428663254, 0.221655011177063, 0.19727908074855804, 0.17336292564868927, -0.3398483395576477, -0.2689477801322937, 0.03935922682285309, 0.02340608648955822, 0.09853598475456238, -0.15744943916797638, 0.13687266409397125, 0.08840061724185944, 0.24804925918579102, 0.3572828769683838, -0.0779482051730156, -0.04071056842803955, -0.3094295859336853, -0.015706347301602364, 0.21302667260169983, -0.19322848320007324, 0.014697146601974964, -0.17917989194393158, -0.07709737122058868, -0.11096834391355515, 0.11226698011159897, -0.0927969291806221, 0.06148345023393631, -0.01973394863307476, -0.08280377835035324, 0.03487655520439148, -0.0694660171866417, 0.16544489562511444, 0.12714675068855286, -0.08106550574302673, -0.40315258502960205, 0.005593877751380205, -0.3105618953704834, 0.12927035987377167, 0.11673066020011902, 0.24510715901851654, -0.19020161032676697, -0.3001493513584137, 0.22585049271583557, 0.03476860001683235, -0.23171362280845642, 0.06556612998247147, -0.12626177072525024, -0.11006636917591095, -0.23467478156089783, 0.17710211873054504, 0.1171436533331871, 0.2049465775489807, 0.05199545621871948, -0.1293233186006546, -0.3602651059627533, 0.07831171900033951, 0.18479155004024506, 0.25669988989830017, -0.05103079229593277, -0.10503685474395752, 0.022159518674016, -0.2326572686433792, -0.04173295944929123, 0.26278209686279297, -0.20183567702770233, -0.16059580445289612, 0.27414798736572266, 0.01947828009724617, -0.006044410169124603, 0.27585482597351074, 0.18870361149311066, -0.18614989519119263, 0.18966175615787506, -0.21857362985610962, -0.2659677267074585, 0.13250263035297394, -0.10191894322633743, -0.026789797469973564, 0.1951548159122467, 0.08709107339382172, -0.09125269204378128, -0.09609197080135345, -0.1624065637588501, -0.14777810871601105, 0.024972159415483475, 0.10259060561656952, 0.05568985268473625, -0.024058913812041283, -0.10260352492332458, -0.030410856008529663, -0.02175517939031124, -0.03409608080983162, 0.17259834706783295, -0.0025164189282804728, -0.2202199399471283, -0.12572918832302094, -0.2189483493566513, 0.18687908351421356, -0.14444179832935333, 0.14839805662631989, -0.31052809953689575, 0.050618141889572144, -0.0032745543867349625, 0.18132540583610535, 0.10118040442466736, 0.12844453752040863, 0.30233126878738403, -0.009785188362002373, -0.01935533620417118, -0.05033242329955101, 0.06669052690267563, 0.20796115696430206, -0.24892213940620422, 0.01716834120452404, -0.01899782009422779, -0.13818976283073425, 0.12759314477443695, -0.23365887999534607, -0.08072037249803543, 0.016814017668366432, 0.09506663680076599, -0.1360316425561905, 0.021076740697026253, 0.03508397564291954, -0.32941383123397827, -0.1008119285106659, 0.18772953748703003, 0.1473153531551361, 0.23459617793560028, -0.4167745113372803, -0.5807287693023682, -0.22170792520046234, -0.09225086867809296, 0.133787140250206, 0.051474928855895996, -0.26028940081596375, 0.11233752965927124, -0.022106554359197617, -0.06645026057958603, 0.19852297008037567, 0.0451836995780468, -0.06196674704551697, 0.26175183057785034, 0.053378764539957047, 0.3594907522201538, -0.2621119022369385, 0.07057138532400131, 0.013069896958768368, -0.08647391200065613, -0.1022060364484787, 0.4840134382247925, -0.20273593068122864, 0.3068734407424927, -0.34840306639671326, 0.023212430998682976, -0.26710397005081177, 0.6667097806930542, 0.17405810952186584, 0.2692090570926666, -0.04833097383379936, 0.2099737524986267, 0.020401109009981155, 0.0554756224155426, 0.12003231048583984, 0.04804691672325134, 0.37548619508743286, -0.260780394077301, 0.10338525474071503, -0.06823587417602539, -0.022579163312911987, 0.03200190141797066, -0.23244108259677887, 0.3436480164527893, -0.19585934281349182, -0.12880897521972656, -0.10436034947633743, -0.0872291848063469, 0.503369152545929, 0.20642158389091492, 0.13834643363952637, 0.002458186587318778, 0.26584410667419434, -0.18797269463539124, 0.03468763083219528, -0.1815037578344345, 0.13697224855422974, 0.2573952078819275, -0.011956114321947098, 0.09718514233827591, -0.046648092567920685, -0.03436395153403282, 0.013621344231069088, 0.12229245156049728, 0.265672504901886, 0.11631770431995392, 0.20844164490699768, -0.16636285185813904, -0.03590557724237442, 0.03324776142835617, 0.1972377896308899, -0.12162820994853973, -0.09622974693775177, -0.013903569430112839, 0.03155701234936714, 0.2379763126373291, 0.019157525151968002, 0.0026916421484202147, 0.17755070328712463, -0.16507205367088318, 0.07189883291721344, 0.005935008637607098, -0.04875710606575012, 0.026045026257634163, 0.1681406944990158, 0.41403645277023315, -0.07687776535749435, -0.04308342933654785, -0.025182871147990227, -0.1761736124753952, -0.030935214832425117, -0.08834558725357056, 0.042653173208236694, -0.07156982272863388, 0.031627997756004333, 0.07552400231361389, 0.14565075933933258, 0.1518118679523468, 0.004719225689768791, 0.22436441481113434, 0.09405795484781265, -0.03740168362855911, -0.19188256561756134, -0.040033046156167984, 0.2629425823688507, -0.0685197040438652, -0.09613995999097824, 0.07140035927295685, -0.040990255773067474, -0.22706295549869537, -0.0844549909234047, 0.16483917832374573, -0.04826373606920242, -0.21009647846221924, -0.036716654896736145, -0.1856810748577118, 0.08632782846689224, 0.2466205209493637, -0.06102082133293152, -0.16380424797534943, 0.24055777490139008, 0.16569581627845764, 0.597838819026947, 0.5872405171394348, 0.14436998963356018, 0.04544815048575401, 0.07111777365207672, -0.1508437842130661, 0.14544755220413208, -0.1021098718047142, -0.13258886337280273, 0.1807611584663391, -0.1315452754497528, -0.011078706942498684, -0.2390955537557602, -0.16868335008621216, -0.04691578075289726, -0.01014844048768282, 0.012835303321480751, 0.0235297791659832, 0.29015466570854187, 0.1745806485414505, 0.10766858607530594, 0.3072200119495392, 0.3124595582485199, 0.160819873213768, -0.10244408994913101, -0.13368210196495056, -0.10784066468477249, -0.14895832538604736, 0.13839051127433777, 0.1681659072637558, 0.10121078789234161, 0.08857240527868271, 0.058797821402549744, -0.1389029175043106, -0.11520424485206604, 0.024197150021791458, -0.07084019482135773, -0.06968710571527481, -0.04749538004398346, 0.017599109560251236, 0.06433945894241333, 0.09355516731739044, -0.06712564826011658, -0.020922264084219933, -0.08207903057336807, 0.13072365522384644, -0.06776881217956543, -0.010139926336705685, 0.2694132328033447, -0.11016444116830826, 0.11508122086524963, -0.12284141778945923, -0.01155634131282568, 0.021278364583849907, -0.14078855514526367, -0.05030973255634308, 0.08374347537755966, 0.06303694099187851, -0.034828536212444305, -0.1717764139175415, -0.04471718147397041, -0.09544314444065094, -0.07027038931846619, -0.19737853109836578, -0.03998739272356033, 0.03137057647109032, -0.042920131236314774, -0.08732026070356369, -0.025399040430784225, -0.23088884353637695, -0.28281381726264954, -0.055128466337919235, -0.36278048157691956, 0.035364944487810135, 0.13194407522678375, 0.33094871044158936, -0.2396055907011032, 0.039936743676662445, 0.03984372317790985, -0.16141146421432495, 0.16154302656650543, -0.03548569977283478, 0.1924809366464615, 0.0955951139330864, -0.011022061109542847, -0.05673927068710327, -0.18101130425930023, -0.03358069434762001, -0.11270058900117874, -0.006842000409960747, 0.16332899034023285, -0.11782179772853851, -0.05097224563360214, 0.1572660505771637, 0.25242626667022705, 0.3340272009372711, 0.24263504147529602, 0.0043028551153838634, -0.11294862627983093, 0.1518048346042633, -0.17293284833431244, 0.0885690450668335, 0.17939861118793488, -0.0714401826262474, 0.02442649006843567, 0.04928642138838768, -0.043566443026065826, -0.30569592118263245, -0.17858202755451202, -0.13753922283649445, 0.08616461604833603, 0.06808554381132126, -0.1946946531534195, -0.110786572098732, 0.07889997214078903, -0.2025042623281479, 0.016506509855389595, -0.02639942616224289, -0.004809322766959667, 0.11102695763111115, 0.03581232950091362, -0.12843328714370728, -0.020595954731106758, -0.07282719016075134, -0.018661297857761383, -0.13244526088237762, 0.2440892904996872, -0.17420707643032074, -0.16832992434501648, 0.06470371782779694, -0.11375449597835541, -0.15385976433753967, -0.18243533372879028, 0.03177566081285477, 0.22427524626255035, -0.14439766108989716, -0.13100558519363403, -0.0296474639326334, 0.3560835123062134, -0.02557891048491001, 0.11341071128845215, 0.06232845410704613, 0.004387337248772383, -0.01595471240580082, -0.12173391133546829, -0.021095653995871544, -0.2116546779870987, -0.03172910585999489, 0.06005556881427765, -0.19379505515098572, 0.09828505665063858, 0.060786355286836624, -0.14717800915241241, 0.039706774055957794, -0.3063420355319977, 0.38938063383102417, 0.1311999261379242, -0.0015935597475618124, -0.10121577233076096, 0.1279846429824829, 0.05475202947854996, -0.12265598028898239, 0.117714524269104, 0.09181324392557144, -0.19698360562324524, 0.2527887225151062, -0.01840030774474144, -0.08556585013866425, 0.03793526068329811, 0.03251252695918083, -0.102125383913517, -0.18538138270378113, -0.10732722282409668, 0.19950038194656372, 0.2570453882217407, 0.04409781098365784, 0.12968690693378448, 0.15004123747348785, -0.08547449856996536, 0.019154531881213188, -0.1417817622423172, -0.005523274186998606, 0.04850786179304123, -0.11436691880226135, -0.0691700205206871, -0.03688706085085869, 0.33114346861839294, 0.2490016669034958, 0.0033078056294471025, 0.1258268505334854, 0.25020527839660645, -0.05316542088985443, -0.4641011655330658, -0.13495424389839172, -0.1169276311993599, 0.15302692353725433, -0.06247473135590553, 0.13107186555862427, 0.16410388052463531, -0.14383141696453094, 0.08115550130605698, 0.17343834042549133, -0.11642085760831833, 0.3951514661312103, 0.4154737889766693, 0.0323382243514061, 0.04741722717881203, 0.008618447929620743, 0.06354431807994843, 0.09806448966264725, 0.01984209008514881, -0.18560029566287994, -0.1989099532365799, 0.049286771565675735, 0.0884326919913292, -0.036006271839141846, 0.18037500977516174, -0.1994941085577011, -0.005754401441663504, 0.015222614631056786, 0.3046283721923828, 0.12888510525226593, -0.2634839117527008, 0.16662557423114777, 0.05730545520782471, -0.22688360512256622, 0.2961263954639435, -0.032068703323602676, -0.23599962890148163, -0.25203967094421387, -0.18090321123600006, 0.3132607638835907, 0.17342260479927063, 0.00601342273876071, -0.16506493091583252, -0.2795163094997406, 0.00456064660102129, 0.3458799719810486, 0.0024321028031408787, 0.12065348774194717, -0.06956904381513596, -0.23805201053619385, 0.02707204781472683, -0.092948317527771, 0.29244691133499146, 0.16279715299606323, -0.1948505938053131, 0.36040544509887695, -0.07088911533355713, -0.20948055386543274, 0.02555646374821663, -0.2516525089740753, -0.16715608537197113, 0.08340027183294296, -0.041002046316862106, -0.2859538495540619, 0.32264769077301025, -0.005124349612742662, -0.18722838163375854, 0.24243241548538208, 0.2590215802192688, -0.14262905716896057, -0.08737581968307495, -0.10334338247776031, 0.014323413372039795, 0.07662653177976608, 0.19953292608261108, 0.06662102788686752, 0.2057611644268036, -0.13781613111495972, -0.038264475762844086, 0.018484070897102356, 0.014108726754784584, -0.011332896538078785, -0.0681183859705925, 0.0762442946434021, 0.12986762821674347, -0.16976603865623474, 0.04930965602397919, -0.014529379084706306, 0.046252794563770294, 0.04913626238703728, -0.15086977183818817, 0.10231021791696548, 0.10063713788986206, 0.028299648314714432, 0.17542144656181335, -0.0013596706558018923, 0.2286331206560135, -0.0170047115534544, -0.04422224685549736, 0.12177278101444244, 0.06438398361206055, 0.025750717148184776, -0.15052826702594757, 0.0413338728249073, 0.05695943906903267, -0.1427389234304428, -0.5263741612434387, -0.27665406465530396, -0.15353621542453766, 0.024057012051343918, 0.04886482656002045, -0.21682150661945343, 0.09248790889978409, 2.0491241230047308e-05, -0.15616153180599213, -0.21914111077785492, -0.28452807664871216, -0.17503811419010162, -0.243740051984787, 0.08497937768697739, -0.12138066440820694, -0.09474579989910126, 0.1890869140625, -0.09953311085700989, -0.07243668287992477, 0.1839141547679901, -0.1659703254699707, -0.006024130154401064, 0.08631429076194763, -0.07730186730623245, 0.0978659838438034, 0.3122149109840393, 0.07256127893924713, 0.18139110505580902, -0.20572198927402496, 0.10474343597888947, 0.024618567898869514, 0.15239447355270386, -0.1782064437866211, 0.05169687792658806, 0.019444070756435394, -0.014376774430274963, 0.05868733674287796, -0.30480772256851196, -0.03686966747045517, -0.1642555296421051, -0.04851643368601799, 0.14601226150989532, 0.01978963613510132, 0.24772973358631134, -0.06199612468481064, 0.1096874475479126, 0.22937162220478058, -0.15082471072673798, 0.2338247448205948, -0.45388829708099365, -0.2709202170372009, -0.049170222133398056, -0.02701057493686676, -0.17796099185943604, -0.14505144953727722, 0.15189038217067719, -0.27637436985969543, 0.0931549221277237, -0.11460144072771072, -0.3259776532649994, -0.08124557137489319, 0.09724408388137817, -0.2206454873085022, -0.01768714003264904, 0.08629566431045532, 0.0841515064239502, -0.019470524042844772, 0.14977943897247314, -0.0373893566429615, 0.048705730587244034, 0.15492841601371765, -0.1812649667263031, -0.004923156928271055, 0.1855241060256958, 0.0029768438544124365, 0.06244201585650444, -0.24688716232776642, 0.10675159096717834, 0.09334354847669601, 0.09872395545244217, -0.39318162202835083, 0.3046645224094391, -0.13114619255065918, -0.02538170851767063, -0.39698708057403564, -0.13203729689121246, 0.046016279608011246, 0.15191732347011566, 0.21787072718143463, 0.19898487627506256, -0.0011511484626680613, 0.19578471779823303, -0.24097175896167755, -0.045230913907289505, 0.11685670167207718, -0.09236825257539749, 0.12725074589252472, -0.6241236329078674, -0.18523697555065155, 0.12223239988088608, 0.16555863618850708, -0.13753220438957214, -0.015699677169322968, 0.048023249953985214, -0.077131487429142, 0.03825889900326729, 0.006335006095468998, -0.10919195413589478, 0.06308503448963165, 0.09662225842475891, -0.11493492871522903, 0.13259531557559967, -0.11820464581251144, 0.0008192471577785909, 0.02304345741868019, 0.07025329023599625, -0.03135383129119873, -0.012439674697816372, 0.12122998386621475, -0.08636192232370377, 0.09368862211704254, -0.018393980339169502, -0.056980013847351074, -0.05373069643974304, -0.5833349823951721, 0.34819114208221436, 0.35947221517562866, -0.576003909111023, 0.2256677895784378, -0.7088295817375183, -0.47004812955856323, -0.40973830223083496, 0.839128851890564, -0.7145571112632751, -0.48016613721847534, -0.9168748259544373, 0.3103918731212616, -0.7413784861564636, 0.3583054840564728, -0.6406622529029846, -0.29685938358306885, 0.01999165304005146, 0.18091316521167755, 0.30572471022605896, 0.24624782800674438, 0.151932030916214, -0.03314700722694397, -0.14961110055446625, -0.05912294238805771, -0.07866639643907547, 0.24841757118701935, -0.04385029152035713, -0.006025513168424368, -0.03296799585223198, -0.0068421498872339725, -0.10047074407339096, 0.15419930219650269, -0.1977115273475647, -0.07565504312515259, -0.20420987904071808, -0.24075672030448914, 0.2839427590370178, -0.2606876492500305, -0.35146570205688477, 0.21069157123565674, -0.10462445020675659, -0.159557044506073, 0.1159125342965126, 0.1477249413728714, 0.19257350265979767, 0.382552832365036, 0.27611252665519714, -0.06996911764144897, -0.16321736574172974, 0.09242027252912521, 0.18195851147174835, 0.2910465896129608, 0.20535869896411896, 0.10747750848531723, -0.03268001228570938, -0.014263591729104519, -0.059174809604883194, -0.15623988211154938, -0.514241635799408, 0.0024913931265473366, -0.05187450721859932, 0.011591368354856968, -0.17689040303230286, 0.3633245825767517, 0.15381799638271332, -0.15043318271636963, -0.22929999232292175, -0.17494730651378632, -0.1398126631975174, -0.00432313559576869, 0.05051649734377861, -0.04268506169319153, 0.07332508265972137, 0.11462391167879105, 0.18629729747772217, 0.04403136670589447, -0.1575736105442047, -0.0798397958278656, -0.11942867189645767, 0.3087981045246124, -0.11100117862224579, -0.12908931076526642, 0.0011676045833155513, 0.12468625605106354, -0.06010366231203079, -0.0330943837761879, 0.008280446752905846, 0.21168918907642365, -0.17660829424858093, -0.15197451412677765, 0.2679711580276489, -0.02006583847105503, -0.051303405314683914, 0.053272802382707596, 0.010715356096625328, -0.04267573356628418, 0.22142393887043, -0.35849669575691223, -0.3502293527126312, 0.015553693287074566, -0.015485079027712345, -0.1491403877735138, 0.16349336504936218, -0.07673315703868866, 0.47066789865493774, 0.08509296178817749, 0.05267806723713875, -0.28248241543769836, -0.25527429580688477, 0.0019424248021095991, -0.14228034019470215, 0.26351597905158997, -0.15495344996452332, 0.12594683468341827, -0.22546419501304626, 0.08540076017379761, 0.14910393953323364, -0.1599520891904831, -0.2014598697423935, 0.05833154916763306, -0.04027896374464035, -0.14715421199798584, -0.07456602156162262, -0.11860216408967972, 0.14268478751182556, -0.020237600430846214, 0.21392086148262024, 0.3783195912837982, -0.025849852710962296, -0.1359843760728836, -0.06682426482439041, 0.018611719831824303, 0.03079475276172161, -0.0699261724948883, -0.09346264600753784, -0.007595926523208618, 0.21583616733551025, -0.36713236570358276, 0.020294997841119766, -0.26234301924705505, 0.048224832862615585, 0.30814576148986816, 0.16874410212039948, -0.25959596037864685, 0.2616237699985504, -0.1086670458316803, 0.027432749047875404, -0.1705593764781952, -0.015424270182847977, -0.042240411043167114, -0.00013378250878304243, -0.14624617993831635, -0.08475661277770996, 0.24492493271827698, -0.0975930243730545, -0.0788949579000473, -0.021233603358268738, -0.1291627287864685, -0.07560466974973679, -0.9166290760040283, -0.05824272707104683, 0.17540237307548523, 0.5172783732414246, 0.3266359567642212, -0.47244226932525635, 0.01998719573020935, -0.10235200077295303, -0.08205567300319672, -0.09818502515554428, 0.2927604615688324, 0.0855233445763588, 0.5261076092720032, -0.007330505643039942, -0.21951523423194885, -0.39259073138237, -0.1128290593624115, -0.17484916746616364, -0.08224164694547653, 0.14169307053089142, 0.04076981917023659, 0.09177705645561218, 0.02424461953341961, -0.0315132774412632, 0.1974303126335144, 0.03302473574876785, -0.25118252635002136, -0.035854522138834, 0.057630911469459534, 0.05225788801908493, 0.024294082075357437, 0.1400211602449417, 0.2509814202785492, 0.11077307164669037, -0.2229251116514206, 0.012944585643708706, -0.22986090183258057, -0.08541872352361679, -0.12705810368061066, 0.08984608948230743, -0.07976999133825302, 0.07868174463510513, 0.14071808755397797, 0.00936594232916832, -0.05567023903131485, 0.10495483875274658, 0.13469745218753815, 0.07135188579559326, -0.4064706563949585, -0.18298043310642242, -0.16733528673648834, 0.17435778677463531, -0.02204640582203865, -0.04854128882288933, -0.05690080672502518, 0.07771500200033188, 0.0720210075378418, 0.035166967660188675, -0.3091552257537842, -0.2410331666469574, 0.5211557149887085, -0.01914208009839058, 0.16363771259784698, 0.16988922655582428, -0.20736165344715118, -0.06157515197992325, -0.14860644936561584, 0.4215485453605652, -0.3054279088973999, 0.15603479743003845, -0.04642496258020401, -0.05021832883358002, 0.05071086063981056, 0.07463430613279343, -0.04989295080304146, -0.09843156486749649, 0.271787166595459, 0.17926941812038422, 0.14026997983455658, 0.10420616716146469, 0.2612348794937134, 0.14149785041809082, -0.009859723970293999, -0.1457604318857193, -0.07978712022304535, 0.10232606530189514, 0.06330598145723343, 0.034022968262434006, -0.0395553782582283, 0.08661169558763504, -0.09283001720905304, 0.044553425163030624, -0.1808759868144989, 0.028287343680858612, 0.08738654851913452, 0.07822290807962418, 0.13296136260032654, -0.22410371899604797, -0.0607406422495842, 0.09640581160783768, -0.09120021760463715, 0.06789012998342514, 0.06556544452905655, 0.04774912819266319, 0.10296235978603363, -0.20645181834697723, 0.13707560300827026, 0.2053453028202057, -0.11450814455747604, 0.15087413787841797, -0.20764316618442535, -0.15571339428424835, -0.07757265865802765, -0.0578438825905323, 0.03722137585282326, -0.05886484310030937, -0.11562933027744293, 0.056282319128513336, 0.017572468146681786, 0.13732151687145233, 0.2515169680118561, 0.013517598621547222, 0.029561646282672882, -0.17088042199611664, 0.056063733994960785, -0.24862191081047058, -0.33252277970314026, -0.1535288542509079, -0.01039358600974083, -0.02863191068172455, -0.007203015498816967, -0.1619361788034439, -0.2980909049510956, 0.2773732841014862, 0.014829807914793491, -0.04520399868488312, 0.00926276110112667, 0.1135639026761055, 0.011670960113406181, -0.18231116235256195, 0.14575764536857605, 0.1280607432126999, -0.34687894582748413, 0.12997637689113617, 0.13794928789138794, 0.0030642321798950434, -0.04496568441390991, -0.16260147094726562, 0.040122173726558685, -0.12702006101608276, -0.15014135837554932, 0.0026329036336392164, 0.12940353155136108, 0.3190114200115204, 0.20879541337490082, -0.13658112287521362, -0.15319477021694183, 0.3615630567073822, -0.038588862866163254, 0.10770636796951294, 0.1432466208934784, -0.12858960032463074, 0.17884162068367004, -0.08734533190727234, 0.011700744740664959, -0.3336297571659088, 0.6125128865242004, -0.12078066170215607, 0.06247800216078758, 0.15537825226783752, 0.06034718453884125, 0.02831224538385868, -0.26646772027015686, 0.10193981230258942, -0.1346895694732666, 0.030549898743629456, 0.219934344291687, -0.035465411841869354, 0.23851913213729858, -0.16800007224082947, -0.02838875912129879, -0.0949469581246376, 0.2846837639808655, -0.11554858088493347, -0.252897173166275, -0.048678942024707794, 0.03248072415590286, -0.08748424053192139, 0.28703731298446655, 0.1675228327512741, 0.11279288679361343, -0.029238328337669373, 0.13648293912410736, 0.1381281465291977, 0.26014983654022217, 0.01591157540678978, -0.11604331433773041, -0.11567874252796173, -0.1191147118806839, -0.23029740154743195, -0.38594937324523926, -0.4010170102119446, -0.4154934287071228, 0.07226508110761642, 0.0028181883972138166, -0.060368720442056656, 0.272487998008728, -0.01817910373210907, -0.17138229310512543, 0.1278429627418518, 0.04868151247501373, -0.07307873666286469, 0.05559919774532318, 0.006664604414254427, -0.16365721821784973, 0.010681401938199997, -0.09848060458898544, -0.24910807609558105, 0.16105158627033234, 0.23405764997005463, 0.03445039689540863, 0.17763786017894745, 0.04553411900997162, -0.05077594891190529, 0.020731814205646515, -0.04898189380764961, -0.2064802199602127, -0.1342524141073227, -0.02649237960577011, -0.1408112496137619, -0.033783555030822754, 0.2810702621936798, 0.39164116978645325, -0.18964284658432007, -0.05234772339463234, 0.07041582465171814, -0.15984641015529633, -0.23116812109947205, 0.06150750443339348, 0.27236172556877136, 0.010474244132637978, -0.28926336765289307, 0.04240776598453522, 0.11187025159597397, 0.18524925410747528, 0.10663634538650513, -0.052923403680324554, 0.25294625759124756, 0.143545463681221, 0.11203090846538544, 0.05641829967498779, -0.07018265128135681, 0.07020486891269684, 0.039535097777843475, -0.28567415475845337, 0.1524244099855423, 0.0852462500333786, -0.19522450864315033, -0.006114409305155277, 0.1063024178147316, 0.021761910989880562, 0.15606898069381714, 0.2211388647556305, -0.08338309824466705, 0.17560680210590363, 0.3393039107322693, -0.11287635564804077, -0.17408530414104462, -0.02928359992802143, -0.33273258805274963, -0.04102115333080292, 0.3100171387195587, -0.2940399944782257, -0.2269933968782425, 0.322106271982193, 0.03298371285200119, 0.09808353334665298, -0.018408991396427155, 0.215856671333313, 0.16730831563472748, -0.2098962813615799, 0.37925976514816284, 0.13141393661499023, -0.34555375576019287, 0.24197925627231598, 0.0024107724893838167, -0.1980437934398651, -0.19685323536396027, -0.041371218860149384, 0.3197566866874695, 0.2984684109687805, 0.08901162445545197, -0.11248431354761124, -0.16964170336723328, 0.10711493343114853, 0.3498287796974182, 0.15223276615142822, 0.16883212327957153, 0.12332401424646378, -0.10885234922170639, -0.2691131830215454, -0.33548519015312195, 0.16634982824325562, 0.08007247000932693, -0.22067685425281525, 0.4351322054862976, -0.024250751361250877, -0.4232230484485626, 0.1879572719335556, -0.013748983852565289, -0.11275239288806915, 0.2459692358970642, -0.04415023326873779, -0.1515234261751175, 0.15048359334468842, -0.05096595734357834, -0.13949553668498993, 0.11106210201978683, 0.05144360288977623, -0.2091241180896759, 0.18109722435474396, -0.3451421856880188, 0.1463630050420761, 0.10889514535665512, 0.3248671889305115, -0.2743302583694458, 0.2647389769554138, 0.16655105352401733, -0.20208334922790527, 0.001701065804809332, 0.19708660244941711, -0.10022668540477753, -0.23250915110111237, -0.05126826837658882, -0.049835726618766785, -0.13604997098445892, 0.09669771790504456, 0.23514550924301147, 0.04874282702803612, -0.046696923673152924, 0.09951292723417282, -0.13214892148971558, 0.03922738507390022, 0.18362103402614594, 0.021197544410824776, -0.11207512021064758, 0.08087773621082306, 0.18207193911075592, -0.048655688762664795, -0.052697353065013885, 0.16202595829963684, -0.00804612785577774, -0.07270005345344543, 0.1359935998916626, 0.08455433696508408, -0.16940592229366302, 0.20739944279193878, 0.07569827139377594, -0.2671213150024414, 0.1997520625591278, -0.02380066178739071, -0.06995762884616852, 0.09243153780698776, -0.005122767295688391, 0.0718429833650589, 0.14714908599853516, 0.004925610963255167, -0.18862299621105194, 0.003229097230359912, 0.031847212463617325, -0.18438389897346497, 0.1445590704679489, -0.2616044580936432, 0.3005300760269165, -0.34950166940689087, -0.1224343329668045, 0.1021069660782814, -0.1003485769033432, -0.11032173037528992, 0.031164847314357758, 0.07926052808761597, 0.07542406767606735, 0.005368539597839117, -0.014497930184006691, -0.007271517533808947, -0.1131153553724289, -0.23137283325195312, 0.17951862514019012, 0.10101527720689774, 0.036274053156375885, -0.20610679686069489, 0.22572629153728485, 0.1644877791404724, -0.02048245072364807, -0.10713054984807968, -0.17558607459068298, -0.06987110525369644, 0.06194028630852699, -0.13277499377727509, 0.012768687680363655, 0.09134680032730103, -0.15381120145320892, 0.12270423769950867, 0.01962757296860218, -0.08086849004030228, -0.29622140526771545, 0.04283643886446953, -0.11205623298883438, -0.12893158197402954, 0.14284639060497284, -0.1546977162361145, -0.05811552703380585, -0.04967790096998215, 0.20475180447101593, -0.03232691437005997, 0.09783691167831421, -0.11773983389139175, -0.08311449736356735, -0.12326826900243759, 0.26641929149627686, 0.039072807878255844, 0.0969107449054718, 0.04808376356959343, -0.11460787057876587, 0.05008287355303764, -0.0678376778960228, 0.20493662357330322, 0.1615624576807022, -0.1386185884475708, 0.016496973112225533, 0.009565264917910099, -0.08283451199531555, 0.011223029345273972, -0.15393497049808502, -0.1331464648246765, -0.05746429041028023, -0.07584090530872345, 0.06840811669826508, 0.0432610884308815, -0.1202370747923851, 0.11688212305307388, 0.15421240031719208, 0.36548444628715515, 0.027074478566646576, 0.07890335470438004, 0.03384684771299362, -0.20296312868595123, 0.04477493092417717, 0.07688326388597488, -0.32917651534080505, -0.045457955449819565, 0.13421504199504852, -0.0338398702442646, -0.27444714307785034, 0.1352672278881073, -0.0207138042896986, -0.16324907541275024, 0.11605901271104813, -0.31640109419822693, -0.05539624020457268, 0.16351720690727234, 0.14249742031097412, -0.0607953742146492, 0.1523009091615677, -0.29121363162994385, 0.4821194112300873, -0.20453497767448425, 0.6671189069747925, -0.4817805886268616, 0.12326976656913757, -0.2736769914627075, 0.20033568143844604, 0.145044207572937, -0.1762208491563797, -0.12201584875583649, 0.07071661949157715, -0.013809753581881523, 0.07628228515386581, 0.0014765500091016293, -0.15403975546360016, 0.05921199917793274, -0.1879093497991562, -0.1372034251689911, -0.23974433541297913, 0.0060997335240244865, -0.04530267417430878, -0.289870023727417, -0.11600739508867264, -0.15776057541370392, -0.011981038376688957, -0.17885921895503998, 0.10211377590894699, 0.3475610315799713, -0.01570635847747326, 0.08726406842470169, -0.12633049488067627, 0.0738711804151535, -0.20908179879188538, -0.01741735450923443, -0.04257345199584961, 0.24431821703910828, 0.057087309658527374, 0.18779630959033966, 0.05289911851286888, -0.13475438952445984, 0.06589143723249435, 0.019659854471683502, -0.11313153803348541, 0.019620174542069435, 0.2530539631843567, -0.017547156661748886, 0.08719217032194138, 0.09959873557090759, -0.42704275250434875, 0.03705031797289848, -0.15557880699634552, 0.23831099271774292, 0.011897322721779346, -0.08365624397993088, -0.06634534150362015, 0.03625664487481117, -0.13983343541622162, 0.3838340640068054, 0.17318572103977203, -0.271721750497818, 0.2499595582485199, -0.0010838080197572708, 0.310467004776001, 0.12419195473194122, -0.022462300956249237, -0.00014664824993815273, 0.24264408648014069, 0.10777129977941513, 0.07096542418003082, 0.038341131061315536, -0.16593532264232635, -0.00886669009923935, -0.200145423412323, -0.04356725886464119, -0.07074148952960968, -0.8081673383712769, 0.2178761512041092, -0.1968582272529602, -0.09236079454421997, -0.13987256586551666, -0.17679084837436676, 0.2734884023666382, 0.042645473033189774, -0.3739253282546997, -0.49781563878059387, 0.09599791467189789, -0.18393780291080475, -0.21141555905342102, 0.14998272061347961, 0.003136678831651807, 0.2433376908302307, 0.010367639362812042, -0.015635717660188675, 0.04215700179338455, 0.07908342033624649, 0.18344013392925262, -0.26334214210510254, -0.02262691594660282, 0.008590671233832836, 0.2343076914548874, -0.08883119374513626, 0.4028201699256897, 0.09427611529827118, -0.033975765109062195, -0.09850992262363434, 0.07892823219299316, -0.09855929762125015, -0.20587414503097534, 0.04718434438109398, 0.04728277772665024, -0.27760806679725647, 0.01133572869002819, 0.1181865856051445, -0.18882052600383759, 0.0868576243519783, -0.190059632062912, -0.3270321190357208, -0.04461764171719551, -0.08206724375486374, 0.06836910545825958, -0.0700894221663475, 0.1861989051103592, 0.5037024617195129, -0.307897686958313, -0.0692770704627037, 0.27408578991889954, 0.05150993913412094, -0.1598975509405136, -0.0780651718378067, 0.19290781021118164, -0.15890808403491974, 0.3532368540763855, -0.14209334552288055, -0.1805267333984375, 0.20087699592113495, -0.1872236281633377, -0.10731483995914459, -0.026454081758856773, 0.20973314344882965, -0.19471651315689087, 0.11154341697692871, 0.0026037907227873802, -0.15107223391532898, -0.08656138926744461, -0.10247018933296204, 0.12139096111059189, -0.08177115023136139, 0.09012989699840546, 0.010231970809400082, 0.25999611616134644, 0.06111765280365944, 0.09881432354450226, 0.14061321318149567, 0.09976553916931152, -0.024001337587833405, 0.22736243903636932, -0.1689254343509674, -0.021301496773958206, -0.14127159118652344, -0.005603966768831015, 0.11215969175100327, 0.03648043051362038, 0.15328630805015564, -0.1892014443874359, -0.12542399764060974, 0.11648167669773102, -0.004223634488880634, 0.16854146122932434, 0.2548653781414032, 0.16951081156730652, -0.06822355091571808, -0.013555280864238739, -0.08786438405513763, 0.21544095873832703, 0.014713658019900322, -0.0787709429860115, 0.1875738799571991, -0.058178119361400604, -0.07045791298151016, 0.17598854005336761, 0.14298804104328156, -0.004077588673681021, 0.16103677451610565, -0.1057683601975441, -0.2371664047241211, 0.062366925179958344, 0.05238841101527214, -0.307138592004776, -0.01830671727657318, -0.20508328080177307, -0.2743934094905853, 0.18046757578849792, 0.006391768343746662, -0.11055681109428406, -0.21397483348846436, 0.10838635265827179, 0.17447176575660706, -0.06000172719359398, -0.159331813454628, 0.20875278115272522, -0.3181034326553345, -0.07227340340614319, 0.2530321180820465, 0.02834085375070572, 9.131741535384208e-05, 0.237977996468544, 0.062055137008428574, -0.11512566357851028, -0.201690211892128, -0.14633385837078094, 0.09637043625116348, 0.12641417980194092, 0.3043840825557709, -0.11057738959789276, -0.34465858340263367, -0.26677799224853516, -0.10170727968215942, -0.20788459479808807, -0.1384621560573578, -0.10032641142606735, -0.048608191311359406, -0.22541260719299316, -0.14160005748271942, 0.10882921516895294, -0.1383274495601654, -0.1110416054725647, 0.346466064453125, -0.21723723411560059, 0.20570214092731476, 0.06696449965238571, -0.23310725390911102, -0.08017386496067047, 0.3436475098133087, -0.22074006497859955, -0.2099103033542633, 0.3073846101760864, -0.21926961839199066, -0.1433144360780716, 0.07285284250974655, -0.16787753999233246, -0.22459754347801208, 0.39831554889678955, 0.18876545131206512, 0.17439423501491547, 0.3251115083694458, 0.006540106143802404, -0.11021412163972855, -0.2868816554546356, 0.19488301873207092, 0.10996519774198532, -0.2808496057987213, 0.33147987723350525, 0.22449979186058044, -0.1377888321876526, -0.11852352321147919, 0.006119468715041876, 0.33871397376060486, 0.004011665470898151, 0.13132064044475555, -0.09390890598297119, -0.20206820964813232, -0.20013011991977692, 0.353032648563385, 0.0147926677018404, -0.18619854748249054, -0.04867246001958847, -0.04381744563579559, -0.06237552687525749, 0.06337381899356842, 0.12515604496002197, 0.09996281564235687, -0.22510789334774017, 0.2915278673171997, -0.005587200168520212, -0.25251367688179016, -0.09199715405702591, -0.1331970989704132, 0.053325168788433075, 0.11529590934515, 0.07521363347768784, -0.1430327594280243, 0.1591545194387436, 0.14590544998645782, -0.3412806987762451, 0.3829723596572876, 0.10757189989089966, -0.07428597658872604, 0.15288729965686798, -0.2312300205230713, 0.09317687153816223, -0.11299268156290054, 0.20046530663967133, -0.07940825819969177, 0.08054305613040924, -0.0507202222943306, -0.06126604601740837, -0.19135195016860962, 0.1704157292842865, 0.08746489137411118, -0.1708558350801468, 0.2509126663208008, 0.06164476275444031, -0.04757310450077057, 0.11244632303714752, -0.1348995864391327, -0.31385213136672974, 0.15928275883197784, -0.08112672716379166, -0.3549831509590149, 0.10262337327003479, -0.25773710012435913, 0.08984319120645523, 0.04280344769358635, 0.022256331518292427, 0.5194481611251831, -0.2982385754585266, 0.12737298011779785, -0.08865031599998474, 0.05333887040615082, -0.2505205273628235, -0.1784999966621399, 0.24039454758167267, -0.024623539298772812, -0.025830794125795364, -0.06578483432531357, -0.026839997619390488, 0.08787000179290771, 0.08289735019207001, -0.11534567922353745, -0.18595850467681885, 0.053467802703380585, -0.11373871564865112, -0.02426741272211075, 0.06097355857491493, 0.10957445204257965, 0.07651776075363159, 0.1296117752790451, 0.01207751501351595, 0.01429158914834261, 0.220373272895813, 0.16256648302078247, -0.189780592918396, 0.11476334929466248, 0.3258904218673706, -0.1965879201889038, -0.14395222067832947, 0.05003553628921509, -0.1484069675207138, -0.15422707796096802, -0.2058926224708557, 0.13319747149944305, -0.1085282638669014, -0.36010751128196716, -0.17116206884384155, 0.11413818597793579, 0.05228321999311447, 0.09849710762500763, -0.13641071319580078, -0.024501537904143333, 0.06689352542161942, -0.16561686992645264, -0.0009330104221589863, 0.12247499078512192, -0.09752272814512253, 0.1569548100233078, -0.20611050724983215, 0.09586920589208603, 0.24183274805545807, -0.254271537065506, 0.06872449070215225, -0.0008533209329470992, -0.12541335821151733, 0.0634264200925827, 0.17608556151390076, -0.12329590320587158, -0.015596182085573673, 0.3208061456680298, -0.1796630173921585, -0.08004499971866608, 0.12421905249357224, 0.03611409664154053, 0.14686770737171173, 0.1548764854669571, 0.3309141993522644, 0.06998448073863983, -0.425537645816803, -0.32711678743362427, -0.13693228363990784, 0.0924193486571312, -0.34891757369041443, 0.018429473042488098, 0.15508291125297546, -0.5388628840446472, 0.11952537298202515, 0.7001609206199646, -0.23306801915168762, 0.31103286147117615, 0.5458483695983887, 0.4460221827030182, 0.042566101998090744, -0.21499325335025787, -0.17001985013484955, -0.030125819146633148, 0.5209630131721497, 0.36829569935798645, 0.1979939043521881, 0.08156196027994156, -0.02000460959970951, -0.012422461062669754, -0.011928503401577473, -0.12492338567972183, -0.21765251457691193, -0.7111039161682129, -0.3776911795139313, -0.2664199769496918, 0.2888537645339966, -0.5099889636039734, 0.13658474385738373, 0.6851282119750977, -0.5186952948570251, -0.3479280471801758, -0.5629372000694275, -0.43720075488090515, -0.14307177066802979, -0.026196442544460297, -0.1569433957338333, -0.07912479341030121, 0.33902642130851746, -0.43329280614852905, -0.15534281730651855, 0.4369727373123169, 0.2464911937713623, -0.34205663204193115, 0.12630903720855713, 0.05076686292886734, 0.09036269038915634, 0.029799561947584152, 0.04735768586397171, -0.21921777725219727, -0.0873233899474144, 0.10290328413248062, 0.30155256390571594, -0.10189913958311081, -0.18907856941223145, 0.005964377429336309, -0.06175723299384117, -0.04512355476617813, -0.08468479663133621, -0.3622535169124603, 0.7969327569007874, 0.41654711961746216, -0.25541457533836365, 0.1648436188697815, -0.3521156311035156, -0.11528011411428452, 0.439525842666626, -0.7213385105133057, 0.8344008922576904, 0.6157211065292358, 0.2648456394672394, -0.3736026883125305, 0.1811145395040512, -0.830657422542572, 0.043908245861530304, -0.1088619977235794, 0.06384475529193878, -0.2127159982919693, 0.037141382694244385, 0.1800662726163864, 0.06411681324243546, -0.014907211996614933, 0.053507398813962936, 0.1408960521221161, 0.005328471772372723, 0.14299608767032623, -0.07197266817092896, -0.005399325396865606, -0.08235335350036621, 0.18199998140335083, 0.044491175562143326, 0.15038083493709564, -0.15156835317611694, 0.16698694229125977, 0.21311552822589874, -0.05103997886180878, -0.24910947680473328, -0.19958741962909698, -0.3560193181037903, 0.02840436063706875, 0.17595502734184265, -0.31596970558166504, 0.0664169043302536, -0.05381012335419655, -0.293256014585495, -0.017801987007260323, -0.26985102891921997, 0.08521580696105957, -0.18046574294567108, 0.06491351127624512, 0.1673433780670166, -0.17770366370677948, -0.16797123849391937, -0.11871439218521118, -0.184292733669281, -0.005176976323127747, 0.03527219593524933, -0.01847236230969429, 0.46713435649871826, -0.19791506230831146, -0.24640674889087677, 0.052066098898649216, -0.03938297554850578, -0.15386061370372772, 0.3335241973400116, -0.39849263429641724, -0.34582579135894775, 0.2599664628505707, -0.11186961084604263, 0.15942449867725372, -0.004205184057354927, -0.46814993023872375, -0.1112770140171051, 0.6174523830413818, -0.18526044487953186, 0.23434169590473175, 0.24696722626686096, -0.12806397676467896, 0.22900652885437012, -0.35768601298332214, 0.29228726029396057, -0.8874015212059021, 0.12024404108524323, 0.11169545352458954, 0.39308401942253113, 0.07316575944423676, 0.4240148365497589, 0.03753354400396347, -0.32363077998161316, 0.19766129553318024, -0.3459804952144623, 0.049614857882261276, 0.5028890371322632, 0.5118394494056702, -0.2553357481956482, -0.14110711216926575, 0.06729211658239365, 0.07174728065729141, -0.05483217537403107, -0.060911983251571655, 0.234993577003479, 0.013723095878958702, -0.29172423481941223, -0.14749720692634583, -0.24543537199497223, 0.27231985330581665, 0.01096674520522356, 0.0867762565612793, 0.23202423751354218, -0.0313308946788311, 0.4732085168361664, 0.18172313272953033, -0.07836488634347916, -0.0822567492723465, 0.0008471888140775263, 0.043276675045490265, 0.0785856544971466, 0.1910068690776825, -0.09551303833723068, 0.09223450720310211, 0.06483189761638641, -0.12859611213207245, 0.07297354936599731, 0.15866518020629883, 0.13227790594100952, 0.13839122653007507, 0.5719770193099976, 0.2522304058074951, -0.24900202453136444, -0.12068264186382294, 0.13704785704612732, 0.04932115226984024, 0.29147666692733765, -0.2110765427350998, 0.3305221498012543, 0.2561531662940979, -0.030985385179519653, 0.18317489326000214, -0.011877590790390968, 0.18137840926647186, 0.11159779131412506, -0.21504753828048706, -0.39927372336387634, 0.3125343918800354, -0.07015009969472885, 0.08431800454854965, 0.2870810925960541, -0.005622829310595989, -0.15436910092830658, -0.14378492534160614, -0.24233922362327576, 0.13771362602710724, 0.060080163180828094, 0.24624881148338318, -0.3503267467021942, -0.14578159153461456, -0.26014435291290283, -0.11847756057977676, -0.42820268869400024, -0.02320457063615322, -0.25380611419677734, 0.7814130783081055, -0.13595539331436157, 0.16578169167041779, -0.1836114525794983, -0.013695322908461094, 0.09915389865636826, -0.041374266147613525, 0.4103736877441406, -0.29808130860328674, 0.22271761298179626, 0.030820874497294426, 0.001689869211986661, -0.3297017216682434, -0.049737777560949326, -0.17849457263946533, 0.11903291195631027, -0.48267364501953125, 0.12530475854873657, -0.2070254683494568, 0.03960024192929268, 0.12637044489383698, 0.38125503063201904, -0.009530909359455109, -0.1518363654613495, 0.11648429930210114, -0.08965680748224258, -0.27641063928604126, 0.12566933035850525, 0.3946506977081299, 0.19924208521842957, -0.13514208793640137, 0.04096166789531708, -0.6633932590484619, -0.303963303565979, 0.6173784136772156, 0.7127047181129456, 0.3892722725868225, 0.15657876431941986, -0.18606817722320557, -0.11592843383550644, 0.44080254435539246, -0.48729321360588074, 0.10300625115633011, 0.4826012849807739, 0.7079015374183655, -0.23947085440158844, -0.08644730597734451, 0.14632532000541687, -0.02164112962782383, 0.06666920334100723, -0.058139290660619736, -0.13628970086574554, -0.1595899909734726, 0.32057103514671326, 0.007268927991390228, -0.14601576328277588, 0.1886327862739563, 0.19584162533283234, 0.324234277009964, 0.16891717910766602, 0.06611024588346481, -0.22855500876903534, 0.2098740041255951, -0.17000629007816315, -0.07064985483884811, 0.09459063410758972, -0.19017747044563293, 0.08527040481567383, 0.16866737604141235, 0.015411022119224072, 0.23551970720291138, 0.31485193967819214, -0.3595150113105774, 0.02973894774913788, 0.20981989800930023, -0.2706989645957947, 0.0681459903717041, 0.1422136276960373, 0.1559029072523117, 0.032025668770074844, -0.29796579480171204, -0.11215493828058243, -0.03587748482823372, 0.0703236535191536, -0.07707704603672028, 0.051409848034381866, 0.07246635854244232, -0.0996103435754776, 0.2940295338630676, -0.2579253315925598, -0.011781674809753895, 0.04830008000135422, -0.04194237291812897, 0.17328976094722748, 0.12555541098117828, -0.12436596304178238, -0.27058666944503784, -0.11997266858816147, -0.06991122663021088, -0.09153410792350769, -0.48570606112480164, -0.10375283658504486, -0.07095985859632492, 0.23445500433444977, 0.22784851491451263, -0.19762955605983734, -0.091455839574337, 0.04592015594244003, 0.1770489662885666, 0.026233742013573647, -0.1346651315689087, 0.17754027247428894, 0.14619314670562744, 0.004459188785403967, 0.01593947224318981, 0.011037354357540607, -0.0671633705496788, -0.16031663119792938, -0.06065035238862038, 0.0827028676867485, 0.21477575600147247, 0.09228880703449249, 0.07269279658794403, -0.14841608703136444, -0.04571126401424408, 0.15987619757652283, -0.11795944720506668, 0.006008896045386791, -0.05284998193383217, 0.1616213023662567, 0.14804139733314514, 0.0008628118666820228, 0.02061809040606022, 0.08130981028079987, -0.326722651720047, -0.2740073800086975, 0.1335836946964264, -0.04444945231080055, -0.5499545931816101, 0.0383186899125576, 0.12795881927013397, -0.12659943103790283, -0.09814722836017609, 0.055237822234630585, -0.01934722624719143, 0.03583454340696335, -0.000425455771619454, 0.2563297748565674, -0.09381259232759476, -0.062169548124074936, -0.014396114274859428, -0.05987991392612457, 0.15953777730464935, 0.38555923104286194, -0.10475023835897446, -0.24651390314102173, -0.20273372530937195, 0.2923576235771179, -0.1697511076927185, -0.7814681529998779, 0.19312746822834015, -0.16589787602424622, 0.0036428640596568584, -0.21161192655563354, -0.01568952016532421, 0.09316480159759521, 0.0290061067789793, -0.24384500086307526, -0.18420638144016266, 0.04221789166331291, -0.06233808025717735, -0.17703093588352203, 0.20089492201805115, 0.23405970633029938, 0.1428871601819992, -0.3181195855140686, -0.039635274559259415, -0.04268358647823334, 0.12353716790676117, -0.263420045375824, -0.051708582788705826, 0.23219777643680573, -0.05882055312395096, 0.16745279729366302, 0.22662197053432465, 0.26506882905960083, 0.30413559079170227, 0.013325435109436512, 0.3312608599662781, -0.13154280185699463, -0.29251566529273987, -0.4968847930431366, 0.11295314878225327, 0.08170721679925919, -0.12126331031322479, -0.32286590337753296, 0.18342505395412445, -0.19909311830997467, 0.3089018166065216, 0.024084601551294327, -0.13448801636695862, -0.12970195710659027, 0.20337095856666565, -0.24189697206020355, 0.3233357071876526, 0.3073844313621521, 0.19925957918167114, 0.40046706795692444, -0.3054952621459961, -0.05986366793513298, -0.018870597705245018, 0.03913808614015579, -0.44034892320632935, 0.16304314136505127, 0.05279894918203354, -0.19976617395877838, 0.17220500111579895, 0.2037576586008072, -0.22636860609054565, 0.1467527598142624, 0.2422916740179062, -0.297515869140625, -0.04750853776931763, 0.21971939504146576, 0.2517736256122589, 0.13015414774417877, -0.05646294727921486, -0.03220384940505028, -0.016200562939047813, -0.0020995941013097763, -0.06647032499313354, -0.06081240624189377, -0.47318214178085327, 0.14581270515918732, 0.20293407142162323, 0.023166416212916374, -0.2277000993490219, -0.17798608541488647, 0.120420441031456, 0.03747614473104477, 0.15358245372772217, -0.14300771057605743, 0.047091662883758545, -0.16532661020755768, 0.588660478591919, -0.05360563471913338, 0.07364822924137115, 0.017232637852430344, 0.11660485714673996, -0.1466863453388214, 0.050383735448122025, 0.16754843294620514, 0.16561144590377808, -0.14745044708251953, -0.061426613479852676, -0.03223763778805733, -0.05716290697455406, -0.27213630080223083, -0.00572029547765851, -0.12014996260404587, 0.12863291800022125, 0.06275152415037155, -0.1205894947052002, 0.2988644242286682, -0.09054447710514069, -0.18356648087501526, -0.07945838570594788, 0.18160057067871094, 0.0919027104973793, -0.09208542108535767, 0.15967993438243866, 0.13454818725585938, 0.06109891086816788, 0.10609094053506851, -0.0303999911993742, 0.26500189304351807, 0.10220400989055634, -0.22918890416622162, -0.0003319277020636946, -0.18830157816410065, 0.14787143468856812, -0.08127293735742569, 0.09323794394731522, -0.09249375760555267, -0.12550018727779388, -0.11591900140047073, 0.23445318639278412, 0.014868093654513359, -0.0630062147974968, -0.04932907223701477, 0.28211939334869385, -0.23639310896396637, -0.34970492124557495, 0.17660333216190338, -0.07151607424020767, -0.17305055260658264, -0.029916245490312576, 0.015944048762321472, 0.08575309813022614, 0.11263900250196457, 0.1547968089580536, -0.21622814238071442, 0.04575725644826889, -0.1729637086391449, 0.22163312137126923, 0.06766178458929062, 0.5314942002296448, -0.30526384711265564, 0.18223319947719574, 0.051619675010442734, -0.30129268765449524, -0.05026724189519882, -0.036652885377407074, -0.228899747133255, 0.15424571931362152, 0.1902281790971756, -0.09355715662240982, -0.11067898571491241, -0.13914361596107483, -0.027197252959012985, 0.17504426836967468, 0.022427594289183617, -0.14956218004226685, 0.17609521746635437, 0.2350233495235443, -0.12790554761886597, 0.047282882034778595, -0.09888389706611633, 0.05870499089360237, -0.09542667120695114, -0.025569569319486618, -0.0276391189545393, -0.2692503333091736, 0.06356784701347351, 0.2501378059387207, -0.31261876225471497, -0.11418790370225906, -0.014504540711641312, 0.10700759291648865, -0.05268789455294609, -0.17680087685585022, 0.044854871928691864, -0.03616492450237274, -0.18749618530273438, 0.08327088505029678, -0.08012722432613373, -0.0036306825932115316, 0.18007509410381317, 0.15239039063453674, -0.16459369659423828, 0.03178517892956734, -0.1464618742465973, 0.022496769204735756, -0.01832912303507328, 0.3838823437690735, -0.09658733755350113, 0.041808176785707474, -0.02407277189195156, -0.13510051369667053, 0.123880535364151, 0.007093612104654312, -0.03270542621612549, 0.23646369576454163, 0.09491651505231857, -0.009927147068083286, -0.26756247878074646, -0.10918545722961426, 0.009538334794342518, -0.012448141351342201, 0.14997415244579315, -0.17216092348098755, 0.2009885460138321, 0.1539383828639984, -0.02116055227816105, -0.127219095826149, -0.10168170928955078, -0.17565925419330597, -0.015098790638148785, -0.14344608783721924, -0.15073949098587036, -0.22538505494594574, -0.19670458137989044, 0.2787759602069855, 0.004951790440827608, -0.006352387834340334, -0.05935409292578697, -0.007705169729888439, 0.19723248481750488, -0.11087560653686523, 0.010980636812746525, -0.24908724427223206, 0.021064823493361473, 0.1198444813489914, 0.23797187209129333, -0.09477080404758453, 0.06887433677911758, -0.08189965784549713, -0.3511512875556946, 0.04673472046852112, -0.3684893250465393, 0.023024391382932663, 0.006478705909103155, 0.37733978033065796, -0.5167807340621948, 0.16619327664375305, -0.06637049466371536, -0.2747153341770172, 0.17597873508930206, 0.04534519091248512, -0.18712148070335388, -0.04780399426817894, 0.13325685262680054, -0.3144392967224121, -0.06493918597698212, 0.1028863713145256, 0.04221035912632942, 0.12550067901611328, -0.1332157850265503, -0.16479051113128662, 0.1656646430492401, 0.06657304614782333, -0.01650332845747471, -0.05216464400291443, 0.05735890567302704, -0.048073023557662964, -0.07822522521018982, 0.1803296059370041, 0.06741352379322052, -0.2682135999202728, -0.035254158079624176, 0.2858637571334839, -0.03909478336572647, 0.02987939864397049, -0.23126386106014252, -0.18235310912132263, -0.5346298813819885, -0.16748985648155212, 0.22140473127365112, 0.17873132228851318, -0.12433232367038727, 0.04025595635175705, -0.16063770651817322, -0.002182162832468748, 0.2962578237056732, -0.14226284623146057, -0.15879659354686737, -0.002787801204249263, -0.16157063841819763, 0.1416286826133728, 0.39635077118873596, -0.3989585041999817, 0.11202408373355865, 0.1417267769575119, -0.047524113208055496, -0.30836865305900574, 0.10897526144981384, 0.11685550212860107, -0.008059294894337654, 0.06951005756855011, -0.12585987150669098, -0.34400832653045654, 0.008057422935962677, -0.06824427098035812, -0.1510523110628128, 0.14476467669010162, -0.00040639122016727924, 0.3850409984588623, -0.17448262870311737, -0.1877971887588501, 0.22085782885551453, -0.19701313972473145, 0.28743278980255127, 0.0963248461484909, -0.18908938765525818, 0.36191272735595703, 0.021253414452075958, 0.0010723010636866093, -0.13376280665397644, -0.3450947701931, -0.021429242566227913, -0.04944693297147751, 0.15588386356830597, 0.2279369980096817, 0.15304552018642426, -0.20199161767959595, 0.14552295207977295, -0.022474350407719612, -0.09098546206951141, -0.03475575149059296, -0.264285147190094, 0.10658181458711624, -0.26505863666534424, -0.026453590020537376, 0.048411235213279724, -0.39335817098617554, 0.23250027000904083, 0.16446182131767273, -0.13871414959430695, -0.3277699649333954, 0.08829838782548904, -0.047265488654375076, -0.12495885789394379, 0.12273847311735153, -0.276146799325943, -0.19924841821193695, 0.009950160048902035, -0.13635963201522827, -0.02087605558335781, 0.1719825118780136, 0.04349478334188461, 0.1347155123949051, -0.16200782358646393, 0.09641078859567642, -0.2646123468875885, 0.13799700140953064, -0.22148381173610687, -0.04425660893321037, 0.16471463441848755, -0.3441920280456543, -0.1399257779121399, 0.17214354872703552, -0.15476414561271667, -0.058898188173770905, -0.10999558120965958, 0.20289680361747742, 0.2416980266571045, -0.237791046500206, -0.14068856835365295, -0.09433585405349731, 0.12899336218833923, -0.041297126561403275, -0.8120349049568176, -0.2644738554954529, -0.011478078551590443, -0.1941521316766739, 0.14798767864704132, 0.18056218326091766, 0.2112007737159729, 0.1476888656616211, -0.10285760462284088, -0.06096071004867554, 0.08746395260095596, 0.1218872219324112, 0.009435993619263172, -0.0007230733754113317, 0.0501229465007782, 0.38726332783699036, -0.25138384103775024, -0.1704328954219818, 0.01747925579547882, 0.17202520370483398, -0.1068463996052742, -0.032728977501392365, 0.11160501837730408, 0.06247798725962639, -0.18582786619663239, 0.31625398993492126, -0.20647579431533813, 0.16073672473430634, 0.17163030803203583, 0.2303667813539505, -0.188132181763649, -0.12723614275455475, 0.20852966606616974, 0.043325647711753845, -0.0787581130862236, -0.015485014766454697, -0.26041385531425476, 0.01127488724887371, -0.17415548861026764, -0.11274659633636475, 0.04794393479824066, -0.20165687799453735, 0.04692864790558815, 0.04928126931190491, -0.0467950813472271, -0.13358436524868011, -0.12453547865152359, 0.022454502061009407, -0.5030589699745178, 0.14676602184772491, 0.1131914034485817, 0.09508838504552841, -0.07148541510105133, 0.04812919721007347, -0.03132840245962143, -0.07180485129356384, -0.0407058522105217, 0.03467673063278198, -0.15807679295539856, -0.08890003710985184, -0.43932753801345825, 0.025100892409682274, 0.24499225616455078, 0.016921233385801315, 0.08378910273313522, 0.07810968160629272, 0.05831917002797127, -0.18408195674419403, 0.21933041512966156, 0.12708547711372375, -0.09476180374622345, 0.12834937870502472, -0.09389025717973709, 0.1216970756649971, 0.32227379083633423, -0.0489274300634861, 0.0679769292473793, -0.2975345253944397, -0.12047022581100464, 0.08275360614061356, -0.24472332000732422, -0.0058478969149291515, 0.1537523716688156, 0.3312598168849945, -0.25236132740974426, -0.18579338490962982, 0.10519877821207047, -0.19123975932598114, -0.04956304654479027, 0.3251003921031952, -0.06848107278347015, -0.09622713178396225, -0.09316431730985641, 0.09568384289741516, -0.031117413192987442, -0.5948017835617065, 1.2737213373184204, 0.14680345356464386, 0.04159969463944435, -0.18909414112567902, 0.14974445104599, -0.3435336649417877, 0.04373135045170784, -0.08633984625339508, -0.06261438131332397, 0.1660228967666626, 0.041370268911123276, 0.42402133345603943, -0.1793367564678192, -0.14155316352844238, -0.16121597588062286, 0.885123610496521, 0.09217722713947296, -0.14910592138767242, 0.02947756089270115, 0.17806588113307953, 0.062107380479574203, 0.2225436121225357, 0.2641952931880951, -0.021025976166129112, 0.08201976120471954, -0.009020867757499218, -0.15723945200443268, 0.11468525230884552, 0.1776271015405655, 0.17861638963222504, 0.023557616397738457, -0.15974213182926178, 0.14002372324466705, -0.050272345542907715, 0.00492864940315485, -0.07578518241643906, 0.035902027040719986, 0.13913530111312866, -0.2528672218322754, -0.0023608715273439884, 0.11881327629089355, -0.23504333198070526, -0.13996481895446777, 0.09837656468153, 0.2325410395860672, 0.055477701127529144, -0.2488730102777481, 0.10136660188436508, 0.08962748944759369, -0.06629541516304016, 0.0959477350115776, -0.08394578844308853, -0.1952534317970276, -0.07274443656206131, -0.10090113431215286, 0.0723894014954567, 0.3048214316368103, -0.1714944988489151, -0.06174537166953087, 0.15910667181015015, -0.11744534969329834, 0.1806575059890747, 0.0706595927476883, -0.06472165882587433, -0.03458823263645172, 0.3801242709159851, -0.09639324247837067, -0.08228552341461182, 0.024736084043979645, -0.15397590398788452, -0.25747862458229065, 0.28067392110824585, 0.012057728134095669, 0.008797537535429, -0.06325173377990723, 0.13488538563251495, 0.020321067422628403, 0.10013750195503235, -0.11808169633150101, -0.1084708496928215, 0.24797576665878296, -0.03528567776083946, -0.14361928403377533, -0.2382398396730423, 0.20631466805934906, -0.1718675047159195, -0.29054591059684753, 0.46914783120155334, -0.0989837795495987, 0.07457222044467926, 0.04465579614043236, 0.07626725733280182, -0.06988545507192612, 0.20510418713092804, -0.1407836377620697, -0.11508557945489883, 0.045321524143218994, -0.03859860450029373, 0.07082853466272354, 0.004725421313196421, -0.16447794437408447, 0.10269203037023544, -0.180780827999115, 0.009488247334957123, -0.04429317265748978, 0.14540106058120728, -0.23528054356575012, -0.4704288840293884, 0.7573903203010559, -0.03631500154733658, 0.1521485149860382, -0.005277269519865513, 0.03809041529893875, 0.20041808485984802, -0.029070980846881866, -0.06914830207824707, 0.01715877838432789, 0.07314179837703705, -0.06982032209634781, 0.04157297685742378, 0.24880875647068024, -0.131277397274971, 0.30354955792427063, 0.006935416255146265, -0.047683242708444595, -0.17094367742538452, 0.05129880830645561, 0.09717182070016861, -0.23380939662456512, 0.05713586509227753, 0.16971218585968018, -0.09827390313148499, -0.0786842554807663, 0.2536656856536865, 0.13802912831306458, -0.07229825854301453, 0.07613355666399002, 0.2489129900932312, 0.14148148894309998, -0.1279590129852295, -0.18617264926433563, -0.03167498856782913, 0.2645399868488312, 0.14041560888290405, 0.0564485564827919, 0.012523509562015533, -0.14411038160324097, -0.0355624221265316, -0.005665642209351063, -0.0916515439748764, -0.07877188920974731, 0.20778964459896088, -0.16705532371997833, -0.047955166548490524, 0.29754066467285156, -0.21228457987308502, -0.18396791815757751, -0.07538390159606934, -0.049615245312452316, 0.21468839049339294, -0.05767397582530975, -0.2982795238494873, -0.11118011921644211, 0.2506905794143677, -0.30582547187805176, -0.12488692253828049, 0.279283732175827, -0.04206487163901329, 0.059213921427726746, 0.24624861776828766, -0.24747177958488464, -0.03494226932525635, 0.2938363552093506, 0.025287291035056114, -0.05860532820224762, -0.25446847081184387, 0.14314500987529755, -0.016494832932949066, -0.12793132662773132, 0.044012248516082764, 0.00796793308109045, 0.18905623257160187, -0.32457640767097473, 0.002725092926993966, 0.029075803235173225, -0.03421205282211304, -0.133893683552742, 0.21568435430526733, 0.2208932340145111, -0.010511809960007668, 0.12074843049049377, 0.2733970582485199, 0.2381693720817566, -0.22093966603279114, 0.17176254093647003, 0.24998454749584198, 0.032436713576316833, 0.0016172672621905804, -0.06369839608669281, -0.17896266281604767, 0.17321281135082245, -0.06726249307394028, -0.1473294049501419, 0.13770246505737305, 0.10550615936517715, -0.1340545117855072, 0.052325695753097534, -0.07293589413166046, -0.08285102993249893, 0.15864548087120056, 0.1918877214193344, -0.23796525597572327, 0.12656231224536896, 0.10075873881578445, -0.21945501863956451, -0.06236535683274269, 0.11064405739307404, -0.12181049585342407, 0.010168397799134254, 0.27783554792404175, 0.0451141782104969, -0.1459685117006302, -0.001697503263130784, 0.2118706852197647, -0.12181437015533447, -0.130970761179924, -0.026138534769415855, 0.20353876054286957, 0.2720000445842743, 0.10102614760398865, -0.01139152329415083, 0.5435351133346558, -0.06083890423178673, -0.0063682254403829575, -0.028939077630639076, -0.005454213824123144, 0.06495252251625061, 0.16793307662010193, 0.1381876915693283, -0.11296884715557098, 0.5888850092887878, -0.42722591757774353, 0.2632647156715393, -0.45723098516464233, 0.22550958395004272, -0.2353678196668625, -0.2411096841096878, 0.1891305297613144, -0.1808154582977295, 0.30999016761779785, -0.002701773773878813, 0.002902841195464134, 0.5867764353752136, -0.17078320682048798, -0.18577934801578522, 0.08247663080692291, -0.0031117533799260855, -0.20623216032981873, -0.010938735678792, 0.18311728537082672, -0.007374883163720369, 0.10930732637643814, 0.043636251240968704, -0.002894745208323002, 0.30404776334762573, 0.20943564176559448, 0.05929912254214287, -0.057978030294179916, 0.11132079362869263, -0.09026110172271729, 0.049598537385463715, 0.06011972203850746, -0.002393928822129965, -0.01811789907515049, -0.09797792881727219, 0.10353628545999527, -0.131985142827034, 0.060907453298568726, 0.118700310587883, 0.041878100484609604, 0.05712461099028587, 0.12023799866437912, 0.6619213223457336, 0.18471814692020416, 0.5785011053085327, -0.9119096398353577, -0.3997023403644562, 0.19103184342384338, 0.09102112799882889, -0.15225526690483093, 0.12586961686611176, 0.3016204237937927, -0.9568046927452087, 0.29019618034362793, -0.03226275369524956, -0.7118833065032959, 0.0409657321870327, -0.28904813528060913, -0.3353540003299713, -0.42098841071128845, 0.4213629364967346, 0.09338291734457016, 0.2808420658111572, 0.20620431005954742, 0.1351422369480133, -0.2876468300819397, -0.18693526089191437, 0.22182045876979828, -0.012730996124446392, 0.31075090169906616, -0.017668358981609344, -0.5690460205078125, 0.4975132644176483, -0.21337439119815826, 0.015503928065299988, -0.13978925347328186, 0.06971190869808197, -0.2831474542617798, -0.1377038210630417, 0.08852048218250275, -0.11798451840877533, 0.16573213040828705, -0.35213401913642883, 0.002428056439384818, -0.32986971735954285, 0.11763061583042145, -0.07468949258327484, 0.131736621260643, 0.1038377657532692, 0.04209396243095398, 0.014107354916632175, 0.40872302651405334, -0.3380286693572998, -0.1981714814901352, -0.30437013506889343, -0.32851019501686096, -0.38466379046440125, 0.2735293209552765, 0.2528262734413147, -0.2548016607761383, -0.1297547072172165, -0.5715519189834595, 0.13335570693016052, 0.4426212012767792, -0.13253338634967804, 0.2181050032377243, 0.06506825983524323, -0.21461373567581177, 0.19012311100959778, -0.4028607904911041, -0.017595956102013588, 0.266548216342926, 0.10751045495271683, 0.17514273524284363, -0.16237258911132812, -0.09317771345376968, 0.04200756922364235, -0.14587877690792084, -0.09809185564517975, -0.17221297323703766, -0.12400972843170166, -0.005420563276857138, 0.2384921759366989, -0.30451667308807373, -0.08135230839252472, 0.19750723242759705, 0.1172742024064064, 0.0733552798628807, 0.0395890548825264, -0.20999246835708618, 0.25724077224731445, 0.22540254890918732, 0.15842384099960327, 0.3452022969722748, -0.24046148359775543, -0.29707255959510803, -0.02646491676568985, -0.14767399430274963, -0.11667736619710922, 0.22562235593795776, 0.24289698898792267, -0.09620390832424164, -0.04991982877254486, 0.038935642689466476, -0.11836202442646027, 0.13338607549667358, 0.25719836354255676, 0.3376857042312622, -0.1211494579911232, 0.3410338759422302, -0.18677298724651337, -0.15720759332180023, -0.49539631605148315, -0.06966042518615723, -0.0323786735534668, -0.2508021593093872, -0.27201876044273376, -0.335512638092041, 0.12139198184013367, 0.002502924297004938, 0.13071408867835999, 0.001076614367775619, -0.2949829399585724, -0.10125579684972763, 0.08598606288433075, -0.15667657554149628, -0.07960628718137741, -0.07553542405366898, -0.19761015474796295, -0.06228337064385414, -0.12183710187673569, 0.30578458309173584, -0.2494392693042755, 1.0710865259170532, 0.4647219181060791, -0.3364981710910797, -0.10448003560304642, 0.03740397095680237, 0.20282478630542755, 0.2924848198890686, -0.09203514456748962, 0.33225542306900024, 0.003380677429959178, -0.1641390174627304, 0.9009621739387512, -0.12379509955644608, -0.04461509361863136, 0.10507884621620178, -0.05852105841040611, -0.6807579398155212, 0.17448094487190247, 0.04184757545590401, -0.24777303636074066, -0.06282388418912888, -0.16334035992622375, -0.016600923612713814, -0.2679537236690521, -0.27745890617370605, 0.2022232711315155, 0.21067534387111664, -0.11201716214418411, 0.16066940128803253, -0.022219272330403328, 0.5805686712265015, 0.10404662042856216, 0.09230775386095047, -0.03134433180093765, -0.06119167432188988, -0.051243409514427185, -0.18449564278125763, -0.3243732750415802, -0.07444622367620468, 0.2261745184659958, -0.47051653265953064, 0.11686939746141434, -0.08922544866800308, 0.35956886410713196, 0.011491511948406696, 0.07423815131187439, 0.1015264093875885, -0.42516714334487915, 0.060044072568416595, -0.0874999389052391, -0.13011051714420319, 0.3516737222671509, -0.1634247601032257, 0.6348755955696106, -0.07947439700365067, -0.07644656300544739, 0.18322442471981049, 0.08706557750701904, 0.1375054270029068, -0.14909647405147552, -0.07462070882320404, 0.4094226360321045, 0.12524272501468658, -0.20769137144088745, -0.3063780963420868, -0.05041683465242386, -0.14132682979106903, -0.15791141986846924, 0.05629762262105942, -0.28742608428001404, -0.05758743733167648, 0.364004522562027, -0.12284274399280548, -0.4784793555736542, 0.5918027758598328, -0.1700633317232132, -0.12038916349411011, 0.33958303928375244, 0.36365512013435364, 0.18543775379657745, 0.19622769951820374, -0.14153531193733215, -0.20456476509571075, -0.14570705592632294, 0.07196925580501556, 0.4044072926044464, -0.0716385692358017, -0.1270531415939331, -0.482044517993927, -0.22451069951057434, 0.4229264557361603, 0.14843037724494934, -0.20814774930477142, 0.03370080515742302, 0.10274864733219147, -0.11401274800300598, 0.160776749253273, 0.05426870286464691, 0.07071605324745178, -0.056189265102148056, 0.0549495629966259, -0.27985942363739014, 0.14829149842262268, 0.3385772705078125, -0.021044770255684853, -0.21920961141586304, -0.015667391940951347, -0.16662587225437164, 0.01957078091800213, 0.3453565537929535, -0.08157713711261749, 0.005503182765096426, -0.0026369718834757805, -0.290482759475708, 0.031951215118169785, -0.17683640122413635, 0.31502899527549744, -0.2455783188343048, -0.22851738333702087, -0.4120149314403534, -0.04244634136557579, 0.014798459596931934, 0.20808231830596924, -0.00340640009380877, 0.33655643463134766, 0.13265109062194824, 0.2922450006008148, 0.025307444855570793, -0.35972341895103455, -0.28483152389526367, -0.37976378202438354, 0.4812128245830536, -0.20011800527572632, -0.32102155685424805, -0.10628166049718857, -0.24662014842033386, 0.02172158844769001, -0.1797560602426529, -0.35562244057655334, 0.42985063791275024, -0.41785380244255066, -0.11067941784858704, -0.02028050273656845, 0.12131869792938232, 0.11810053139925003, 0.08458706736564636, -0.0615597739815712, 0.09211715310811996, 0.06427248567342758, 0.08838468790054321, 0.2267291396856308, 0.1433200091123581, 0.023938240483403206, 0.007001367397606373, -0.1212037205696106, -0.19303764402866364, 0.04580464959144592, -0.013652723282575607, 0.008598015643656254, 0.08685455471277237, 0.18342454731464386, 0.10146769881248474, -0.17574232816696167, -0.02137666940689087, 0.07842651754617691, -0.18584249913692474, 0.01742914877831936, 0.13962063193321228, -0.21814928948879242, 0.08371035754680634, 0.005522169638425112, -0.06941965222358704, -0.039433952420949936, 0.0348542220890522, 0.07842554897069931, 0.0007005702937021852, 0.11645856499671936, 0.21957199275493622, 0.030570615082979202, 0.1375264972448349, -0.019444722682237625, -0.06408853083848953, -0.2541664242744446, -0.05639529600739479, 0.09599178284406662, -0.11355162411928177, 0.17232230305671692, 0.36264652013778687, 0.1417931616306305, -0.17926441133022308, -0.07240797579288483, -0.19044901430606842, -0.05416435748338699, -0.09832675755023956, -0.022073442116379738, 0.28254014253616333, 0.23468777537345886, -0.07563824951648712, -0.10843602567911148, 0.1531190574169159, 0.09394661337137222, -0.2346991002559662, -0.06381534785032272, 0.010021845810115337, 0.09727223217487335, 0.1736483871936798, 0.1452779769897461, -0.09178066998720169, 0.04249953478574753, -0.12561318278312683, 0.06686429679393768, -0.41621512174606323, -0.20048560202121735, -0.020923232659697533, -0.043690625578165054, 0.11657484620809555, -0.12896451354026794, 0.06329115480184555, 0.17997103929519653, 0.021803736686706543, -0.04225824400782585, 0.018650412559509277, -0.15095733106136322, -0.03177301585674286, 0.09443506598472595, 0.26715654134750366, -0.09486452490091324, -0.2837231159210205, -0.042557764798402786, -0.25071799755096436, 0.0860898494720459, 0.10121903568506241, 0.03179348632693291, -0.05245128273963928, 0.22824779152870178, -0.21699613332748413, -0.040065910667181015, 0.16574428975582123, -0.4859532415866852, -0.35324448347091675, 0.08274523913860321, 0.10834261775016785, -0.22197021543979645, -0.18488219380378723, -0.06447558850049973, -0.10492120683193207, 0.25549182295799255, 0.10496119409799576, -0.1023608073592186, -0.04433354362845421, -0.2450360506772995, 0.1204131692647934, -0.35589075088500977, -0.38729697465896606, 0.202969029545784, 0.02571268565952778, -0.014360504224896431, 0.0382206067442894, -0.0566706657409668, 0.14755934476852417, -0.5052942633628845, -0.07494547218084335, -0.26639524102211, 0.10266447812318802, -0.09475179761648178, -0.265011191368103, 0.2984425723552704, -0.15893258154392242, -0.02180381864309311, -0.005205455701798201, 0.2018069624900818, 0.10895480960607529, -0.0888456180691719, -0.25104162096977234, -0.05428483337163925, -0.2530041038990021, -0.2053910493850708, 0.22745898365974426, -0.3923396170139313, -0.1064671203494072, 0.4142398238182068, -0.5262369513511658, -0.10979081690311432, 0.23010408878326416, -0.0573158822953701, -0.041195206344127655, 0.3898811638355255, -0.026211820542812347, -0.007561240345239639, 0.0984855443239212, -0.10204415768384933, 0.19840139150619507, 0.2716926634311676, 0.053873829543590546, -0.051476966589689255, 0.195207417011261, 0.03489155322313309, 0.21943560242652893, 0.3099113702774048, -0.34182432293891907, -0.025995977222919464, 0.035912055522203445, -0.07106462866067886, 0.2934839427471161, 0.09872252494096756, 0.13210369646549225, -0.1461416333913803, 0.030502822250127792, 0.1896621286869049, -0.17096641659736633, 0.11419638991355896, -0.17555224895477295, 0.3332028388977051, 0.25028756260871887, -0.3313930630683899, 0.21923141181468964, -0.04467693343758583, 0.008486769162118435, 0.27364420890808105, 0.18167522549629211, -0.2836560010910034, 0.034327082335948944, 0.4877874255180359, 0.348376989364624, -0.5028299689292908, -0.016053009778261185, 0.010197252035140991, -0.08001982420682907, -0.1649581789970398, 0.544718325138092, -0.20487618446350098, 0.07129799574613571, -0.06811390072107315, -0.21665051579475403, -0.1376686990261078, -0.09514714777469635, -0.19085051119327545, -0.1286403089761734, 0.11249855160713196, 0.022609440609812737, 0.09811509400606155, 0.17364871501922607, -0.35577765107154846, 0.04342721030116081, -0.2464420199394226, 0.08253677934408188, 0.17778168618679047, -0.1895613968372345, 0.20707520842552185, 0.08093317598104477, 0.24295736849308014, 0.11110175400972366, 0.15497949719429016, -0.030043022707104683, -0.30353593826293945, 0.06321694701910019, -0.009978963993489742, 0.0397493876516819, -0.05757303163409233, -0.5610437393188477, -0.10393893718719482, -0.023366082459688187, -0.20974896848201752, 0.09698294848203659, -0.009717357344925404, -0.18377196788787842, -0.009422656148672104, 0.26601818203926086, 0.013296051882207394, -0.11751759052276611, 0.22535192966461182, -0.06682565063238144, 0.30601122975349426, 0.18392804265022278, -0.15675105154514313, 0.3585583567619324, 0.1080210953950882, 0.44240179657936096, 0.019222643226385117, -0.026048647239804268, -0.07314082235097885, -0.11826904863119125, 0.07652854919433594, -0.21285901963710785, -0.03174107149243355, -0.28789353370666504, 0.4940143823623657, 0.2930086851119995, 0.218234583735466, 0.2030901312828064, 0.02626432664692402, 0.10541833937168121, -0.4075793921947479, -0.02444200962781906, 0.2144361436367035, 0.027478856965899467, 0.30576083064079285, -0.2578981816768646, -0.17899641394615173, 0.10479024052619934, -0.1335366815328598, 0.058664966374635696, 0.02150363102555275, 0.1188826784491539, 0.20357480645179749, -0.23171764612197876, -0.14668481051921844, -0.20476371049880981, -0.0060285162180662155, -0.06543702632188797, -0.23949399590492249, 0.245111346244812, 0.030143456533551216, -0.38319239020347595, 0.13748180866241455, 0.16646289825439453, 0.087444968521595, -0.07339021563529968, -0.25316929817199707, 0.07632379978895187, -0.006242835428565741, -0.05721816048026085, -0.04858078435063362, -0.2400446981191635, -0.09778717160224915, 0.45530232787132263, -0.23653671145439148, 0.021525684744119644, 0.20857754349708557, -0.06666330248117447, 0.0015611510025337338, 0.4097684621810913, -0.1072879284620285, 0.13392478227615356, 0.1109190359711647, -0.12101048231124878, -0.11388029903173447, 0.12893547117710114, 0.0129321264103055, -0.02610098570585251, 0.24349470436573029, -0.10002145916223526, -0.047813620418310165, 0.24222618341445923, 0.15320460498332977, -0.18190814554691315, -0.27775734663009644, -0.13463260233402252, -0.3867988884449005, -0.13430176675319672, 0.10735789686441422, -0.02533256635069847, -0.020184090360999107, 0.2830734848976135, -0.3427540063858032, -0.23809126019477844, -0.34011417627334595, -0.052452296018600464, 0.006197768729180098, -0.5028855204582214, 0.31332987546920776, 0.36248666048049927, 0.024651534855365753, 0.16006536781787872, -0.2769882082939148, 0.4216744303703308, -0.3173510730266571, -0.263160765171051, 0.014683936722576618, -0.25855520367622375, 0.08997821807861328, 0.1837761551141739, -0.14171931147575378, -0.06311225891113281, 0.008887359872460365, -0.18647819757461548, 0.1964062750339508, 0.014291905798017979, -0.05850249528884888, 0.10731421411037445, 0.025579098612070084, 0.16231606900691986, 