{"version": "0.5.2", "metadata": {"date": {"year": 2023, "month": 11, "day": 23, "hour": 22, "minute": 53, "second": 26}, "loudness": -15.523605346679688, "gain": 0.8846439678256113, "name": "SinMix JCM800 Marshall 1960AV", "modeled_by": "SinMix", "gear_type": "amp_cab", "gear_make": "JCM800 Marshall 1960AV", "gear_model": "www.sinmix.pl", "tone_type": "overdrive"}, "architecture": "WaveNet", "config": {"layers": [{"input_size": 1, "condition_size": 1, "head_size": 8, "channels": 16, "kernel_size": 3, "dilations": [1, 2, 4, 8, 16, 32, 64, 128, 256, 512], "activation": "Tanh", "gated": false, "head_bias": false}, {"input_size": 16, "condition_size": 1, "head_size": 1, "channels": 8, "kernel_size": 3, "dilations": [1, 2, 4, 8, 16, 32, 64, 128, 256, 512], "activation": "Tanh", "gated": false, "head_bias": true}], "head": null, "head_scale": 0.02}, "weights": [-0.3116101622581482, 0.8656363487243652, -1.0154204368591309, -1.0019956827163696, -0.5596737265586853, 0.5312304496765137, -0.3196146488189697, 1.0151084661483765, -0.3181999623775482, 0.5331674814224243, -0.5445390939712524, -0.47292467951774597, -1.1760247945785522, -0.8386012315750122, -0.6902357339859009, 0.41710519790649414, 0.478698194026947, 0.124021515250206, -0.38174888491630554, -0.3500472903251648, 0.03784329071640968, 0.3593718409538269, 0.24261438846588135, 0.12024246901273727, -0.26079443097114563, 0.29276347160339355, 0.14217419922351837, -0.36847370862960815, 0.19798612594604492, -0.0166538767516613, -0.295911967754364, -0.14433032274246216, -0.11234517395496368, 0.17716288566589355, 0.32304587960243225, -0.09236284345388412, -0.35136276483535767, -0.14889366924762726, 0.051917362958192825, 0.30577242374420166, 0.3105051517486572, -0.0469491146504879, -0.21727681159973145, -0.4182083308696747, -0.12332040816545486, 0.16838213801383972, 0.37720420956611633, 0.10221530497074127, -0.3046278655529022, 0.2709272503852844, 0.10394623875617981, -0.08746086806058884, 0.33157795667648315, 0.031745389103889465, -0.13862714171409607, 0.19036659598350525, 0.04032629355788231, -0.34684818983078003, 0.18073204159736633, -0.056483589112758636, -0.17702987790107727, -0.1972081959247589, -0.12555532157421112, 0.30963757634162903, -0.48280900716781616, -0.3911312222480774, -0.08723942935466766, 0.528331458568573, 0.3607002794742584, 0.20050960779190063, -0.5963028073310852, -0.3182353377342224, -0.008085107430815697, -0.36746323108673096, -0.1391526609659195, 0.0660535991191864, -0.46332234144210815, -0.402077317237854, -0.04957905039191246, 0.3915320932865143, 0.14278307557106018, 0.2037184089422226, -0.45430171489715576, -0.48843666911125183, -0.011978079564869404, 0.46056750416755676, 0.24326935410499573, -0.0016404003836214542, -0.4457746744155884, -0.37377843260765076, -0.013294124975800514, 0.5664694905281067, 0.37957021594047546, 0.11943507939577103, -0.6357072591781616, -0.3706132769584656, 0.008449609391391277, -0.4537036716938019, -0.37077096104621887, -0.14416523277759552, -0.3497640788555145, -0.16934362053871155, -0.1267530620098114, -0.5217560529708862, -0.4049062728881836, -0.06637651473283768, -0.6025766134262085, -0.3901975750923157, -0.07999120652675629, 0.4892280399799347, 0.25646331906318665, 0.18806834518909454, 0.12604622542858124, -0.21623831987380981, -0.14997243881225586, -0.2380300611257553, 0.3299418091773987, 0.28950265049934387, 0.13362464308738708, -0.326974481344223, -0.2280598282814026, 0.12025932967662811, -0.4323522746562958, -0.21145394444465637, -0.01958988606929779, -0.4501648545265198, -0.3193283975124359, -0.2017621248960495, 0.3077349364757538, 0.1681385189294815, 0.12188228964805603, -0.3781641721725464, -0.34643059968948364, -0.11989802867174149, 0.46470463275909424, 0.2667712867259979, 0.1435272991657257, -0.37715771794319153, -0.24699939787387848, -0.0317840538918972, 0.5015652775764465, 0.3742317259311676, 0.2586972713470459, -0.37625256180763245, -0.4099154472351074, 0.0621161125600338, -0.2548377215862274, -0.2708542048931122, 0.03977073356509209, -0.47218066453933716, -0.4163791537284851, -0.008303078822791576, -0.3901386260986328, -0.20074236392974854, 0.19971857964992523, -0.5050331354141235, -0.198589488863945, -0.30011221766471863, 0.3199315071105957, 0.23726481199264526, -0.18715828657150269, -0.05826696380972862, -0.2784244120121002, -0.06247236952185631, -0.08463384956121445, 0.0475655160844326, -0.1251627653837204, 0.11772292852401733, -0.16938085854053497, -0.06767015904188156, 0.19238732755184174, -0.10009195655584335, 0.06465907394886017, 0.11481795459985733, -0.17666184902191162, 0.16990512609481812, -0.06775443255901337, -0.01645396463572979, 0.022399667650461197, -0.05044172704219818, -0.0807223916053772, 0.02941562980413437, 0.03822290897369385, 0.08071861416101456, -0.014523427002131939, 0.0990719273686409, -0.09795700758695602, 0.040197428315877914, -0.17650359869003296, 0.1284504234790802, 0.04694504290819168, 0.15951228141784668, -0.1510574370622635, -0.06688971817493439, -0.05576169863343239, -0.134681835770607, -0.14233610033988953, 0.1154496967792511, -0.12554782629013062, -0.06331340223550797, 0.07030536234378815, 0.051346875727176666, -0.17746733129024506, -0.04002783074975014, -0.1281333565711975, 0.24042566120624542, -0.06037285551428795, 0.2021421641111374, -0.09489545971155167, 0.07774686068296432, 0.07638581842184067, 0.002291654935106635, -0.11009061336517334, -0.17562754452228546, -0.027489328756928444, 0.14530234038829803, 0.033965542912483215, -0.10106846690177917, 0.2453705072402954, 0.025998445227742195, -0.04607030004262924, 0.26954832673072815, 0.19315548241138458, 0.047973282635211945, -0.24392707645893097, -0.0754975751042366, -0.18252940475940704, 0.10159707069396973, 0.04777155816555023, 0.005897673778235912, -0.12600740790367126, -0.025305749848484993, -0.03474687412381172, 0.25079345703125, 0.2219802588224411, -0.05275076627731323, -0.060435693711042404, -0.24373769760131836, -0.09731217473745346, 0.17021548748016357, 0.18838180601596832, 0.07469142228364944, 0.07101066410541534, 0.14137181639671326, 0.0480184443295002, -0.011280209757387638, 0.24840353429317474, -0.1470056176185608, 0.12971967458724976, 0.1186952069401741, -0.11310547590255737, 0.14444400370121002, 0.2648889124393463, 0.0634932816028595, -0.17021159827709198, -0.19465291500091553, 0.07665418833494186, 0.1492181271314621, -0.5838008522987366, -0.1838739961385727, -0.12301507592201233, 0.5896351933479309, 0.15464220941066742, 0.15120024979114532, -0.4477739930152893, 0.03158827871084213, -0.003942535258829594, -0.4521743655204773, 0.20856092870235443, 0.08026812225580215, -0.5747091770172119, -0.16029320657253265, -0.19236639142036438, 0.5416065454483032, 0.07324573397636414, -0.13948501646518707, -0.35372108221054077, -0.17242713272571564, -0.05391860008239746, 0.5372255444526672, 0.1170954704284668, -0.04378686472773552, -0.6281794905662537, 0.022647565230727196, -0.022085048258304596, 0.6278159618377686, 0.04279329255223274, 0.08311288803815842, -0.537060558795929, 0.08414551615715027, -0.0314638614654541, -0.44260284304618835, 0.12425588816404343, 0.033667366951704025, -0.527716338634491, -0.008410301059484482, 0.13772325217723846, -0.6022630929946899, 0.14820167422294617, -0.004614141304045916, -0.5837827324867249, -0.09893202781677246, -0.17841091752052307, 0.5852397084236145, -0.06250923871994019, -0.6043872237205505, -0.07961953431367874, 0.19902034103870392, 0.49659645557403564, 0.11834333837032318, -0.2588055431842804, -0.451872855424881, -0.09028726071119308, -0.19075337052345276, -0.3747282028198242, -0.03885434567928314, -0.21327680349349976, -0.4393617510795593, -0.07653636485338211, 0.1463472694158554, 0.4485079050064087, 0.15281523764133453, -0.23272797465324402, -0.5052233934402466, 0.02227039262652397, 0.26892170310020447, 0.5142518877983093, 0.15503084659576416, -0.058795440942049026, -0.5238357186317444, -0.23803113400936127, 0.011104919016361237, 0.5857718586921692, 0.22260145843029022, -0.23534347116947174, -0.3861660063266754, -0.020546982064843178, 0.016576973721385002, -0.2933396100997925, -0.017522942274808884, -0.1719517856836319, -0.4799935221672058, -0.017883192747831345, -0.056877002120018005, -0.5169062614440918, -0.005286217201501131, -0.06974402070045471, -0.36705902218818665, -0.23010310530662537, 0.17427293956279755, 0.4143696129322052, 0.24238908290863037, 0.04909883439540863, -0.062397103756666183, 0.007744400296360254, 0.040975894778966904, 0.09123746305704117, 0.13556797802448273, -0.08109839260578156, -0.10712108761072159, -0.16323065757751465, -0.12392216175794601, -0.25513601303100586, 0.047391004860401154, 0.09875968098640442, -0.005359937436878681, 0.050885673612356186, -0.15355156362056732, 0.048139363527297974, 0.041657328605651855, -0.05499448627233505, -0.044805217534303665, -0.16943597793579102, -0.08908228576183319, 0.0011741087073460221, -0.01490037515759468, 0.1429707407951355, -0.029853196814656258, 0.03745390847325325, 0.09051297605037689, 0.2730364501476288, 0.030483881011605263, 0.08421079069375992, -0.015519099310040474, -0.019445640966296196, 0.16964013874530792, -0.06735920906066895, 0.026183905079960823, -0.03190601244568825, -0.07023963332176208, -0.04984084516763687, -0.015755513682961464, -0.22144898772239685, -0.1473553329706192, -0.08797529339790344, -0.04528280720114708, 0.03859099745750427, -0.07303855568170547, 0.07142925262451172, 0.16030973196029663, 0.2948107123374939, 0.05333589389920235, -0.027685383334755898, 0.022218918427824974, 0.07930555939674377, -0.09689086675643921, 0.24244427680969238, 0.09003037959337234, -0.06856651604175568, 0.18692968785762787, -0.10364032536745071, -0.0349077433347702, 0.2338704913854599, -0.012293151579797268, -0.11537298560142517, -0.16268561780452728, -0.030906302854418755, -0.015733866021037102, 0.1787640005350113, 0.11721070855855942, 0.03855707868933678, -0.19359774887561798, 0.028454771265387535, 0.0832265242934227, 0.2014261931180954, -0.13838841021060944, -0.02500271610915661, -0.2222614586353302, -0.04631029814481735, 0.0624583400785923, 0.010392057709395885, 0.03512449935078621, 0.11270924657583237, 0.12578533589839935, -0.10687336325645447, -0.053691282868385315, 0.13585467636585236, -0.13176329433918, 0.057786185294389725, -0.025036649778485298, -0.15916121006011963, -0.15240556001663208, 0.08283257484436035, 0.08106185495853424, -0.15056735277175903, -0.020143110305070877, -0.08330470323562622, 0.0485115610063076, 0.4531191289424896, 0.018849913030862808, 0.33258020877838135, -0.1800888180732727, 0.07560057938098907, -0.035737600177526474, 0.14876903593540192, 0.18843792378902435, 0.11141473054885864, 0.3147290050983429, -0.050570759922266006, 0.06418825685977936, 0.11429103463888168, 0.007904666475951672, 0.14028507471084595, -0.3663564622402191, -0.028626199811697006, -0.035279542207717896, 0.3563750982284546, -0.0578470416367054, 0.07530693709850311, -0.28873226046562195, -0.0023311779368668795, 0.03618807718157768, 0.3654804527759552, 0.05581526830792427, 0.17720068991184235, -0.40078264474868774, -0.1911264806985855, -0.047013603150844574, 0.1783171445131302, 0.13591353595256805, 0.013055449351668358, 0.17787513136863708, -0.03918108716607094, 0.18204307556152344, 0.2289741337299347, 0.17569506168365479, 0.19434234499931335, 0.3255445957183838, 0.06969090551137924, 0.06141684949398041, 0.2232186496257782, 0.08541174232959747, 0.17845720052719116, -0.3678096830844879, 0.025427840650081635, -0.15353922545909882, -0.43567249178886414, -0.34354034066200256, 0.21987317502498627, 0.518754243850708, 0.19574135541915894, 0.15268971025943756, -0.313223272562027, -0.24348974227905273, 0.06834283471107483, -0.4648706018924713, -0.28262537717819214, 0.0026087623555213213, -0.4294111430644989, -0.2839594781398773, -0.08999183028936386, 0.46813368797302246, 0.29051148891448975, -0.016530068591237068, -0.38218954205513, -0.3066715896129608, -0.09397450089454651, 0.3994939625263214, 0.41383570432662964, 0.041331760585308075, -0.34065136313438416, -0.3680213391780853, 0.018422910943627357, 0.2822047472000122, 0.24783878028392792, -0.028643488883972168, -0.25501030683517456, -0.37265440821647644, -0.04804577678442001, -0.4390394389629364, -0.16917085647583008, 0.1067277118563652, -0.4957452118396759, -0.4468580484390259, -0.16641435027122498, -0.38619789481163025, -0.3662630617618561, -0.14960810542106628, -0.43838736414909363, -0.307383269071579, -0.12402959167957306, 0.38482433557510376, 0.2989768981933594, -0.09082154929637909, -0.25241875648498535, 0.5216907858848572, 0.2117721438407898, 0.1626138836145401, -0.45900824666023254, -0.2220422923564911, -0.28829512000083923, 0.2623926103115082, 0.5108569264411926, -0.23901322484016418, 0.42896440625190735, 0.35011839866638184, -0.18990293145179749, 0.3732413053512573, 0.45336008071899414, 0.1841019243001938, -0.539596438407898, -0.45724615454673767, -0.2301626205444336, 0.5353468060493469, 0.22431588172912598, 0.2858015298843384, -0.43339699506759644, -0.3910137712955475, -0.06957471370697021, 0.47870394587516785, 0.4775509536266327, 0.2482084482908249, -0.4504544734954834, -0.4598473608493805, -0.1713021844625473, 0.526382565498352, 0.313142865896225, -0.3003700375556946, 0.45280948281288147, 0.5050625801086426, -0.18943151831626892, 0.2820853292942047, 0.23366980254650116, -0.11448577046394348, 0.38986900448799133, 0.2900249660015106, -0.13535436987876892, 0.4613782465457916, 0.4862801730632782, 0.3690205216407776, -0.41905710101127625, -0.5113962292671204, 0.1612406224012375, 0.08875466138124466, 0.06618785113096237, -0.1461392343044281, -0.04937884211540222, 0.18421387672424316, 0.34301236271858215, 0.05220486968755722, -0.1800660789012909, 0.14979775249958038, -0.17495694756507874, 0.08435117453336716, 0.14552946388721466, -0.14603257179260254, 0.023933593183755875, -0.29746007919311523, 0.013533400371670723, 0.04619564488530159, 0.20365501940250397, -0.21299374103546143, 0.12378402799367905, -0.2714984714984894, 0.12842939794063568, 0.17920535802841187, 0.2956412434577942, -0.0671151801943779, 0.0766906663775444, -0.19763268530368805, 0.012944201938807964, 0.18691685795783997, 0.24756067991256714, -0.22272425889968872, -0.09043494611978531, 0.12498091161251068, 0.05124413222074509, -0.08086363226175308, 0.07431924343109131, -0.08593989163637161, 0.0372203029692173, 0.2438429594039917, -0.0320480652153492, -0.039669692516326904, 0.26957958936691284, -0.11790460348129272, -0.11314410716295242, -0.45335090160369873, -0.0026812111027538776, 0.12609748542308807, -0.06775517761707306, 0.021993843838572502, 0.1512741893529892, -0.05796630308032036, -0.1648123413324356, -0.021974513307213783, -0.01307985931634903, 0.19106344878673553, 0.04845559224486351, 0.03371246159076691, 0.15137377381324768, 0.10190670192241669, 0.18825262784957886, -0.030286714434623718, 0.0381527841091156, -0.13348539173603058, -0.043133337050676346, -0.028284287080168724, -0.03270295262336731, 0.10219305753707886, 0.09416000545024872, -0.10058247298002243, 0.0333050973713398, -0.2739451229572296, 0.07564838230609894, 0.19782742857933044, 0.13084235787391663, 0.04475991055369377, -0.1133187934756279, -0.04370078817009926, -0.07280977070331573, 0.04976566508412361, 0.13336241245269775, 0.1109674870967865, 0.12543760240077972, 0.2652519941329956, 0.047375790774822235, 0.06688426434993744, 0.26029297709465027, 0.0289187952876091, 0.19822026789188385, 0.06377585232257843, 0.05176345258951187, 0.059908878058195114, 0.22338148951530457, 0.04101121425628662, -0.06559417396783829, -0.2739540934562683, 0.0717044398188591, 0.05516459047794342, 0.2998252511024475, -0.08612612634897232, 0.12611344456672668, -0.02246418036520481, 0.006939760409295559, -0.17334507405757904, 0.25055065751075745, -0.10673178732395172, -0.004332135897129774, 0.1755044013261795, -0.07437693327665329, 0.017353633418679237, 0.027901237830519676, 0.044422704726457596, -0.05609603226184845, -0.17004069685935974, 0.0507124625146389, 0.10689027607440948, 0.1829608976840973, 0.09471343457698822, 0.02026926726102829, -0.22074727714061737, -0.1332368552684784, -0.16017599403858185, 0.31334900856018066, -0.02973785810172558, 0.039226874709129333, -0.120010145008564, 0.09407515078783035, 0.08813665062189102, 0.2782278060913086, -0.10142345726490021, -0.06318943202495575, 0.07376337796449661, -0.08338496088981628, -0.0036490808706730604, 0.28828316926956177, -0.11673407256603241, 0.04972580447793007, 0.0789412260055542, -0.03611869364976883, 0.0819360688328743, 0.12487836927175522, 0.04529101401567459, -0.0673639178276062, -0.038598354905843735, -0.04473387077450752, 0.3242669403553009, 0.2006545066833496, -0.14120785892009735, -0.5330834984779358, -0.15885081887245178, 0.15426328778266907, 0.3754118084907532, 0.2376534789800644, 0.16604894399642944, 0.5089442133903503, 0.08941075950860977, 0.01929350383579731, 0.37446630001068115, 0.050834450870752335, -0.021691815927624702, -0.3131294250488281, -0.05129101872444153, 0.0262739360332489, 0.47194865345954895, 0.07666339725255966, 0.06832050532102585, -0.4754224121570587, -0.2677733302116394, 0.03969723358750343, 0.5056642889976501, 0.030741041526198387, 0.09986931085586548, -0.3687020540237427, -0.2681812345981598, 0.00216218875721097, 0.544523298740387, 0.0544593445956707, -0.01770632341504097, 0.4525147080421448, 0.03207068517804146, 0.12072661519050598, 0.49004876613616943, 0.25671759247779846, -0.05244305729866028, 0.5577531456947327, 0.08042079210281372, 0.17682303488254547, 0.2853931486606598, 0.04601849615573883, 0.125860795378685, -0.429634690284729, -0.17371156811714172, 0.005304416175931692, -0.182899609208107, -0.1011720672249794, -0.09392905980348587, 0.08321168273687363, 0.04037860780954361, -0.012619901448488235, -0.025103654712438583, 0.013439725153148174, 0.07972311228513718, -0.11054344475269318, 0.013335861265659332, -0.04699782654643059, 0.005446728318929672, 0.0008418172947131097, 0.03639078512787819, 0.678868293762207, -0.3645126223564148, 1.0798369646072388, -0.6672137379646301, -0.14275957643985748, 1.3909024000167847, 1.1335701942443848, -0.5128332376480103, 0.19505593180656433, 0.016367722302675247, -0.4055941104888916, -0.7104468941688538, 0.32418692111968994, -0.8582465648651123, 0.015524438582360744, 0.26419398188591003, -0.13312165439128876, 0.24493689835071564, -0.04637128859758377, 0.128621906042099, 0.22003518044948578, -0.21766270697116852, 0.13241825997829437, -0.03219534456729889, -0.03325273469090462, 0.006342830136418343, 0.17587126791477203, 0.03927834331989288, 0.06579388678073883, 0.09469562768936157, -0.10648129135370255, -0.09296828508377075, -0.08067388087511063, -0.21211762726306915, -0.3538464307785034, 0.06508520245552063, 0.06926250457763672, -0.24635833501815796, -0.17374959588050842, 0.03913399204611778, -0.08517598360776901, -0.009033270180225372, -0.20147573947906494, 0.14263761043548584, 0.19182662665843964, -0.07122962176799774, 0.04260751232504845, 0.19468319416046143, 0.25126704573631287, 0.1713564693927765, 0.17010045051574707, 0.3165030777454376, -0.24839681386947632, -0.2092152237892151, 0.12976069748401642, -0.2930125594139099, 0.06622429937124252, -0.06490977853536606, 0.28985631465911865, -0.32922816276550293, 0.05866232514381409, 0.17542235553264618, -0.2536194324493408, -0.020075853914022446, 0.2873697876930237, -0.09492065757513046, -0.000421679433202371, -0.25286534428596497, -0.05306538939476013, 0.08885829895734787, -0.019103948026895523, 0.07500392943620682, -0.17969965934753418, 0.1216677650809288, -0.10788050293922424, -0.1798989623785019, 0.1610361635684967, 0.21213434636592865, -0.11643964052200317, -0.05403980612754822, 0.06156542897224426, -0.23494894802570343, -0.11613697558641434, 0.14811326563358307, 0.10134769231081009, 0.0541100949048996, 0.11911900341510773, -0.20846322178840637, 0.14436906576156616, 0.07166828215122223, -0.16151046752929688, 0.13442610204219818, 0.0711713656783104, 0.03574644401669502, -0.051891665905714035, 0.06832115352153778, -0.1843687742948532, -0.06862302124500275, 0.07126250863075256, 0.11750994622707367, 0.4985252916812897, 0.35481658577919006, 0.167622372508049, 0.0695231705904007, -0.10190676152706146, -0.29824429750442505, -0.11824523657560349, 0.10240354388952255, -0.18658289313316345, 0.05618419870734215, 0.25980743765830994, 0.2625954747200012, -0.007248970214277506, 0.1852259784936905, 0.05818512663245201, 0.12967278063297272, -0.0851556658744812, -0.33814287185668945, -0.11343274265527725, 0.13376790285110474, -0.10896000266075134, -0.5956452488899231, -0.34325549006462097, 0.4047064483165741, 0.20923973619937897, -0.1250733733177185, 0.16778630018234253, 0.05549629032611847, 0.11549896001815796, -0.013696640729904175, 0.23519375920295715, -0.07496999949216843, 0.046515900641679764, 0.1456133872270584, 0.21186979115009308, -0.058769598603248596, 0.045612040907144547, -0.2452477663755417, 0.12678375840187073, -0.18182653188705444, -0.08095721155405045, -0.0038803154602646828, 0.20892077684402466, 0.11451789736747742, 0.13313168287277222, 0.009533578529953957, -0.27583232522010803, -0.1963169127702713, -0.056391049176454544, -0.1543818563222885, -0.20024429261684418, 0.05345598980784416, -0.14448021352291107, -0.10103622078895569, 0.1292257159948349, 0.1521013081073761, 0.2393951117992401, -0.16413958370685577, -0.1786995381116867, 0.057167503982782364, -0.11937957257032394, 0.0987168401479721, 0.3338729441165924, -0.18110224604606628, -0.11973541975021362, 0.14452475309371948, 0.279607355594635, -0.20071373879909515, 0.05140719190239906, 0.28229695558547974, 0.2019427865743637, -0.026192739605903625, 0.13492266833782196, 0.2096468210220337, -0.1810571551322937, -0.03917129337787628, 0.10319174826145172, 0.2562274634838104, -0.28544360399246216, 0.1298217475414276, -0.25775864720344543, -0.26952847838401794, 0.03603889048099518, -0.06002495065331459, 0.043860916048288345, -0.16479632258415222, -0.18012520670890808, -0.014170474372804165, -0.07671710103750229, 0.05705557391047478, -0.10291752219200134, 0.18549934029579163, 0.5532342791557312, -0.2908681333065033, 0.17786742746829987, 0.04885442554950714, 0.00014802208170294762, 0.14445920288562775, -0.029054000973701477, -0.1707661747932434, -0.13951285183429718, 0.12359955906867981, -0.012731381691992283, -0.2479126751422882, -0.25640711188316345, 0.1451832503080368, -0.2032688558101654, -0.059580691158771515, -0.2472514808177948, -0.027094446122646332, 0.1258574277162552, 0.0856100395321846, -0.21341389417648315, -0.16994121670722961, -0.014031167142093182, 0.314467191696167, 0.15874697268009186, 0.11272049695253372, -0.18300887942314148, -0.12029056251049042, 0.24858784675598145, -0.2132517546415329, -0.3131635785102844, 0.043075915426015854, -0.12258845567703247, -0.06714317947626114, -0.1998743861913681, 0.05720292404294014, -0.2254689335823059, -0.0747871994972229, 0.1942371428012848, 0.2953144609928131, 0.0131723303347826, -0.17564472556114197, -0.0005907072336412966, 0.05857562646269798, -0.0017329443944618106, -0.14441806077957153, -0.12230159342288971, 0.1563691645860672, 0.06619228422641754, 0.29426583647727966, -0.0627111941576004, -0.04623738303780556, 0.058859169483184814, -0.11350182443857193, 0.1915607452392578, 0.13901261985301971, -0.2412034422159195, 0.3495081663131714, 0.1016688197851181, -0.0824122428894043, 0.02498829923570156, 0.24880775809288025, -0.13479439914226532, -0.040612999349832535, 0.29268476366996765, -0.041790444403886795, 0.23105333745479584, -0.01265430822968483, 0.17069794237613678, 0.34699487686157227, 0.12549638748168945, -0.0358058363199234, -0.14940042793750763, -0.12369702756404877, -0.10875466465950012, -0.21185225248336792, -0.07134527713060379, 0.30322185158729553, 0.19871856272220612, 0.05043041706085205, 0.14547626674175262, -0.1781880110502243, 0.1344604790210724, -0.11352413147687912, -0.06043307110667229, -0.04426822438836098, 0.07736274600028992, 0.011164350435137749, 0.06082671135663986, -0.13114839792251587, 0.0529075562953949, -0.05812644958496094, -0.02590378001332283, 0.09455889463424683, 0.1397736817598343, 0.0035288683138787746, 0.01901957392692566, 0.026504553854465485, -0.1461704820394516, 0.15682770311832428, -0.171172633767128, 0.2457900494337082, 0.03633103892207146, 0.20861931145191193, 0.06010734662413597, -0.1644464135169983, -0.0009783816058188677, 0.07397827506065369, -0.005124057177454233, -0.1538873165845871, 0.2113168090581894, -0.17552731931209564, -0.1802690476179123, 0.2843853235244751, 0.06530217081308365, -0.08844081312417984, 0.23995526134967804, 0.0003244296822231263, -0.005621091928333044, -0.25120365619659424, 0.023997057229280472, 0.024671396240592003, -0.007229404989629984, -0.1748570203781128, 0.05331943556666374, -0.23926080763339996, -0.0857328251004219, -0.07287304848432541, 0.11134812980890274, -0.23351618647575378, 0.2742459774017334, -0.1792951077222824, 0.07143779844045639, -0.1283610463142395, 0.01171201840043068, -0.026752328500151634, -0.1291111409664154, -0.056805215775966644, -0.3342077434062958, 0.1932135820388794, -0.22020964324474335, 0.06853687763214111, 0.08930476009845734, -0.16649994254112244, 0.31711769104003906, 0.12575583159923553, 0.30470991134643555, -0.19246862828731537, -0.22795236110687256, 0.0650017186999321, 0.2349194586277008, 0.05249371752142906, 0.26179227232933044, -0.16992613673210144, -0.10810687392950058, -0.1549399495124817, 0.06872889399528503, -0.275556743144989, 0.07978198677301407, -0.23336158692836761, -0.25776979327201843, 0.12173595279455185, 0.26793017983436584, -0.13700218498706818, 0.049245208501815796, 0.051836226135492325, 0.059717558324337006, 0.019877351820468903, -0.02664360962808132, -0.06988278031349182, 0.025832120329141617, 0.09739834815263748, 0.17983882129192352, -0.13388386368751526, 0.14998425543308258, -0.06367786973714828, 0.05345339700579643, -0.3833352327346802, -0.08412757515907288, -0.3265306055545807, 0.2965858578681946, -0.009796208702027798, 0.19116368889808655, 0.22714468836784363, -0.08453290164470673, 0.019780971109867096, 0.14186395704746246, -0.10966399312019348, 0.01399772148579359, -0.11098681390285492, 0.24940644204616547, -0.1672554910182953, -0.24127106368541718, -0.39405012130737305, -0.03004891611635685, 0.23551705479621887, 0.3856920897960663, -0.3991178572177887, -0.18456250429153442, -0.26008397340774536, 0.17138519883155823, 0.20474408566951752, 0.15447431802749634, 0.027386853471398354, 0.1728811413049698, 0.11226047575473785, -0.1562238484621048, -0.049806658178567886, 0.7811645269393921, 0.16702330112457275, 0.2522299289703369, 0.017082104459404945, -0.4113803803920746, -0.1446021944284439, -0.14423395693302155, 0.4347473978996277, 0.025719063356518745, -0.08453550189733505, -0.404116690158844, -0.1079244315624237, 0.0007496707257814705, 0.19310137629508972, -0.03389367461204529, -0.08774089813232422, -0.24930109083652496, 0.047604963183403015, -0.27374887466430664, 0.6110811233520508, 0.2541685998439789, 0.0699293315410614, 0.0023535804357379675, 0.031968578696250916, -0.06005700305104256, -0.1616884469985962, -0.1367826908826828, -0.38258928060531616, 0.19210363924503326, -0.19350436329841614, 0.08396654576063156, 0.5026329755783081, 0.06429827213287354, -0.3812319040298462, 0.1025262251496315, -0.0576256662607193, 0.2657867968082428, 0.00773728359490633, 0.3132442831993103, -0.3649832010269165, -0.2625500559806824, 0.19620993733406067, 0.15205952525138855, -0.20492501556873322, -0.019072415307164192, 0.07635094970464706, -0.11818584054708481, -0.3248746991157532, 0.31319859623908997, 0.03309137001633644, 0.06849260628223419, 0.17543856799602509, -0.03278184309601784, -0.23090898990631104, 0.01586192660033703, 0.15642093122005463, 0.1553344577550888, -0.17645549774169922, 0.04778669402003288, 0.10132568329572678, -0.20461632311344147, 0.11840934306383133, 0.19488172233104706, -0.07388705015182495, -0.09384040534496307, 0.1324577033519745, -0.015585451386868954, 0.005518333055078983, 0.36069491505622864, 0.07298218458890915, -0.2917770743370056, 0.03979163616895676, -0.11454404890537262, -0.1631019413471222, 0.27279528975486755, -0.384337842464447, 0.12715722620487213, -0.04505477845668793, 0.0441192202270031, 0.10376688838005066, -0.10638581216335297, -0.2562583088874817, 0.026942361146211624, -0.02005753293633461, 0.24638940393924713, -0.06480452418327332, 0.04891202598810196, -0.03246469423174858, -0.026984836906194687, -0.11551385372877121, 0.1470704823732376, 0.04096228629350662, -0.18014895915985107, 0.055906228721141815, -0.1491444855928421, -0.7704741358757019, 0.13029155135154724, -0.29074588418006897, 0.013595929369330406, -0.1011444702744484, -0.06555759906768799, 0.05090872198343277, 0.047768738120794296, 0.12878146767616272, 0.1485244184732437, 0.1484604924917221, 0.044114090502262115, -0.027228426188230515, -0.21134762465953827, 0.035691965371370316, 0.07878398895263672, -0.031191451475024223, -0.08313507586717606, -0.07276516407728195, 0.01944894902408123, 0.035002756863832474, 0.03933682665228844, -0.0701228678226471, 0.23130835592746735, 0.004335736855864525, 0.07150007039308548, 0.12532147765159607, 0.128906711935997, -0.3148080110549927, -0.042665034532547, 0.10274945199489594, -0.026017915457487106, -0.09568135440349579, 0.35806548595428467, 0.09379593282938004, -0.400740385055542, -0.3229244649410248, 0.2060413509607315, 0.20561592280864716, 0.0383242703974247, -0.005397838540375233, -0.16999900341033936, -0.3080216646194458, 0.06259873509407043, 0.11134631186723709, -0.2861188054084778, 0.16141235828399658, 0.20936547219753265, 0.6142092347145081, 0.06738242506980896, 0.5324752926826477, -0.08140843361616135, -0.022782430052757263, -0.012210223823785782, 0.3350135385990143, -0.294079452753067, 0.10294292867183685, 0.003129677614197135, 0.24811075627803802, -0.19944174587726593, 0.2968922555446625, -0.16701771318912506, -0.1171249970793724, -0.15958328545093536, 0.17858490347862244, 0.08544197678565979, -0.28733858466148376, -0.25453633069992065, 0.3137383460998535, -0.42878273129463196, 0.22907418012619019, 0.14299538731575012, -0.16636691987514496, -0.038210611790418625, 0.1054515540599823, 0.07427430897951126, 0.2781708836555481, -0.43783360719680786, 0.0964367538690567, -0.2573908269405365, -0.01803172007203102, -0.15843793749809265, 0.07630310207605362, 0.16593889892101288, 0.28169384598731995, 0.2491224706172943, -0.47161197662353516, -0.2849951386451721, -0.28396108746528625, 0.3370983600616455, 0.4362027645111084, 0.03643623739480972, -0.09348810464143753, 0.1541055291891098, 0.15207922458648682, -0.3004799485206604, -0.17453020811080933, 0.004116385709494352, -0.056879039853811264, 0.3379805088043213, 0.029735364019870758, -0.26004210114479065, -0.21993212401866913, 0.11133596301078796, 0.3464727997779846, 0.07800742983818054, -0.0954219251871109, -0.48679226636886597, -0.06983388215303421, 0.0906006395816803, 0.3856855034828186, 0.2662714123725891, -0.10568548738956451, -0.2787913382053375, 0.35899755358695984, -0.46198588609695435, 0.35176002979278564, 0.3617512881755829, 0.18255291879177094, -0.21791201829910278, 0.06843310594558716, 0.08517152816057205, -0.32930999994277954, -0.18424449861049652, -0.21507205069065094, 0.30232152342796326, -0.18916469812393188, -0.004837235901504755, 0.37205538153648376, -0.05977052450180054, 0.2036823183298111, 0.09629382938146591, 0.2468137890100479, -0.15548020601272583, -0.04508920758962631, -0.030715566128492355, 0.18744923174381256, 0.16466760635375977, 0.031058603897690773, -0.12792523205280304, -0.03810622915625572, 0.07454293966293335, -0.26857173442840576, -0.09450894594192505, -0.0733555406332016, -0.2775033712387085, -0.12696480751037598, 0.14152370393276215, -0.12170589715242386, 0.12349781394004822, -0.0656096488237381, 0.028153562918305397, -0.06525633484125137, 0.1979222148656845, -0.05485749989748001, 0.23176336288452148, 0.016580481082201004, 0.19698822498321533, -0.0916387289762497, 0.24918051064014435, -0.18789705634117126, 0.059754833579063416, -0.17525583505630493, -0.19103875756263733, -0.03203115239739418, -0.02216234989464283, -0.0946740061044693, -0.056304898113012314, -0.08426715433597565, -0.057564448565244675, -0.07580143958330154, 0.09195473790168762, 0.13602598011493683, 0.00404022354632616, -0.08982722461223602, 0.08988702297210693, -0.026491325348615646, 0.1577862948179245, 0.20784525573253632, -0.14229299128055573, -0.10363966971635818, -0.19063876569271088, -0.030746063217520714, 0.04733375832438469, 0.2408314347267151, 0.29482072591781616, -0.005870812572538853, -0.08132835477590561, 0.011134610511362553, 0.049407150596380234, -0.05624533072113991, 0.05304444208741188, 0.0518546886742115, -0.05167814716696739, -0.08502347022294998, 0.20764802396297455, 0.0476885661482811, 0.08750686794519424, -0.04787789657711983, -0.028321435675024986, 0.02639424242079258, 0.005367456469684839, -0.08156362920999527, 0.18407244980335236, -0.006740787532180548, 0.14210447669029236, -0.16982033848762512, 0.09172549843788147, -0.04902251437306404, 0.0020000773947685957, -0.1783336102962494, 0.10417022556066513, 0.22147618234157562, -0.2464989870786667, 0.13167591392993927, 0.28321850299835205, -0.025675246492028236, -0.11312628537416458, -0.03056487813591957, -0.2788986563682556, -0.04364081472158432, -0.019673457369208336, 0.03807246312499046, -0.014901201240718365, -0.16827060282230377, 0.15117710828781128, 0.15550333261489868, 0.1562224179506302, -0.04930279031395912, -0.12442246824502945, 0.22184808552265167, -0.03516034409403801, 0.06862412393093109, 0.15204168856143951, -0.07073011994361877, 0.04807000234723091, -0.0499003529548645, 0.08828488737344742, -0.16225619614124298, 0.019368523731827736, -0.19145727157592773, 0.5397533178329468, -0.4038947522640228, 0.05797950178384781, -0.0696183443069458, 0.21584613621234894, -0.08980356156826019, 0.11964314430952072, -0.052092891186475754, 0.013052878901362419, 0.1323433220386505, 0.2983047068119049, -0.11439742147922516, -0.06689095497131348, -0.04549330472946167, -0.08710531890392303, 0.01692182943224907, 0.3236756920814514, -0.048291757702827454, 0.11425091326236725, -0.9370306730270386, -0.0643778070807457, -0.4738823473453522, 0.28107622265815735, -0.21973098814487457, -0.09157102555036545, 0.11898209154605865, -0.18862369656562805, -0.054993826895952225, 0.17175082862377167, -0.009854286909103394, 0.12464741617441177, -0.3120517134666443, -0.08703891932964325, 0.14068756997585297, -0.012943320907652378, -0.19879110157489777, 0.1675822138786316, -0.22610744833946228, -0.08371041715145111, 0.11194531619548798, 0.2460913509130478, -0.2527165710926056, -0.06471961736679077, -0.1378892958164215, -0.06701134145259857, 0.0898669883608818, -0.20432260632514954, 0.22296130657196045, -0.2655719518661499, -0.09763770550489426, -0.14153878390789032, 0.12168659269809723, 0.11148250848054886, -0.012408159673213959, 0.006011428777128458, 0.18029990792274475, 0.036633919924497604, 0.08197306096553802, 0.04362690821290016, -0.09124463051557541, -0.2539031505584717, -0.012889922596514225, 0.12013272941112518, 0.030921733006834984, -0.11493267118930817, 0.19532646238803864, -0.12065032869577408, -0.08618041127920151, -0.2776324450969696, 0.1200711652636528, 0.12009027600288391, 0.1384468823671341, 0.044386401772499084, 0.19422069191932678, 0.13617131114006042, 0.04324325546622276, 0.031667210161685944, -0.0068087768740952015, -0.23415416479110718, 0.06256423145532608, 0.4033886194229126, -0.10624385625123978, -0.07195360958576202, -0.15387535095214844, -0.07574819028377533, -0.07854261994361877, -0.059925150126218796, 0.06405733525753021, 0.0751180499792099, -0.07472306489944458, 0.12637947499752045, 0.06458704173564911, -0.10583803802728653, -0.006064917426556349, -0.07707883417606354, 0.3122291564941406, 0.4862515330314636, 0.10500270873308182, -0.04180683568120003, -0.10276560485363007, 0.15745864808559418, 0.21471233665943146, 0.15526621043682098, -0.007203970570117235, 0.09052249044179916, -0.18321315944194794, -0.07273028790950775, -0.04739024117588997, 0.14425984025001526, -0.021708020940423012, -0.15079496800899506, 0.01801140233874321, -0.018359823152422905, -0.21083061397075653, 0.34758853912353516, -0.050983976572752, -0.16990946233272552, -0.20054848492145538, 0.15167805552482605, 0.11457674205303192, -0.13495001196861267, -0.19238309562206268, 0.2441052794456482, -0.09461090713739395, -0.20754054188728333, -0.00040227759745903313, 0.11436253786087036, 0.016294902190566063, 0.12613976001739502, -0.05985546112060547, -0.16637784242630005, 0.054522622376680374, 0.1100822165608406, 0.0830501914024353, 0.17822054028511047, -0.0017555798403918743, -0.2589958906173706, 0.07137838006019592, 0.2347356379032135, -0.010396549478173256, 0.1781982183456421, 0.0977398157119751, -0.013298192992806435, -0.18373419344425201, -0.1854328215122223, 0.2071687877178192, -0.18388134241104126, -0.2109273076057434, -0.07352007180452347, -0.11110632866621017, -0.16670531034469604, 0.06086166575551033, -0.16206876933574677, -0.058835141360759735, 0.012172344140708447, 0.10650036484003067, 0.07150527834892273, -0.075786292552948, 0.019084686413407326, 0.17112186551094055, 0.0186674315482378, 0.0035289793740957975, 0.11806776374578476, -0.13448865711688995, 0.3158295452594757, -0.10793245583772659, -0.12186524271965027, -0.08905383944511414, -0.218782439827919, -0.25376129150390625, 0.4337942898273468, 0.038417838513851166, -0.12451400607824326, -0.03764926269650459, 0.06996627151966095, 0.033723875880241394, 0.2977244555950165, -0.07942936569452286, 0.021772561594843864, -0.14936622977256775, 0.2462828904390335, 0.015699371695518494, 0.3368896245956421, -0.2261488288640976, 0.012230243533849716, -0.20265468955039978, -0.06959725171327591, -0.1095377579331398, -0.20392116904258728, 0.11656912416219711, 0.09051534533500671, -0.047706134617328644, 0.20922262966632843, -0.02704947628080845, -0.055273622274398804, 0.2278534471988678, 0.046997129917144775, 0.18980249762535095, -0.012828783132135868, 0.0597691647708416, 0.018670154735445976, 0.05955181643366814, 0.04496420547366142, 0.161651149392128, -0.2348589450120926, 0.14018991589546204, -0.05866621062159538, 0.10645172744989395, -0.117975153028965, -0.21670833230018616, -0.2533608376979828, -0.008226469159126282, -0.13370180130004883, -0.1623130440711975, -0.15130744874477386, 0.056341446936130524, 0.15592360496520996, -0.09533333033323288, 0.34539827704429626, -0.2211984246969223, -0.18992875516414642, -0.047247398644685745, -0.21761226654052734, 0.06051567569375038, -0.04547247663140297, -0.007240462116897106, -0.0843438133597374, 0.10393951833248138, 0.14010576903820038, -0.10727089643478394, 0.01859946921467781, -0.008556464686989784, -0.03743845224380493, 0.10050387680530548, -0.12167666107416153, -0.10880569368600845, 0.23251037299633026, 0.18357133865356445, -0.030211137607693672, -0.32255423069000244, 0.36254626512527466, 0.37838003039360046, 0.11249707639217377, 0.146706223487854, 0.019175903871655464, -0.1937577873468399, 0.013755777850747108, 0.058095917105674744, 0.20072990655899048, -0.15661655366420746, -0.16294996440410614, -0.22850845754146576, -0.13082319498062134, 0.17497573792934418, 0.18776577711105347, 0.0853859931230545, 0.0002089643821818754, 0.3562157154083252, 0.05533020943403244, -0.02627364918589592, 0.052465587854385376, -0.11028437316417694, -0.4609971344470978, -0.0612955279648304, 0.051595285534858704, -0.17497751116752625, 0.06896496564149857, 0.061631202697753906, -0.09810790419578552, -0.026737598702311516, 0.008496096357703209, 0.17775775492191315, -0.0432257242500782, -0.042500246316194534, -0.27385416626930237, -0.07602395862340927, 0.04826255515217781, 0.04829735308885574, 0.11757715791463852, 0.08672637492418289, 0.11266127228736877, -0.00859897956252098, 0.13197346031665802, 0.02984812669456005, -0.12525610625743866, 0.08915381878614426, 0.07017101347446442, -0.365428626537323, -0.35091403126716614, -0.20104514062404633, -0.17757156491279602, 0.05608004331588745, -0.28567931056022644, 0.0984966829419136, -0.2161853313446045, -0.20384922623634338, -0.1731705218553543, -0.09311940521001816, 0.011492583900690079, -0.019886791706085205, 0.06014478951692581, 0.10276906937360764, -0.12429622560739517, 0.1404954493045807, -0.06828969717025757, -0.09686165302991867, 0.31356218457221985, 0.421880841255188, 0.22817513346672058, 0.27578189969062805, 0.37386342883110046, 0.018994122743606567, 0.20014315843582153, -0.015075847506523132, 0.13081051409244537, -0.09375537931919098, 0.13183102011680603, 0.02361704409122467, 0.07369818538427353, 0.08105562627315521, 0.10651060938835144, 0.07014825195074081, -0.15307192504405975, 0.13613563776016235, -0.024030214175581932, 0.07853194326162338, 0.04793679341673851, 0.11920733004808426, -0.07623931020498276, -0.030406750738620758, 0.16017748415470123, 0.0025680612307041883, 0.01772884652018547, 0.11351490765810013, 0.1840914785861969, 0.010281912982463837, -0.5567964911460876, 0.26679378747940063, 0.5025501847267151, -0.30188047885894775, 0.15803883969783783, -0.7205936312675476, -0.003638588823378086, -0.5563456416130066, 0.7221675515174866, -1.1272006034851074, -0.38465332984924316, -0.9761519432067871, 0.3488623797893524, -0.5253104567527771, 0.5426710844039917, -0.8178440928459167, -0.22166602313518524, -0.11026137322187424, -0.0019029481336474419, 0.42856910824775696, 0.33110564947128296, -0.014086627401411533, -0.2953227162361145, -0.34370291233062744, -0.2435387521982193, -0.041484516113996506, 0.30869531631469727, 0.337315171957016, 0.03831520676612854, 0.3965034484863281, -0.13033975660800934, 0.2208138406276703, -0.026890167966485023, 0.09887577593326569, -0.07321734726428986, -0.07534943521022797, -0.1891801953315735, 0.04196663945913315, -0.1016627699136734, -0.07088036835193634, 0.18041832745075226, -0.20646120607852936, 0.16602946817874908, 0.3556256592273712, -0.22813600301742554, -0.13963204622268677, 0.12383896112442017, 0.156094029545784, -0.12770280241966248, -0.2685088813304901, 0.062412090599536896, 0.39326223731040955, 0.10178892314434052, 0.21549886465072632, 0.099445641040802, 0.053666964173316956, -0.08170054852962494, 0.003618198912590742, -0.11898884177207947, -0.30913856625556946, 0.13986913859844208, 0.2188321352005005, 0.2749291658401489, -0.07129990309476852, 0.05649561807513237, 0.07781310379505157, -0.316292405128479, -0.34090733528137207, -0.05041702836751938, -0.051118262112140656, -0.10100704431533813, 0.15188825130462646, 0.054528918117284775, -0.07951599359512329, 0.06398393958806992, 0.10955479741096497, 0.03147588670253754, -0.5756728053092957, 0.23614659905433655, -0.09966833889484406, 0.1874273270368576, 0.1359035074710846, -0.11552691459655762, -0.17673702538013458, 0.17402832210063934, -0.15097641944885254, -0.07432541251182556, 0.41779497265815735, 0.3582022190093994, 0.01993388496339321, -0.1472759246826172, 0.18518494069576263, -0.06870672851800919, -0.1519503891468048, -0.14269475638866425, -0.43261557817459106, -0.1773567646741867, -0.02471514418721199, -0.11476663500070572, -0.07910521328449249, 0.015958545729517937, -0.2690727412700653, 0.0956353172659874, 0.035457029938697815, 0.034224141389131546, 0.2608828842639923, 0.04972975701093674, -0.10563148558139801, -0.2604154646396637, -0.30378544330596924, -0.021655267104506493, 0.33266010880470276, 0.17954082787036896, -0.011237604543566704, 0.020847784355282784, -0.31535804271698, 0.07911854237318039, 0.21531040966510773, -0.42445504665374756, -0.2958969473838806, -0.031140681356191635, 0.05838149040937424, -0.28690746426582336, 0.03940631449222565, 0.11510052531957626, -0.007028825115412474, -0.08574778586626053, 0.1775428056716919, 0.1719077229499817, -0.09206346422433853, 0.08720406889915466, 0.031563352793455124, 0.023414434865117073, -0.008650638163089752, -0.02914140187203884, 0.07905066013336182, 0.0979040265083313, 0.32433030009269714, -0.3727184534072876, 0.0212481077760458, -0.19269603490829468, 0.11423338949680328, -0.0690111368894577, 0.22698545455932617, -0.09633126109838486, 0.022278908640146255, -0.2653752863407135, -0.04469930753111839, -0.04107219725847244, 0.03777993470430374, -0.09717535227537155, -0.18054941296577454, -0.04473855718970299, -0.13733236491680145, 0.2877044975757599, -0.1178799644112587, 0.09007056057453156, 0.02910827472805977, -0.0035018299240618944, 0.13019973039627075, -0.14425067603588104, 0.03764858469367027, -0.011099624447524548, 0.1040538102388382, 0.10982774198055267, -0.14798511564731598, 0.1507899910211563, -0.09490634500980377, -0.03359461575746536, 0.025340164080262184, 0.23085319995880127, 0.20442181825637817, 0.16374510526657104, 0.014143080450594425, 0.10335342586040497, -0.06312336772680283, -0.1499675065279007, 0.03743963688611984, -0.18509015440940857, 0.09818620979785919, 0.0018343052361160517, -0.09266533702611923, -0.04516076669096947, 0.051151301711797714, 0.11533921211957932, 0.16628946363925934, -0.19558466970920563, 0.22670535743236542, 0.14802098274230957, 0.06481566280126572, -0.05239789932966232, 0.048125043511390686, 0.2756211459636688, 0.4344230890274048, -0.3035048544406891, -0.0929240882396698, -0.12749378383159637, -0.19801068305969238, 0.025915317237377167, 0.13713189959526062, -0.013991709798574448, 0.2608504593372345, -0.012895891442894936, -0.07776909321546555, -0.14123041927814484, -0.3487986624240875, 0.16766369342803955, -0.5483219027519226, -0.16024641692638397, -0.16795764863491058, -0.1711602807044983, 0.16475869715213776, -0.0983089804649353, 0.09906723350286484, -0.15632690489292145, -0.11739776283502579, -0.24001199007034302, -0.17866475880146027, -0.129020556807518, -0.007131714373826981, 0.15460987389087677, -0.011228064075112343, -0.03379139304161072, -0.18674761056900024, 0.08303637057542801, 0.14314377307891846, -0.2324787676334381, 0.1642102748155594, -0.19344590604305267, -0.1126181036233902, 0.04510432854294777, 0.02027018927037716, 0.09656431525945663, 0.21503517031669617, -0.033980730921030045, -0.005031468812376261, 0.15218675136566162, 0.20050576329231262, 0.1937989443540573, -0.06026095896959305, -0.03937910124659538, 0.29196736216545105, 0.0656195729970932, 0.07577676326036453, -0.2406223714351654, -0.08862987160682678, 0.1840759962797165, 0.06157735362648964, 0.09480015933513641, 0.026384606957435608, 0.07978293299674988, 0.14680589735507965, -0.05768250301480293, 0.29393187165260315, 0.16198845207691193, 0.08361227065324783, 0.30957213044166565, -0.2775738835334778, -0.11558988690376282, -0.20547524094581604, -0.20037025213241577, 0.19516319036483765, -0.30264341831207275, 0.14134660363197327, 0.31234654784202576, -0.10673446953296661, 0.10678903013467789, -0.007828586734831333, -0.04772286117076874, -0.10360825806856155, -0.4278859794139862, 0.003393142716959119, -0.037982575595378876, -0.06970251351594925, -0.0105715561658144, -0.024583270773291588, -0.06376045197248459, 0.05270066484808922, -0.019710147753357887, 0.14438748359680176, 0.14683879911899567, 0.09035922586917877, 0.015043550170958042, -0.1797548085451126, -0.06425074487924576, -0.2363121509552002, 0.004925558343529701, -0.042833905667066574, 0.05139938369393349, -0.05042285472154617, -0.13228580355644226, -0.12442383915185928, -0.2710770070552826, 0.027638766914606094, -0.028167441487312317, -0.1401415467262268, 0.09269105643033981, -0.07463643699884415, -0.29890570044517517, -0.14072352647781372, 0.12119349837303162, 0.07503731548786163, 0.07206005603075027, 0.06711356341838837, -0.11434813588857651, -0.027398914098739624, -0.10297536849975586, -0.07897768169641495, 0.23848536610603333, 0.09113409370183945, 0.20490136742591858, -0.1795714646577835, -0.1511203646659851, -0.000528317061252892, 0.09315986186265945, 0.15822716057300568, 0.12427152693271637, -0.14923571050167084, -0.2310260534286499, -0.020486507564783096, 0.14135493338108063, -0.22362074255943298, 0.016300305724143982, 0.03651000186800957, -0.04428836703300476, -0.11140429973602295, 0.11809342354536057, -0.20818647742271423, 0.0759478211402893, 0.1002306118607521, 0.029659440740942955, 0.1475263237953186, -0.23186153173446655, 0.41767892241477966, -0.25538986921310425, -0.1443236917257309, -0.3718428909778595, -0.3776015639305115, 0.2868843674659729, -0.0712624043226242, 0.009870762936770916, 0.005397062283009291, 0.4758167564868927, 0.17803506553173065, 0.12938861548900604, -0.1489585041999817, -0.11659631878137589, 0.21769700944423676, 0.15138722956180573, 0.013171803206205368, -0.11721596121788025, 0.1456562727689743, 0.258124977350235, -0.10036791115999222, 0.10913284868001938, -0.1762714982032776, 0.06457246840000153, -0.17081409692764282, -0.1086350530385971, 0.0076348851434886456, -0.07996343821287155, -0.11817740648984909, -0.16213549673557281, -0.05797978490591049, 0.1361396163702011, 0.16548576951026917, 0.2749236226081848, 0.014070148579776287, -0.06927743554115295, -0.10169150680303574, -0.3664214015007019, -0.17274023592472076, 0.20003022253513336, 0.06483541429042816, -0.10511714965105057, 0.05968307703733444, -0.15352757275104523, -0.3100050091743469, -0.15827767550945282, 0.14222803711891174, 0.0620875209569931, -0.3233722746372223, 0.13707710802555084, 0.43299075961112976, -0.21765869855880737, 0.1604296714067459, -0.1630733758211136, -0.019633863121271133, 0.024389086291193962, -0.05806220695376396, 0.09740275889635086, 0.24551430344581604, -0.006266449112445116, -0.39766836166381836, 0.045384667813777924, -0.04063956066966057, -0.2584574520587921, -0.18468119204044342, 0.1886654943227768, 0.15004146099090576, -0.024133864790201187, -0.09224163740873337, -0.1514831930398941, 0.0986592248082161, -0.008543315343558788, 0.07001467049121857, 0.07958558946847916, -0.03711249679327011, -0.03029709681868553, 0.02373836375772953, 0.024654671549797058, 0.10523112863302231, 0.026082677766680717, -0.12336326390504837, -0.2516202926635742, 0.07493329793214798, -0.017363235354423523, 0.1793980896472931, 0.018986530601978302, 0.11220314353704453, 0.0037215689662843943, 0.14696653187274933, 0.057160016149282455, -0.1291867345571518, 0.10164128243923187, 0.08736734837293625, 0.18751220405101776, -0.2982500493526459, 0.05691402405500412, -0.4481762945652008, -0.003099938854575157, 0.04452027380466461, -0.194891095161438, -0.19040311872959137, 0.4622385501861572, 0.03634125739336014, 0.18246138095855713, -0.1549547016620636, 0.2763993740081787, 0.15086019039154053, -0.1670060008764267, 0.09692860394716263, 0.06414127349853516, -0.27824148535728455, 0.03761260211467743, 0.013068392872810364, -0.21411161124706268, -0.13503746688365936, 0.028065143153071404, 0.16234196722507477, 0.15290002524852753, 0.029036007821559906, -0.4005563259124756, -0.1525237262248993, -0.08568797260522842, 0.2324102818965912, 0.05910756066441536, 0.09958616644144058, -0.10026855021715164, -0.2492690533399582, -0.18917371332645416, 0.029965421184897423, 0.17016370594501495, 0.18570496141910553, -0.21072475612163544, 0.11741570383310318, -0.07924417406320572, -0.3600142300128937, 0.1392056792974472, -0.016649523749947548, -0.18157288432121277, 0.23688071966171265, 0.06429318338632584, -0.1392884999513626, 0.022143220528960228, -0.06907334923744202, 0.32519105076789856, -0.23945873975753784, 0.0030353546608239412, 0.12523671984672546, 0.015619359910488129, -0.11420153081417084, -0.28870823979377747, -0.17366187274456024, -0.015194171108305454, 0.13070066273212433, -0.12882310152053833, -0.008114373311400414, -0.0959247276186943, -0.09738478064537048, -0.1989431232213974, 0.10346625745296478, -0.21635702252388, -0.057002682238817215, 0.069578617811203, 0.02944968268275261, -0.04940231144428253, -0.14705227315425873, -0.20089586079120636, -0.18151511251926422, 0.19481657445430756, 0.007974601350724697, 0.031230082735419273, -0.021012192592024803, 0.043012961745262146, -0.1637619286775589, 0.21888405084609985, 0.12846051156520844, 0.18614508211612701, -0.049435295164585114, -0.14602719247341156, -0.10171063244342804, 0.13115261495113373, 0.07784915715456009, 0.33233335614204407, 0.3591602146625519, -0.09597289562225342, 0.048533227294683456, 0.0733085349202156, -0.05488767474889755, -0.06400875747203827, 0.2981368899345398, 0.022141480818390846, -0.025277694687247276, 0.1551918387413025, 0.07190333306789398, -0.16262036561965942, -0.07136428356170654, 0.014474000781774521, -0.13621756434440613, -0.07951617985963821, 0.197517991065979, 0.1187426820397377, -0.21339331567287445, 0.27129682898521423, -0.07817418873310089, -0.15733033418655396, 0.0389397032558918, 0.1336379051208496, 0.00807945430278778, 0.029362518340349197, 0.11138928681612015, -0.03971234709024429, -0.1296890527009964, 0.03371120244264603, 0.1863175928592682, -0.07732925564050674, 0.15821608901023865, -0.25090131163597107, -0.2780521810054779, -0.2935009002685547, 0.2160642147064209, 0.11415351182222366, 0.05132482200860977, -0.29510682821273804, -0.24612215161323547, -0.11588941514492035, 0.16162995994091034, 0.20361962914466858, 0.1744503229856491, -0.1633703112602234, 0.18915702402591705, -0.005980632267892361, 0.14674679934978485, 0.24544841051101685, -0.029590526595711708, -0.2255626618862152, 0.10800778120756149, 0.09036619961261749, -0.14600466191768646, -0.020796816796064377, -0.12863680720329285, 0.08896726369857788, -0.10094310343265533, -0.0633038654923439, -0.042199958115816116, -0.12665680050849915, -0.30696919560432434, -0.4221787452697754, -0.005911906715482473, -0.2841953635215759, 0.14060860872268677, 0.15243305265903473, -0.06106187030673027, -0.2702600061893463, -0.07195796817541122, -0.12042462080717087, 0.5929695963859558, 0.0481162890791893, -0.17964597046375275, 0.240494966506958, 0.031386636197566986, -0.015369575470685959, 0.08325288444757462, 0.0507308654487133, -0.1815977543592453, 0.1575160026550293, 0.10624361783266068, 0.20785465836524963, -0.19721068441867828, -0.24751600623130798, -0.33809834718704224, 0.16165146231651306, -0.020272720605134964, 0.3303394615650177, -0.14801998436450958, -0.16339388489723206, -0.1641925573348999, 0.07173831015825272, -0.03438108414411545, -0.05260242894291878, 0.5732414126396179, -0.004870870150625706, -0.16174428164958954, 0.14088283479213715, 0.041073720902204514, -0.23831425607204437, 0.21435756981372833, -0.20987239480018616, 0.15830735862255096, -0.08579637855291367, -0.06969045102596283, -0.3641048073768616, 0.175289586186409, -0.29297658801078796, 0.28877514600753784, 0.05525590851902962, 0.1295420378446579, 0.30038437247276306, 0.09884139895439148, 0.1920340210199356, 0.2600953280925751, -0.09906848520040512, -0.08794202655553818, 0.04380079358816147, -0.03245113417506218, -0.18168428540229797, 0.18156565725803375, 0.020774999633431435, -0.19783280789852142, 0.10079702734947205, 0.0012829604092985392, -0.1949588805437088, -0.0002544655289966613, -0.07485410571098328, -0.3455618917942047, -0.15497325360774994, -0.022434569895267487, -0.0736028179526329, -0.006417462602257729, -0.2629077732563019, -0.16826367378234863, -0.09127254784107208, -0.08854077011346817, 0.004363056737929583, 0.03182542696595192, -0.08001967519521713, 0.03343864157795906, -0.03733675554394722, -0.10026687383651733, 0.27339890599250793, 0.003005861071869731, 0.032142724841833115, -0.19988420605659485, 0.0043981741182506084, 0.014587377198040485, 0.10016345977783203, -0.19446614384651184, 0.03814689442515373, -0.2624265253543854, -0.2718847095966339, -0.04580800607800484, 0.10641174018383026, -0.29951828718185425, -0.018200436607003212, 0.0369897224009037, -0.07716978341341019, 0.12495525181293488, 0.06404007971286774, 0.03941110521554947, 0.038653239607810974, -0.04093123972415924, 0.21557927131652832, 0.22522126138210297, -0.10286111384630203, -0.02869279496371746, -0.0497007891535759, -0.1921566277742386, 0.04032197967171669, -0.1977383941411972, 0.16579777002334595, -0.045174695551395416, 0.05121606960892677, -0.049689117819070816, -0.004499811679124832, -0.07562452554702759, 0.060894470661878586, -0.15112073719501495, 0.11240334063768387, -0.0321064293384552, 0.13233080506324768, -0.0005395573098212481, -0.0003063891490455717, -0.10360489785671234, -0.12683159112930298, -0.13182435929775238, 0.271873414516449, -0.1638972908258438, -0.08965787291526794, 0.11676899343729019, 0.07513204962015152, -0.0338979996740818, -0.06892114132642746, 0.09531471878290176, 0.044539451599121094, 0.09977984428405762, -0.20885241031646729, 0.22641068696975708, 0.36557430028915405, 0.0794680118560791, -0.1141429916024208, -0.058727774769067764, -0.48553141951560974, -0.0385420136153698, 0.08254747092723846, 0.06824922561645508, -0.21957167983055115, -0.05176432058215141, 0.35044896602630615, -0.06420066207647324, -0.06645023822784424, -0.13012298941612244, 0.03465219959616661, -0.007576954551041126, 0.010102486237883568, 0.039179932326078415, -0.1577787548303604, -0.21523107588291168, -0.20071011781692505, 0.1151597648859024, 0.0064146085642278194, 0.1263100653886795, -0.08909439295530319, -0.09416307508945465, -0.17649582028388977, -0.19609978795051575, 0.07095488905906677, 0.30808958411216736, -0.008644777350127697, -0.014855260029435158, -0.027773626148700714, -0.036397214978933334, -0.01780332811176777, -0.006434242706745863, 0.1853557825088501, 0.028010180220007896, -0.18973083794116974, 0.020341996103525162, 0.13294725120067596, -0.1319768726825714, -0.12220931053161621, 0.048021893948316574, -0.02038026973605156, -0.05323641374707222, -0.4081714451313019, 0.2644975483417511, 0.5080934166908264, -0.003572925692424178, 0.027906056493520737, -0.24703024327754974, 0.08357257395982742, 0.005316912196576595, 0.08776211738586426, 0.005768415983766317, 0.12651881575584412, 0.06040871515870094, 0.1764296293258667, 0.022029325366020203, 0.15685608983039856, 0.0758105143904686, 0.19832810759544373, -0.041012391448020935, -0.009633442386984825, 0.11152911931276321, 0.11153268069028854, 0.20242910087108612, 0.12246384471654892, 0.22851982712745667, -0.11937204003334045, 0.048032086342573166, 0.03245505690574646, 0.07061037421226501, -0.03370663896203041, 0.10758940875530243, -0.04774931073188782, -0.06138231232762337, -0.06806787848472595, 0.08677105605602264, 0.06420020014047623, -0.005572307854890823, 0.03319020941853523, -0.06420927494764328, -0.20653589069843292, 0.1380738615989685, 0.09665976464748383, -0.006614411249756813, -0.05419960990548134, 0.03519437834620476, -0.19732454419136047, -0.14219240844249725, -0.0685407891869545, 0.12633861601352692, -0.10726689547300339, 0.045257601886987686, -0.06453772634267807, -0.1130787804722786, 0.27932873368263245, 0.5209306478500366, 0.04826882854104042, -0.06827229261398315, -0.09828563779592514, 0.0037480650935322046, -0.39887410402297974, 0.3215903639793396, 0.15843521058559418, -0.2311166375875473, -0.07292888313531876, -0.005694194696843624, -0.10216053575277328, -0.16010251641273499, 0.024440694600343704, 0.013248377479612827, -0.4125637412071228, -0.11157651990652084, -0.031615421175956726, 0.04414922744035721, 0.04967788606882095, 0.20812225341796875, -0.11142618209123611, -0.19916951656341553, -0.02216586284339428, 0.10376808047294617, -0.09748949855566025, 0.04161548241972923, -0.05882898345589638, -0.09719258546829224, -0.20409783720970154, -0.08494897931814194, -0.09554092586040497, -0.14193564653396606, -0.20665885508060455, 0.13838991522789001, -0.24749408662319183, 0.09681849926710129, 0.04873364046216011, -0.13300219178199768, -0.07027456164360046, 0.12629905343055725, 0.08883801847696304, -0.18138015270233154, 0.11064071953296661, 0.33670109510421753, -0.28848591446876526, -0.2586882710456848, 0.34744367003440857, 0.7446955442428589, 0.33768922090530396, 0.17571628093719482, 0.21745938062667847, -0.06955324858427048, -0.04882596805691719, 0.16441118717193604, 0.048273369669914246, 0.08163543045520782, -0.04770217463374138, -0.1661762297153473, 0.3140896260738373, 0.12373524159193039, 0.12372931092977524, -0.19836470484733582, -0.16131697595119476, -0.30294641852378845, -0.1730145812034607, 0.03934383764863014, -0.17483392357826233, -0.09926003217697144, -0.12375923991203308, -0.03246152028441429, 0.20064964890480042, -0.11420126259326935, 0.01390783116221428, -0.1477479636669159, -0.009193832986056805, -0.062057703733444214, 0.15584856271743774, 0.2516634464263916, 0.017077995464205742, -0.3566122353076935, -0.11644566059112549, -0.1063312292098999, 0.04449600353837013, 0.12093983590602875, -0.08254648000001907, 0.1007293090224266, 0.2064208686351776, 0.07022260874509811, 0.18465286493301392, -0.05792253836989403, -0.045541297644376755, -0.13040345907211304, -0.0702904611825943, 0.10271203517913818, -0.028931153938174248, -0.6426558494567871, 0.1575901061296463, 0.08264554291963577, -0.39271408319473267, -0.06175803393125534, 0.14447186887264252, -0.19419020414352417, 0.01904483512043953, -0.1830933839082718, 0.003387256758287549, 0.12199252098798752, -0.047351330518722534, 0.2627575397491455, 0.05747434124350548, 0.10244549065828323, 0.11592842638492584, 0.08740682899951935, 0.11286842077970505, -0.14544470608234406, 0.020817114040255547, 0.06945309042930603, 0.02974569983780384, 0.021440980955958366, 0.006938423961400986, -0.040173329412937164, 0.004790202714502811, 0.0022202683612704277, -0.0031466542277485132, 0.12431379407644272, -0.030189774930477142, -0.023847950622439384, -0.011880826205015182, -0.00633778003975749, 0.6113073229789734, 0.011552514508366585, 0.013554062694311142, -0.03825932741165161, 0.01923254504799843, 0.11132508516311646, 0.04678330570459366, 0.008548356592655182, -0.23180048167705536, 0.33236613869667053, -0.16606052219867706, 0.06390752643346786, -0.20103076100349426, 0.12351781129837036, -0.182243213057518, 0.07177716493606567, 0.04335683584213257, -0.09194012731313705, -0.21341447532176971, 0.008035527542233467, 0.0207337886095047, 0.026764731854200363, 0.19290059804916382, -0.23926326632499695, -0.3834158182144165, 0.1497320979833603, -0.1187392845749855, -0.14387653768062592, -0.17885661125183105, 0.2603299915790558, -0.12956103682518005, -0.26497140526771545, -0.013576380908489227, -0.07785527408123016, -0.06282791495323181, 0.1122690960764885, 0.037755899131298065, 0.10719083994626999, 0.00046996408491395414, -0.14363594353199005, 0.0615323930978775, 0.1231122761964798, 0.06663216650485992, 0.06420838087797165, -0.08545104414224625, 0.018415426835417747, 0.09239867329597473, -0.06815031170845032, -0.20110294222831726, 0.02479366958141327, -0.058551158756017685, -0.11172492057085037, -0.027456210926175117, -0.013828841969370842, -0.08923262357711792, 0.08047152310609818, -0.13110430538654327, 0.08217553049325943, -0.03681999072432518, 0.08008809387683868, -0.3413854241371155, 0.1590874046087265, 0.14698390662670135, 0.3978321850299835, -0.008196674287319183, -0.08841339498758316, 0.09135065972805023, 0.3026135563850403, -0.24763226509094238, 0.1012997180223465, 0.12939268350601196, -0.039390064775943756, 0.2880234122276306, 0.06886965781450272, -0.0942370593547821, 0.02640754170715809, 0.16507436335086823, 0.044922202825546265, -0.11075334995985031, -0.22665581107139587, -0.010400306433439255, -0.02872065268456936, 0.21158814430236816, 0.055838651955127716, 0.08151081204414368, -0.012973268516361713, 0.14153380692005157, 0.05346117168664932, 0.14084069430828094, -0.007841544225811958, 0.03874979913234711, -0.17422771453857422, -0.04503560811281204, -0.09953320771455765, 0.25330355763435364, -0.21340157091617584, 0.11840381473302841, 0.10647384077310562, -0.1842992603778839, 0.17280720174312592, 0.034439001232385635, -0.05227601155638695, 0.12080347537994385, 0.17784643173217773, 0.2868093252182007, -0.06054536625742912, -0.12232038378715515, -0.15617820620536804, -0.0183560773730278, 0.07111607491970062, 0.08795002102851868, 0.04485684633255005, 0.01753195933997631, -0.100102998316288, 0.10389934480190277, -0.0007105153636075556, -0.19850575923919678, -0.2289053350687027, 0.13020427525043488, -0.027061058208346367, 0.08104770630598068, 0.03152422979474068, -0.11587372422218323, 0.03922825679183006, 0.02577712945640087, 0.06931526213884354, -0.3521483242511749, -0.13475382328033447, 0.6309818625450134, 0.5329012870788574, -0.5640363693237305, 0.302447110414505, -0.2968079447746277, -0.01206923183053732, 0.5521570444107056, -0.6779405474662781, 0.9793352484703064, 0.4928940236568451, -0.040266796946525574, -0.14230889081954956, 0.19922687113285065, -0.8922600150108337, -0.006881323643028736, -0.016014883294701576, -0.029607411473989487, -0.0818583220243454, -0.03825366124510765, 0.3119908571243286, -0.0006239830399863422, -0.1523742377758026, -0.04822587966918945, 0.08906193822622299, 0.2283886820077896, 0.10454227030277252, -0.32710567116737366, 0.09796182066202164, -0.010107828304171562, -0.17698948085308075, 0.37144023180007935, -0.061489831656217575, -0.4024018347263336, 0.01911400817334652, 0.12405765801668167, 0.0592479445040226, 0.07024994492530823, -0.3769407868385315, -0.1488320678472519, 0.19423907995224, 0.07326414436101913, -0.23092220723628998, -0.12646639347076416, 0.5363379120826721, 0.29862868785858154, -0.13258323073387146, -0.011451439000666142, -0.31645670533180237, 0.3657858073711395, -0.23210373520851135, 0.1560339629650116, -0.08219914138317108, 0.03413534536957741, 0.012224391102790833, 0.09185769408941269, 0.1570977419614792, -0.33492159843444824, 0.0847238302230835, 0.07814493775367737, -0.44741031527519226, -0.021557891741394997, 0.023269088938832283, 0.3377033472061157, -0.14146558940410614, -0.0669482946395874, -0.019279107451438904, 0.08181702345609665, 0.14669249951839447, -0.10709930211305618, 0.26109346747398376, 0.1250436007976532, 0.10192757099866867, -0.10915208607912064, 0.5647059679031372, 0.03813967853784561, -0.10421542078256607, 0.3185189366340637, -0.1597622036933899, 0.1940634548664093, -0.03733694553375244, -0.24533456563949585, -0.14878664910793304, 0.24739599227905273, -0.1729671210050583, 0.27828407287597656, -0.10103331506252289, -0.006271559279412031, -0.04383349046111107, -0.06896578520536423, -0.0900411605834961, -0.21874642372131348, -0.17587389051914215, 0.17417976260185242, -0.04573671519756317, -0.15886680781841278, 0.09321652352809906, 0.5183088183403015, -0.05180928111076355, -0.03219268098473549, -0.02444405108690262, 0.1950901299715042, 0.22377105057239532, -0.26177871227264404, -0.20182731747627258, -0.13483528792858124, 0.5600560903549194, 0.14613452553749084, -0.014661377295851707, 0.12099795788526535, 0.10784557461738586, 0.059938184916973114, 0.06488926708698273, -0.15142296254634857, 0.060980506241321564, 0.1505940556526184, -0.08300519734621048, -0.029162297025322914, -0.05372566729784012, 0.10526365786790848, 0.18525592982769012, 0.33310121297836304, 0.04155045747756958, 0.15452496707439423, -0.0163127388805151, -0.012616480700671673, 0.038936797529459, 0.18254812061786652, 0.020710017532110214, 0.11657942086458206, 0.11750920116901398, 0.11213307827711105, 0.010390523821115494, -0.014822114259004593, -0.21060939133167267, 0.30627205967903137, -0.01329085323959589, -0.14651580154895782, 0.006240390706807375, -0.02260376513004303, -0.1833888590335846, 0.15523061156272888, -0.039445944130420685, -0.2159857600927353, 0.43015092611312866, 0.2098081111907959, 0.08755425363779068, 0.10477185994386673, -0.0020759119652211666, 0.04405384138226509, -0.017063239589333534, -0.6667713522911072, 0.19602538645267487, 0.0460272952914238, 0.050871796905994415, -0.30642515420913696, 0.08267075568437576, 0.007006623782217503, -0.11638915538787842, 0.13023866713047028, -0.09343840926885605, -0.17202399671077728, 0.2770434021949768, 0.00194637815002352, 0.2607192397117615, -0.12753796577453613, -0.1722208708524704, 0.054851386696100235, -0.015853727236390114, 0.013430173508822918, -0.05012011155486107, -0.07031255215406418, -0.008376731537282467, 0.15795859694480896, -0.08116495609283447, 0.2994868755340576, -0.2819324731826782, -0.13615402579307556, -0.3414606750011444, 0.28592538833618164, -0.28045883774757385, 0.26740241050720215, -0.15056075155735016, 0.10583052039146423, 0.18051815032958984, -0.13649266958236694, 0.1475803405046463, 0.009081545285880566, -0.20221425592899323, 0.040797874331474304, 0.30062970519065857, 0.2307085245847702, 0.15263216197490692, -0.07296966761350632, 0.17349933087825775, 0.04332391172647476, 0.24053262174129486, 0.23253196477890015, 0.06113651022315025, -0.3806215226650238, -0.16259630024433136, -0.11732347309589386, 0.3273717164993286, -0.10115578025579453, -0.1475306898355484, 0.03797733411192894, -0.061984945088624954, -0.33146125078201294, -0.10563065856695175, -0.13917480409145355, -0.07366430759429932, 0.06968151032924652, -0.06088346615433693, -0.12725813686847687, 0.016643982380628586, 0.03007444180548191, 0.04561274126172066, -0.07372552156448364, -0.06656930595636368, -0.17706379294395447, 0.679313063621521, 0.12112637609243393, -0.09900220483541489, -0.1809884011745453, 0.23429284989833832, -0.11997414380311966, -0.014961931854486465, 0.051440272480249405, -0.1535763293504715, 0.20596125721931458, -0.19655153155326843, 0.2951846122741699, 0.13119085133075714, 0.2099427431821823, -0.28575700521469116, -0.061033349484205246, -0.009310657158493996, -0.09754351526498795, -0.001726533635519445, 0.06951279938220978, 0.2018207460641861, -0.21991631388664246, -0.03202875703573227, -0.24111773073673248, -0.06723497062921524, 0.14967305958271027, -0.28048649430274963, 0.3228835463523865, 0.4422169625759125, 0.12096564471721649, 0.06122398376464844, -0.09915627539157867, 0.2502037286758423, 0.01253424771130085, -0.1908295899629593, -0.17725136876106262, -0.08874322474002838, 0.5189250707626343, -0.13980776071548462, -0.2523084878921509, 0.04933008924126625, -0.2753072679042816, -0.17010119557380676, -0.20548537373542786, 0.11012177914381027, 0.2831917703151703, 0.23862114548683167, -0.14304950833320618, -0.3271404504776001, -0.47647055983543396, -0.0010116175981238484, -0.14635944366455078, 0.0237197894603014, 0.1224355548620224, 0.1314156949520111, -0.010348805226385593, -0.09279217571020126, 0.06532612442970276, 0.041668109595775604, -0.001802658080123365, -0.15720608830451965, 0.06747926026582718, 0.039054255932569504, -0.020959265530109406, 0.12883810698986053, -0.0957067608833313, -0.11088176816701889, 0.06533391028642654, 0.03230533003807068, 0.1276937574148178, 0.02555430307984352, 8.689326932653785e-05, 0.24287013709545135, 0.02679416537284851, 0.10010765492916107, 0.006700419820845127, -0.0825531929731369, -0.01207445003092289, 0.22104892134666443, 0.10251784324645996, -0.07102271914482117, 0.056981202214956284, 0.09438949823379517, 0.1812911033630371, 0.4649476110935211, 0.17249470949172974, -0.010887793265283108, -0.10758423060178757, -0.1348729282617569, 0.04825792461633682, 0.07975213974714279, 0.119052454829216, -0.032682597637176514, -0.08239191770553589, -0.03160189092159271, 0.021275494247674942, -0.03256550058722496, -0.12825816869735718, 0.025559652596712112, 0.22590315341949463, -0.028674451634287834, -0.08109278231859207, -0.25041747093200684, -0.12501968443393707, -0.1311386674642563, -0.10595770925283432, 0.0025176096241921186, -0.07236968725919724, -0.03686593100428581, -0.16550885140895844, -0.15563103556632996, 0.012267990969121456, -0.07037687301635742, 0.1972193866968155, 0.2740478515625, 0.08606477826833725, -0.06047496572136879, -0.22406801581382751, 0.08412277698516846, -0.37366047501564026, -0.0040210639126598835, 0.08154856413602829, 0.10943108797073364, -0.1375291794538498, -0.1693146973848343, 0.16952744126319885, 0.08324411511421204, 0.008443430066108704, -0.32070595026016235, 0.039112452417612076, 0.13013286888599396, 0.24160221219062805, -0.1476568877696991, -0.217707097530365, 0.22368675470352173, 0.05809350684285164, 0.1586938053369522, -0.28678587079048157, -0.21788600087165833, -0.3419991135597229, 0.2919178605079651, -0.041700612753629684, 0.1537489891052246, 0.016654832288622856, 0.09338532388210297, 0.07689666748046875, 0.07450424134731293, -0.049946509301662445, 0.01725027523934841, -0.14876656234264374, 0.021125588566064835, 0.04594949632883072, -0.0024849302135407925, 0.030873151496052742, -0.11274279654026031, 0.1752224862575531, -0.28730565309524536, 0.31723442673683167, -0.0045769973658025265, -0.1624557077884674, 0.09530536085367203, -0.03417116776108742, -0.29722341895103455, -0.2314661145210266, -0.13919951021671295, -0.16622808575630188, 0.221352219581604, 0.6327353119850159, -0.9656792283058167, -0.025019045919179916, 0.33161357045173645, 0.5882335305213928, 0.14832140505313873, 0.12503761053085327, 0.0373704619705677, 0.05049087479710579, 0.025949714705348015, -0.09944205731153488, -0.3305356204509735, -0.19036193192005157, 0.006061485968530178, 0.0882965624332428, 0.20327651500701904, -0.02313503995537758, 0.025827519595623016, 0.05060781165957451, 0.06834098696708679, -0.37652871012687683, -0.04439255967736244, 0.03924146667122841, 0.10466038435697556, -0.16839955747127533, -0.06554034352302551, 0.19409096240997314, 0.9159902930259705, -0.06671884655952454, -0.16845880448818207, -0.6218910813331604, -0.32346251606941223, -0.1615014225244522, -0.04577906057238579, -0.005698198918253183, -0.154618039727211, 0.5119491815567017, -0.18161217868328094, 0.06982646137475967, -0.12534797191619873, -0.15385636687278748, 0.09457681328058243, 0.47519391775131226, 0.9277768135070801, -0.09658452123403549, 0.10748010873794556, 0.07019893825054169, -0.1338297426700592, -0.034270282834768295, 0.19786979258060455, 0.07379323244094849, 0.03584057465195656, 0.11467643082141876, -0.06053129956126213, -0.07617706060409546, -0.2789610028266907, 0.011523258872330189, 0.1295788437128067, 0.05671427398920059, -0.18954260647296906, -0.2428082972764969, 0.12326798588037491, 0.2042226791381836, -0.010897538624703884, -0.026860885322093964, -0.16805511713027954, -0.08842027932405472, 0.058459967374801636, -0.1567385345697403, -0.13565485179424286, -0.2983781099319458, -0.2701391875743866, 0.005652233958244324, 0.09296011924743652, 0.011654443107545376, 0.10600532591342926, 0.07032613456249237, 0.18528258800506592, 0.07557319849729538, -0.1784917116165161, -0.13207189738750458, 0.2565669119358063, -0.4439275562763214, 0.1921430230140686, -0.04663543403148651, -0.1412201225757599, -0.18105271458625793, -0.029622353613376617, 0.09297221153974533, -0.20799949765205383, 0.16231931746006012, 0.03920550271868706, 0.1973094940185547, -0.10523121803998947, 0.017194857820868492, -0.0013338574208319187, -0.11769773811101913, 0.08020015060901642, -0.00792013481259346, -0.04811815917491913, -0.13626423478126526, 0.1496487557888031, 0.1983218938112259, 0.04401484504342079, 0.16793784499168396, -0.0996876060962677, -0.005652358755469322, -0.21031594276428223, 0.24630188941955566, 0.22506068646907806, -0.09555765986442566, -0.1130494475364685, 0.023271890357136726, 0.1916479915380478, 0.03913460299372673, -0.03086981549859047, -0.4271099269390106, 0.23913374543190002, -0.25467148423194885, -0.1719009280204773, -0.0012125212233513594, 0.005716030020266771, 0.32551050186157227, -0.06808435916900635, -0.036116842180490494, -0.19865576922893524, 0.3339221477508545, -0.023737728595733643, -0.20592257380485535, -0.036464959383010864, -0.0558306910097599, -0.12048032879829407, -0.4050016701221466, 0.04337245598435402, 0.048542652279138565, -0.11800125241279602, 0.004215869586914778, 0.2778688371181488, -0.3769615888595581, 0.1431799978017807, -0.1297873854637146, -0.10789261013269424, 0.13434503972530365, -0.28135013580322266, -0.09100843220949173, 0.1268766224384308, 0.0646216869354248, 0.1541195511817932, 0.1547321081161499, -0.34224992990493774, 0.11735039204359055, -0.3191283345222473, 0.03225800395011902, -0.11976410448551178, 0.08856277167797089, -0.35072967410087585, 0.07620751857757568, 0.07859408855438232, 0.07741060853004456, 0.06505465507507324, -0.0703439936041832, -0.006711297202855349, -0.16301167011260986, -0.00640340568497777, 0.07873500138521194, -0.09857811033725739, -0.3531867563724518, -0.06393522769212723, -0.03557824715971947, -0.04168587923049927, -0.025790708139538765, -0.04410615935921669, 0.05972971022129059, 0.07503318786621094, 0.09993408620357513, 0.08570864796638489, -0.2810738980770111, 0.046794552356004715, 0.0375620536506176, 0.11246217787265778, -0.06125133857131004, 0.06259975582361221, 0.051957909017801285, 0.013464548625051975, 0.18260449171066284, -0.009502329863607883, -0.24719129502773285, 0.37484756112098694, -0.19512943923473358, 0.26339325308799744, -0.29336807131767273, -0.37301114201545715, 0.22545453906059265, -0.04192312806844711, 0.21322079002857208, -0.5040368437767029, 0.10264146327972412, -0.06178479641675949, -0.11222013086080551, 0.10232352465391159, -0.28736674785614014, 0.22234728932380676, -0.11620395630598068, -0.28915169835090637, -0.47982609272003174, -0.10605251044034958, -0.007124646101146936, -0.09884020686149597, -0.043038539588451385, -0.11774694919586182, 0.11302468180656433, -0.09824864566326141, -0.035980772227048874, 0.11435651779174805, 0.02129419706761837, -0.08071475476026535, 0.24041903018951416, -3.559074684744701e-05, -0.25913095474243164, -0.004243219271302223, 0.08742641657590866, -0.24796569347381592, 0.03958085551857948, 0.11735323071479797, 0.4093775749206543, -0.014004647731781006, 0.10242242366075516, -0.3207120895385742, 0.2769983410835266, -0.06070570647716522, -0.37130632996559143, 0.35460105538368225, -0.0033096561674028635, -0.20377512276172638, -0.5427526235580444, -0.2563559114933014, -0.14617440104484558, -0.2934638261795044, -0.013601986691355705, -0.10174007713794708, -0.13892748951911926, 0.25039756298065186, -0.08697302639484406, 0.10966096818447113, 0.27643072605133057, -0.304855078458786, -0.17810755968093872, -0.010118357837200165, -0.2678968012332916, 0.038878049701452255, 0.12503445148468018, -0.1333683878183365, -0.10079187154769897, 0.23509491980075836, 0.05761055275797844, -0.029685314744710922, -0.04789583757519722, -0.12309412658214569, 0.1876983493566513, -0.10058250278234482, 0.08960607647895813, 0.03971119970083237, 0.09381213784217834, 0.01731060817837715, -0.1375970095396042, 0.055805835872888565, -0.10741829127073288, -0.034238215535879135, -0.10819032788276672, 0.16014303267002106, -0.13109908998012543, -0.12940511107444763, 0.062056370079517365, -0.12896470725536346, -0.04021844640374184, 0.15458115935325623, -0.10608824342489243, 0.019155627116560936, -0.15533865988254547, -0.44386354088783264, 0.13189882040023804, -0.033275190740823746, -0.2649839222431183, 0.1370498239994049, 0.16902238130569458, 0.22754967212677002, -0.05554750934243202, 0.17053914070129395, 0.04643631353974342, -0.20964613556861877, -0.051294129341840744, -0.15486741065979004, 0.13490688800811768, -0.24788883328437805, 0.01874876767396927, -0.17197929322719574, 0.0238955058157444, 0.062340375036001205, -0.2655571699142456, 0.2544173300266266, 0.30432161688804626, -0.3080950975418091, -0.11521247774362564, -0.020808428525924683, 0.11803381145000458, 0.21199436485767365, -0.03064451366662979, -0.3424393832683563, -0.2508237659931183, 0.010544881224632263, -0.07031939178705215, 0.24626463651657104, 0.14344476163387299, -0.279503732919693, 0.0972299873828888, -0.10408477485179901, -0.3105355203151703, 0.004647912923246622, -0.04075666517019272, -0.5194560885429382, 0.010267810896039009, -0.015796957537531853, 0.16969984769821167, -0.14290300011634827, -0.07581550627946854, -0.04291393607854843, 0.23209106922149658, 0.14290851354599, -0.2915961742401123, 0.2254764884710312, -0.11211872100830078, 0.3184853792190552, -0.2977597713470459, 0.1966615915298462, -0.008692632429301739, -0.18199032545089722, -0.015267954207956791, 0.036055464297533035, 0.13390465080738068, -0.09398075193166733, -0.019876869395375252, -0.0744101032614708, -0.30601441860198975, 0.22852857410907745, -0.13900651037693024, 0.10607190430164337, 0.13030417263507843, -0.19667427241802216, -0.12097498029470444, -0.16514679789543152, -0.12392860651016235, -0.13778699934482574, 0.08967992663383484, -0.11690840870141983, 0.1276572197675705, 0.1245093122124672, 0.01825929805636406, 0.06594567000865936, 0.11502965539693832, -0.054668083786964417, 0.10031221807003021, 0.06904236227273941, -0.5278084874153137, 0.10189004242420197, 0.021428314968943596, -0.31175994873046875, -0.37864863872528076, 0.08563840389251709, 0.20157945156097412, -0.0665929988026619, -0.027545075863599777, -0.6338185667991638, 0.28385451436042786, -0.2692369818687439, -0.08077536523342133, 0.2242783159017563, -0.12764045596122742, -0.12390539050102234, 0.24280945956707, 0.12826770544052124, 0.2337215095758438, -0.15673315525054932, 0.11707277595996857, 0.06141196936368942, -0.2252397984266281, 0.13228601217269897, -0.08229249715805054, 0.30494019389152527, -0.052943091839551926, 0.04847388714551926, 0.09192901104688644, -0.21586686372756958, -0.09217479079961777, -0.2154613435268402, 0.05034508928656578, 0.061959829181432724, 0.26864245533943176, 0.253511518239975, 0.16889669001102448, 0.1779382973909378, -0.07257483899593353, -0.02755964919924736, -0.011332233436405659, -0.017253197729587555, -0.12035620212554932, 0.06544165313243866, -0.03244026377797127, -0.10105259716510773, 0.03665820136666298, 0.017449963837862015, 0.25708720088005066, 0.12513870000839233, -0.08941840380430222, -0.12885044515132904, 0.022644922137260437, -0.08574716746807098, -0.03825763240456581, -0.17429757118225098, 0.0856776237487793, 0.18912570178508759, -0.15455935895442963, 0.03697507455945015, 0.08247298002243042, -0.15232637524604797, 0.03781977295875549, 0.257122665643692, -0.17855441570281982, 0.11972255259752274, -0.21825213730335236, 0.13045355677604675, 0.15871115028858185, -0.029140591621398926, -0.18651850521564484, 0.09225942194461823, -0.044462040066719055, 0.022976454347372055, 0.08319595456123352, -0.047855012118816376, -0.08318071812391281, 0.0778234601020813, -0.20112693309783936, -0.17880317568778992, 0.16545447707176208, 0.10977842658758163, 0.0330362394452095, -0.03812617063522339, 0.08914467692375183, -0.12645968794822693, -0.1691102683544159, -0.05734667554497719, 0.04850776866078377, 0.2662937045097351, 0.08023446798324585, -0.15608543157577515, 0.016979806125164032, -0.16397492587566376, 0.21423549950122833, 0.17522470653057098, -0.1510166972875595, -0.21192680299282074, 0.1669505387544632, 0.19989654421806335, -0.09728597104549408, -0.05183464288711548, 0.1203906238079071, -0.0708680972456932, -0.12691880762577057, 0.13605479896068573, -0.3198387026786804, 0.31537044048309326, -0.2923031151294708, -0.04897531494498253, -0.015771284699440002, 0.00886037852615118, -0.06970778107643127, 0.08224181830883026, -0.04194412752985954, -0.022052191197872162, 0.23038163781166077, 0.06305257976055145, -0.5173724293708801, 0.4861186146736145, 0.08655045181512833, -0.08485037088394165, -0.2512463331222534, -0.30343377590179443, -0.13481517136096954, -0.3263983726501465, -0.076060950756073, -0.2286493331193924, 0.22538268566131592, 0.2557889223098755, 0.08829811215400696, -0.299287885427475, -0.019876737147569656, -0.09502285718917847, -0.31320104002952576, -0.07539632171392441, -0.084529347717762, 0.3162563145160675, -0.0162054393440485, 0.052589189261198044, -0.11192698776721954, -0.25108304619789124, 0.1385514885187149, 0.21656888723373413, -0.2800406813621521, -0.7475588917732239, 0.1679786592721939, 0.24248620867729187, 0.5761388540267944, 0.11406251043081284, 0.20169496536254883, 0.1549442857503891, 0.03203978016972542, 0.12179991602897644, -0.43761640787124634, 0.7960118055343628, -0.13206139206886292, 0.00065692572388798, 0.33292508125305176, -0.00015288266877178103, -0.11966109275817871, -0.6361474990844727, 0.258758544921875, -0.03021267242729664, 0.3500986099243164, 0.13072597980499268, 0.1593855917453766, -0.0894135981798172, 0.0737600103020668, -0.03410254046320915, 0.04473960027098656, 0.20136742293834686, 0.04270186275243759, -0.05291840434074402, 0.07001128792762756, -0.12407936900854111, 0.0989210307598114, -0.26419514417648315, -0.013833574019372463, 0.13563866913318634, 0.03618232533335686, 0.088321253657341, 0.007781126536428928, -0.1295182704925537, 0.038302768021821976, -0.02597576007246971, -0.1669304370880127, 0.09163890033960342, -0.1531755030155182, -0.18784880638122559, -0.08545030653476715, 0.1513332575559616, 0.33562320470809937, -0.07072713226079941, 0.12961307168006897, -0.25278186798095703, 0.13487397134304047, -0.3224413990974426, 0.19083313643932343, 0.2097110003232956, -0.37786197662353516, 0.048706259578466415, -0.08937742561101913, 0.13909482955932617, -0.04438924416899681, -0.0369672067463398, 0.25201913714408875, 0.06073139235377312, -0.22986869513988495, 0.17707180976867676, -0.06669778376817703, -0.17768439650535583, 0.14611396193504333, -0.13858887553215027, 0.08946837484836578, 0.010022608563303947, 0.03739428147673607, 0.2061697542667389, 0.06140897423028946, -0.06123238801956177, 0.1804191768169403, -0.010514277033507824, -0.052802082151174545, -0.08537477999925613, -0.0024350290186703205, -0.14965985715389252, -0.16628600656986237, 0.21644797921180725, 0.013376135379076004, 0.007003451231867075, 0.08626274019479752, 0.19962440431118011, -0.0009451409569010139, -0.04279772937297821, -0.20182260870933533, -0.35041946172714233, 0.11985929310321808, -0.09545165300369263, -0.13245180249214172, -0.12930002808570862, 0.12213969975709915, -0.09143371880054474, 0.004041736014187336, 0.02031867206096649, -0.1380903720855713, 0.2810117304325104, -0.324686735868454, 0.046603307127952576, -0.26927441358566284, 0.03883029520511627, 0.1874992400407791, 0.1425769329071045, 0.19534717500209808, -0.18346799910068512, 0.0888349637389183, -0.08419937640428543, -0.15797290205955505, 0.03538324683904648, -0.27510151267051697, 0.27467861771583557, 0.14333535730838776, -0.35408613085746765, 0.23022682964801788, 0.08258864283561707, -0.0872882530093193, -0.2049582451581955, 0.00784938782453537, -0.11717885732650757, -0.014786881394684315, 0.2320629507303238, -0.16213835775852203, 0.2109009176492691, 0.06356170028448105, -0.19163735210895538, -0.10893888771533966, -0.006835410837084055, -0.005270489025861025, -0.035170961171388626, -0.049450039863586426, -0.11731603741645813, 0.18759432435035706, -0.012077881954610348, 0.08621475845575333, -0.004709571599960327, 0.045358702540397644, -0.052811149507761, 0.005090123508125544, 0.16037294268608093, -0.501075029373169, 0.08031203597784042, 0.019677570089697838, 0.05429304763674736, -0.21815425157546997, -0.2208806872367859, 0.02728547528386116, -0.09145539253950119, 0.06439832597970963, -0.6231338977813721, 0.13522857427597046, 0.09989075362682343, 0.003725911257788539, 0.2051590532064438, 0.10780633985996246, -0.19454258680343628, 0.027077987790107727, 0.22412680089473724, 0.18314489722251892, -0.107088603079319, 0.2699899673461914, -0.19265200197696686, 0.06555107980966568, 0.02054302766919136, -0.03981553390622139, 0.08009715378284454, -0.056062962859869, 0.1825147569179535, -0.02881690487265587, 0.0315544493496418, 0.11967597901821136, 0.1908225268125534, 0.001543103251606226, 0.15422861278057098, 0.7078161239624023, 0.2305261492729187, 0.5582602024078369, -0.7840362191200256, -0.4715474843978882, 0.2373742312192917, 0.1763795167207718, -0.13661961257457733, -0.005943971686065197, 0.4445365071296692, -0.8169499635696411, 0.49226561188697815, 0.15886326134204865, -0.5602552890777588, -0.14225700497627258, -0.2786923348903656, -0.23079311847686768, -0.25788044929504395, 0.21685145795345306, -0.07980220764875412, -0.11228802800178528, -0.03488731011748314, 0.22131003439426422, -0.23050616681575775, -0.35726264119148254, 0.14242441952228546, -0.37339305877685547, 0.04056788235902786, 0.10849205404520035, -0.12202642858028412, 0.1516125351190567, 0.19783273339271545, -0.2935361862182617, -0.47976669669151306, -0.09296075999736786, -0.15295769274234772, 0.08022014051675797, -0.30539053678512573, 0.19938898086547852, -0.23828835785388947, -0.06155882775783539, -0.0026400666683912277, -0.31301477551460266, 0.032426897436380386, -0.11657685041427612, 0.20939293503761292, 0.22195996344089508, -0.042662911117076874, -0.14863993227481842, 0.1135641485452652, -0.14404214918613434, -0.30354517698287964, 0.1168525367975235, -0.10441224277019501, -0.13274922966957092, 0.05500616505742073, 0.29090026021003723, -0.23767589032649994, -0.017195766791701317, -0.3097059428691864, -0.12290799617767334, 0.11534824222326279, 0.11784350872039795, 0.055566322058439255, -0.16675961017608643, -0.3599969148635864, -0.13703809678554535, 0.36731892824172974, 0.13321447372436523, 0.17484398186206818, 0.16176682710647583, 0.17762799561023712, 0.045536283403635025, -0.23968736827373505, -0.17546209692955017, -0.08564455062150955, 0.19454269111156464, 0.23860470950603485, -0.019344333559274673, -0.2765016257762909, -0.13161614537239075, 0.21362167596817017, -0.11532419919967651, -0.0782294049859047, 0.07979103922843933, -0.1702992022037506, 0.00865848083049059, -0.31569433212280273, 0.4332129657268524, 0.17269575595855713, 0.03620205447077751, 0.0721103698015213, -0.1693265736103058, -0.032376546412706375, -0.1863420009613037, -0.23398509621620178, -0.34309494495391846, 0.2562599182128906, 0.14303968846797943, 0.02728603594005108, -0.17775337398052216, -0.008812290616333485, 0.11011924594640732, -0.2153170257806778, 0.06138470023870468, 0.28855589032173157, -0.27124515175819397, 0.0857347920536995, -0.01479262299835682, -0.02767852321267128, -0.2874549329280853, 0.1151176318526268, -0.05949263647198677, -0.4541584551334381, -0.2976383566856384, 0.08003994822502136, -0.03561731055378914, -0.3999599516391754, 0.3197060525417328, 0.22105082869529724, -0.06995061039924622, 0.08925150334835052, 0.11308511346578598, -0.033549606800079346, 0.10943645238876343, -0.0438414141535759, -0.06270681321620941, -0.06380841135978699, -0.246766597032547, 0.5496008992195129, 0.03383679687976837, -0.04525693133473396, 0.41849079728126526, -0.17147164046764374, -0.17679013311862946, 0.3437670171260834, 0.19270533323287964, -0.08063358813524246, 0.24875374138355255, -0.06734751164913177, 0.0793139636516571, 0.06363340467214584, 0.2591759264469147, -0.2825053334236145, -0.3331315517425537, 0.20126496255397797, 0.05998612567782402, 0.03587810695171356, 0.19978149235248566, 0.33421826362609863, -0.3893265426158905, 0.00463501550257206, -0.012183940969407558, -0.21854737401008606, 0.09618404507637024, -0.21416455507278442, 0.011939533986151218, 0.04829907789826393, -0.07380431145429611, -0.14410480856895447, 0.05905815586447716, 0.12163747102022171, 0.2293485850095749, 0.17163392901420593, 0.11095205694437027, 0.2687457501888275, -0.2090260237455368, 0.19584554433822632, -0.47170594334602356, -0.14026489853858948, 0.18431785702705383, -0.04526597633957863, 0.2668541967868805, 0.0353924036026001, 0.21527639031410217, -0.01973917707800865, -0.3162357807159424, 0.1485171765089035, -0.27512091398239136, -0.13468165695667267, -0.02356313169002533, 0.10904168337583542, -0.09138894826173782, -0.19095498323440552, 0.3377126157283783, -0.11764419078826904, -0.025147344917058945, -0.017616353929042816, -0.006351964548230171, 0.03733724355697632, 0.19451183080673218, -0.16928730905056, 0.1719176173210144, 0.264053612947464, 0.07228458672761917, 0.21854807436466217, 0.024725748226046562, -0.352754682302475, 0.07152574509382248, 0.03423650935292244, -0.1259395182132721, 0.09571699798107147, 0.29814356565475464, 0.18651032447814941, -0.08613736182451248, 0.331015408039093, -0.5599486827850342, 0.03748761862516403, -0.045013751834630966, -0.02626708708703518, 0.5019109845161438, 0.33899354934692383, 0.3531033992767334, -0.008862101472914219, -0.22904258966445923, 0.008135410025715828, 0.06043931841850281, 0.07393845915794373, -0.07813140749931335, 0.16518718004226685, -0.21991769969463348, 0.25804662704467773, 0.17324864864349365, -0.16864891350269318, 0.24244831502437592, 0.33657610416412354, -0.011270470917224884, 0.15692856907844543, -0.14688941836357117, 0.10239431262016296, -0.3025873601436615, 0.10332342982292175, 0.20450744032859802, 0.15569812059402466, -0.10810182243585587, -0.14803825318813324, -0.11915723234415054, -0.6977673768997192, 0.014168995432555676, 0.02490195818245411, -0.06615176796913147, -0.20071180164813995, 0.013284454122185707, 0.2730150818824768, -0.0009579112520441413, -0.1806110292673111, 0.236355260014534, 0.05197521299123764, -0.04117242246866226, -0.111052006483078, -0.15127140283584595, -0.13683302700519562, -0.005239355843514204, 0.025297360494732857, -0.21387197077274323, 0.03278563916683197, -0.2681733965873718, 0.0358923077583313, -0.09582006186246872, -0.08530255407094955, -0.2651057243347168, -0.4613135755062103, 0.4444429576396942, -0.23661954700946808, -0.15580472350120544, 0.008675426244735718, -0.19903647899627686, -0.05220593884587288, 0.06294471770524979, -0.1252593994140625, 0.035111505538225174, 0.17609500885009766, -0.22545704245567322, 0.00048331497237086296, 0.29200583696365356, -0.020650774240493774, 0.09460689127445221, -0.015598941594362259, 0.007336969953030348, 0.06942620128393173, -0.08192194253206253, 0.07155615836381912, 0.1494220495223999, -0.023032506927847862, -0.1461721509695053, -0.06992074102163315, -0.044198114424943924, 0.036512892693281174, 0.22194893658161163, 0.04945463314652443, 0.044973988085985184, -0.039450377225875854, 0.15708193182945251, -0.28873929381370544, 0.020811598747968674, -0.09659688919782639, -0.4890073835849762, -0.03271923586726189, 0.1126219853758812, -0.27610641717910767, 0.143498033285141, 0.14498750865459442, -0.16885367035865784, 0.1767701357603073, -0.017737098038196564, 0.10118906944990158, -0.037129778414964676, 0.07840124517679214, 0.0613228902220726, 0.2946326732635498, 0.18352799117565155, -0.21242168545722961, 0.008951405994594097, -0.02001109905540943, -0.19872187077999115, 0.13104389607906342, -0.17109394073486328, -0.13633142411708832, 0.10431060194969177, 0.19171179831027985, -0.29946190118789673, -0.12372282892465591, 0.1160474494099617, 0.030229369178414345, 0.017005998641252518, -0.02994602546095848, 0.2505553066730499, -0.0560341514647007, -0.13893024623394012, 0.18880990147590637, 0.09801888465881348, -0.026366092264652252, -0.06896009296178818, -0.04684669151902199, 0.06276727467775345, -0.023087793961167336, -0.07397590577602386, -0.22139465808868408, 0.009625124745070934, 0.2697657644748688, -0.2058539241552353, 0.07654926180839539, 0.3777328431606293, 0.015829406678676605, -0.011082368902862072, -0.06852692365646362, 0.10706736892461777, -0.1312742382287979, 0.23952944576740265, -0.01986589841544628, 0.13667882978916168, 0.11078773438930511, -0.2186429500579834, 0.055281247943639755, -0.24231445789337158, 0.04336729645729065, -0.1026034876704216, 0.09014113992452621, -0.004642344079911709, -0.07783175259828568, 0.2002459317445755, 0.6141612529754639, 0.11869961768388748, -0.4585653245449066, 0.011455531232059002, -0.08021865785121918, 0.3348551392555237, -0.09902665764093399, 0.0008819306385703385, -0.14047785103321075, 0.011713565327227116, 0.04113994911313057, -0.06768324971199036, -0.2909258008003235, -0.0935986340045929, -0.009714726358652115, 0.26462575793266296, 0.14250139892101288, 0.1661425530910492, -0.21848973631858826, 0.036803022027015686, -0.0015526684001088142, -0.23136675357818604, 0.036033231765031815, 0.04052320867776871, 0.07945715636014938, 0.021952779963612556, 0.08882877230644226, 0.048578523099422455, -0.19868561625480652, -0.07794739305973053, -0.0969054251909256, -0.2556079626083374, -0.2818204462528229, 0.18487881124019623, 0.38236063718795776, -0.10379050672054291, -0.07786355167627335, -0.044524576514959335, 0.20627914369106293, 0.0571344792842865, -0.12813130021095276, 0.10405995696783066, -0.05624249577522278, -0.05825341120362282, -0.25791749358177185, -0.022696323692798615, -0.14309194684028625, -0.5602797269821167, -0.07445032149553299, 0.015058042481541634, -0.1910020262002945, -0.16803494095802307, -0.10574928671121597, -0.07502616196870804, 0.0016877030720934272, -0.040767937898635864, -0.0017992203356698155, -0.005712514743208885, 0.1323099285364151, -0.2605081796646118, -0.05631116032600403, -0.042449701577425, 0.17632804811000824, 0.02615993842482567, 0.3081124424934387, 0.23497562110424042, 0.029018977656960487, 0.009710604324936867, 0.32643789052963257, -0.17107735574245453, 0.14974430203437805, 0.0671686977148056, 0.02141934633255005, 0.014528021216392517, 0.13247956335544586, -0.17671579122543335, -0.28954753279685974, 0.2828269302845001, 0.17415176331996918, -0.4659910500049591, 0.03155995532870293, -0.3703210651874542, 0.1077616736292839, 0.28991422057151794, 0.07938899099826813, -0.018538933247327805, 0.09773402661085129, 0.15248548984527588, 0.010931398719549179, -0.04458357021212578, -0.2336280196905136, 0.20618368685245514, 0.589174211025238, -0.21901918947696686, -0.2169145792722702, -0.04773879796266556, -0.17055027186870575, -0.07437314838171005, 0.0805082842707634, -0.21168877184391022, -0.20379038155078888, 0.10532867908477783, -0.07942361384630203, -0.1514253318309784, -0.008903981186449528, 0.28204545378685, 0.10628450661897659, -0.05461601912975311, 0.17554207146167755, 0.04153411462903023, -0.19563224911689758, 0.3071525990962982, 0.30708491802215576, 0.2960088551044464, -0.03670639544725418, -0.040252685546875, 0.22444406151771545, 0.08567461371421814, -0.03965994715690613, -0.04268553853034973, 0.03347047418355942, 0.14918430149555206, -0.3293507993221283, -0.07657638192176819, 0.10450424253940582, -0.08456531167030334, -0.003217768855392933, 0.12205489724874496, 0.08239247649908066, 0.19077695906162262, 0.029095210134983063, -0.03528069332242012, 0.02659027837216854, 0.20186659693717957, 0.0829864963889122, 0.07186201959848404, 0.04040207713842392, 0.22796952724456787, -0.04190593585371971, -0.08246500790119171, -0.19486987590789795, 0.15773123502731323, 0.010120250284671783, 0.11709041893482208, -0.16317680478096008, 0.389263391494751, 0.030755579471588135, 0.034941982477903366, -0.17347609996795654, -0.12389163672924042, 0.06541117280721664, -0.0706658586859703, -0.12302015721797943, -0.052287209779024124, -0.00962368119508028, -0.06928982585668564, 0.1614302545785904, 0.017140697687864304, 0.08465702831745148, 0.05069208890199661, -0.023913472890853882, -0.07119268923997879, -0.04868233576416969, 0.14964620769023895, -0.21067629754543304, 0.05488729849457741, 0.11436649411916733, -0.2809831202030182, 0.1493883728981018, -0.15972457826137543, -0.3222169280052185, 0.17074164748191833, 0.2113153487443924, -0.27665817737579346, -0.3891817331314087, 0.1024286225438118, 0.1838848739862442, 0.6844727396965027, -0.42302000522613525, -0.37091511487960815, -0.09557465463876724, 0.08133623749017715, -0.1699599027633667, -0.20089933276176453, -0.11882442981004715, 0.3317665755748749, 0.19827771186828613, -0.2731885313987732, -0.5071181058883667, 0.3698452115058899, -0.1424352377653122, -0.19125893712043762, -0.14718377590179443, 0.29007652401924133, 0.04895343258976936, 0.6567485928535461, 0.08399353921413422, -0.3181537687778473, 0.09921930730342865, 0.16026009619235992, 0.30959847569465637, 0.08465947955846786, -0.37117159366607666, -0.039140526205301285, -1.0272657871246338, -0.3123200833797455, -0.035186681896448135, -0.5553288459777832, 0.4063837230205536, -0.12043090909719467, 0.36469006538391113, -0.07634083181619644, -0.002131666289642453, 0.13881561160087585, 0.19949936866760254, -0.1368904858827591, 0.14350160956382751, 0.16434839367866516, -0.01619390957057476, 0.10320992022752762, -0.05082668364048004, 0.055075403302907944, 0.09338869899511337, -0.1851416528224945, 0.00868749339133501, -0.08896694332361221, 0.05848820134997368, 0.12927372753620148, 0.18039275705814362, -0.05505669116973877, 0.1841442584991455, -0.1986546367406845, -0.0016222127014771104, -0.12263765186071396, 0.1255645751953125, -0.10539700835943222, 0.11987040191888809, -0.12815792858600616, -0.12483339756727219, -0.09386666119098663, 0.02676423452794552, -0.01850515976548195, 0.05556635931134224, 0.06216217204928398, -0.28287002444267273, -0.03329505771398544, 0.17080183327198029, -0.015463337302207947, -0.2160789519548416, 0.18030253052711487, 0.08633232861757278, -0.08131381869316101, 0.18659961223602295, 0.24912600219249725, 0.07516111433506012, 