{"version": "0.5.2", "metadata": {"date": {"year": 2023, "month": 11, "day": 19, "hour": 22, "minute": 16, "second": 5}, "loudness": -20.383853912353516, "gain": 0.8264310927055725, "name": "SinMix_BestAmpsim", "modeled_by": "SinMix", "gear_type": "amp_cab", "gear_make": "Ampsim", "gear_model": "www.sinmix.pl", "tone_type": "hi_gain"}, "architecture": "WaveNet", "config": {"layers": [{"input_size": 1, "condition_size": 1, "head_size": 8, "channels": 16, "kernel_size": 3, "dilations": [1, 2, 4, 8, 16, 32, 64, 128, 256, 512], "activation": "Tanh", "gated": false, "head_bias": false}, {"input_size": 16, "condition_size": 1, "head_size": 1, "channels": 8, "kernel_size": 3, "dilations": [1, 2, 4, 8, 16, 32, 64, 128, 256, 512], "activation": "Tanh", "gated": false, "head_bias": true}], "head": null, "head_scale": 0.02}, "weights": [0.014793900772929192, 0.5972692370414734, -0.4713568389415741, -0.701841413974762, -0.16779185831546783, 0.2785983681678772, -0.02212345600128174, 0.7684664130210876, 0.015319863334298134, 0.13032123446464539, -0.1567157357931137, -0.16568729281425476, -0.8040362596511841, -0.5475943088531494, -0.22544346749782562, 0.012579591944813728, 0.1952662616968155, 0.07397758960723877, 0.10330884903669357, -0.12469687312841415, 0.07153723388910294, 0.09180288016796112, 0.03242424502968788, 0.09455674141645432, 0.0096572395414114, 0.07742047309875488, 0.11299508064985275, -0.1073041707277298, -0.029522063210606575, -0.048711471259593964, -0.013935234397649765, 0.07107611745595932, -0.06731146574020386, -0.0868367850780487, -0.010807459242641926, -0.16813026368618011, 0.06813197582960129, 0.06085042282938957, 0.07927402853965759, 0.04371141269803047, 0.07139337807893753, -0.12167844921350479, 0.09659351408481598, -0.18375398218631744, -0.07441410422325134, -0.09443921595811844, 0.14683809876441956, 0.057867564260959625, -0.03691334277391434, 0.04742895066738129, 0.06436198204755783, 0.17655515670776367, 0.12038985639810562, 0.004608531948179007, 0.1254795491695404, -0.01976385898888111, 0.013662195764482021, -0.08253630995750427, -0.03959307074546814, -0.08848152309656143, 0.10104747116565704, -0.06367586553096771, -0.12150124460458755, -0.06950239092111588, 0.05026506260037422, 0.034871287643909454, -0.2153194695711136, 0.17134205996990204, 0.08108217269182205, 0.17424209415912628, -0.24441304802894592, -0.04671117663383484, 0.023011595010757446, -0.019285716116428375, 0.13029153645038605, 0.0925508514046669, -0.08908926695585251, -0.10877002775669098, -0.018166620284318924, 0.044543664902448654, -0.14052532613277435, 0.16410937905311584, 0.02117442525923252, -0.12062149494886398, -0.11637324839830399, 0.11363798379898071, -0.029214268550276756, -0.03515814617276192, -0.021336629986763, -0.0330343022942543, -0.009406620636582375, 0.18975341320037842, 0.08423446863889694, 0.08166521787643433, -0.2786213755607605, -0.08718660473823547, 0.034898266196250916, -0.09281554818153381, -0.09256661683320999, -0.11551400274038315, -0.001304174424149096, 0.10158602148294449, -0.09694095700979233, -0.16933731734752655, -0.1294543594121933, -0.03279301896691322, -0.23990531265735626, -0.10635966062545776, -0.04611244425177574, 0.04019683226943016, -0.16210433840751648, 0.050380904227495193, -0.0696927011013031, 0.10265027731657028, 0.1328001320362091, -0.10121471434831619, 0.012778260745108128, -0.22024203836917877, -0.001521940459497273, -0.017632655799388885, 0.26394790410995483, -0.013353638350963593, -0.1206023246049881, 0.2914471924304962, -0.13957324624061584, -0.1252385526895523, 0.17544831335544586, -0.05287018418312073, -0.00069292081752792, -0.34859326481819153, -0.016997024416923523, -0.028739478439092636, -0.07292181253433228, 0.014496893621981144, 0.1533806174993515, -0.23686598241329193, 0.04424728453159332, -0.0066251857206225395, 0.22228015959262848, 0.08519395440816879, 0.16457030177116394, -0.14806745946407318, 0.1386389583349228, -0.044710732996463776, 0.10018521547317505, -0.061561211943626404, 0.059147585183382034, 0.23336854577064514, -0.09604722261428833, -0.16410407423973083, 0.0836855098605156, -0.14511547982692719, -0.0809362605214119, 0.30126726627349854, 0.06872403621673584, -0.18681152164936066, 0.30348414182662964, -0.10080713033676147, 0.00471475487574935, -0.2225436419248581, -0.05353209003806114, -0.11410240083932877, -0.0998137891292572, -0.19393254816532135, -0.09642905741930008, 0.1432109773159027, -0.00021304846450220793, 0.12740777432918549, -0.26282456517219543, 0.06181950494647026, 0.20538368821144104, -0.19524623453617096, 0.17313000559806824, 0.10775744915008545, -0.2710988521575928, 0.02007836103439331, -0.0945662409067154, 0.07360874861478806, 0.04737204313278198, -0.19149892032146454, -0.0034563695080578327, -0.1000988781452179, 0.024925759062170982, 0.18033838272094727, 0.10638774931430817, 0.0680198222398758, -0.14241962134838104, -0.07938265800476074, -0.17211106419563293, 0.23238803446292877, 0.16992871463298798, 0.15968964993953705, -0.24322542548179626, 0.051712553948163986, -0.04835161566734314, -0.23105403780937195, -0.012268254533410072, 0.12877070903778076, -0.22162318229675293, 0.06691955029964447, 0.08366324007511139, -0.04539383575320244, -0.05456797778606415, -0.028621941804885864, -0.21762463450431824, 0.10106061398983002, -0.018484119325876236, 0.28043872117996216, -0.1840505599975586, 0.006834881380200386, -0.02455107308924198, 0.0954706072807312, -0.17506495118141174, -0.04532863572239876, -0.11891143023967743, 0.20187193155288696, -0.1001904308795929, -0.19532150030136108, 0.3055184483528137, -0.1046786680817604, -0.1457107812166214, 0.31196317076683044, 0.053526267409324646, 0.11841998994350433, -0.3171790838241577, 0.053456105291843414, -0.14581677317619324, 0.1198255866765976, 0.17190326750278473, 0.09902343153953552, -0.18451648950576782, 0.11082509160041809, -0.13774016499519348, 0.2584613561630249, 0.10012906789779663, 0.043244004249572754, -0.09422631561756134, -0.09039474278688431, -0.18693789839744568, 0.21482938528060913, 0.050788335502147675, -0.030209220945835114, 0.12596143782138824, -0.0023837715853005648, -0.04238691180944443, 0.04997502639889717, 0.11665847897529602, -0.23553875088691711, 0.19096417725086212, -0.012291567400097847, -0.20295609533786774, 0.19630654156208038, 0.1277148574590683, 0.11594917625188828, -0.12182599306106567, -0.01448932383209467, -0.17981068789958954, 0.011258529499173164, -0.14417360723018646, -0.048938997089862823, 0.013268541544675827, -0.08142652362585068, 0.026305705308914185, 0.011799405328929424, 0.20117859542369843, -0.09901870787143707, -0.14139169454574585, 0.2025829553604126, 0.08650179207324982, -0.04786703363060951, 0.08406269550323486, -0.02459939941763878, -0.04310395568609238, -0.14289532601833344, -0.0162301454693079, -0.125753715634346, 0.24351133406162262, -0.042572151869535446, 0.08532793074846268, -0.11885550618171692, 0.021444454789161682, -0.10887546837329865, 0.03738538920879364, 0.14790883660316467, 0.10448771715164185, -0.05723876133561134, -0.08381318300962448, -0.04749799519777298, 0.129572331905365, -0.027763381600379944, -0.16775913536548615, 0.22948862612247467, -0.0075607518665492535, -0.10627032071352005, 0.12469970434904099, -0.1430056244134903, -0.004510233178734779, 0.050295308232307434, 0.02310885116457939, -0.14117556810379028, 0.08795187622308731, 0.03953957185149193, -0.03247789293527603, -0.10654813051223755, 0.01740618236362934, -0.21344837546348572, -0.07158263027667999, 0.07791287451982498, 0.10923505574464798, -0.18630464375019073, -0.1391552984714508, -0.07784917205572128, 0.20461077988147736, -0.07186200469732285, -0.0006931221578270197, 0.2628808915615082, -0.0811317041516304, -0.04560256376862526, 0.2154926210641861, 0.02016425132751465, 0.059635598212480545, -0.16139566898345947, -0.12586283683776855, -0.0441831573843956, 0.16542503237724304, 0.14938637614250183, 0.1402413547039032, -0.14770053327083588, 0.13421432673931122, -0.06688318401575089, 0.019023021683096886, -0.13037718832492828, 0.17680791020393372, -0.0951591208577156, -0.10615062713623047, 0.010431209579110146, 0.28029054403305054, 0.15169186890125275, 0.08701901882886887, 0.2932727634906769, -0.054371289908885956, -0.1084115207195282, 0.2820647358894348, 0.058449022471904755, -0.14588521420955658, 0.294089138507843, 0.0600200891494751, 0.027548769488930702, 0.07119537144899368, 0.03514254838228226, -0.01661200076341629, -0.015610144473612309, -0.04920828342437744, 0.03169941157102585, -0.13778379559516907, 0.08444104343652725, 0.011040691286325455, 0.11908742785453796, -0.12467482686042786, -0.02573130466043949, -0.14563444256782532, -0.16882169246673584, -0.17778632044792175, 0.06412068009376526, 0.07017958909273148, 0.08948704600334167, 0.07355472445487976, -0.1053461804986, -0.040420182049274445, 0.019605083391070366, -0.042960070073604584, 0.14660795032978058, -0.12566670775413513, -0.0438169464468956, -0.07764812558889389, -0.03459567204117775, 0.12264741957187653, 0.12119340151548386, 0.06333091109991074, 0.12737472355365753, 0.17673897743225098, -0.0012375531950965524, 0.04533632844686508, 0.07701247185468674, 0.0061528244987130165, 0.13729341328144073, 0.02843310311436653, 0.053400687873363495, -0.08042581379413605, 0.0034136909525841475, -0.034472160041332245, -0.06271172314882278, -0.14466501772403717, -0.12957194447517395, -0.12672506272792816, 0.04387681186199188, 0.05810554325580597, -0.05131223425269127, -0.0982920378446579, 0.11945830285549164, 0.12643690407276154, -0.05118373781442642, 0.0218364205211401, 0.22310124337673187, 0.14211174845695496, -0.26096150279045105, 0.04648318886756897, 0.02599957026541233, 0.07956891506910324, -0.008674602024257183, -0.1640140563249588, 0.1252000629901886, 0.04707936570048332, -0.07132785767316818, 0.034510839730501175, 0.036821283400058746, 0.0392758883535862, -0.18516039848327637, -0.009693960659205914, 0.05603450909256935, 0.07628653198480606, 0.0011690860847011209, 0.08957406133413315, -0.07535093277692795, 0.06754310429096222, -0.16027963161468506, 0.11637773364782333, -0.03739702329039574, 0.005987165961414576, -0.11025867611169815, -0.17569147050380707, -0.019284451380372047, 0.2769531011581421, -0.05907328799366951, -0.17266961932182312, 0.1112382560968399, -0.0626697838306427, -0.19590632617473602, 0.213741734623909, -0.22474274039268494, -0.22416885197162628, 0.00390786724165082, -0.10497644543647766, 0.020442837849259377, 0.0072805024683475494, 0.19321836531162262, 0.033337708562612534, -0.04295584186911583, -0.058757372200489044, -0.07695943117141724, 0.07545193284749985, 0.12245925515890121, 0.1676049530506134, -0.05246805027127266, -0.141719788312912, 0.08877965062856674, 0.12017238885164261, 0.020260339602828026, -0.14713692665100098, 0.0795755609869957, -0.17774954438209534, -0.08133641630411148, 0.13996726274490356, -0.07100934535264969, 0.07192621380090714, -0.05100598931312561, 0.025981703773140907, -0.03706949204206467, -0.055344969034194946, 0.0022761912550777197, 0.09602658450603485, 0.02039019949734211, 0.06618708372116089, 0.018214061856269836, 0.13965293765068054, -0.10674335807561874, -0.1060992106795311, -0.06260635703802109, -0.11773681640625, 0.04753610119223595, 0.018118606880307198, -0.09651326388120651, -0.13148990273475647, 0.2044563740491867, -0.06399298459291458, 0.07806036621332169, 0.2089235782623291, 0.031232982873916626, -0.027861973270773888, 0.07673559337854385, -0.06933189183473587, -0.010344721376895905, 0.1854487806558609, -0.04639595001935959, 0.1414935439825058, -0.07769641280174255, -0.22316187620162964, 0.010176033712923527, -0.1611185222864151, 0.22485944628715515, -0.33248916268348694, 0.26558297872543335, -0.02227136865258217, 0.2744991183280945, -0.03656531125307083, -0.17389433085918427, 0.23840869963169098, -0.10507988184690475, -0.13249535858631134, 0.24101589620113373, -0.20000667870044708, 0.18331725895404816, -0.2324235588312149, 0.11030124127864838, 0.1704535037279129, 0.31035250425338745, -0.06305738538503647, 0.10918944329023361, -0.10996650904417038, 0.14564248919487, -0.08566214889287949, 0.14760160446166992, -0.17762207984924316, -0.009593429043889046, -0.2680295705795288, 0.09068433195352554, 0.04414401948451996, 0.16157972812652588, -0.15931829810142517, -0.16684697568416595, 0.3381994962692261, -0.026667388156056404, -0.20224107801914215, 0.07657643407583237, -0.26856762170791626, -0.09428277611732483, 0.15549317002296448, -0.2555418014526367, -0.13785608112812042, 0.22373904287815094, -0.22959275543689728, 0.11939220875501633, -0.16440042853355408, 0.053503669798374176, 0.13935025036334991, 0.1517345905303955, -0.07498683780431747, -0.17648883163928986, -0.08477745205163956, 0.27770179510116577, 0.04201027378439903, -0.09793400019407272, 0.0215249415487051, 0.09179224818944931, 0.06554356962442398, -0.14419938623905182, 0.12827670574188232, -0.0038119175005704165, -0.03409731015563011, -0.1690981686115265, -0.1744653284549713, 0.056664254516363144, -0.012073518708348274, 0.07608672231435776, -0.1963479220867157, -0.044029828161001205, -0.06932229548692703, 0.10603640228509903, 0.22654204070568085, 0.06216968968510628, 0.0011858006473630667, -0.07762902975082397, -0.07228071987628937, 0.04698328301310539, 0.15467950701713562, 0.15314121544361115, -0.18262575566768646, 0.033506859093904495, 0.08992800116539001, -0.0006816102541051805, 0.14174897968769073, -0.07945479452610016, -0.26030033826828003, 0.21521738171577454, 0.025910193100571632, -0.20642580091953278, 0.19333399832248688, 0.08764606714248657, -0.014983877539634705, -0.0018030664650723338, -0.02288629300892353, 0.015293152071535587, -0.10863837599754333, 0.07107989490032196, 0.016703320667147636, 0.051975224167108536, -0.047402311116456985, 0.05140931159257889, 0.14134415984153748, 0.049738913774490356, -0.04814625903964043, -0.048633161932229996, -0.1799883395433426, 0.2158919870853424, -0.043928321450948715, -0.13685128092765808, 0.15147483348846436, -0.07691758871078491, 0.0071783666498959064, -0.0929439514875412, -0.07799752056598663, -0.22013670206069946, 0.050575315952301025, -0.07102779299020767, 0.13039779663085938, 0.04354172199964523, 0.12118630856275558, -0.0295329000800848, 0.16326197981834412, -0.011003846302628517, -0.011876826174557209, 0.039159998297691345, 0.053324200212955475, -0.20537519454956055, 0.04703458398580551, -0.07181042432785034, 0.06064622849225998, 0.0595349445939064, -0.12621183693408966, -0.09041807800531387, 0.1695590764284134, 0.0438726469874382, -0.03411334007978439, 0.09472057223320007, 0.06246126815676689, -0.11520904302597046, 0.014681776985526085, -0.12915463745594025, -0.06128799542784691, 0.01880924589931965, -0.13370975852012634, 0.07665200531482697, 0.07952830940485, 0.06164306402206421, -0.2095281481742859, 0.25181952118873596, -0.1303887516260147, 0.23146849870681763, -0.2194252461194992, -0.08307257294654846, 0.19383268058300018, -0.16978950798511505, 0.05956178903579712, 0.003885341342538595, -0.23163284361362457, -0.012761587277054787, -0.08664451539516449, 0.2529922425746918, -0.1398278772830963, 0.08419974148273468, -0.07986991852521896, 0.015456258319318295, -0.009710118174552917, -0.0018331189639866352, -0.06485838443040848, 0.18187840282917023, -0.12115468829870224, 0.17096208035945892, -0.1426045298576355, 0.24347913265228271, -0.19767750799655914, 0.08103501796722412, -0.1429770588874817, -0.02540123276412487, 0.1529804915189743, -0.020378947257995605, -0.06533082574605942, 0.11302793025970459, -0.008889207616448402, -0.08212701976299286, 0.24598510563373566, -0.20351170003414154, -0.07435892522335052, 0.09818543493747711, -0.047914616763591766, 0.14182648062705994, -0.10752635449171066, -0.07317200303077698, 0.12209869921207428, 0.012134556658565998, 0.008133445866405964, -0.024810731410980225, 0.15659800171852112, -0.0016221001278609037, -0.05530007928609848, -0.2004178762435913, 0.22482013702392578, -0.17543454468250275, -0.033916372805833817, 0.15445011854171753, -0.11140579730272293, -0.00631704181432724, -0.0004563794063869864, 0.09482453763484955, -0.02993287332355976, -0.1595407873392105, 0.09918264299631119, 0.07609134912490845, -0.02991781383752823, 0.1607571244239807, 0.04670199006795883, -0.2028595358133316, -0.12813910841941833, -0.12129263579845428, 0.2603321373462677, 0.012176566757261753, 0.06040268763899803, -0.10773962736129761, 0.04610319808125496, 0.060596998780965805, 0.2507774829864502, -0.14297419786453247, -0.07621315866708755, 0.06483625620603561, -0.15319982171058655, -0.03398539870977402, 0.26706939935684204, -0.18357689678668976, 0.021303031593561172, 0.06018030270934105, -0.07756993174552917, 0.05451957881450653, 0.0995301753282547, -0.00941350869834423, -0.12208890169858932, -0.039459533989429474, 0.041412875056266785, -0.05059071630239487, -0.014579215086996555, -0.21177814900875092, -0.16968975961208344, 0.13271275162696838, 0.22066329419612885, 0.015905631706118584, -0.04204364866018295, 0.231215700507164, 0.1510116308927536, -0.1981547474861145, 0.07402046024799347, 0.004202545620501041, -0.23203085362911224, -0.10671992599964142, 0.051400452852249146, 0.24817243218421936, 0.13255199790000916, 0.1648605912923813, -0.05595085397362709, 0.005147490184754133, -0.11367057263851166, 0.02138683572411537, 0.07954970002174377, 0.10985066741704941, -0.25771257281303406, 0.044842805713415146, 0.008445954881608486, 0.03576625883579254, 0.05487110838294029, 0.17036786675453186, -0.24477213621139526, 0.049309566617012024, 0.10160388052463531, -0.25529995560646057, 0.18676377832889557, 0.13149592280387878, -0.029302921146154404, 0.011742476373910904, 0.19664590060710907, -0.20996686816215515, 0.23957526683807373, -0.08429436385631561, -0.24579963088035583, 0.003908771090209484, -0.03935512155294418, 0.1264205276966095, -0.021299103274941444, -0.07163003832101822, -0.017806611955165863, -0.10335896164178848, 0.028169117867946625, 0.09578569233417511, 0.00675489567220211, 6.989312532823533e-05, 0.057900603860616684, 0.11020492017269135, -0.030406707897782326, -0.0016244426369667053, -0.0288208220154047, -0.04491144418716431, -0.04437335208058357, 0.037153083831071854, 0.41472190618515015, -0.3904821574687958, 0.5900976657867432, -0.5750490427017212, -0.01686096005141735, 0.7531688809394836, 0.8410373330116272, -0.5201236605644226, 0.048059724271297455, 0.004908877424895763, -0.31037065386772156, -0.22627726197242737, 0.19802814722061157, -0.598656415939331, 0.04425298795104027, 0.5401268601417542, -0.0458587184548378, 0.284538209438324, -0.05544665455818176, 0.1639016568660736, 0.2555805742740631, -0.05730707570910454, 0.13809049129486084, 0.024267273023724556, -0.139412984251976, -0.04133036732673645, 0.3486459255218506, -0.05372228845953941, 0.12797240912914276, 0.0941278412938118, 0.15133151412010193, 0.10941053926944733, -0.027776243165135384, -0.09384329617023468, -0.24738211929798126, 0.03049558401107788, -0.054078057408332825, 0.024647099897265434, -0.07077237963676453, 0.02975146472454071, -0.030518198385834694, 0.1764441281557083, 0.1546708047389984, 0.07274069637060165, 0.05343952402472496, -0.10089118033647537, -0.024246584624052048, 0.3165786564350128, 0.11532891541719437, 0.22637870907783508, 0.050803348422050476, 0.19255179166793823, -0.2157612293958664, -0.0054680281318724155, 0.1976962685585022, -0.0586630143225193, -0.04969465360045433, -0.14220121502876282, 0.3547526001930237, -0.21165305376052856, 0.25870832800865173, 0.17569485306739807, 0.11389134079217911, 0.05737157166004181, 0.11493729054927826, -0.25551146268844604, -0.14773307740688324, -0.1525125503540039, 0.07006499916315079, 0.13145531713962555, -0.012189347296953201, -0.07453116029500961, -0.16890966892242432, 0.027292363345623016, -0.09151756763458252, 0.06116946041584015, 0.02767150290310383, 0.2003597915172577, -0.34633496403694153, 0.1483517289161682, -0.24950386583805084, -0.17982786893844604, -0.11267253011465073, 0.009118870832026005, 0.27766233682632446, 0.24015334248542786, 0.22300656139850616, 0.001626002718694508, 0.1712339073419571, 0.37692517042160034, -0.09298247843980789, 0.02894551306962967, -0.005312545225024223, 0.08824748545885086, 0.05579078197479248, -0.15450988709926605, -0.1543777585029602, -0.04484253749251366, 0.11690070480108261, -0.003874783171340823, 0.1990499049425125, 0.26368457078933716, 0.2347327619791031, 0.08984527736902237, 0.1858181208372116, 0.047831062227487564, -0.0408807173371315, -0.13917188346385956, 0.018991975113749504, -0.13788609206676483, 0.17385275661945343, 0.05978786200284958, 0.10012362152338028, 0.10212521255016327, 0.2562946379184723, 0.17010419070720673, -0.48232975602149963, -0.1978011131286621, 0.07806180417537689, -0.029798779636621475, 0.09839141368865967, -0.33805570006370544, -0.33328068256378174, 0.2325446754693985, 0.1822075992822647, -0.3006420433521271, 0.07739022374153137, -0.05456613749265671, 0.11493384093046188, 0.22201265394687653, 0.3911450505256653, -0.27582451701164246, -0.29493772983551025, 0.18543392419815063, 0.3406141400337219, 0.17262980341911316, 0.21695013344287872, -0.10224194079637527, 0.2447788268327713, -0.348524808883667, 0.20993801951408386, -0.2099703550338745, 0.10882586240768433, -0.13262268900871277, -0.03379186615347862, 0.0306797306984663, -0.13938753306865692, -0.1895863264799118, -0.024462657049298286, -0.027874460443854332, -0.09760095179080963, -0.04364953935146332, -0.18991594016551971, -0.2588520646095276, 0.10869526118040085, 0.0459790974855423, 0.07493522763252258, -0.17813372611999512, 0.05645058676600456, 0.1063435897231102, -0.2215178906917572, 0.001499067060649395, 0.21439123153686523, -0.3180176317691803, -0.17446109652519226, 0.0009800116531550884, 0.12011558562517166, -0.03494785726070404, 0.14754299819469452, 0.2501038610935211, -0.00529979495331645, -0.04672163352370262, 0.16772496700286865, 0.1356545239686966, -0.081946462392807, -0.08843031525611877, 0.03863774612545967, 0.27762719988822937, -0.17240875959396362, 0.10128739476203918, -0.07660645246505737, -0.1712406724691391, 0.10300521552562714, 0.04554184526205063, 0.07259314507246017, -0.15566669404506683, 0.02016654796898365, -0.1036929339170456, -0.020525185391306877, 0.12693969905376434, 0.060007549822330475, 0.15339332818984985, -0.0021252005826681852, -0.09880585223436356, -0.030886158347129822, -0.01528111007064581, 0.07248619198799133, -0.144057959318161, -0.14686568081378937, -0.01945255510509014, -0.06446836143732071, -0.23391643166542053, -0.02031019516289234, -0.09178528189659119, -0.17214234173297882, 0.19991740584373474, -0.2890740931034088, -0.0815068855881691, 0.0372803695499897, 0.10606309771537781, 0.029620759189128876, 0.09809283912181854, -0.019956471398472786, -0.15172959864139557, -0.009046126157045364, 0.15114803612232208, 0.1520451009273529, -0.1179308146238327, -0.06229123845696449, 0.11131924390792847, 0.21339476108551025, -0.1640896201133728, -0.1808817982673645, 0.23569855093955994, 0.09770949929952621, -0.08028575778007507, -0.08061153441667557, 0.1055748462677002, -0.1567581295967102, 0.18743738532066345, 0.19449591636657715, 0.050512079149484634, -0.04696517065167427, -0.14505425095558167, 0.02340680919587612, 0.013713128864765167, -0.11365167051553726, -0.06883826106786728, -0.19488728046417236, 0.20640015602111816, -0.033096738159656525, 0.2108677178621292, -0.07063796371221542, -0.06925351172685623, 0.10190697759389877, 0.09547504782676697, 0.17817553877830505, 0.11069276928901672, -0.29209864139556885, 0.06730915606021881, 0.1851971596479416, -0.04107268527150154, 0.13330596685409546, 0.15840068459510803, -0.2246652990579605, 0.18261173367500305, 0.15561188757419586, -0.0664798840880394, 0.24313968420028687, -0.0686982125043869, -0.12395845353603363, 0.2545336186885834, 0.17782168090343475, 0.08817090839147568, -0.05633920431137085, -0.06343742460012436, -0.0651271864771843, -0.21869972348213196, 0.09648545831441879, 0.11371000111103058, 0.10098815709352493, -0.09921015799045563, 0.06558321416378021, -0.083032988011837, 0.10838036239147186, -0.10701553523540497, -0.10264725983142853, -0.03535712510347366, 0.08225204795598984, -0.039053454995155334, 0.022136226296424866, -0.10610895603895187, 0.05857522785663605, 0.059084437787532806, 0.018776174634695053, 0.10887600481510162, 0.020587973296642303, -0.003819521050900221, -6.038411447661929e-05, 0.009305935353040695, 0.1112278625369072, 0.17811091244220734, 0.01566019468009472, 0.19603827595710754, -0.15052959322929382, -0.04370289295911789, -0.05900724232196808, -0.2569769620895386, -0.04562556371092796, -0.09480947256088257, -0.052130427211523056, -0.18400058150291443, -0.13538983464241028, 0.3267313838005066, -0.022507093846797943, 0.09039339423179626, -0.03898773714900017, -0.040200941264629364, 0.30580994486808777, 0.2109965831041336, -0.042117174714803696, -0.12359780073165894, -0.09571028500795364, 0.1362612396478653, -0.090463787317276, -0.029671691358089447, 0.060662683099508286, -0.04757623001933098, -0.24966958165168762, -0.06499588489532471, 0.01715780608355999, -0.31792351603507996, -0.1305581033229828, 0.01937677338719368, -0.3051754832267761, -0.03176083415746689, -0.06783051788806915, -0.13686643540859222, 0.0637834444642067, -0.09840209037065506, -0.18155603110790253, 0.14958420395851135, -0.046913087368011475, 0.25143224000930786, -0.042482443153858185, -0.06710761040449142, 0.03617388755083084, 0.28025004267692566, 0.04600760340690613, -0.12297221273183823, -0.06925730407238007, 0.07798159122467041, -0.07497002929449081, 0.11467351764440536, 0.13481616973876953, -0.12046539038419724, 0.14639884233474731, -0.015349241904914379, 0.03848528489470482, -0.19473859667778015, 0.02268700860440731, -0.08105961233377457, -0.21981896460056305, -0.08357685059309006, 0.23675580322742462, -0.39094144105911255, 0.1260310411453247, 0.19678376615047455, -0.15315359830856323, -0.010367406532168388, -0.182219997048378, 0.06580641120672226, -0.010200935415923595, 0.15499575436115265, -0.017334911972284317, -0.1320551484823227, -0.0064538815058767796, 0.08755580335855484, 0.028787143528461456, -0.12959247827529907, 0.06068415939807892, 0.17816822230815887, -0.13151799142360687, 0.06935577839612961, 0.1129874438047409, -0.05715399608016014, 0.012875779531896114, 0.04867684841156006, -0.08103828877210617, 0.018387556076049805, -0.2287551313638687, 0.0419878326356411, 0.10100851207971573, -0.1295003592967987, 0.27711886167526245, -0.43022775650024414, -0.19197262823581696, 0.19829562306404114, 0.11248624324798584, -0.13135839998722076, -0.04571887105703354, -0.04270787164568901, 0.06300947815179825, 0.09087955951690674, -0.08437538892030716, -0.008924474939703941, 0.13155734539031982, 0.13134799897670746, 0.19080446660518646, -0.023089248687028885, 0.2434834986925125, 0.007634334731847048, -0.4486423432826996, 0.1368546038866043, -0.04311095178127289, -0.08988916873931885, 0.04762692004442215, -0.002329770475625992, 0.004154570866376162, -0.32289567589759827, 0.04625871777534485, -0.06579383462667465, 0.1837380975484848, -0.1511571705341339, -0.09619124233722687, -0.2781619727611542, 0.24410240352153778, 0.14336450397968292, -0.19536681473255157, 0.21239525079727173, 0.048506468534469604, -0.054375968873500824, 0.11233200132846832, -0.04295017570257187, -0.08588040620088577, 0.185145303606987, 0.01190244872123003, -0.18606814742088318, 0.07345801591873169, -0.12908321619033813, 0.29440006613731384, -0.010820225812494755, -0.013176284730434418, -0.5297067165374756, -0.04008778557181358, -0.09479883313179016, 0.18736682832241058, 0.10602867603302002, 0.08436250686645508, -0.3012754023075104, -0.15510350465774536, 0.13799719512462616, 0.03304019942879677, -0.1100364625453949, -0.12079232931137085, -0.14925283193588257, -0.08666422963142395, -0.09575137495994568, 0.18100538849830627, -0.030200690031051636, -0.3556971549987793, 0.8580412864685059, -0.0014021031092852354, -0.20968323945999146, 0.1510862410068512, 0.032185349613428116, 0.16469550132751465, -0.22199124097824097, 0.09222075343132019, 0.08985669165849686, -0.050971999764442444, 0.04347153380513191, 0.12264112383127213, -0.16512322425842285, 0.03161534667015076, 0.09964033216238022, -0.03314339742064476, 0.16059444844722748, 0.12976638972759247, 0.042977988719940186, -0.05962102487683296, 0.1001444160938263, -0.15606096386909485, -0.12580786645412445, 0.08731932938098907, -0.1403573751449585, 0.24304497241973877, 0.04362509399652481, 0.13523095846176147, 0.08145122975111008, -0.07348140329122543, -0.28053727746009827, -0.030194690451025963, 0.11525421589612961, 0.1360781490802765, -0.04699467867612839, -0.09910794347524643, -0.0185084268450737, -0.0213101115077734, -0.14201423525810242, 0.00827921461313963, 0.16738668084144592, -0.11691567301750183, -0.06390868127346039, -0.16310366988182068, -0.13589181005954742, 0.1431874930858612, -0.22868412733078003, 0.037523653358221054, 0.15928073227405548, -0.08616738766431808, 0.008288677781820297, 0.2008790373802185, -0.023556385189294815, 0.13138429820537567, -0.035222411155700684, 0.11246277391910553, -0.09869371354579926, -0.035210806876420975, -0.027386445552110672, 0.17399781942367554, -0.08100733906030655, 0.1754981279373169, -0.07785646617412567, -0.08394783735275269, 0.23687312006950378, -0.21472424268722534, -0.20397278666496277, 0.22439216077327728, -0.01937098056077957, -0.06218862533569336, 0.11007595807313919, 0.10133901238441467, -0.21142880618572235, -0.0025125613901764154, 0.06285715848207474, 0.09129368513822556, -0.19235163927078247, -0.20562304556369781, -0.013669952750205994, 0.17279298603534698, -0.20023877918720245, 0.16185399889945984, 0.16824054718017578, -0.030797483399510384, -0.07661594450473785, -0.052479274570941925, 0.07691341638565063, 0.11127481609582901, -0.0271307360380888, 0.014736122451722622, 0.056996315717697144, -0.03836682438850403, 0.047200050204992294, -0.11817716062068939, 0.13834556937217712, 0.3420635759830475, -0.21434658765792847, -0.08067607879638672, 0.014171290211379528, -0.14659982919692993, 0.28215229511260986, 0.06766590476036072, 0.1365625560283661, -0.147843599319458, 0.13459736108779907, -0.05712851509451866, 0.02533222734928131, 0.12186728417873383, 0.11266566812992096, -0.05954723060131073, 0.2648416757583618, 0.04321606084704399, -0.03993001580238342, 0.1852949559688568, 0.06673170626163483, -0.1369238942861557, -0.028314733877778053, -0.13107307255268097, -0.04988529905676842, -0.18212750554084778, 0.09455345571041107, -0.100032739341259, -0.022590747103095055, -0.056503765285015106, 0.14896389842033386, 0.07914667576551437, 0.14123019576072693, -0.10423804819583893, 0.11467109620571136, 0.11677137762308121, -0.035905856639146805, -0.08343655616044998, 0.015330908820033073, 0.14462745189666748, 0.07157664000988007, 0.09982114285230637, 0.0902218371629715, -0.1518714874982834, 0.04328211396932602, -0.11604443937540054, 0.27057933807373047, 0.05540652200579643, 0.00985496211796999, 0.17499418556690216, -0.12816843390464783, 0.24427852034568787, 0.11661350727081299, 0.061028651893138885, -0.10139792412519455, -0.029904624447226524, -0.003859080607071519, 0.021168330684304237, 0.12008733302354813, -0.003035609144717455, -0.05905025079846382, -0.04311959445476532, -0.044982634484767914, 0.1320478320121765, -0.13307233154773712, 0.09932726621627808, 0.09204035252332687, -0.03218819946050644, 0.17180971801280975, 0.253210186958313, -0.1293695569038391, 0.07073425501585007, -0.05115374177694321, -0.17919626832008362, 0.11999976634979248, -0.10217596590518951, 0.02895413339138031, -0.054066453129053116, -0.12439834326505661, -0.13189733028411865, -0.12151821702718735, -0.010903636924922466, 0.3671383559703827, 0.05023150518536568, -0.1896822154521942, -0.39094921946525574, -0.05316689610481262, 0.21429581940174103, -0.2377307415008545, -0.08625634759664536, 0.12410559505224228, -0.14686162769794464, -0.13679936528205872, -0.02704392746090889, 0.4254376292228699, 0.002259310567751527, -0.3190235495567322, -0.29444071650505066, 0.062019288539886475, 0.05410180240869522, 0.33859649300575256, -0.0390908345580101, -0.3453950881958008, -0.16034938395023346, -0.17740300297737122, 0.300401508808136, 0.38146737217903137, 0.24271105229854584, -0.10302423685789108, -0.18776854872703552, -0.22030380368232727, 0.21482038497924805, -0.3425218164920807, -0.13319505751132965, 0.358722984790802, -0.39138880372047424, -0.051655448973178864, 0.2580413222312927, -0.3431083559989929, -0.12173402309417725, -0.004364205524325371, -0.11724500358104706, 0.058408044278621674, 0.14183315634727478, 0.20238742232322693, 0.09526602178812027, -0.17810876667499542, 0.29148179292678833, -0.05575813353061676, 0.037446919828653336, -0.22709324955940247, -0.11721986532211304, -0.124678835272789, 0.1472785323858261, -0.052488476037979126, 0.20533260703086853, 0.12261078506708145, -0.0510142482817173, -0.10145610570907593, 0.056285444647073746, -0.0132495928555727, -0.02077857218682766, -0.11595023423433304, 0.146558478474617, -0.03788239508867264, -0.2715531885623932, 0.19398242235183716, -0.12150201946496964, -0.18341344594955444, -0.016154268756508827, 0.052800022065639496, -0.017428433522582054, -0.13343621790409088, 0.18596073985099792, -0.09269970655441284, 0.12303788959980011, -0.15668290853500366, 0.04281715676188469, -0.11749842017889023, -0.043003521859645844, 0.002177004236727953, -0.08058425784111023, 0.15243779122829437, 0.030850941315293312, 0.11525944620370865, 0.10486838221549988, 0.021661749109625816, -0.03259926289319992, -0.08855274319648743, 0.09115352481603622, -0.2005300670862198, 0.11933432519435883, -0.06385228037834167, -0.03950842469930649, -0.1685636043548584, 0.14340107142925262, 0.38307130336761475, 0.0467594712972641, -0.10650428384542465, 0.05095427483320236, 0.1171351820230484, -0.05105835571885109, 0.08938924223184586, -0.018080662935972214, -0.03904105722904205, 0.13412578403949738, -0.10556920617818832, 0.036846816539764404, -0.06156833842396736, -0.05906900390982628, -0.1187792494893074, -0.11356795579195023, 0.17242544889450073, 0.04397600516676903, -0.2323787957429886, 0.07385864853858948, -0.13570591807365417, -0.003552803536877036, 0.2632008492946625, 0.005742167122662067, 0.197395920753479, -0.13922853767871857, -0.16884484887123108, -0.17166292667388916, 0.07976921647787094, -0.1484217494726181, 0.011568810790777206, -0.034211691468954086, 0.027462683618068695, 0.03850805386900902, -0.10628239065408707, -0.006807195488363504, -0.07210290431976318, -0.23682914674282074, -0.09875090420246124, 0.03441857546567917, -0.0623469240963459, -0.03892304375767708, -0.0009781221160665154, 0.044854823499917984, -0.030786730349063873, -0.034357741475105286, 0.021958744153380394, -0.16810385882854462, 0.07518838346004486, -0.17838530242443085, -0.08226214349269867, 0.04309859499335289, -0.10021531581878662, -0.015895847231149673, -0.00036804619594477117, 0.036752454936504364, -0.04122238978743553, -0.04285331442952156, -0.05274605751037598, -0.17345859110355377, 0.0492815338075161, -0.07042426615953445, -0.03129949793219566, 0.08747351914644241, 0.09516357630491257, 0.05610993131995201, 0.008710881695151329, 0.19567160308361053, -0.12181898206472397, 0.08425171673297882, 0.16984957456588745, 0.05248918756842613, -0.12274327874183655, -0.06301755458116531, -0.0937945544719696, -0.12223528325557709, -0.005486803129315376, 0.17744390666484833, -0.08000510185956955, -0.18946197628974915, 0.14418615400791168, 0.0004821800393983722, -0.17473185062408447, 0.15141814947128296, -0.027228018268942833, -0.07165203243494034, 0.11567845940589905, -0.1497393250465393, -0.06594476103782654, 0.0780639573931694, 0.08317285031080246, -0.05315256863832474, -0.08766459673643112, -0.07943419367074966, 0.12397845834493637, 0.05642501637339592, -0.2518148422241211, 0.07376015186309814, -0.09407075494527817, -0.06056567654013634, -0.0992901623249054, -0.052873801440000534, 0.07574363797903061, 0.010084403678774834, 0.11275538057088852, 0.01891314797103405, -0.09295753389596939, -0.08310483396053314, 0.01704379916191101, -0.19956234097480774, -0.13328304886817932, 0.12807820737361908, 0.11703354120254517, -0.014739940874278545, 0.0033760536462068558, -0.0015020387945696712, -0.024120688438415527, 0.1351083368062973, 0.17212702333927155, 0.2284398227930069, -0.17178869247436523, -0.11478376388549805, -0.2529289126396179, 0.10707755386829376, -0.032593630254268646, 0.024194836616516113, 0.003178574377670884, -0.13282479345798492, -0.0032770943362265825, 0.023136578500270844, -0.10372414439916611, 0.10928615927696228, -0.0441838838160038, -0.07206419110298157, 0.23672239482402802, 0.060565318912267685, -0.09424126893281937, 0.06394409388303757, -0.14983488619327545, -0.09310959279537201, -0.23571889102458954, 0.018563946709036827, 0.08219274133443832, -0.07379812002182007, -0.0026814911980181932, -0.039374228566884995, 0.044149573892354965, 0.045313701033592224, -0.012251879088580608, 0.11850062012672424, 0.09645877033472061, -0.04846901446580887, 0.10269211232662201, 0.041306398808956146, -0.07669650763273239, 0.13942712545394897, 0.0254068486392498, -0.027644507586956024, -0.12480223923921585, -0.11442103236913681, 0.23981411755084991, -0.09270842373371124, -0.14240525662899017, -0.14467844367027283, -0.21252700686454773, -0.10289309918880463, 0.15078535676002502, -0.05785401538014412, -0.02593059279024601, -0.0023583555594086647, -0.10537946969270706, 0.011669780127704144, -0.11343652009963989, 0.1308419406414032, 0.07192449271678925, -0.07893021404743195, 0.14262740314006805, -0.14541293680667877, -0.12028166651725769, 0.1806698590517044, -0.08070104569196701, -0.012192978523671627, 0.049387942999601364, -0.05144063010811806, -0.18110419809818268, 0.02892152965068817, -0.16444773972034454, -0.02110126055777073, 0.039875201880931854, 0.1411503255367279, 0.11751893907785416, 0.08902495354413986, -0.13590429723262787, -0.08278379589319229, 0.16726672649383545, 0.1338375359773636, 0.08145082741975784, 0.02735043875873089, -0.1408078521490097, 0.07299413532018661, -0.11044131964445114, -0.021915782243013382, 0.08389481902122498, -0.06520993262529373, 0.0920892208814621, 0.1282692402601242, -0.009747400879859924, 0.06805822253227234, -0.1871728003025055, -0.14716705679893494, 0.1298302412033081, 0.22539527714252472, 0.202805295586586, 0.09189964085817337, -0.06981389969587326, 0.0868406817317009, -0.05883793160319328, 0.2227000594139099, 0.08740182965993881, -0.06495396792888641, 0.09154438227415085, -0.08648542314767838, -0.020378613844513893, 0.010186339728534222, -0.09370844066143036, -0.024631459265947342, -0.05167154595255852, -0.26602038741111755, -0.06477215141057968, 0.03375343605875969, 0.022497640922665596, 0.10134757310152054, 0.014031567610800266, 0.10302734375, -0.08784172683954239, -0.08564687520265579, -0.04934277758002281, -0.040673334151506424, -0.009718798100948334, -0.001711284159682691, 0.22539518773555756, -0.21427765488624573, 0.0007087402045726776, 0.11208764463663101, -0.004312178585678339, -0.12694671750068665, 0.14594875276088715, -0.04724425449967384, -0.1281411051750183, 0.018477648496627808, 0.050133783370256424, 0.06613048911094666, 0.11712054163217545, -0.0580853708088398, 0.238024041056633, -0.14108000695705414, -0.09387426823377609, -0.09382668882608414, -0.1377001404762268, 0.1858423501253128, 0.13432526588439941, -0.06810180097818375, -0.11333134770393372, -0.04072185233235359, 0.009973433800041676, 0.017957692965865135, -0.02489665150642395, -0.1839732974767685, 0.09654155373573303, -0.1192813366651535, 0.1565336138010025, 0.14472679793834686, 0.03796263039112091, 0.16886284947395325, 0.02305142767727375, -0.11657733470201492, 0.04305143654346466, 0.04412839189171791, -0.1846570521593094, -0.006734502036124468, 0.01952100358903408, -0.27168455719947815, 0.014805219136178493, -0.3404633104801178, 0.24980725347995758, -0.07859864085912704, -0.01080264151096344, -0.05229315534234047, 0.2639908492565155, -0.06152527034282684, -0.06528142839670181, 0.0015301157254725695, 0.1651490330696106, 0.12323480099439621, 0.11997457593679428, -0.005806306377053261, 0.11549421399831772, 0.11742451786994934, -0.1832343488931656, 0.10708776861429214, 0.10855264961719513, 0.03315594792366028, -0.09433294832706451, -0.19582290947437286, 0.126755028963089, -0.008978111669421196, -0.028950786218047142, -0.15909554064273834, -0.022033069282770157, -0.20725122094154358, 0.043810341507196426, -0.17015136778354645, -0.018979845568537712, -0.11616329103708267, -0.13534103333950043, 0.056601982563734055, 0.20347091555595398, 0.015772635117173195, 0.14316459000110626, -0.21618962287902832, 0.04062201827764511, 0.10374481230974197, -0.11660035699605942, 0.02039054036140442, -0.07441835850477219, -0.13034288585186005, 0.07678092271089554, 0.16365483403205872, -0.15433691442012787, -0.02034704200923443, -0.10931282490491867, -0.06255293637514114, 0.01627001352608204, 0.07972075790166855, 0.2073538452386856, 0.15655508637428284, 0.02493654377758503, -0.019075244665145874, 0.09753696620464325, -0.057820338755846024, 0.05556124076247215, 0.08811818808317184, 0.0775812640786171, -0.007275882177054882, -0.03417496755719185, 0.02723102457821369, 0.0875229686498642, 0.053738780319690704, 0.02788786217570305, 0.06744974106550217, -0.07536176592111588, -0.4373362958431244, 0.0721142515540123, 0.24741272628307343, -0.44564393162727356, 0.06844914704561234, -0.5698353052139282, -0.40207192301750183, -0.8903748989105225, 0.8845992088317871, -0.762690544128418, -0.4994024634361267, -0.6458812355995178, 0.27508798241615295, -0.7459296584129333, 0.2941811680793762, -0.4539407193660736, -0.1977950930595398, -0.25258558988571167, 0.37881818413734436, 0.48744574189186096, 0.3171158730983734, -0.2589597702026367, -0.19817541539669037, -0.19434285163879395, 0.2097097635269165, -0.12178128212690353, 0.03877158835530281, 0.18298859894275665, 0.05454874783754349, 0.1070152223110199, -0.11401436477899551, -0.10617998987436295, -0.15694937109947205, -0.09282059222459793, -0.08927363157272339, 0.11138544976711273, -0.4303874969482422, 0.27590736746788025, -0.2752004861831665, -0.3057626187801361, 0.34452250599861145, -0.042424239218235016, 0.2163436859846115, 0.29241254925727844, 0.33351394534111023, -0.21300311386585236, -0.13666582107543945, 0.24315762519836426, 0.010382216423749924, -0.2537015676498413, 0.010477541945874691, 0.34333622455596924, 0.03474986553192139, 0.11099052429199219, -0.0941552147269249, 0.3062168061733246, 0.11190744489431381, 0.06147753819823265, -0.20083971321582794, -0.2617835998535156, 0.0191909521818161, 0.06519129127264023, 0.11829870939254761, 0.043911293148994446, 0.1660175770521164, 0.06575038284063339, -0.05381583049893379, -0.05195598676800728, -0.19024579226970673, -0.06535529345273972, -0.055564429610967636, 0.06261762976646423, 0.06993049383163452, 0.05335783213376999, 0.09794814139604568, 0.23814177513122559, 0.11336413770914078, -0.15685193240642548, 0.009231857024133205, -0.01441238634288311, 0.31555959582328796, 0.07453271746635437, -0.17071633040905, 0.13347694277763367, 0.16124901175498962, 0.06444311887025833, 0.06386010348796844, 0.31863608956336975, 0.08750121295452118, -0.13664694130420685, 0.05739351734519005, 0.3109719157218933, -0.14647230505943298, -0.012937838211655617, -0.267322838306427, -0.12675802409648895, -0.2148016095161438, -0.015752052888274193, -0.36074504256248474, 0.013415980152785778, 0.05151708051562309, -0.03426907956600189, -0.06483224779367447, -0.15922701358795166, 0.05466417968273163, 0.10969045758247375, 0.0005190114607103169, -0.14333359897136688, -0.027643729001283646, -0.15311199426651, -0.04143042862415314, 0.031100479885935783, -0.3432260751724243, -0.2991769015789032, 0.21528120338916779, 0.1280311644077301, 0.01843317411839962, 0.2739737927913666, -0.5398560166358948, -0.6944559216499329, 0.4929962158203125, 0.09122931212186813, -0.10718364268541336, 0.1327267736196518, 0.34953072667121887, -0.30121588706970215, -0.3326614797115326, 0.2095511108636856, 0.08950727432966232, 0.07185417413711548, 0.012682516127824783, 0.02574354037642479, 0.22724318504333496, -0.11698409169912338, -0.014487853273749352, 0.04640195891261101, -0.09471191465854645, 0.22429843246936798, -0.277401328086853, -0.078861303627491, -0.15711726248264313, 0.08245391398668289, 0.22760523855686188, 0.025253772735595703, -0.0470888689160347, 0.08066985756158829, -0.16905611753463745, -0.08343476802110672, -0.2030002623796463, -0.04897987097501755, -0.030868858098983765, -0.0401550829410553, -0.031378258019685745, 0.08289272338151932, 0.20669762790203094, -0.057431917637586594, -0.08812715113162994, 0.03508554771542549, -0.05839545652270317, 0.2767869532108307, -0.20945557951927185, -0.06876000761985779, -0.08465863019227982, -0.04117855057120323, 0.01997550018131733, -0.013325939886271954, -0.016373056918382645, -0.27235591411590576, -0.2007085382938385, 0.10257914662361145, 0.258157342672348, 0.2617458999156952, 0.3121364116668701, -0.07096709311008453, -0.008133194409310818, -0.05342644453048706, -0.15263187885284424, -0.16603383421897888, -0.0946965143084526, 0.0906560942530632, -0.011023358441889286, -0.029767243191599846, -0.12551255524158478, 0.08359736949205399, 0.11091922223567963, 0.2871623933315277, -0.10993632674217224, 0.1351633071899414, 0.15448865294456482, -0.0034582975786179304, -0.14015740156173706, 0.13381266593933105, 0.21323096752166748, 0.21892178058624268, -0.08436413109302521, -0.08091297000646591, -0.17598563432693481, -0.1643936187028885, 0.1369868814945221, 0.36184802651405334, -0.1771111637353897, 0.049240827560424805, 0.18968790769577026, -0.06637389957904816, -0.10205037891864777, 0.06525388360023499, 0.20473408699035645, -0.11333248764276505, -0.08911964297294617, -0.2047407180070877, -0.335014671087265, 0.03790734335780144, -0.13854001462459564, 0.14145973324775696, -0.1722838580608368, 0.20648391544818878, -0.11600185185670853, 0.09367566555738449, -0.12984232604503632, -0.15369965136051178, 0.22502925992012024, -0.2663221061229706, 0.05863720178604126, 0.12329339981079102, -0.018450917676091194, -0.07802338153123856, -0.16387253999710083, 0.1571054905653, -0.3992435336112976, 0.17012161016464233, -0.19959954917430878, -0.13982771337032318, 0.2496950775384903, 0.286607027053833, 0.17139846086502075, 0.16120286285877228, 0.32910600304603577, -0.07489383965730667, -0.11230848729610443, 0.12456778436899185, 0.19022604823112488, 0.32805559039115906, -0.17107006907463074, -0.19442647695541382, -0.10834738612174988, -0.16872148215770721, 0.22783878445625305, -0.026320479810237885, 0.006310956086963415, 0.038850873708724976, -0.25892314314842224, -0.0866570919752121, -0.23812805116176605, 0.26799294352531433, 0.404025673866272, 0.0013479992048814893, 0.28347519040107727, -0.09855636209249496, -0.08663652092218399, -0.20624572038650513, -0.09149860590696335, -0.030399177223443985, -0.03205874189734459, 0.17700189352035522, 0.09242115169763565, -0.24783958494663239, 0.06828337162733078, -0.032869163900613785, -0.21028931438922882, 0.33377352356910706, -0.04453783854842186, -0.3003179728984833, -0.0026750529650598764, 0.0005650636157952249, 0.007492898963391781, -0.018081659451127052, -0.07252692431211472, 0.0038514204788953066, 0.05011777579784393, 0.0675906240940094, 0.08781684935092926, 0.036101214587688446, 0.030999761074781418, -0.0934869796037674, 0.030951382592320442, -0.2015419900417328, -0.04972830414772034, -0.0495598129928112, 0.22785672545433044, 0.2978694438934326, -0.1420806348323822, -0.03306525945663452, -0.14863766729831696, -0.10122060030698776, 0.10775693506002426, 0.1609305590391159, -0.09975400567054749, -0.04001271724700928, -0.07656233757734299, -0.022814182564616203, 0.09857741743326187, -0.006745444610714912, -0.027807341888546944, 0.1823875606060028, 0.004322829656302929, -0.06574784219264984, -0.17832016944885254, -0.027104312554001808, 0.07480078190565109, 0.07113053649663925, 0.02833833545446396, -0.1887602061033249, -0.17172549664974213, 0.09397546201944351, 0.01615753211081028, 0.08807818591594696, -0.1793251484632492, 0.06374529749155045, -0.16153393685817719, 0.06770709902048111, 0.024917181581258774, -0.1942296326160431, 0.09184040874242783, 0.054009679704904556, -0.08585798740386963, -0.04435533657670021, 0.12096825987100601, -0.14620402455329895, 0.13503742218017578, 0.0134293083101511, 0.29916614294052124, 0.10282188653945923, -0.21000036597251892, 0.24091161787509918, -0.17509613931179047, -0.07545596361160278, -0.2056860774755478, 0.16856113076210022, 0.2971113622188568, 0.12182900309562683, 0.017613494768738747, -0.08416854590177536, 0.034637581557035446, 0.10081468522548676, 0.20951621234416962, -0.08554981648921967, -0.20085379481315613, -0.06139913946390152, 0.045195795595645905, 0.17263655364513397, -0.04616447538137436, 0.03128781542181969, 0.11972150951623917, -0.1567116230726242, 0.09930732846260071, -0.1872958391904831, 0.19291828572750092, -0.05740060657262802, 0.016804087907075882, -0.060320887714624405, 0.02892555110156536, -0.16500237584114075, -0.194587841629982, 0.04799697548151016, 0.3794492781162262, 0.07358387857675552, 0.1411670744419098, 0.002616053679957986, 0.03324170410633087, -0.0796145498752594, -0.20955181121826172, -0.10364849120378494, 0.020777355879545212, 0.05138039588928223, -0.010329361073672771, 0.019302036613225937, -0.120669424533844, -0.06608270108699799, -0.05639564245939255, -0.18523049354553223, -0.09513095021247864, 0.0774720162153244, 0.11398612707853317, -0.039182502776384354, -0.0930805653333664, 0.034669194370508194, -0.20024721324443817, 0.18556205928325653, 0.01841038651764393, -0.19876816868782043, 0.11813695728778839, 0.04293367639183998, 0.1237124353647232, -0.059095799922943115, -0.022824853658676147, 0.08317291736602783, -0.00785158947110176, -0.08333789557218552, 0.16383157670497894, 0.0234129149466753, 0.11855994164943695, 0.05244859680533409, 0.09529025107622147, 0.16703516244888306, -0.040874551981687546, -0.14256076514720917, 0.08584409952163696, 0.053278129547834396, 0.12510402500629425, -0.014535012654960155, -0.015657564625144005, -0.03519808501005173, 0.17814955115318298, -0.2690664231777191, -0.06617841869592667, 0.046296972781419754, -0.10798093676567078, 0.08284611999988556, -0.0918121263384819, 0.053556617349386215, 0.17433719336986542, -0.0265676137059927, 0.023249709978699684, 0.1080656573176384, 0.028450559824705124, 0.06758640706539154, 0.08603371679782867, -0.18235918879508972, 0.12412174791097641, -0.22269907593727112, -0.04400324821472168, 0.11398040503263474, -0.06944049894809723, -0.2344391793012619, 0.28392595052719116, -0.10056275129318237, 0.11636397242546082, -0.02500210516154766, 0.05123439058661461, 0.16842229664325714, -0.034506458789110184, 0.20406295359134674, 0.07594336569309235, -0.1361541897058487, 0.07469714432954788, -0.026666024699807167, -0.003079833462834358, -0.19246195256710052, -0.12033943831920624, 0.09799040853977203, 0.1421833038330078, -0.027529921382665634, -0.13569937646389008, -0.12671366333961487, -0.007853367365896702, 0.1420171707868576, 0.11452347040176392, 0.142715722322464, 0.0620700977742672, -0.14554211497306824, -0.1278465837240219, -0.2640290856361389, 0.15651988983154297, 0.13504847884178162, -0.022870827466249466, 0.15513727068901062, -0.021014166995882988, -0.15914595127105713, 0.09469147026538849, -0.020791489630937576, -0.16912907361984253, 0.2173081636428833, 0.04888710007071495, 0.06376366317272186, -0.0739130899310112, -0.005714716389775276, 0.252448707818985, -0.08567577600479126, 0.032968003302812576, 0.14110711216926575, 0.31597933173179626, -0.09570248425006866, 0.08458424359560013, -0.2281762808561325, -0.04779019206762314, -0.017978720366954803, 0.1032668799161911, 0.24089102447032928, -0.02465495839715004, -0.1264982521533966, 0.25163087248802185, -0.034071583300828934, -0.012799857184290886, 0.11716480553150177, -0.0890582948923111, 0.08558651804924011, -0.04877891018986702, -0.06218435615301132, -0.34519296884536743, -0.23184655606746674, 0.08582033962011337, 0.10222294181585312, -0.1754840463399887, -0.012364965863525867, -0.13564693927764893, -0.10040394961833954, 0.10919497907161713, 0.03475078567862511, -0.22505246102809906, 0.014678499661386013, -0.16779565811157227, 0.05441824719309807, 0.15521956980228424, -0.14155277609825134, 0.3335718810558319, -0.0931294783949852, -0.21784810721874237, 0.1627502739429474, 0.09291224181652069, -0.24216844141483307, -0.06516659259796143, 0.1487807333469391, 0.12722119688987732, -0.03975101560354233, 0.03664983808994293, 0.2552262544631958, -0.13873496651649475, -0.21755395829677582, 0.16433408856391907, 0.07152549177408218, 0.04631994664669037, -0.0035365447402000427, -0.03776295855641365, -0.06317556649446487, 0.03381991758942604, 0.06479974836111069, -0.020858673378825188, 0.05558167025446892, -0.12112534046173096, 0.07569416612386703, 0.12158887088298798, -0.024092042818665504, 0.10934926569461823, -0.2649403512477875, -0.0831754207611084, 0.06542559713125229, -0.12748634815216064, 0.1181599423289299, 0.0788208469748497, -0.1728673130273819, -0.1566835194826126, 0.12201052159070969, 0.060968562960624695, 0.01432790793478489, -0.19451572000980377, -0.21702919900417328, -0.00418695155531168, -0.09726527333259583, 0.14019450545310974, 0.14634938538074493, -0.025046033784747124, 0.0733935758471489, 0.03778862580657005, -0.028820307925343513, 0.13556188344955444, -0.06894855946302414, -0.23602306842803955, 0.04212873801589012, 0.07630818337202072, 0.00769732566550374, -0.05220649391412735, -0.020070910453796387, 0.14585240185260773, 0.15149500966072083, -0.04243926703929901, 0.06652472168207169, -0.11598626524209976, 0.10260909050703049, -0.10205277055501938, 0.08591818064451218, -0.08007670193910599, 0.0782303586602211, 0.15189246833324432, -0.05127943679690361, -0.24076345562934875, -0.09599172323942184, 0.06936411559581757, 0.07951556891202927, -0.09804624319076538, -0.1445332169532776, -0.16699810326099396, -0.01353227999061346, 0.09539797902107239, -0.011702769435942173, 0.04957336559891701, 0.02955039218068123, 0.10476940870285034, 0.18683139979839325, 0.1029566302895546, -0.1730901449918747, -0.14583155512809753, -0.09223244339227676, 0.16000565886497498, -0.01638871431350708, 0.09896625578403473, 0.08567681908607483, -0.18061718344688416, -0.014736986719071865, -0.010865925811231136, -0.0406261645257473, -0.11227112263441086, -0.021640142425894737, -0.17090286314487457, -0.18179954588413239, 0.23097750544548035, -0.06812947988510132, -0.18955403566360474, 0.0865599662065506, -0.09170445799827576, -0.015453177504241467, -0.21368232369422913, 0.1780545711517334, -0.05603576451539993, -0.10217079520225525, -0.00945140141993761, 0.6232007145881653, 0.05869052931666374, 0.1712203472852707, -0.008596321567893028, 0.03447389230132103, 0.042362067848443985, 0.6415915489196777, 0.3312876522541046, -0.06314334273338318, -0.03768197074532509, 0.09587650746107101, -0.08377666771411896, 0.4062807559967041, 0.08519929647445679, -0.03249300271272659, -0.02986118011176586, -0.03804321214556694, -0.07248412072658539, -0.08157619833946228, 0.00954320840537548, -0.13978523015975952, 0.11675065010786057, -0.0471910685300827, 0.06578756868839264, -0.016387542709708214, -0.11166593432426453, -0.09231573343276978, 0.06996748596429825, -0.20303238928318024, 0.12319735437631607, -0.1153569445014, -0.0934579074382782, -0.026996716856956482, -0.052536215633153915, -0.18411803245544434, 0.1375897228717804, -0.023578140884637833, 0.06880249083042145, 0.02836710214614868, -0.16541050374507904, 0.0016320667928084731, 0.04598294571042061, -0.1738378405570984, 0.10786081850528717, -0.14617401361465454, 0.06634295731782913, 0.05460769683122635, -0.04221933335065842, 0.6588157415390015, 0.13930684328079224, -0.24944499135017395, 0.18111222982406616, 0.043166324496269226, 0.4539374113082886, 0.025509774684906006, 0.07448479533195496, -0.01588892750442028, 0.15251202881336212, 0.10123999416828156, 0.15569868683815002, -0.2861596941947937, 0.06001990661025047, -0.021404799073934555, -0.05776766687631607, -0.06513746827840805, -0.13343922793865204, 0.2706609070301056, -0.05090751498937607, 0.06603331118822098, -0.15665823221206665, -0.0347214974462986, -0.004126917105168104, -0.07539623975753784, 0.011138836853206158, -0.31922346353530884, 0.1143031120300293, 0.07730869948863983, -0.10871312022209167, 0.02078225277364254, -0.16470886766910553, 0.14852823317050934, -0.125911146402359, -0.03912630304694176, -0.1493327021598816, 0.11290763318538666, 0.00919221993535757, -0.048807721585035324, 0.030496256425976753, 0.10758335143327713, 0.3537411391735077, -0.12740811705589294, 0.0016672281781211495, 0.12886843085289001, -0.06911075860261917, -0.05929355323314667, -0.020719151943922043, 0.004423782229423523, -0.10813304036855698, 0.03890034556388855, 0.07562173902988434, 0.08977346122264862, -0.06121885031461716, -0.006690267939120531, 0.0779186561703682, -0.19250212609767914, -0.02720733918249607, -0.10634078085422516, -0.05474996939301491, 0.0375312864780426, 0.03612596169114113, 0.01879468560218811, -0.06482598930597305, -0.13914205133914948, -0.1744905710220337, -0.01834229566156864, -0.13812845945358276, 0.14767594635486603, -0.15040114521980286, -0.13467195630073547, -0.1351901739835739, -0.16503728926181793, 0.1069871187210083, 0.23041129112243652, -0.14985455572605133, 0.14130324125289917, -0.06452120840549469, 0.021277740597724915, 0.018313022330403328, -0.25735971331596375, 0.22356048226356506, -0.10153162479400635, -0.12879112362861633, 0.03902734816074371, 0.022332845255732536, -0.19548247754573822, -0.16214998066425323, 0.027090955525636673, -0.06728079169988632, 0.035867948085069656, -0.25762155652046204, 0.23823504149913788, 0.01857209950685501, -0.10496056079864502, -0.1964358240365982, 0.10824728012084961, -0.17261601984500885, 0.14527928829193115, 0.0014612195082008839, 0.21727138757705688, -0.06261128187179565, 0.07589850574731827, 0.03738679364323616, 0.07939402759075165, -0.04627091810107231, 0.22619697451591492, 0.1104809045791626, -0.011889397166669369, -0.013854176737368107, 0.08779528737068176, 0.1865418404340744, -0.034977205097675323, 0.1060478687286377, 0.07451518625020981, -0.007659559603780508, 0.030191129073500633, 0.21629026532173157, -0.09298364073038101, 0.012532363645732403, -0.09164003282785416, 0.018252378329634666, 0.017766006290912628, -0.0041398885659873486, 0.04959312826395035, 0.12929955124855042, -0.056437890976667404, 0.2124873250722885, 0.19821950793266296, -0.20257864892482758, 0.17672771215438843, 0.07836690545082092, -0.16288252174854279, 0.0893203467130661, 0.15902288258075714, -0.27887794375419617, 0.04907963424921036, -0.11239662021398544, 0.05824480950832367, -0.1879127025604248, -0.05182795971632004, -0.020449630916118622, -0.12982532382011414, 0.003952446859329939, 0.239871546626091, -0.2474323958158493, 0.013123676180839539, -0.28202468156814575, 0.04763605818152428, 0.07705868035554886, 0.0747174546122551, -0.010786863043904305, -0.19315209984779358, -0.070255808532238, 0.0952569767832756, 0.007338236551731825, 0.11523900181055069, 0.05993522331118584, -1.1958011782553513e-05, -0.03718512877821922, -0.032877493649721146, -0.0438714362680912, -0.004104995168745518, 0.06974451243877411, 0.15217089653015137, -0.009147560223937035, -0.17062972486019135, -0.17858707904815674, -0.0729084461927414, -0.11226826161146164, -0.06314769387245178, -0.058741096407175064, -0.030521102249622345, -0.12079227715730667, -0.20691895484924316, -0.03467307984828949, 0.05257026478648186, -0.22166357934474945, 0.15048103034496307, 0.02156796120107174, -0.07118835300207138, 0.08736033737659454, -0.05682999640703201, -0.1897103637456894, 0.23003065586090088, -0.0593516044318676, -0.1464611142873764, 0.06771966069936752, -0.060689445585012436, -0.07383094727993011, -0.22421947121620178, 0.18611395359039307, -0.30870136618614197, 0.1987261325120926, 0.0016208469169214368, -0.010596911422908306, -0.15430597960948944, -0.0571463480591774, -0.15065312385559082, -0.02535935305058956, -0.04519686475396156, 0.1622568666934967, -0.03877986595034599, 0.0599200502038002, 0.12246169149875641, 0.05862085893750191, -0.02873336337506771, -0.1813955157995224, -0.0038563022390007973, -0.10730420798063278, 0.08687079697847366, -0.11092829704284668, 0.07616664469242096, -0.2221490442752838, 0.009737581945955753, 0.08707574754953384, 0.01767507754266262, 0.12801049649715424, -0.10853324085474014, -0.10766412317752838, -0.039809394627809525, 0.08620927482843399, 0.2897056043148041, 0.05671301856637001, -0.07190842926502228, 0.3045850992202759, 0.10004125535488129, -0.17198505997657776, 0.15368513762950897, -0.13827602565288544, 0.03339347243309021, 0.2614600658416748, 0.058030255138874054, 0.08665378391742706, 0.20963028073310852, -0.004097418859601021, 0.239435613155365, -0.12214028090238571, 0.12611591815948486, 0.20611296594142914, -0.32884877920150757, -0.004775869660079479, 0.0597703792154789, -0.49283087253570557, 0.12033580243587494, 0.014217695221304893, 0.29399386048316956, -0.2440408319234848, -0.22830159962177277, 0.03827083483338356, 0.1873307228088379, -0.15847836434841156, 0.5451159477233887, -0.15867416560649872, 0.03874508664011955, -0.1859409511089325, -0.1166686862707138, -0.052870020270347595, -0.4276958107948303, 0.20232164859771729, 0.16278284788131714, -0.004135774914175272, -0.10478556901216507, -0.08884662389755249, 0.02989884279668331, 0.008905967697501183, 0.20202894508838654, -0.44332748651504517, 0.3351282775402069, -0.11686931550502777, -0.02222028374671936, -0.03784759342670441, -0.1884949505329132, 0.34238916635513306, -0.026738516986370087, -0.19959911704063416, 0.15914209187030792, 0.060386210680007935, -0.11964652687311172, 0.0840509757399559, -0.020089423283934593, -0.0604727603495121, 0.2142428755760193, -0.2827610671520233, 0.0626724511384964, -0.031525611877441406, -0.05203771963715553, -0.027329880744218826, 0.31637030839920044, -0.1793738305568695, -0.006307139061391354, -0.015928948298096657, 0.06735875457525253, -0.016030387952923775, 0.0746455118060112, -0.05436212942004204, -0.10037439316511154, -0.12554220855236053, 0.05745973438024521, -0.05908236652612686, -0.04881133511662483, -0.22565200924873352, 0.014096289873123169, -0.11174574494361877, -0.15208794176578522, -0.13922640681266785, -0.004139516968280077, -0.15413135290145874, -0.021672429516911507, -0.025055376812815666, -0.02268560789525509, 0.08076678216457367, -0.14844363927841187, 0.12106767296791077, 0.12991464138031006, -0.11992227286100388, 0.09684226661920547, -0.0005726299132220447, 0.027826331555843353, 0.12263840436935425, 0.030957456678152084, 0.07822640985250473, -0.07099880278110504, -0.03515869751572609, -0.11298877000808716, 0.04061806946992874, -0.012073173187673092, -0.10835385322570801, 0.15119297802448273, 0.05017232894897461, -0.21815010905265808, -0.05488580837845802, -0.03534645959734917, 0.10840672254562378, -0.1407664567232132, 0.08775287866592407, 0.07023833692073822, 0.1428844928741455, -0.1776110827922821, -0.049624696373939514, 0.14175045490264893, -0.041842132806777954, 0.24595382809638977, 0.11827381700277328, -0.2539365291595459, 0.09466288238763809, 0.10995963960886002, 0.08635198324918747, 0.18571263551712036, 0.006713251583278179, 0.19974833726882935, -0.14090301096439362, -0.14919525384902954, -0.07767004519701004, -0.10904666036367416, 0.06373556703329086, 0.16689786314964294, 0.024697953835129738, 0.04369267076253891, -0.11743000894784927, -0.024867312982678413, 0.041498661041259766, -0.01165847573429346, -0.20179206132888794, -0.058059994131326675, -0.13058212399482727, -0.08493468165397644, 0.13423371315002441, -0.33557769656181335, 0.23438867926597595, 0.09047261625528336, -0.26688674092292786, 0.18459779024124146, -0.04440432786941528, -0.1833302527666092, 0.07657649368047714, -0.030728407204151154, 0.27382054924964905, 0.037553541362285614, -0.07337800413370132, 0.07715526968240738, -0.06492149084806442, 0.07387996464967728, 0.005140898283571005, 0.01563241519033909, 0.05081433057785034, -0.015508326701819897, -0.009308118373155594, 0.002446778118610382, -0.10261731594800949, -0.006830166094005108, 0.06235185265541077, 0.01511420402675867, 0.014257185161113739, 0.02686336822807789, -0.10834334045648575, -0.007450596895068884, -0.017095617949962616, -0.016759274527430534, -0.2483339160680771, -0.5250501036643982, 0.6263784170150757, 0.3439668118953705, -0.20435504615306854, 0.11052143573760986, -0.18802377581596375, -0.29906514286994934, 0.3728140890598297, -0.6653352379798889, 0.8035175800323486, 0.5445870161056519, 0.2119874805212021, -0.22925005853176117, 0.1259429156780243, -0.4411184787750244, 0.24459749460220337, -0.13939322531223297, 0.050730712711811066, -0.332231342792511, 0.1120535135269165, 0.06843408942222595, 0.3734261989593506, -0.01868755742907524, 0.04657227173447609, 0.1391187459230423, 0.2346552461385727, 0.33384159207344055, -0.25279074907302856, 0.00836073886603117, 0.2702504098415375, -0.1994132399559021, 0.27157703042030334, -0.06592442095279694, 0.004054740071296692, -0.0009920611046254635, 0.5219610333442688, 0.24295899271965027, 0.048362039029598236, -0.22711019217967987, -0.06995972245931625, 0.13254842162132263, -0.13989193737506866, -0.04728788137435913, 0.13016818463802338, 0.28880563378334045, -0.07076653093099594, 0.18379083275794983, 0.1318282037973404, -0.3237309455871582, -0.10070229321718216, -0.48741957545280457, -0.09379519522190094, -0.3990650177001953, 0.2637440860271454, -0.48077496886253357, -0.11423466354608536, 0.26237916946411133, -0.2883668541908264, 0.17466919124126434, 0.3083791136741638, -0.27213603258132935, -0.010732583701610565, 0.11356321722269058, 0.34930089116096497, -0.04454568773508072, 0.10563408583402634, -0.14551115036010742, -0.10643886774778366, 0.051341719925403595, -0.11182715743780136, 0.1534341722726822, 0.1420411765575409, 0.06874851137399673, 0.08652547746896744, 0.31521177291870117, 0.12281414866447449, 0.14976239204406738, 0.1895437091588974, -0.03330342099070549, 0.1302974820137024, -0.1017027497291565, 0.1821788102388382, -0.008979319594800472, 0.03036794438958168, 0.07908652722835541, 0.1306094527244568, -0.10709160566329956, 0.23935209214687347, -0.06008795276284218, -0.06287163496017456, -0.030857404693961143, -0.17423610389232635, -0.5601266622543335, -0.09281064569950104, -0.13240234553813934, -0.10338584333658218, -0.16010165214538574, -0.04349406808614731, -0.12627331912517548, -0.0542946495115757, -0.1197386160492897, 0.14246372878551483, 0.1633465439081192, 0.022380344569683075, -0.19260567426681519, -0.06754902005195618, 0.21275748312473297, -0.047003231942653656, 0.2931746542453766, 0.10134731978178024, 0.07665247470140457, 0.05551525577902794, -0.004098243545740843, -0.15767988562583923, 0.0003330460749566555, 0.5082501769065857, -0.07977614551782608, 0.0716918557882309, -0.018121717497706413, -0.1648276448249817, 0.12005932629108429, 0.060592103749513626, -0.04901169240474701, 0.09699738770723343, 0.39100193977355957, -0.018511297181248665, 0.24154317378997803, 0.19196347892284393, 0.09748858213424683, -0.18699675798416138, -0.04263301566243172, 0.20038007199764252, 0.02521420270204544, -0.000291807868052274, -0.07207328826189041, 0.25391989946365356, 0.02837281860411167, -0.0011066518491134048, 0.13434801995754242, 0.05480973795056343, -0.031210020184516907, -0.002410992980003357, -0.09781700372695923, -0.16181111335754395, 0.2093561440706253, 0.032436519861221313, 0.010489520616829395, 0.028972849249839783, -0.11165975034236908, -0.21115528047084808, 0.04075926914811134, -0.1395106315612793, 0.1586725413799286, -0.06130236014723778, 0.30833256244659424, -0.3559328317642212, 0.07154454290866852, 0.01403335202485323, 0.02892553061246872, 0.12529313564300537, -0.039369724690914154, -0.12615607678890228, 0.21151012182235718, 0.06472908705472946, 0.037610139697790146, -0.1168501228094101, -0.12723605334758759, 0.001658218796364963, 0.01102276798337698, 0.08867396414279938, -0.17938168346881866, -0.12961046397686005, 0.007276224438101053, 0.06436360627412796, -0.08219743520021439, 0.3806876540184021, -0.22942720353603363, -0.18076485395431519, -0.32016703486442566, 0.32539066672325134, -0.24444210529327393, 0.14013084769248962, -0.12318412214517593, 0.2961615025997162, 0.24592241644859314, -0.3736160397529602, 0.11146977543830872, 0.13363343477249146, -0.07379913330078125, -0.049832090735435486, 0.4184894859790802, 0.12155991792678833, 0.12155637890100479, -0.0244968980550766, 0.07835673540830612, -0.23595444858074188, 0.2401920109987259, 0.2366286665201187, 0.043423186987638474, -0.30322200059890747, -0.15504349768161774, 0.02652757242321968, 0.18900978565216064, -0.25721827149391174, -0.27910634875297546, 0.011835603974759579, -0.014858812093734741, -0.4590745270252228, -0.2732335329055786, 0.02061118371784687, 0.2015368789434433, 0.019244618713855743, 0.12897701561450958, -0.26046642661094666, -0.30434858798980713, 0.0577058345079422, -0.23898610472679138, -0.06705158948898315, -0.031054968014359474, 0.11817013472318649, -0.18374012410640717, -0.07583291083574295, -0.21469353139400482, -0.08941694349050522, 0.08737879246473312, -0.15769773721694946, -0.11432213336229324, 0.08315709233283997, -0.12254264950752258, 0.20603759586811066, -0.19183462858200073, 0.1330077201128006, 0.07893630117177963, 0.08914246410131454, -0.033941321074962616, -0.04851966351270676, 0.18597663938999176, -0.043550800532102585, 0.12892402708530426, -0.09006793051958084, 0.10418938100337982, 0.02592361532151699, -0.03576808050274849, -0.21497896313667297, -0.14612466096878052, 0.12535803020000458, -0.3329159617424011, -0.14103393256664276, 0.12472034245729446, 0.23548923432826996, 0.06742050498723984, -0.0786537379026413, 0.13160578906536102, 0.021517809480428696, -0.1842721700668335, -0.06908022612333298, -0.08796476572751999, -0.05641309171915054, -0.21763233840465546, -0.1356368064880371, -0.004206633660942316, -0.04769442602992058, -0.17241916060447693, -0.06686777621507645, 0.13996148109436035, 0.18070529401302338, 0.224703848361969, -0.11171912401914597, 0.006595758721232414, -0.1179545596241951, 0.07067450135946274, 0.01747782714664936, 0.0014340917114168406, 0.05434614047408104, 0.0022614020854234695, -0.02885459177196026, 0.0641058012843132, 0.04613267630338669, -0.015684233978390694, -0.12772047519683838, -0.038405854254961014, 0.008429168723523617, 0.035380735993385315, 0.01366720162332058, 0.07217302918434143, 0.014286587946116924, -0.020019546151161194, 0.017221039161086082, -0.17762723565101624, 0.03723025321960449, 0.03738342225551605, 0.4291851818561554, 0.13736550509929657, 0.20820707082748413, 0.08038366585969925, 0.2034408003091812, 0.04495839402079582, 0.17537957429885864, -0.013934299349784851, -0.009474619291722775, 0.03541744872927666, -0.02030375972390175, -0.009582710452377796, -0.17613084614276886, 0.14081530272960663, 0.17446283996105194, 0.06231483817100525, -0.08851157873868942, -0.22494716942310333, 0.022688666358590126, 0.178064227104187, 0.10046393424272537, -0.08281281590461731, -0.2287743091583252, -0.03731705993413925, 0.09274148941040039, -0.0163751058280468, 0.06699123978614807, 0.1558588743209839, 0.06606513261795044, 0.17240771651268005, -0.1254674792289734, -0.21306400001049042, -0.05874760076403618, 0.09809157997369766, -0.15942463278770447, 0.11254475265741348, 0.044741228222846985, -0.3098798990249634, -0.12810596823692322, -0.2563683092594147, -0.08921383321285248, -0.05566699430346489, -0.17607280611991882, 0.10166478902101517, 0.08093075454235077, 0.15569853782653809, -0.10838639736175537, -0.014125608839094639, 0.22391648590564728, -0.06840426474809647, -0.06118478253483772, -0.03187341243028641, 0.19399820268154144, -0.22200113534927368, 0.1532326638698578, 0.2211792767047882, -0.006810191553086042, 0.06282913684844971, 0.045118547976017, 0.18110892176628113, -0.25612959265708923, -0.11592996120452881, -0.11790478974580765, 0.25095856189727783, 0.01995175890624523, 0.10768947750329971, -0.06149349361658096, -0.09299518167972565, -0.12953658401966095, 0.1317823976278305, -0.06631134450435638, -0.03981201723217964, 0.043441832065582275, 0.049953266978263855, -0.2882061302661896, 0.2585086524486542, 0.13599780201911926, 0.04809984937310219, 0.004472243133932352, -0.08828572928905487, -0.1243475154042244, 0.04859752953052521, 0.08356428146362305, -0.2649759352207184, 0.17562618851661682, -0.0928390845656395, 0.14465704560279846, 0.07841134816408157, -0.032118186354637146, 0.06889662146568298, 0.013532016426324844, -0.13403135538101196, -0.3071543276309967, -0.2737857401371002, 0.027308132499456406, 0.1021573469042778, 0.09623437374830246, -0.00795070268213749, -0.35899117588996887, 0.11192893236875534, 0.3010633885860443, 0.03336009755730629, 0.11106328666210175, -0.17558753490447998, 0.10670676827430725, 0.0046995701268315315, -0.0495971255004406, -0.22132140398025513, -0.20290562510490417, 0.1156778335571289, 0.06424456834793091, 0.06260886043310165, -0.024547480046749115, -0.16164743900299072, -0.08176511526107788, 0.19871234893798828, -0.002213630825281143, 0.07280493527650833, -0.048913877457380295, 0.16480796039104462, -0.1049506887793541, 0.04820912331342697, -0.0016892959829419851, 0.1345335990190506, -0.05896895378828049, -0.000480777322081849, 0.03933306038379669, -0.2199319750070572, 0.09107951074838638, 0.07256370782852173, -0.12091903388500214, 0.024019349366426468, 0.05146197974681854, -0.13957354426383972, 0.03820778802037239, -0.08224083483219147, 0.03390173241496086, -0.2470504492521286, -0.051959648728370667, 0.12828950583934784, 0.025907017290592194, -0.0013106989208608866, 0.20057348906993866, -0.0527922697365284, 0.09226175397634506, 0.0023930873721837997, 0.08882714807987213, 0.03317906707525253, 0.2108628749847412, 0.16675052046775818, 0.07723411172628403, -0.19468684494495392, 0.012051130644977093, 0.02096649818122387, -0.017356593161821365, -0.1072198748588562, -0.2411416918039322, 0.17726995050907135, 0.07324141263961792, 0.03623484820127487, -0.06264176964759827, -0.0985158309340477, -0.0534164234995842, 0.2930338978767395, 0.09116370230913162, -0.14014564454555511, -0.21921083331108093, -0.0877579003572464, -0.08333377540111542, -0.12211763858795166, 0.04706547409296036, 0.18460579216480255, -0.10327814519405365, 0.007440309971570969, 0.08331906050443649, -0.013779019005596638, 0.1459100842475891, 0.17500866949558258, -0.27410921454429626, 0.24128881096839905, 0.15786096453666687, -0.20615524053573608, -0.1310647577047348, 0.10085264593362808, 0.1560436487197876, -0.2036312222480774, -0.043171223253011703, 0.10568070411682129, 0.2999148964881897, -0.13333646953105927, 0.20767009258270264, 0.11947913467884064, -0.023474333807826042, -0.03045550361275673, 0.3198513686656952, 0.16633263230323792, -0.033304840326309204, 0.08076604455709457, -0.06515535712242126, 0.0378686860203743, 0.1878422349691391, -0.08875732868909836, -0.06786222755908966, -0.1344471424818039, -0.0382130891084671, 0.14844869077205658, -0.17014026641845703, -0.11841535568237305, -0.004042617045342922, 0.14483001828193665, -0.008899868465960026, -0.10777577012777328, -0.17470262944698334, 0.10740434378385544, -0.058644820004701614, -0.050177957862615585, 0.03440765663981438, 0.10771559923887253, 0.24036723375320435, 0.0812305361032486, -0.10136038064956665, -0.13667254149913788, -0.007298815995454788, 0.01745409332215786, -0.14837926626205444, 0.08526468276977539, -0.024053821340203285, -0.08487658947706223, -0.0269587654620409, -0.001808781991712749, -0.03469036892056465, -0.007794694043695927, 0.099215567111969, 0.15833966434001923, -0.07931269705295563, 0.03702865168452263, -0.18019379675388336, -0.3047717809677124, -0.015636205673217773, -0.030574055388569832, 0.0760941207408905, -0.019866513088345528, -0.09140004217624664, 0.37240874767303467, 0.4611498713493347, -0.10346706956624985, 0.08860667794942856, -0.16485358774662018, 0.12042827904224396, -0.3768453299999237, -0.16032321751117706, -0.15374556183815002, -0.18376636505126953, 0.10732371360063553, -0.09313340485095978, 0.12426183372735977, -0.0007495966856367886, -0.10828715562820435, -0.17330287396907806, -0.033844076097011566, -0.16146166622638702, 0.18995028734207153, -0.047041650861501694, 0.14403879642486572, -0.09437429904937744, -0.1404849737882614, -0.04110419750213623, 0.03453710302710533, -0.02627233788371086, 0.0417109876871109, 0.10658130794763565, 0.034956928342580795, 0.12488388270139694, 0.005901757162064314, -0.22369080781936646, 0.08389103412628174, 0.09889700263738632, -0.05606834962964058, 0.01985849067568779, 0.23844453692436218, 0.15432792901992798, -0.04081837460398674, 0.05527603253722191, 0.09006891399621964, 0.003731423756107688, 0.020552678033709526, -0.14479930698871613, -0.038547907024621964, -0.40362510085105896, 0.12193182110786438, 0.04259653761982918, 0.18089638650417328, 0.038122907280921936, -0.04795420542359352, -0.1301410049200058, -0.10296201705932617, 0.0077864923514425755, -0.18983712792396545, -0.08962676674127579, -0.14022472500801086, 0.07294394820928574, 0.10060048848390579, -0.11162522435188293, -0.19863204658031464, 0.013590337708592415, 0.04966912046074867, -0.03710806369781494, -0.08024406433105469, -0.05144639313220978, 0.10832548886537552, 0.08322219550609589, 0.07888981699943542, 0.030841192230582237, 0.032043714076280594, 0.2069963961839676, -0.10392697900533676, 0.24687983095645905, -0.07192064821720123, -0.16596251726150513, -0.09486072510480881, 0.2541399896144867, -0.09515087306499481, -0.02239791303873062, -0.06526961177587509, -0.007784546818584204, -0.03544195741415024, -0.15865576267242432, 0.28570178151130676, 0.07926294952630997, -0.04756590351462364, 0.06918942183256149, -0.16395989060401917, 0.12925013899803162, -0.08759236335754395, -0.0511941984295845, 0.0241276603192091, 0.000482508767163381, 0.10835207253694534, -0.11071506887674332, 0.020834097638726234, -0.12341782450675964, 0.04307251796126366, 0.13182266056537628, -0.14711521565914154, -0.009165325202047825, 0.010025565512478352, 0.03393593803048134, -0.18726027011871338, -0.07207068800926208, 0.08172985911369324, 0.002014487748965621, -0.07319055497646332, 0.019699912518262863, -0.2443528026342392, -0.009290981106460094, 0.09062877297401428, 0.11684154719114304, 0.021615933626890182, -0.11003679782152176, 0.16430656611919403, -0.1460835188627243, -0.014778249897062778, 0.017922187224030495, -0.022216252982616425, -0.21992641687393188, 0.11478034406900406, -0.10635626316070557, 0.05486338585615158, 0.18266206979751587, -0.016440849751234055, 0.038540929555892944, 0.24969330430030823, -0.05167706310749054, -0.0914459377527237, -0.17372065782546997, -0.07752161473035812, 0.027803579345345497, -0.22889982163906097, -0.13293100893497467, 0.14909888803958893, 0.07075727730989456, 0.15763430297374725, -0.016078520566225052, 0.09828443825244904, 0.29099708795547485, 0.09226380288600922, -0.01748635433614254, -0.21259820461273193, -0.13505743443965912, -0.2540934681892395, 0.079033762216568, 0.12449882179498672, -0.16779270768165588, 0.11640052497386932, -0.0955057293176651, 0.0795450359582901, -0.12840856611728668, -0.195773184299469, 0.053330790251493454, 0.07732515037059784, 0.0041480218060314655, 0.20124873518943787, -0.10116572678089142, -0.23260757327079773, -0.11459077894687653, 0.03242604434490204, 0.004966065753251314, -0.04039277508854866, 0.14884771406650543, 0.0024760039523243904, -0.13479240238666534, 0.04725255072116852, -0.05418156087398529, -0.05228091776371002, 0.0697803795337677, -0.06846917420625687, -0.0932750403881073, 0.03613532334566116, 0.020976848900318146, -0.2869884967803955, 0.18427377939224243, 0.041583351790905, 0.18444077670574188, -0.1252005696296692, -0.2788824439048767, 0.2636699378490448, -0.16661643981933594, -0.04511107876896858, -0.18924905359745026, -0.025024184957146645, -0.06648004800081253, -0.04907957836985588, 0.29950860142707825, -0.06505607068538666, -0.1757359355688095, 0.04735703393816948, 0.19057603180408478, 0.03331518918275833, -0.050776559859514236, -0.04389438405632973, 0.0026671369560062885, -0.12257008999586105, 0.1752500832080841, -0.0897991880774498, -0.09466875344514847, -0.1480826586484909, 0.03417735546827316, 0.18883943557739258, -0.04889911040663719, -0.07743442803621292, 0.01989620365202427, 0.0856269896030426, 0.043053895235061646, 0.10642609000205994, -0.035899776965379715, -0.02488577552139759, 0.07735838741064072, 0.005740881897509098, -0.3959371745586395, 0.21160529553890228, -0.03666643798351288, -0.06879493594169617, -0.26350826025009155, -0.06391894072294235, 0.13601164519786835, 0.0011687006335705519, -0.05655670538544655, -0.16271056234836578, 0.1498403698205948, -0.15166254341602325, 0.02956446073949337, 0.02898549661040306, -0.11873582005500793, 0.06207964941859245, -0.123979352414608, 0.13727639615535736, 0.24380099773406982, -0.012589864432811737, 0.4021158218383789, 0.03574241325259209, -0.07706321775913239, 0.0867871418595314, 0.09674543142318726, -0.19363339245319366, 0.09277021884918213, 0.2730356454849243, 0.07117900252342224, -0.26297932863235474, -0.1119021326303482, -0.11468575149774551, 0.03800439462065697, 0.004146568477153778, 0.04514174908399582, 0.058173276484012604, 0.051712214946746826, 0.057679783552885056, -0.13519702851772308, -0.20371221005916595, 0.000549211457837373, 0.17203502357006073, 0.18633705377578735, 0.14625954627990723, 0.06229081377387047, -0.041144147515296936, 0.05523543059825897, -0.02365066669881344, 0.1481935679912567, 0.06923816353082657, -0.0980890765786171, 0.05220784991979599, -0.06237145513296127, -0.3141366243362427, 0.12270872294902802, -0.1567859798669815, -0.09343110769987106, 0.14078742265701294, -0.07471960037946701, -0.0708376094698906, 0.09615892916917801, 0.069376640021801, 0.09069477766752243, -0.01994689553976059, 0.069368377327919, 0.20720824599266052, -0.09889799356460571, 0.03354756161570549, -0.0456896610558033, 0.045348379760980606, 0.13786989450454712, -0.024874789640307426, -0.20913533866405487, 0.047930218279361725, 0.10049793869256973, -0.01713462546467781, -0.046348221600055695, -0.15969859063625336, -0.07252046465873718, -0.11830855160951614, 0.06707580387592316, -0.139150470495224, -0.110251285135746, 0.024044040590524673, 0.06775236129760742, -0.061887435615062714, -0.03243560343980789, -0.08778022229671478, -0.034914400428533554, 0.2503110468387604, -0.0523427352309227, -0.07565861195325851, -0.0774334967136383, 0.14515343308448792, 0.14373940229415894, 0.17675885558128357, 0.11369428038597107, -0.08296482264995575, 0.07495173811912537, 0.11641508340835571, -0.05258509889245033, -0.14177362620830536, 0.1852792203426361, 0.13802632689476013, -0.19377215206623077, 0.2055688351392746, 0.010701896622776985, -0.08230342715978622, -0.20068900287151337, -0.10532800853252411, -0.16012735664844513, -0.05078110843896866, -0.12408193945884705, 0.18361622095108032, -0.14678184688091278, -0.07173334062099457, -0.10701508820056915, 0.24654529988765717, -0.2943548560142517, 0.053223222494125366, 0.16456292569637299, 0.04289412125945091, -0.13280244171619415, -0.024731913581490517, -0.11491679400205612, -0.1128247082233429, 0.23086988925933838, -0.030392125248908997, -0.08965862542390823, -0.049913302063941956, 0.12736286222934723, -0.0632646307349205, -0.048224758356809616, 0.08185634016990662, -0.039045773446559906, -0.05967852845788002, -0.039596278220415115, -0.0007678996189497411, -0.1333274245262146, -0.04870060086250305, -0.0811249390244484, 0.018572349101305008, 0.17801225185394287, 0.05591731518507004, 0.20325909554958344, -0.23453816771507263, -0.059571217745542526, -0.13321320712566376, -0.048819564282894135, 0.2532670795917511, 0.18030917644500732, 0.027852201834321022, -0.0025288048200309277, 0.2441185563802719, -0.08782188594341278, 0.09121168404817581, -0.2389323115348816, 0.10121668875217438, 0.03838782384991646, -0.06367141008377075, 0.1437714844942093, 0.017083754763007164, -0.006950014736503363, -0.02097262255847454, 0.27361488342285156, 0.1605653166770935, 0.059651076793670654, -0.03669803962111473, -0.05841023102402687, -0.2570943534374237, 0.22688959538936615, 0.29382839798927307, 0.017488805577158928, -0.1355239748954773, 0.03639036417007446, 0.15685658156871796, 0.23751603066921234, 0.09984751045703888, 0.10137588530778885, 0.21045036613941193, -0.09897879511117935, -0.02558833733201027, 0.012371161952614784, -0.3074258863925934, 0.009338291361927986, 0.020357724279165268, 0.14967772364616394, -0.03896895796060562, -0.040440257638692856, 0.0006280269008129835, 0.0333380252122879, 0.1720251739025116, 0.23571570217609406, -0.03106594830751419, 0.14261369407176971, 0.11001919209957123, -0.07332175225019455, -0.15671898424625397, 0.0610024593770504, -0.05433371290564537, -0.1758948713541031, 0.11433824151754379, -0.09963592141866684, 0.06587906926870346, 0.04434710741043091, -0.14210398495197296, 0.14197547733783722, -0.09678639471530914, 0.06253627687692642, 0.2616093158721924, 0.10262184590101242, 0.06887563318014145, 0.07502593100070953, -0.046451810747385025, -0.31125912070274353, -0.027253633365035057, 0.07179676741361618, -0.060076747089624405, -0.1888655126094818, -0.09441366046667099, -0.03576689958572388, 0.23792195320129395, 0.1220768392086029, -0.13633853197097778, -0.04858091473579407, 0.15526486933231354, -0.023616693913936615, -0.13590127229690552, 0.05641987547278404, -0.194969043135643, 0.059689249843358994, 0.02252091094851494, -0.002733036410063505, -0.11753427982330322, -0.09595917910337448, 0.033266883343458176, 0.22195537388324738, -0.11655954271554947, 0.091310054063797, 0.06252134591341019, 0.07209347933530807, -0.2829382121562958, 0.01679159142076969, 0.053722281008958817, -0.07982930541038513, 0.05687959864735603, -0.23269814252853394, -0.002605630550533533, 0.06433633714914322, -0.09234416484832764, 0.08905332535505295, 0.08551516383886337, -0.12527364492416382, 0.07416665554046631, -0.12767115235328674, 0.020834436640143394, 0.11716900020837784, -0.09936517477035522, -0.40001946687698364, 0.28228136897087097, -0.17108289897441864, -0.07741592079401016, -0.03597118705511093, 0.06408855319023132, -0.38956373929977417, 0.1681402623653412, -0.24603913724422455, -0.08907421678304672, 0.05736776813864708, 0.24677498638629913, -0.16410081088542938, 0.15873105823993683, -0.007855323143303394, -0.04202187806367874, 0.13605748116970062, 0.028469223529100418, 0.13874277472496033, -0.038359854370355606, -0.013796504586935043, -0.010018882341682911, 0.17316539585590363, -0.180156409740448, -0.07514572143554688, -0.08873461931943893, -0.0005037318915128708, -0.09804767370223999, -0.10840441286563873, 0.1545555293560028, -0.29630357027053833, 0.0035428828559815884, -0.1021563857793808, -0.06988812983036041, 0.08798900991678238, 0.03100324608385563, -0.16288290917873383, -0.07397360354661942, 0.13842998445034027, -0.2799593508243561, -0.07118534296751022, 0.08974716067314148, -0.015645761042833328, 0.18824391067028046, 0.04776505380868912, -0.043118227273225784, 0.08067376911640167, -0.03044102154672146, 0.031348906457424164, -0.038822490721940994, 0.06861850619316101, -0.030304543673992157, 0.02533472515642643, 0.006423390936106443, -0.037068240344524384, 0.013432121835649014, 0.052169863134622574, 0.1179993748664856, -0.014418498612940311, 0.021266477182507515, 0.05911939591169357, -0.01168180350214243, -0.018589992076158524, 0.00432027829810977, 0.628557026386261, 0.13413888216018677, 0.5893382430076599, -0.8960436582565308, -0.639155924320221, 0.010243946686387062, 0.2694602310657501, 0.15592238306999207, 0.28990358114242554, 0.18195323646068573, -0.7950007319450378, 0.4591829776763916, -0.04539823532104492, -0.5522610545158386, -0.0006263962131924927, -0.25202226638793945, -0.08050554245710373, -0.16243842244148254, 0.5124500393867493, -0.305743008852005, -0.2005918174982071, 0.722976565361023, 0.16159449517726898, -0.1924847811460495, -0.25646355748176575, 0.16825951635837555, -0.5152744054794312, -0.10145944356918335, 0.09345542639493942, -0.3032658100128174, -0.08815454691648483, 0.3694022595882416, -0.08431676775217056, -0.17202407121658325, -0.08987069875001907, -0.13175788521766663, 0.09749802201986313, -0.06901660561561584, 0.1357264667749405, -0.12098031491041183, -0.03135896101593971, -0.07489980012178421, -0.07984180748462677, 0.009505219757556915, -0.07881391793489456, 0.055883027613162994, 0.1469075083732605, 3.7426547351060435e-05, 0.10998719185590744, 0.17435476183891296, -0.5342961549758911, -0.23144331574440002, 0.2442891150712967, -0.3622572124004364, -0.3509038984775543, -0.047539208084344864, 0.45956939458847046, -0.14961738884449005, 0.10579283535480499, -0.28911375999450684, -0.033645886927843094, -0.16756586730480194, -0.014849673956632614, -0.03548840805888176, -0.18410131335258484, -0.11380577832460403, -0.1208975613117218, 0.17034511268138885, 0.2005796730518341, 0.22514687478542328, 0.2695856988430023, 0.047523096203804016, -0.17350783944129944, -0.10837220400571823, 0.016121363267302513, -0.09812463074922562, 0.24941803514957428, 0.02366526983678341, 0.054582905024290085, -0.22469261288642883, 0.17506535351276398, -0.023564806208014488, -0.24626393616199493, 0.2607657015323639, 0.17167049646377563, -0.07358764111995697, 0.006401487160474062, -0.1009276881814003, 0.1862528771162033, 0.17645885050296783, 0.34853169322013855, 0.20290519297122955, -0.2936459183692932, -0.08131209760904312, -0.04168262705206871, -0.6010343432426453, -0.18833208084106445, 0.16888423264026642, 0.27969661355018616, 0.17176862061023712, -0.2633558511734009, 0.1507684588432312, -0.018022682517766953, 0.08303515613079071, 0.10869092494249344, 0.0357670821249485, 0.018723903223872185, 0.3253636360168457, -0.01932794228196144, 0.2912013530731201, -0.19314350187778473, 0.05643197521567345, -0.05777745693922043, -0.23482881486415863, -0.019224893301725388, 0.0559844933450222, -0.15353530645370483, -0.1557706594467163, 0.19450829923152924, 0.1560894101858139, -0.1558646261692047, 0.03004734218120575, 0.18615783751010895, 0.17550791800022125, 0.08330008387565613, 0.04740384221076965, 0.06368649005889893, -0.153318390250206, -0.1292932629585266, 0.19519102573394775, -0.07437493652105331, 0.01044281106442213, 0.1070261150598526, 0.01946362480521202, -0.07539644092321396, 0.2545197904109955, 0.007028665393590927, 0.07763855159282684, -0.07974347472190857, 0.041993651539087296, -0.07122509181499481, 0.001001194934360683, 0.10749225318431854, 0.0037473610136657953, -0.2566908299922943, 0.04357927665114403, -0.21187472343444824, -0.17368361353874207, 0.33726903796195984, 0.353690505027771, -0.16317281126976013, -0.30330345034599304, 0.10131245106458664, 0.001703239162452519, -0.29868751764297485, -0.3763979375362396, 0.24976666271686554, -0.13757814466953278, -0.02714676223695278, 0.09579663723707199, 0.1861364096403122, 0.27689987421035767, 0.04987064376473427, 0.27424556016921997, -0.1265941858291626, 0.15381403267383575, -0.10389357060194016, 0.09235940128564835, -0.26431021094322205, -0.17081597447395325, 0.2466057687997818, 0.03798258677124977, 0.009579375386238098, -0.13947753608226776, 0.13034652173519135, -0.1169605404138565, -0.1495348960161209, 0.20700134336948395, -0.446880042552948, -0.4027089774608612, -0.25322097539901733, 0.1010584607720375, -0.02786424569785595, -0.2929435670375824, 0.3568071722984314, -0.004574145656079054, -0.3397051692008972, -0.2418692409992218, -0.09275277704000473, -0.12086783349514008, 0.08766043186187744, 0.11077827215194702, 0.10599859058856964, 0.14354772865772247, 0.027450161054730415, -0.024566905573010445, -0.19429217278957367, -0.054531633853912354, 0.056668877601623535, 0.053709954023361206, -0.21234440803527832, 0.1067444309592247, 0.09377582371234894, 0.22221802175045013, -0.15507735311985016, 0.19321803748607635, -0.3395882546901703, 0.11916383355855942, -0.023571662604808807, 0.3285274803638458, 0.17992597818374634, 0.10742510855197906, -0.14068326354026794, -0.005481579340994358, -0.18526580929756165, -0.07815178483724594, 0.22497089207172394, 0.13159297406673431, -0.5217611193656921, -0.22716768085956573, -0.29698270559310913, -0.021507497876882553, 0.06794009357690811, 0.07327445596456528, -0.07840444892644882, 0.03830460086464882, 0.09500722587108612, -0.09340906888246536, -0.04560943320393562, 0.13237106800079346, -0.09456709772348404, -0.14042185246944427, 0.00012692419113591313, 0.3933512568473816, -0.16288447380065918, -0.26104477047920227, -0.13848668336868286, -0.4628317356109619, -0.0661453902721405, 0.44594499468803406, 0.22834229469299316, -0.07124810665845871, 0.08485289663076401, 0.3288688659667969, 0.13800758123397827, -0.08608834445476532, 0.04035143554210663, 0.1869371086359024, -0.2233254462480545, -0.049177661538124084, -0.2213980108499527, 0.07442352920770645, 0.017389237880706787, -0.013526402413845062, -0.05607520416378975, -0.1662978231906891, -0.07463300228118896, 0.1916709542274475, -0.14853084087371826, -0.275186687707901, -0.3019200563430786, 0.00040862621972337365, 0.1812051385641098, -0.1200452521443367, -0.10939469188451767, 0.11107610166072845, -0.3487170934677124, -0.129499152302742, 0.07025715708732605, -0.2052258998155594, 0.10867643356323242, 0.1562870591878891, -0.05630253255367279, 0.04136627912521362, 0.012861025519669056, -0.00811744574457407, 0.012180312536656857, -0.02201845496892929, 0.012846586294472218, 0.02826378121972084, -0.011719631031155586, 0.058507632464170456, 0.027283983305096626, 0.010018365457654, -0.008655658923089504, -0.055739857256412506, -0.007744099944829941, 0.003098993329331279, 0.09596463292837143, -0.08536142110824585, -0.012275632470846176, -0.057235606014728546, 0.29771512746810913, -0.21519753336906433, -0.037796683609485626, 0.169132262468338, -0.1783992499113083, -0.0707818791270256, 0.11311923712491989, 0.07708457112312317, -0.054086290299892426, -0.08580665290355682, -0.12393472343683243, 0.1781749129295349, -0.0700158178806305, 0.0700397789478302, 0.1756422072649002, 0.16373203694820404, 0.12755779922008514, 0.21199795603752136, 0.11723394691944122, -0.1320347934961319, -0.14413923025131226, -0.01399665605276823, -0.005066503770649433, 0.1551770567893982, -0.07703353464603424, -0.048951130360364914, 0.06146838143467903, 0.3228670060634613, -0.05712059885263443, 0.1758604347705841, 0.004705388098955154, -0.061382029205560684, -0.03962728753685951, 0.07376965880393982, 0.12209263443946838, -0.15198181569576263, 0.0380905456840992, 0.01137276366353035, 0.16289345920085907, -0.08671501278877258, -0.050144027918577194, 0.01321391947567463, 0.04593511298298836, 0.0031869900412857533, -0.09114764630794525, 0.02606704644858837, 0.10306829959154129, 0.08953098207712173, -0.002999846590682864, 0.14863398671150208, -0.1338805854320526, -0.0331856869161129, 0.07050607353448868, -0.0158980805426836, -0.042343828827142715, -0.09524344652891159, 0.01726100780069828, 0.05628286674618721, 0.08956337720155716, 0.03635753318667412, 0.1633463203907013, -0.011103547178208828, -0.18764327466487885, 0.03299300745129585, 0.07349951565265656, -0.3290254771709442, -0.007437936495989561, -0.04171423614025116, -0.02670157700777054, 0.13939659297466278, 0.10106261074542999, -0.07978389412164688, -0.03483821451663971, 0.09918980300426483, 0.12491957098245621, -0.2330145537853241, -0.008195510134100914, -0.08290621638298035, -0.11079719662666321, -0.15205124020576477, 0.08563847839832306, -0.1402989774942398, -0.11014793068170547, 0.13509318232536316, 0.012902515940368176, -0.05975780636072159, 0.19896572828292847, 0.08990564197301865, 0.10141074657440186, -0.1835809051990509, -0.04598281905055046, -0.002509603276848793, 0.06616676598787308, -0.06181444227695465, 0.1135200783610344, 0.07134301960468292, 0.32077714800834656, 0.11599170416593552, -0.09388600289821625, 0.06222495436668396, 0.056360311806201935, -0.29490581154823303, 0.14212778210639954, -0.11468953639268875, -0.08833272755146027, -0.1991601288318634, 0.009641033597290516, 0.19635112583637238, -0.019159551709890366, 0.1318357288837433, 0.035351965576410294, -0.01352248527109623, -0.07160478085279465, 0.042179759591817856, -0.11364202946424484, -0.09919633716344833, -0.0648687332868576, 0.02314518205821514, -0.2284073680639267, 0.06693629920482635, -0.15345798432826996, -0.14914456009864807, 0.06123042851686478, 0.3639329969882965, 0.126749187707901, -0.05399858579039574, 0.13735193014144897, 0.036309536546468735, -0.14736701548099518, 0.060368891805410385, 0.03569820150732994, 0.018577253445982933, 0.20303750038146973, 0.06806305050849915, 0.08371761441230774, -0.01578078232705593, 0.09645704180002213, 0.19617879390716553, -0.2098601907491684, 0.049990683794021606, 0.013539902865886688, -0.057870592921972275, 0.003386730793863535, 0.048734575510025024, 0.2859829068183899, -0.08344290405511856, 0.06248277425765991, 0.14702004194259644, -0.06199527159333229, -0.13067114353179932, -0.006544048432260752, 0.12534627318382263, 0.1581803858280182, -0.08261265605688095, 0.09948518127202988, 0.07090701162815094, -0.1524236500263214, 0.07949689775705338, 0.20553280413150787, 0.05242437496781349, 0.17509281635284424, 0.2955065369606018, -0.06381547451019287, -0.1630890965461731, -0.14128683507442474, 0.051583439111709595, -0.0009346924489364028, -0.11006196588277817, 0.06797828525304794, -0.005923857446759939, -0.06915852427482605, 0.3641442656517029, 0.03658827394247055, -0.1627451330423355, -0.0539371594786644, 0.07452366501092911, -0.0888979583978653, 0.09513713419437408, 0.04198339954018593, -0.1705653965473175, 0.1365833580493927, -0.07836465537548065, 0.17879272997379303, -0.16353459656238556, 0.024491796270012856, 0.21667484939098358, -0.047069352120161057, -0.048958733677864075, -0.01227612979710102, 0.021698178723454475, 0.028031030669808388, 0.06123752519488335, 0.4121374487876892, 0.002313069999217987, -0.057148419320583344, 0.274838387966156, 0.054981064051389694, -0.13348737359046936, 0.2203589379787445, 0.07792409509420395, -0.07863348722457886, -0.10336986929178238, 0.04943649470806122, 0.16393521428108215, -0.15519237518310547, -0.1621953696012497, 0.23178400099277496, -0.01366734504699707, -0.03437366336584091, 0.07412026077508926, -0.017898522317409515, -0.029783103615045547, -0.09024861454963684, 0.29814958572387695, 0.15764084458351135, 0.11217673867940903, 0.017023250460624695, 0.04283648729324341, -0.08274952322244644, 0.4389118254184723, -0.0777730643749237, 0.14798450469970703, -0.1566201150417328, -0.10253754258155823, -0.1877090185880661, 0.16154474020004272, -0.0034276507794857025, 0.07167546451091766, 0.2788645029067993, 0.021200336515903473, -0.07051531225442886, -0.19813551008701324, 0.0038384778890758753, -0.06293658912181854, -0.030270207673311234, 0.10753006488084793, -0.3022812306880951, -0.004439021460711956, -0.08409296721220016, -0.0372767299413681, -0.40376585721969604, 0.10376044362783432, 0.2355833500623703, -0.19236823916435242, 0.01468625944107771, 0.062395744025707245, -0.12023265659809113, -0.07965405285358429, -0.10453536361455917, 0.15279187262058258, -0.06434667855501175, -0.28630101680755615, 0.09246792644262314, 0.08754294365644455, -0.041561558842659, -0.14563022553920746, -0.1277921050786972, -0.2050514668226242, 0.11709011346101761, 0.025541430339217186, 0.19918428361415863, -0.4150609076023102, 0.1302276849746704, -0.036833908408880234, 0.2020653635263443, -0.03198213502764702, 0.27615272998809814, -0.4586803913116455, 0.024702930822968483, -0.019898992031812668, 0.2497609704732895, -0.08668120950460434, 0.30053284764289856, -0.07998084276914597, -0.1316690742969513, 0.10334084182977676, -0.1670485883951187, -0.04315862059593201, -0.19474560022354126, 0.2678579092025757, -0.17947083711624146, -0.09875387698411942, 0.09004513919353485, 0.01432234700769186, 0.042420219630002975, -0.003135968465358019, 0.046084463596343994, 0.11491844803094864, -0.12354643642902374, -0.25271931290626526, 0.054220620542764664, -0.0232453141361475, -0.19153569638729095, -0.27001500129699707, -0.0206928588449955, 0.14619071781635284, 0.04674266651272774, 0.045046497136354446, -0.20110392570495605, 0.20500898361206055, 0.09008128196001053, 0.10655862838029861, -0.12539364397525787, -0.053092241287231445, 