{"version":"0.7.0","metadata":{"date":{"year":2026,"month":6,"day":3,"hour":18,"minute":47,"second":50},"loudness":-25.914453121864575,"gain":0.7940549312633424,"name":"Revvolutionary","modeled_by":"primalnerd","gear_type":"amp_cab","gear_make":"Revv Generator 120 MK III","gear_model":"Revv Generator 120 MK III","tone_type":"metal","trainer":"TONE3000"},"architecture":"SlimmableContainer","config":{"submodels":[{"max_value":0.5,"model":{"version":"0.7.0","metadata":{"date":{"year":2026,"month":6,"day":3,"hour":18,"minute":47,"second":48},"loudness":-25.760032269203442,"gain":0.7916176869540923},"architecture":"WaveNet","config":{"layers":[{"input_size":1,"condition_size":1,"head":{"out_channels":1,"kernel_size":16,"bias":true},"channels":3,"kernel_sizes":[6,6,6,6,6,6,6,6,6,6,6,6,6,6,15,15,6,6,6,6,6,6,6],"dilations":[1,3,7,17,41,101,239,1,3,7,17,41,101,239,1,13,1,3,7,17,41,101,239],"activation":[{"type":"LeakyReLU","negative_slope":0.01},{"type":"LeakyReLU","negative_slope":0.01},{"type":"LeakyReLU","negative_slope":0.01},{"type":"LeakyReLU","negative_slope":0.01},{"type":"LeakyReLU","negative_slope":0.01},{"type":"LeakyReLU","negative_slope":0.01},{"type":"LeakyReLU","negative_slope":0.01},{"type":"LeakyReLU","negative_slope":0.01},{"type":"LeakyReLU","negative_slope":0.01},{"type":"LeakyReLU","negative_slope":0.01},{"type":"LeakyReLU","negative_slope":0.01},{"type":"LeakyReLU","negative_slope":0.01},{"type":"LeakyReLU","negative_slope":0.01},{"type":"LeakyReLU","negative_slope":0.01},{"type":"LeakyReLU","negative_slope":0.01},{"type":"LeakyReLU","negative_slope":0.01},{"type":"LeakyReLU","negative_slope":0.01},{"type":"LeakyReLU","negative_slope":0.01},{"type":"LeakyReLU","negative_slope":0.01},{"type":"LeakyReLU","negative_slope":0.01},{"type":"LeakyReLU","negative_slope":0.01},{"type":"LeakyReLU","negative_slope":0.01},{"type":"LeakyReLU","negative_slope":0.01}],"bottleneck":3,"head1x1":{"active":false,"out_channels":1,"groups":1},"layer1x1":{"active":true,"groups":1},"groups_input":1,"groups_input_mixin":1,"conv_pre_film":{"active":false,"shift":true,"groups":1},"conv_post_film":{"active":false,"shift":true,"groups":1},"input_mixin_pre_film":{"active":false,"shift":true,"groups":1},"input_mixin_post_film":{"active":false,"shift":true,"groups":1},"activation_pre_film":{"active":false,"shift":true,"groups":1},"activation_post_film":{"active":false,"shift":true,"groups":1},"layer1x1_post_film":{"active":false,"shift":true,"groups":1},"head1x1_post_film":{"active":false,"shift":true,"groups":1},"gating_mode":["none","none","none","none","none","none","none","none","none","none","none","none","none","none","none","none","none","none","none","none","none","none","none"],"secondary_activation":[null,null,null,null,null,null,null,null,null,null,null,null,null,null,null,null,null,null,null,null,null,null,null],"slimmable":null}],"head":null,"head_scale":0.005133400850557063},"weights":[-0.28325384855270386,-0.630172073841095,-0.9849977493286133,-0.03122725524008274,-0.07993669807910919,-0.0906091034412384,-0.2490006685256958,0.08844882994890213,-0.008649028837680817,-0.08661410957574844,-0.21258759498596191,-0.07337750494480133,-0.35543888807296753,-0.14358125627040863,-0.057677462697029114,-0.0961112529039383,-0.06651172786951065,-0.1403401792049408,-0.09930135309696198,-0.21163028478622437,0.07483138889074326,-0.17373940348625183,0.26746201515197754,0.10255245119333267,0.10373097658157349,0.3406244218349457,0.09361103922128677,-0.09811572730541229,0.0584321990609169,0.24856765568256378,0.26395174860954285,0.17849722504615784,0.14593787491321564,-0.10484929382801056,0.15662744641304016,0.4076407849788666,0.5211504101753235,0.4319711923599243,0.06387006491422653,0.06074833869934082,0.005684419069439173,-0.12411091476678848,-0.32858285307884216,-0.12218179553747177,-0.13477952778339386,0.07174350321292877,0.27153438329696655,-0.15637774765491486,-0.36297547817230225,0.06991810351610184,-0.04390201345086098,0.05601830035448074,0.15863481163978577,0.007304553408175707,-0.48233985900878906,-0.18082866072654724,-0.19932851195335388,0.41152313351631165,0.3690195381641388,0.43997636437416077,0.33082056045532227,0.4639138877391815,0.3584907352924347,-0.3821239471435547,0.5004106760025024,0.1218026727437973,0.38891294598579407,0.40631014108657837,0.17334675788879395,-0.7340909242630005,0.9338326454162598,-0.8235534429550171,0.30873021483421326,-0.37239816784858704,0.06133568659424782,0.36875322461128235,0.2907349765300751,0.5494760274887085,0.28282034397125244,0.059461019933223724,-0.045360542833805084,0.10310902446508408,0.06826531887054443,0.38804301619529724,0.1716407984495163,-0.21312730014324188,-0.15012772381305695,0.4276306629180908,0.17946600914001465,0.10615110397338867,0.09987359493970871,-0.35803407430648804,-0.3150973618030548,0.07125355303287506,0.29310041666030884,0.21850340068340302,-0.10533229261636734,0.02982749417424202,-0.554949939250946,-0.07266029715538025,-0.2613043189048767,-0.15158192813396454,0.029379598796367645,-0.5816383361816406,-0.46119678020477295,0.28489363193511963,0.4413498044013977,0.45233502984046936,0.4451746642589569,-0.38913679122924805,-0.8285026550292969,-0.5574612617492676,-0.40784698724746704,-0.3192780613899231,-0.11345788091421127,-0.38292446732521057,-0.5567849278450012,-0.4231131672859192,-0.21777205169200897,-0.33101722598075867,-0.16327841579914093,-0.3273029625415802,-0.23678816854953766,-0.05700217932462692,0.05326687544584274,0.13487692177295685,-0.026493791490793228,0.051668692380189896,-0.14015041291713715,0.4110553562641144,0.291912317276001,-0.21974225342273712,0.24317604303359985,0.771026611328125,1.1775792837142944,-0.7201162576675415,-0.13821645081043243,0.3134722411632538,0.07478959113359451,0.5061614513397217,-0.016660993918776512,-0.7135607004165649,-0.9900805950164795,-0.6801296472549438,0.35741400718688965,-0.1529330462217331,0.2983839809894562,0.03947290778160095,0.1846432238817215,0.026998963207006454,0.2065182626247406,0.12262945622205734,0.11592311412096024,-0.420402467250824,-0.25387126207351685,-0.3030872344970703,-0.010462183505296707,-0.07150198519229889,-0.14241643249988556,-0.14502325654029846,-0.2162562906742096,-0.16514000296592712,-0.04332486167550087,-0.17085355520248413,0.859929621219635,-0.280967652797699,0.5857954621315002,-0.13777028024196625,0.3234632611274719,0.0026236323174089193,0.08305628597736359,-0.5817683339118958,0.1684732586145401,0.2032867819070816,0.2542230188846588,0.33594632148742676,-0.04491521045565605,-0.15662415325641632,-0.4441765248775482,-0.44224610924720764,0.15091632306575775,-0.1721753031015396,-0.011648230254650116,0.04320073127746582,-0.14559319615364075,-0.1261623352766037,-0.4295312166213989,-0.29984432458877563,0.08856135606765747,0.194658100605011,-0.21118858456611633,0.026222476735711098,0.17121954262256622,0.1259496659040451,0.17453834414482117,0.03480927646160126,0.014047374948859215,0.08951427787542343,0.18262803554534912,0.29721301794052124,-0.7005563378334045,-0.291469007730484,-0.07629993557929993,-0.29532888531684875,-0.4567452669143677,-0.5322112441062927,0.1444905400276184,-0.7239417433738708,0.36182481050491333,0.4991839826107025,0.043570514768362045,-0.028137343004345894,-0.3208991587162018,-1.0017285346984863,0.3777790665626526,1.2341164350509644,0.09789944440126419,0.1039416491985321,0.5110012888908386,-0.025037098675966263,-0.02118886448442936,0.07075914740562439,-0.26108869910240173,-0.1342235952615738,0.6690356135368347,-0.09201289713382721,0.0976685881614685,-0.06705739349126816,0.6673327684402466,0.8021856546401978,0.11912734806537628,-0.01756197214126587,-0.000699092575814575,-0.04447295144200325,0.3352202773094177,0.12143943458795547,-0.05232434347271919,-0.042583830654621124,-0.05548354610800743,0.10237982124090195,-0.20505055785179138,-0.18115925788879395,0.8118820190429688,0.03582581877708435,0.030890127643942833,-0.1554357409477234,0.1829097419977188,0.35079529881477356,0.5500977039337158,0.02396477945148945,0.03906581178307533,-0.08789464086294174,0.15873156487941742,0.0945248082280159,0.012399397790431976,0.041559651494026184,0.1526852697134018,0.04638794809579849,0.01880316063761711,0.31508973240852356,-0.11901816725730896,0.08955994993448257,-0.24603131413459778,-0.08838458359241486,0.1607683151960373,0.1364687979221344,0.38134056329727173,0.007109138648957014,-0.1330701857805252,0.01720874384045601,0.2776821553707123,0.5296571254730225,-0.9862730503082275,0.06239669770002365,-0.35917890071868896,-0.07463765144348145,-0.06940986216068268,0.25130775570869446,-0.5188736319541931,-0.06345738470554352,-0.680320143699646,-0.7365620732307434,0.3936818242073059,-0.1948397159576416,-0.31384971737861633,-0.38708603382110596,-0.3988247811794281,-0.4600823223590851,-0.2122553437948227,-0.37875643372535706,0.4651201367378235,0.043753769248723984,-0.04093536362051964,-0.04131654277443886,-0.08922838419675827,-0.27552950382232666,1.2132532596588135,-0.013328519649803638,0.09294528514146805,-0.04884323477745056,-0.00440067145973444,0.15429969131946564,0.6230171322822571,-0.04848814010620117,0.022142769768834114,0.04720783978700638,0.08803766220808029,0.13366934657096863,-0.2644239366054535,-0.064961738884449,0.0610622875392437,-0.04639773815870285,0.010750307701528072,-0.16487683355808258,-0.43133774399757385,-0.14641328155994415,-0.24709385633468628,-0.11435506492853165,-0.17855802178382874,-0.2869449853897095,-0.013514179736375809,0.10394296795129776,-0.011880719102919102,0.08251950144767761,0.04289181903004646,0.3794124722480774,-0.5367458462715149,0.032636549323797226,-0.04666918143630028,-0.010867875069379807,0.13491803407669067,-0.20128777623176575,-0.5267525911331177,0.05364655703306198,0.045210160315036774,0.04679461568593979,-0.025895552709698677,-0.029589300975203514,-0.04543238878250122,-0.04873104393482208,0.039180073887109756,-0.012330600060522556,-0.13336396217346191,0.39773181080818176,-0.6768572926521301,-0.1249813660979271,0.015916870906949043,0.27385175228118896,-0.1263609230518341,0.13476598262786865,0.01139582134783268,-0.5954921245574951,-0.1786234825849533,-0.606726348400116,0.12285581231117249,-0.4486616253852844,0.0964275524020195,-0.7166347503662109,-0.429755836725235,-0.3161912262439728,-0.11300859600305557,0.0666295737028122,0.3251141607761383,-0.018541576340794563,-0.05801340192556381,-0.06690165400505066,-0.16969427466392517,-0.2705390751361847,-0.19654886424541473,0.09166838228702545,0.02407948113977909,0.09068950265645981,0.19185732305049896,0.40992897748947144,-0.2596215605735779,0.00662890775129199,0.04744327813386917,0.05291631445288658,0.11888173222541809,0.1456020176410675,-0.00840675923973322,0.018786001950502396,0.09405127912759781,0.052460163831710815,-0.014772012829780579,-0.03964514285326004,-0.9408010840415955,-0.0792071521282196,-0.1358627825975418,-0.1286071091890335,-0.01782223768532276,-0.12363462150096893,0.12067639082670212,0.002697787946090102,-0.055138543248176575,-0.02313779667019844,0.02555246092379093,0.07678176462650299,-0.6439885497093201,0.012951815500855446,0.018255911767482758,0.029537759721279144,-0.007533878553658724,0.02951059676706791,-0.7706661224365234,-0.0834677591919899,-0.08768773078918457,-0.07983262091875076,-0.04880949854850769,-0.10917123407125473,-0.17518948018550873,0.014623894356191158,0.005644014570862055,-0.005606465507298708,0.028428426012396812,0.0032133450731635094,-0.5352554321289062,-0.03580988571047783,0.3508557081222534,-0.147456094622612,1.134150505065918,0.5944459438323975,-0.17123672366142273,0.09177722781896591,-0.10474450141191483,0.7853186726570129,0.6898224353790283,-0.05811718851327896,0.11964628100395203,-0.1778205782175064,-0.36830854415893555,1.004581093788147,-0.31688395142555237,0.1574360877275467,-0.3427622318267822,-0.013833599165081978,-0.006340438034385443,0.006362638436257839,0.043165162205696106,-0.0037419870495796204,-0.924198567867279,0.06761333346366882,0.004612627439200878,0.010380825959146023,-0.07093926519155502,-0.07799079269170761,-0.1348179578781128,0.01283643301576376,-0.004754338879138231,-0.0022249980829656124,-0.027062464505434036,0.01590271107852459,-0.44905364513397217,0.047711730003356934,-0.050982777029275894,-0.008379657752811909,-0.10623438656330109,-0.08276137709617615,-0.7537990212440491,-0.14040379226207733,-0.014913461171090603,-0.01160064060240984,0.16320441663265228,0.2022806853055954,0.20436596870422363,-0.025921761989593506,0.04457909241318703,0.0009647167753428221,0.059582941234111786,0.023011185228824615,0.25742876529693604,-0.008873392827808857,-0.0165980476886034,-0.08621718734502792,-0.04544506594538689,0.04708954691886902,0.6829195022583008,0.030006365850567818,0.03118179365992546,0.14505219459533691,0.08765670657157898,0.04559428617358208,0.07444754242897034,0.0045915995724499226,0.008248629048466682,0.04982701316475868,0.027565550059080124,-0.037800293415784836,0.5411777496337891,-0.41478535532951355,0.03621840104460716,0.3507104218006134,0.09874891489744186,-0.7540324926376343,0.38915249705314636,0.3998277485370636,0.24247996509075165,0.5552517175674438,0.2612324655056,-0.5411720871925354,0.6423092484474182,-0.025056101381778717,-0.19846512377262115,0.4773314893245697,0.2855392396450043,-0.2706483006477356,-0.03677304834127426,-0.08608909696340561,0.10842597484588623,0.17266303300857544,-0.10237620770931244,-0.2665320336818695,-0.31885039806365967,-0.21129962801933289,-0.16783982515335083,-0.2550466060638428,-0.33851805329322815,-0.029299329966306686,-0.2071598619222641,-0.2725886404514313,-0.16515140235424042,0.0484095923602581,0.25821566581726074,0.3944367468357086,0.35740926861763,-0.1969185471534729,0.009513740427792072,-0.22565199434757233,-0.260381281375885,-0.2554504871368408,-0.28120115399360657,0.04537719115614891,-0.011085442267358303,-0.05556975305080414,0.08270056545734406,0.21851329505443573,0.12625552713871002,0.11645487695932388,-0.060937996953725815,-0.10975968092679977,0.12527532875537872,-0.24345768988132477,-0.115424744784832,-0.42426177859306335,-0.12402109056711197,-0.03969736024737358,-0.26296237111091614,-0.11455148458480835,0.3514297604560852,-0.268142968416214,0.14417552947998047,0.014742753468453884,-0.10949216783046722,0.05863570049405098,0.024778015911579132,0.2092733532190323,-0.1785399466753006,0.010141836479306221,-0.1388697773218155,-0.31431642174720764,0.6008070111274719,0.16713263094425201,-0.2413727045059204,0.06180742755532265,0.06434988230466843,-0.5282700657844543,0.5057868361473083,0.15585942566394806,0.42112216353416443,-0.42918840050697327,0.5569508075714111,-0.39949628710746765,-0.2687322497367859,0.20909562706947327,0.05244877189397812,-0.7022126317024231,-0.07267549633979797,-0.18914084136486053,0.17560505867004395,0.14586840569972992,-0.2587319612503052,-0.42134079337120056,-0.3310830295085907,-0.4924563765525818,-0.6836660504341125,-0.12581241130828857,0.020929578691720963,-0.07997953146696091,-0.06842391192913055,-0.05177091062068939,-0.061287909746170044,0.20804867148399353,0.2861452102661133,0.3402293026447296,-0.030914515256881714,-0.3247617781162262,-0.5129150748252869,0.09517763555049896,0.1939183473587036,0.17414279282093048,-0.05756150186061859,-0.11100899428129196,0.5311044454574585,-0.0612451396882534,0.09753617644309998,-0.25535839796066284,-0.23161374032497406,0.03960799425840378,-0.01681884005665779,-0.009503127075731754,0.19657067954540253,0.4015960693359375,0.22239720821380615,-0.30908530950546265,0.02891106903553009,0.041086647659540176,-0.20902366936206818,-0.4834015965461731,-0.14794747531414032,0.3585653305053711,0.24714231491088867,-0.12854793667793274,0.10138631612062454,0.14320091903209686,-0.034171245992183685,-0.030056966468691826,0.10487732291221619,0.08851392567157745,-0.009841366671025753,-0.12050271779298782,-0.1493833363056183,-0.1497756987810135,-0.04785126820206642,0.18704815208911896,0.06388814747333527,0.19600164890289307,0.41271236538887024,-0.3066653907299042,-0.5200178623199463,-0.38592109084129333,-0.6330435276031494,-0.08345171064138412,-0.38610830903053284,-0.2904243469238281,-0.11732178926467896,-0.9284309148788452,-0.3251214325428009,-0.6268678307533264,0.10037792474031448,0.27835315465927124,0.07165379822254181,0.1317594200372696,-0.3057246506214142,-0.4079785943031311,-0.34356170892715454,-0.21102085709571838,-0.4533194303512573,0.1912035197019577,-0.1413329392671585,-0.22822239995002747,0.04265579208731651,-0.03164254128932953,-0.20742739737033844,-0.25401759147644043,-0.24295330047607422,-0.06583768874406815,0.07569757103919983,0.08316963165998459,0.14657846093177795,0.0036657066084444523,0.16901744902133942,0.21241794526576996,0.0039773425087332726,-0.08134322613477707,-0.5909260511398315,-0.09951017796993256,-0.09510642290115356,-0.04113414138555527,0.11294905096292496,0.13286958634853363,-0.06120424345135689,0.08323976397514343,0.08827327191829681,-0.0052041467279195786,0.0049881041049957275,0.0241107065230608,-0.6690769791603088,-0.12033800780773163,-0.4368664026260376,-0.45088985562324524,-0.1563735008239746,0.02694602869451046,0.42086201906204224,0.32208508253097534,0.2832440435886383,0.057822175323963165,0.1518988460302353,0.6797769665718079,0.3500719666481018,-0.14558348059654236,-0.034208670258522034,0.039377253502607346,0.011165485717356205,0.07525603473186493,0.005743755027651787,0.03794234246015549,-0.4803648293018341,0.03603300452232361,0.39053013920783997,-0.23773255944252014,0.45341768860816956,0.38771727681159973,0.4462679624557495,-0.4371674358844757,0.08075757324695587,0.41839009523391724,0.09748055785894394,0.13439588248729706,0.6948890089988708,-0.4729609787464142,0.07594110816717148,0.14684736728668213,0.3308420181274414,-0.16616520285606384,-0.030082931742072105,-0.08059970289468765,-0.03393644839525223,0.10920844972133636,0.6709049940109253,0.04593348130583763,-0.0017426427220925689,0.07775767892599106,0.09418322890996933,0.034434907138347626,-0.1516839861869812,0.2785192131996155,0.25654488801956177,0.24206969141960144,0.20031297206878662,0.09401676058769226,-0.0875079333782196,0.04096594825387001,0.1702791154384613,0.18331322073936462,-0.25818029046058655,-0.10149241983890533,-0.7223843336105347,-0.10035794228315353,-0.22650498151779175,-0.18988852202892303,-0.09014378488063812,0.03997308388352394,-0.21457970142364502,0.07259493321180344,0.0795169472694397,0.007595461327582598,0.19769035279750824,0.1295987069606781,-0.39929133653640747,0.041025444865226746,-0.01954219676554203,0.05814110487699509,0.14515964686870575,0.6062042117118835,0.35350626707077026,0.045984040945768356,0.03248051553964615,0.0007118367357179523,-0.09639185667037964,-0.045002441853284836,-0.19685539603233337,-0.06699667125940323,-0.08029120415449142,-0.09537176042795181,-0.13089211285114288,-0.39313969016075134,1.0494500398635864,0.026872625574469566,-0.06419283151626587,0.07411792874336243,0.6235262155532837,0.02888505533337593,-0.5371013283729553,-0.6754364967346191,0.06339975446462631,0.8708229064941406,0.2290479689836502,0.15878702700138092,1.1004396677017212,0.37397515773773193,0.6085958480834961,0.12795791029930115,0.1289202868938446,0.18199817836284637,-0.3026145100593567,0.081136055290699,0.030734118074178696,0.10649161785840988,0.13831715285778046,-0.21585433185100555,0.46654585003852844,-0.06351523101329803,-0.06453268975019455,-0.11292062699794769,-0.10993441939353943,0.22491984069347382,0.29551962018013,-0.00006366735033225268,0.06788282096385956,0.012035512365400791,0.007627976592630148,-0.21649307012557983,0.11258578300476074,0.4170958399772644,0.13703738152980804,0.14281585812568665,0.14216108620166779,0.3401794135570526,-0.07681011408567429,-0.35333725810050964,-0.15525931119918823,-0.6137314438819885,-0.17034946382045746,-0.12649628520011902,-0.0595146082341671,-0.04393049702048302,0.10873141884803772,-0.0070900204591453075,0.014169332571327686,-0.33725371956825256,0.29407113790512085,0.17810264229774475,0.10099413245916367,0.196522518992424,0.11324066668748856,0.11237423866987228,0.595916748046875,-0.1178121268749237,-0.0817209780216217,-0.13968154788017273,-0.08989173918962479,-0.014119667001068592,0.17149746417999268,-0.05612942948937416,-0.015818336978554726,-0.043735161423683167,-0.04607325792312622,-0.19977967441082,1.0294649600982666,-0.27052468061447144,0.2505313456058502,0.0850004181265831,-0.4769812524318695,-0.12069153040647507,-0.40232571959495544,-0.4907815456390381,0.3236047625541687,0.4335162043571472,-0.7098593711853027,-0.023781640455126762,1.2308851480484009,-0.5736491680145264,-1.1098288297653198,-0.04510844126343727,-0.5249213576316833,0.2838212251663208,-0.004013518802821636,0.024238694459199905,-0.149178609251976,-0.2665790617465973,-0.40867725014686584,0.2171156108379364,0.08038266003131866,-0.15641285479068756,-0.007419832982122898,0.09902820736169815,0.020243018865585327,-0.24232715368270874,-0.19568663835525513,0.2792288362979889,0.10114967077970505,0.14080223441123962,0.49992668628692627,0.11192556470632553,0.5141491889953613,-0.13625161349773407,-0.2351474016904831,-0.41194960474967957,-0.1793985813856125,-0.08893881738185883,-0.14069731533527374,0.043159209191799164,0.09505108743906021,0.18545646965503693,0.0586419478058815,0.028844255954027176,-0.7215178608894348,0.150051087141037,0.2129349261522293,0.2932445704936981,0.19220644235610962,0.181509867310524,0.05994483456015587,0.1294996589422226,0.4133927524089813,0.27308475971221924,-0.1164875328540802,0.04044774919748306,0.11224815249443054,-0.2445993274450302,-0.2522779107093811,-0.23957990109920502,-0.28728368878364563,0.018958095461130142,0.1149018332362175,-0.29410871863365173,-0.12593552470207214,-0.23809213936328888,-0.10196004062891006,-0.13059812784194946,0.3339764475822449,0.36517134308815,0.3601025342941284,-0.015609987080097198,0.0969243273139,-0.6372407078742981,-0.36794936656951904,0.3782693147659302,0.0767744928598404,0.6281492710113525,0.19343440234661102,-0.9829356074333191,0.28304094076156616,-0.7858618497848511,-0.22758516669273376,0.30303874611854553,-0.19029340147972107,-0.4218307137489319,0.4656807482242584,0.3091524839401245,-0.16382476687431335,-0.23062896728515625,-0.446892112493515,-0.14272210001945496,-0.4894499182701111,-0.14473557472229004,0.2247607707977295,0.1716868132352829,0.22355109453201294,0.08582790940999985,0.08938205242156982,-0.2558477520942688,0.3080269992351532,0.15672291815280914,0.05776355415582657,0.10466251522302628,0.58991938829422,-0.09929672628641129,0.014369643293321133,-0.10571935027837753,0.091363824903965,-0.06555822491645813,-0.3385462462902069,0.03132878988981247,-0.03523764759302139,0.01968754269182682,-0.06752438098192215,-0.018976017832756042,-1.3618297576904297,0.03613128885626793,0.17576000094413757,0.11795852333307266,0.2332155704498291,0.1677735596895218,-0.15760135650634766,-0.05636802315711975,0.002749890787526965,-0.07306865602731705,0.045021992176771164,-0.05176626145839691,-0.727605938911438,0.012771743349730968,-0.016239581629633904,0.017017537727952003,-0.0340905524790287,-0.009008406661450863,-1.2573161125183105,0.026554705575108528,0.0944981575012207,0.06957048177719116,0.1313423365354538,0.11685192584991455,-0.5098762512207031,0.09616617858409882,0.12101465463638306,-0.35854044556617737,-0.03007347323000431,0.37007465958595276,0.08906855434179306,0.5324865579605103,-0.5560470223426819,0.7222896814346313,0.1170869767665863,-0.4648463726043701,0.7105692625045776,-0.7708578705787659,-0.6236365437507629,1.0052822828292847,-0.3937946856021881,-0.19350126385688782,-0.2952786982059479,-0.0427621454000473,0.059609148651361465,0.05121540650725365,0.02143900655210018,-0.10879100859165192,-0.08890931308269501,-0.0843682661652565,-0.2402457743883133,-0.18111959099769592,-0.19668439030647278,-0.21520209312438965,-0.015202603302896023,-0.05113187059760094,0.02807444892823696,0.27247124910354614,0.041178543120622635,-0.0637853816151619,0.08471681922674179,-0.023544631898403168,-0.10391300916671753,0.0009866568725556135,0.03047115169465542,-0.015798673033714294,-0.34392520785331726,-0.28523772954940796,-0.06733204424381256,0.0343143455684185,-0.19631540775299072,-0.10255173593759537,-0.09441860020160675,-0.033020567148923874,-0.1797599196434021,0.022171426564455032,0.031325288116931915,0.05544314533472061,0.15704047679901123,-0.03536311909556389,-0.2253577709197998,-0.2914426922798157,-0.1941593885421753,-0.15879744291305542,0.022712567821145058,0.03935515880584717,0.06627137213945389,0.04971284046769142,-0.062192969024181366,0.0694601759314537,-0.07476269453763962,-0.0480642132461071,0.02981831692159176,-0.15507598221302032,-0.10929109901189804,-0.013286466710269451,-0.046478237956762314,-0.2753404378890991,0.083303302526474,0.17409110069274902,0.02328563667833805,-0.1996752768754959,0.3293333947658539,0.014981874264776707,0.009669896215200424,0.08738084137439728,0.01152424793690443,0.007017259486019611,-0.04570072889328003,0.07543308287858963,-0.024022260680794716,-0.028818834573030472,0.09994708746671677,0.23176279664039612,0.3795386850833893,0.18945568799972534,-0.31371036171913147,0.027762521058321,-0.022138157859444618,0.17698776721954346,-0.0801207646727562,-0.1175617054104805,-0.03597710654139519,-0.03538091853260994,-0.13184824585914612,-0.02011556550860405,0.02220374532043934,-0.062413718551397324,0.01709313504397869,0.09118237346410751,-0.11123957484960556,-0.224891796708107,0.44245222210884094,-0.017443569377064705,-0.05893330276012421,0.014037653803825378,-0.05687827244400978,0.03737686574459076,-0.0005839489749632776,0.2022390216588974,0.05436430498957634,0.10576333850622177,0.06991993635892868,-0.12990014255046844,-0.3227943778038025,-0.521476686000824,-0.6281818151473999,-0.32766199111938477,0.10428814589977264,-0.0750146210193634,0.06350935250520706,0.026291541755199432,-0.03953353315591812,0.05578479915857315,-0.08588419109582901,0.008306198753416538,-0.039837103337049484,0.014472637325525284,0.2039089947938919,0.19099149107933044,-0.18802160024642944,-0.327785462141037,-0.7459778785705566,-0.006892325822263956,0.04096882790327072,-0.060865093022584915,0.02580331452190876,0.037954267114400864,-0.06542332470417023,0.04165886715054512,0.11453049629926682,0.07633378356695175,0.12481114268302917,-0.12191588431596756,-0.1506042182445526,-0.4909118115901947,-0.684279203414917,-0.4379863142967224,0.5145999789237976,-0.25572267174720764,-0.11576341837644577,0.045919399708509445,-0.9055579304695129,0.14707469940185547,-0.5823754072189331,-0.21842260658740997,-0.5306773781776428,0.0012465371983125806,-1.0008245706558228,-0.9842001795768738,0.06615269184112549,0.02117321267724037,-0.010323826223611832,-0.8201660513877869,0.32626625895500183,0.3426148295402527,-0.010592243634164333,0.015477614477276802,-0.0021202238276600838,-0.04388764128088951,-0.01681976020336151,0.03404571861028671,0.05386574566364288,0.035096317529678345,-0.09225722402334213,-0.2485719621181488,-0.15103840827941895,-0.1591360867023468,-0.20687329769134521,-0.1526554822921753,0.17656254768371582,0.0021562576293945312,0.04323618859052658,-0.08366381376981735,-0.015311835333704948,-0.07268311083316803,0.08309582620859146,-0.08034823834896088,0.053100358694791794,0.0365331694483757,0.13694807887077332,0.059590041637420654,-0.01386110857129097,0.08516900986433029,-0.015163135714828968,-0.09365426003932953,0.034673646092414856,-0.2726849317550659,-0.15248210728168488,-0.03466298058629036,0.20353971421718597,-0.07054276019334793,-0.011608469299972057,-0.37117716670036316,0.07460638880729675,-0.06669299304485321,-0.055093616247177124,0.12515945732593536,0.3572634756565094,-0.2017495185136795,0.25083884596824646,-0.08249561488628387,-0.10979543626308441,-0.11131904274225235,-0.09507232159376144,-0.09745541214942932,-0.06424412876367569,-0.03374828025698662,-0.05018724873661995,-0.06649570167064667,-0.05633929371833801,-0.15373487770557404,-0.14257466793060303,-0.0543486513197422,-0.009876326657831669,1.0708125829696655,0.04411522299051285,0.07817003130912781,0.07026053965091705,0.0357680507004261,0.04366714134812355,0.013422598131000996,0.012176538817584515,0.02867930382490158,0.03234769031405449,0.04594210162758827,0.08788969367742538,0.09313337504863739,0.01853157766163349,0.014571492560207844,0.6770260334014893,0.05864986404776573,-0.07343578338623047,-0.06427323818206787,-0.024207955226302147,0.06241295114159584,-0.003442836459726095,0.04343504086136818,0.005628327373415232,0.04543515667319298,0.002512696897611022,0.06039810553193092,-0.07247142493724823,0.1287618726491928,0.06635135412216187,0.39699727296829224,-0.29050689935684204,-0.39565521478652954,-0.21031735837459564,-0.16275359690189362,-0.20770002901554108,-0.21085916459560394,-0.25242283940315247,-0.32146161794662476,-0.20393648743629456,-0.07452543079853058,-0.22736035287380219,-0.0379231832921505,0.045309875160455704,0.0025636458303779364,0.23121921718120575,0.16676084697246552,0.15419763326644897,0.22554686665534973,0.05655430257320404,0.1604820340871811,-0.10943280905485153,0.19926206767559052,0.07154976576566696,0.14499692618846893,0.11121439933776855,0.09585393220186234,0.18148785829544067,0.021839985623955727,0.20525048673152924,-0.22398409247398376,0.07819239795207977,0.3182550370693207,0.08809372037649155,0.08752252906560898,-0.06551385670900345,0.10879666358232498,0.1914938986301422,0.4330017566680908,0.02772766537964344,0.02556205540895462,0.2510029673576355,-0.103950135409832,-0.14817732572555542,0.5205363631248474,-0.6496104598045349,0.6141036152839661,-0.20750102400779724,0.5950554013252258,0.14126963913440704,-0.1658679097890854,-0.15188299119472504,-0.44979748129844666,-0.39285486936569214,-0.3940543532371521,0.390700101852417,-0.6260086297988892,0.27105405926704407,0.031211629509925842,-0.05940497666597366,0.6915335655212402,-0.5761091113090515,0.25200796127319336,0.0005116027314215899,-0.37182068824768066,-0.23937363922595978,-0.19893860816955566,-0.09797720611095428,-0.07779481261968613,0.2540484368801117,-0.03515689820051193,-0.09913758188486099,-0.13578197360038757,-0.41938525438308716,-0.44709721207618713,0.1241331696510315,0.02486640401184559,0.25553059577941895,-0.16334134340286255,-0.23195978999137878,-0.17826107144355774,0.034179914742708206,0.1432720273733139,-0.20528601109981537,0.1060314029455185,-0.18305936455726624,-0.06897713989019394,-0.06751152873039246,-0.36610767245292664,-0.17766837775707245,-0.043991684913635254,-0.16699691116809845,-0.25885435938835144,-1.1635518074035645,0.01573888584971428,0.02208486944437027,-0.11814188212156296,-0.00563703291118145,0.0020627030171453953,0.06219302490353584,-0.06076567992568016,0.05715760216116905,-0.14114023745059967,-0.04378741979598999,-0.39566534757614136,-0.2654494047164917,-0.5260486006736755,-0.4071410298347473,-0.10786308348178864,-0.17694751918315887,-0.7872619032859802,-1.2767688035964966,-0.05717908963561058,0.032180506736040115,-0.12972362339496613,-0.08445235341787338,0.018499119207262993,0.1138085126876831,0.2868448495864868,-0.9138643741607666,0.7289870381355286,-0.29276734590530396,0.5960296392440796,-0.1613178849220276,0.0037293306086212397,0.5728437304496765,-0.27768418192863464,0.08906766027212143,1.383189082145691,-0.6329435706138611,-0.6923614144325256,0.1751025766134262,-0.10851148515939713,-0.11144965142011642,-0.14343571662902832,0.30740079283714294,0.16261456906795502,0.03935742750763893,-0.1827404797077179,-0.7043041586875916,-0.6091346740722656,-0.11650413274765015,-0.31315287947654724,0.22373972833156586,0.19028721749782562,-1.5775545835494995,-1.019940972328186,0.29465436935424805,-0.05544565990567207,0.210022434592247,-0.3263041377067566,-0.19615648686885834,0.07837174832820892,-0.06845598667860031,0.0016441401094198227,-0.08501027524471283,-0.06924799084663391,0.08456442505121231,0.36375102400779724,0.1661115288734436,0.02988920733332634,-0.2843371033668518,-0.25242483615875244,0.12284772098064423,0.35510048270225525,0.09627681225538254,0.03902396187186241,-0.15734454989433289,0.15605498850345612,-0.2096382975578308,-0.031178094446659088,0.2215326875448227,-0.27324438095092773,-0.23306161165237427,-0.10136158764362335,-0.2393634021282196,-0.03575319051742554,0.07803754508495331,-0.45134347677230835,-0.2708464562892914,0.07905752956867218,0.1799917370080948,0.15529629588127136,-0.6515777111053467,0.2802703380584717,-0.020714046433568,-0.08664396405220032,-0.13030734658241272,-0.05978098139166832,0.10136741399765015,0.5445371866226196,-0.11045335978269577,0.14135175943374634,-0.11346393823623657,0.0599769689142704,-0.30434650182724,-0.257426917552948,0.03122110664844513,-0.20154494047164917,-0.2887571156024933,0.1673193871974945,0.45083412528038025,0.18560917675495148,-0.3661595582962036,-0.5256369113922119,-0.09948490560054779,0.30386877059936523,0.013334311544895172,0.025205310434103012,-0.07029198110103607,-0.11497163772583008,-0.16987952589988708,-0.51426100730896,-0.14373549818992615,-0.03157961368560791,-0.21560408174991608,0.4832665026187897,0.39900222420692444,-0.3416205942630768,0.6384809017181396,-0.019341962411999702,-0.6695714592933655,-0.10997740924358368,-0.25005531311035156,0.24098628759384155,0.7531397938728333,-0.20268136262893677,-0.06265491247177124,0.07231668382883072,0.12607403099536896,-0.20976924896240234,-0.13704551756381989,0.20705947279930115,-0.07188187539577484,-0.021861370652914047,0.41746532917022705,0.1304757297039032,0.1401166468858719,0.05655740201473236,0.08868397772312164,0.062318868935108185,-0.07068434357643127,0.38242897391319275,-0.1992470920085907,-0.08609108626842499,-0.19433140754699707,0.0766366720199585,-0.25347140431404114,-0.008366209454834461,-0.06532501429319382,0.3638007640838623,0.5219324231147766,0.32982075214385986,0.06192115321755409,0.20715582370758057,-0.29925140738487244,0.2217630296945572,0.010028615593910217,-0.04728776589035988,0.03242633491754532,0.21955232322216034,-0.06215529888868332,0.2555058002471924,-0.19382411241531372,0.5435059070587158,0.1742762178182602,0.20204046368598938,-0.7406408190727234,-0.17871683835983276,0.39625898003578186,-0.2493503987789154,-0.3028644025325775,0.5651096105575562,0.5099771022796631,-0.23343443870544434,0.7634798288345337,0.4794403612613678,0.15837101638317108,0.23782362043857574,-0.26197993755340576,-0.04214628040790558,0.10283136367797852,-0.033199243247509,0.1435115486383438,-0.39862123131752014,-0.19071926176548004,-0.017157040536403656,-0.09447386860847473,-0.19137097895145416,0.16339589655399323,-0.03656240180134773,-0.13403315842151642,0.2430313378572464,0.15213817358016968,-0.032072100788354874,-0.2629019021987915,0.11715482920408249,0.37388554215431213,-0.3341912031173706,-0.4666845202445984,-0.17221708595752716,-0.04646742716431618,-0.09484659135341644,-0.16032014787197113,-0.519688606262207,-0.24812787771224976,-0.34545791149139404,-0.13794831931591034,0.21327804028987885,0.24564656615257263,-0.5221960544586182,0.05877065286040306,-0.25272390246391296,-0.09640176594257355,-0.17477937042713165,-0.3017474114894867,0.16518034040927887,0.33714622259140015,0.2867356240749359,0.10560838878154755,0.12320801615715027,0.15833333134651184,0.5005965232849121,0.3108886480331421,0.1451454609632492,0.12427560240030289,-0.10298918932676315,-0.21765083074569702,0.4248778223991394,0.18255193531513214,0.2673112154006958,-0.016344338655471802,0.09062325954437256,0.16879501938819885,0.6556836366653442,-0.14159747958183289,0.2110404372215271,-0.17581404745578766,0.651190996170044,-0.06281334161758423,-0.1753854900598526,-0.14676204323768616,0.13945165276527405,0.12800709903240204,-0.5557423830032349,0.5855936408042908,-0.5779388546943665,0.3342600464820862,-0.3300131857395172,-0.6831026077270508,-0.281328409910202,-1.162182331085205,-0.10696953535079956,-0.1260712891817093,-0.014675913378596306,-0.28699302673339844,-0.11892019212245941,-0.2878691554069519,0.1410086452960968,0.31999653577804565,0.15406374633312225,0.33636122941970825,-0.2529522776603699,0.2322189211845398,-0.016205739229917526,0.224993035197258,0.15709036588668823,0.07409762591123581,-0.14547574520111084,0.1748334914445877,-0.0911470502614975,-0.19209374487400055,-0.4287956655025482,-0.5525038838386536,-0.04467866197228432,-0.20879016816616058,0.19512534141540527,0.19068604707717896,0.2185770869255066,0.06812482327222824,-0.38637906312942505,0.4440746307373047,-0.19201326370239258,-0.2595210671424866,-0.2916725277900696,0.09377601742744446,-0.2264128476381302,-0.02286924421787262,0.04224544018507004,0.1382802426815033,0.09406815469264984,0.1080915778875351,0.06698980182409286,0.056863702833652496,-0.08709914237260818,-0.2035127878189087,0.08905814588069916,-0.014839564450085163,0.07468690723180771,-0.08091574162244797,0.02931702323257923,-0.01600753702223301,0.0592561773955822,-0.07541206479072571,0.05634451285004616,-0.03502991423010826,0.46315813064575195,0.03541767597198486,0.005038562696427107,0.19342756271362305,0.24206297099590302,-0.0052869124338030815,-0.701244592666626,0.30477336049079895,-0.018421905115246773,0.23404720425605774,-1.0804215669631958,0.051000408828258514,-0.8874408006668091,0.08343978971242905,0.003595841582864523,-0.04977824538946152,-0.5804866552352905,-0.8733778595924377,-0.20582732558250427,0.035188764333724976,-0.042514368891716,0.05134468525648117,-0.00024055663379840553,0.13902921974658966,0.21587835252285004,0.24141040444374084,0.2624254524707794,-0.0584416463971138,-0.009856690652668476,-0.05810856819152832,0.24239090085029602,-0.04863030090928078,-0.13925963640213013,-0.099125437438488,-0.04386838525533676,-0.05509406328201294,-0.10489748418331146,-0.02770909294486046,-0.07746719568967819,0.04963286221027374,-0.01912277191877365,-0.2190699577331543,-0.004056675359606743,-0.1292462795972824,0.04524337127804756,-0.17266927659511566,0.030180061236023903,-0.024247707799077034,0.3055940866470337,-0.23714344203472137,-0.026733262464404106,0.2703922390937805,-0.5557582378387451,-0.2061031609773636,-0.05396949499845505,-0.034553129225969315,-0.14058850705623627,-0.048109930008649826,0.21342074871063232,-0.06738170981407166,-0.001622948911972344,0.04781937599182129,0.03272069990634918,-0.21413804590702057,-0.5256792902946472,-0.05714196339249611,0.15275511145591736,-0.07247705012559891,-0.39517104625701904,-0.2674447000026703,0.16346144676208496,-0.6072918176651001,-0.009505568072199821,0.036219723522663116,0.5302003622055054,0.05083063244819641,0.5115758180618286,-0.606804609298706,-0.38600772619247437,0.020640302449464798,-0.4952830970287323,-0.19337151944637299,0.45592114329338074,0.0012378353858366609,0.3903140127658844,0.15246732532978058,0.9949719309806824,0.05231616273522377,0.1951339691877365,-0.1311560422182083,0.4474082589149475,0.33568933606147766,-0.4096332788467407,0.057067714631557465,-0.007748000789433718,0.1717764437198639,0.2822413146495819,0.21937215328216553,-0.1107332855463028,-0.13792435824871063,-0.2652026414871216,-0.03372431918978691,-0.07734213769435883,-0.039231233298778534,-0.1913820505142212,-0.18977664411067963,0.04763606935739517,0.0791478157043457,0.010958371683955193,0.053611282259225845,-0.21937914192676544,-0.013908731751143932,-0.1987404227256775,-0.4678526818752289,-0.057284027338027954,-0.0072692446410655975,-0.08620449900627136,0.08205410838127136,0.15953244268894196,0.00574170658364892,0.05843808129429817,0.07102849334478378,0.07432341575622559,-0.34732019901275635,0.4683241546154022,-0.13347144424915314,0.011723941192030907,-0.006122738588601351,-0.07270117104053497,-0.13702741265296936,-0.2264116406440735,-0.04229220375418663,0.015071132220327854,-0.062171123921871185,0.01267184503376484,-0.09146130084991455,-0.2801528573036194,-0.18972590565681458,0.12001185119152069,0.12179350852966309,-0.04639279469847679,0.19216784834861755,-0.4494529366493225,-0.021763823926448822,0.00003187680340488441,-0.0007371561951003969,0.46763911843299866,0.004095799755305052,0.5343591570854187,-0.6793105602264404,0.4162098467350006,-0.00858832336962223,0.5327888131141663,0.11612158268690109,0.18631941080093384,-0.07476914674043655,-0.32249006628990173,-0.3899204134941101,-0.36959829926490784,-0.3457287847995758,0.4948616325855255,-0.35605674982070923,0.011827063746750355,0.03601554036140442,0.05398782342672348,0.03919650614261627,-0.017819426953792572,-0.09946143627166748,-0.1635436713695526,-0.175666943192482,-0.1339220106601715,-0.06269527971744537,0.012472727335989475,0.08363620191812515,0.14803560078144073,0.17077581584453583,0.11726344376802444,0.036521006375551224,-0.008111759088933468,-0.028607593849301338,-0.05436684191226959,-0.06925850361585617,-0.06751775741577148,-0.053580835461616516,-0.041424527764320374,-0.03856037184596062,-0.034941013902425766,-0.02585597150027752,-0.022728396579623222,-0.03284744918346405,-0.04701203852891922,-0.048267047852277756,-0.03210963308811188,-0.010915962047874928,-0.000411232904298231,0.002796649234369397,0.016091663390398026,0.03488759696483612,0.04532664641737938,0.04600909724831581,0.05345391854643822,0.07305506616830826,0.08690843731164932,0.08417699486017227,0.07451599836349487,0.06202330440282822,0.04577970132231712,0.030625060200691223,0.018045783042907715,0.0058225058019161224,0.20913495123386383,0.005133400735816612],"sample_rate":48000}},{"max_value":1,"model":{"version":"0.7.0","metadata":{"date":{"year":2026,"month":6,"day":3,"hour":18,"minute":47,"second":49},"loudness":-25.914453121864575,"gain":0.7940549312633424},"architecture":"WaveNet","config":{"layers":[{"input_size":1,"condition_size":1,"head":{"out_channels":1,"kernel_size":16,"bias":true},"channels":8,"kernel_sizes":[6,6,6,6,6,6,6,6,6,6,6,6,6,6,15,15,6,6,6,6,6,6,6],"dilations":[1,3,7,17,41,101,239,1,3,7,17,41,101,239,1,13,1,3,7,17,41,101,239],"activation":[{"type":"LeakyReLU","negative_slope":0.01},{"type":"LeakyReLU","negative_slope":0.01},{"type":"LeakyReLU","negative_slope":0.01},{"type":"LeakyReLU","negative_slope":0.01},{"type":"LeakyReLU","negative_slope":0.01},{"type":"LeakyReLU","negative_slope":0.01},{"type":"LeakyReLU","negative_slope":0.01},{"type":"LeakyReLU","negative_slope":0.01},{"type":"LeakyReLU","negative_slope":0.01},{"type":"LeakyReLU","negative_slope":0.01},{"type":"LeakyReLU","negative_slope":0.01},{"type":"LeakyReLU","negative_slope":0.01},{"type":"LeakyReLU","negative_slope":0.01},{"type":"LeakyReLU","negative_slope":0.01},{"type":"LeakyReLU","negative_slope":0.01},{"type":"LeakyReLU","negative_slope":0.01},{"type":"LeakyReLU","negative_slope":0.01},{"type":"LeakyReLU","negative_slope":0.01},{"type":"LeakyReLU","negative_slope":0.01},{"type":"LeakyReLU","negative_slope":0.01},{"type":"LeakyReLU","negative_slope":0.01},{"type":"LeakyReLU","negative_slope":0.01},{"type":"LeakyReLU","negative_slope":0.01}],"bottleneck":8,"head1x1":{"active":false,"out_channels":1,"groups":1},"layer1x1":{"active":true,"groups":1},"groups_input":1,"groups_input_mixin":1,"conv_pre_film":{"active":false,"shift":true,"groups":1},"conv_post_film":{"active":false,"shift":true,"groups":1},"input_mixin_pre_film":{"active":false,"shift":true,"groups":1},"input_mixin_post_film":{"active":false,"shift":true,"groups":1},"activation_pre_film":{"active":false,"shift":true,"groups":1},"activation_post_film":{"active":false,"shift":true,"groups":1},"layer1x1_post_film":{"active":false,"shift":true,"groups":1},"head1x1_post_film":{"active":false,"shift":true,"groups":1},"gating_mode":["none","none","none","none","none","none","none","none","none","none","none","none","none","none","none","none","none","none","none","none","none","none","none"],"secondary_activation":[null,null,null,null,null,null,null,null,null,null,null,null,null,null,null,null,null,null,null,null,null,null,null],"slimmable":null}],"head":null,"head_scale":0.005133400850557063},"weights":[-0.1069994792342186,0.0022668205201625824,-0.11904475092887878,0.36862456798553467,-0.6128271818161011,-0.381558895111084,0.5039292573928833,1.0137690305709839,-0.13653534650802612,0.042433079332113266,-0.07852091640233994,0.08964353799819946,0.23415151238441467,0.003126458963379264,0.010995430871844292,0.009563525207340717,0.00885631050914526,0.007135089486837387,0.004958708770573139,0.004451487213373184,0.04368956387042999,-0.014046598225831985,-0.04297134280204773,-0.08419310301542282,-0.03415689989924431,-0.036841657012701035,0.00639147125184536,0.06442149728536606,0.08850172162055969,-0.13863667845726013,-0.2635282874107361,-0.021858638152480125,-0.13978096842765808,0.056745875626802444,-0.07723486423492432,0.13935920596122742,0.2873286008834839,0.019236018881201744,-0.06619185954332352,0.05262692645192146,-0.08373186737298965,0.09568899869918823,0.20906125009059906,0.11044259369373322,0.08916591852903366,-0.02701939456164837,0.14422838389873505,-0.1994868814945221,-0.24070283770561218,-0.09281229227781296,0.1997784674167633,-0.10501981526613235,0.15989916026592255,0.019819088280200958,-0.22980354726314545,-0.06432028114795685,0.05165146663784981,-0.00621508015319705,-0.016605842858552933,0.03245021402835846,0.08938506245613098,0.0391668900847435,0.008927332237362862,0.007964801974594593,0.007258366793394089,0.005968864541500807,0.005784217733889818,0.005183428525924683,0.012116050347685814,-0.012403476983308792,-0.09571409970521927,-0.0751533955335617,-0.07562481611967087,-0.06340539455413818,-0.07172875851392746,0.04265632480382919,0.0559430755674839,-0.05494074895977974,-0.10502741485834122,-0.13440243899822235,-0.0035552610643208027,0.16790030896663666,-0.06468325853347778,0.21865110099315643,0.20264454185962677,0.12882472574710846,-0.0680927187204361,0.09205924719572067,-0.10212747752666473,0.08680388331413269,0.17939883470535278,0.06477408111095428,0.11575459688901901,0.05144502595067024,0.09734667092561722,-0.047064751386642456,-0.10115893185138702,-0.061496302485466,-0.08974436670541763,-0.11608409881591797,-0.020877119153738022,-0.19615352153778076,-0.125686377286911,-0.00914544053375721,-0.016095301136374474,0.02177170105278492,-0.00794445350766182,0.027855398133397102,-0.0034105482045561075,-0.004297630861401558,0.0006107029039412737,0.000020817291442654096,0.00019866198999807239,-0.00027592573314905167,-0.0001258401171071455,-0.00013743690215051174,-0.020590290427207947,0.01394089125096798,-0.017659395933151245,0.019682280719280243,-0.001203090650960803,-0.0006401588907465339,0.0783165842294693,-0.10294625908136368,-0.01848883368074894,-0.02902739867568016,0.021341636776924133,0.026804020628333092,-0.001673435908742249,0.00901979673653841,0.010533983819186687,0.0039168475195765495,0.03894753009080887,-0.0494583323597908,-0.05754389986395836,0.056358300149440765,-0.05088956281542778,0.04711790755391121,-0.027294542640447617,-0.044924814254045486,0.0582314133644104,-0.09432440251111984,-0.005575799383223057,-0.09506437927484512,-0.07823429256677628,-0.05070856213569641,0.09990319609642029,-0.03795529156923294,0.05161772295832634,-0.13260607421398163,-0.002806682838127017,0.007073040585964918,0.00001019234969135141,0.00003397245745873079,0.000006387542271113489,0.000007643884600838646,-0.00003125626244582236,-0.00006521411705762148,4.1938413630759896e-8,-3.2666127935954137e-7,-9.750000629082933e-8,-2.335638811246099e-7,1.60076425004263e-7,5.022476443627966e-7,0.000011420088412705809,0.00003788154572248459,0.00000714444968252792,0.00000852013999974588,-0.00003481364547042176,-0.00007262607687152922,-0.00003314742571092211,-0.00011663074110401794,-0.00002069676702376455,-0.00002420742021058686,0.00011267163790762424,0.00022991526930127293,0.000053347375796874985,0.00019409872766118497,0.00003417482366785407,0.00003925730925402604,-0.00019074295414611697,-0.000386338826501742,0.000034262229746673256,0.00012061894085491076,0.000021453963199746795,0.000025124207240878604,-0.0001163661218015477,-0.00023759382020216435,-0.00004437075767782517,-0.00015933893155306578,-0.000028064230718882754,-0.00003243642277084291,0.00015571802214253694,0.00031612810562364757,-0.00008451006578980014,-0.00032093512709252536,-0.000056933669839054346,-0.00006425923493225127,0.00031927358941175044,0.0006444678292609751,-0.007885708473622799,0.0007448082906194031,-0.022241640836000443,-0.046742234379053116,0.037064239382743835,0.025447025895118713,-0.0004560932866297662,-0.00042115506948903203,-0.00035948166623711586,-0.0002633451367728412,0.0000093730477601639,0.000067747532739304,-0.007053448352962732,0.0013648986350744963,-0.0231865793466568,-0.04916321113705635,0.03969469293951988,0.02706209570169449,0.03715170919895172,0.003981093410402536,0.0644100233912468,0.1601884961128235,-0.11006802320480347,-0.09856660664081573,-0.07358340919017792,-0.01309418585151434,-0.08980686217546463,-0.24831002950668335,0.15787900984287262,0.16086430847644806,-0.038052190095186234,-0.0004630786133930087,-0.06624872237443924,-0.15559163689613342,0.11156877130270004,0.09618406742811203,0.06596897542476654,0.009581232443451881,0.08230631053447723,0.2150430679321289,-0.1428348869085312,-0.13563354313373566,0.11847322434186935,0.013776450417935848,0.12551550567150116,0.38031771779060364,-0.2303973138332367,-0.2502271831035614,-0.000005581698133028112,-0.000011865458873216994,-0.000021279331122059375,-0.000006617170583922416,-0.00006243593816179782,-0.000030343449907377362,-1.3246503272057453e-7,-1.2314558262005448e-7,-5.5201468285304145e-8,-1.6481955356084654e-7,5.857809810549952e-7,2.9458757921929646e-7,-0.000006360557108564535,-0.000013342420061235316,-0.00002380815931246616,-0.000007466431725333678,-0.00006963463965803385,-0.00003387665856280364,0.000016068755940068513,0.00004009619806311093,0.00007505266694352031,0.00002686846346477978,0.00021876975370105356,0.00010700555139919743,-0.000018824104699888267,-0.00006129638495622203,-0.00012244768731761724,-0.00004528900171862915,-0.0003643366799224168,-0.00017718912567943335,-0.00001657329084991943,-0.00004143450496485457,-0.00007753699901513755,-0.00002775577740976587,-0.00022625477868132293,-0.00011062737758038566,0.000018614886357681826,0.00005263444109004922,0.00010166373249376193,0.00003717766230693087,0.0002993821108248085,0.00014603268937207758,0.000012161171980551444,0.00008585288742324337,0.00019197641813661903,0.000069540023105219,0.0005982542643323541,0.0002874238707590848,0.003037956776097417,0.03400762751698494,-0.03334185108542442,0.04599932208657265,0.01415273081511259,-0.05808563157916069,0.0006131913978606462,-0.0000039081714930944145,0.0008809195132926106,0.00022792319941800088,0.0005512646748684347,0.0008897249936126173,0.0022874565329402685,0.03400259092450142,-0.03399917110800743,0.045461393892765045,0.013241677545011044,-0.05655113607645035,-0.03358273580670357,-0.10621579736471176,0.09223335981369019,-0.14985910058021545,-0.0619562491774559,0.18714597821235657,0.06254217773675919,0.1507166624069214,-0.14720937609672546,0.2242414802312851,0.09560190886259079,-0.2749527394771576,0.027289723977446556,0.10045064985752106,-0.09377439320087433,0.14417876303195953,0.0573299415409565,-0.18551209568977356,-0.04940839111804962,-0.1389215737581253,0.11936067044734955,-0.19611191749572754,-0.07924315333366394,0.24613618850708008,-0.09297100454568863,-0.25207915902137756,0.20502804219722748,-0.3228800892829895,-0.1259044110774994,0.3842647969722748,-0.19375386834144592,-0.03221266344189644,-0.05701295658946037,-0.01719973236322403,0.16624009609222412,0.08801484107971191,0.007348424755036831,0.005562720820307732,0.00463367672637105,0.0035289900843054056,0.0009555331780575216,0.0008699753088876605,0.04720846563577652,-0.027863699942827225,-0.058787789195775986,-0.055331289768218994,0.017159078270196915,-0.00785469077527523,0.13954880833625793,0.1328619122505188,0.08886223286390305,-0.14165358245372772,-0.31592392921447754,-0.02591581456363201,-0.15705473721027374,-0.04671269282698631,-0.2062404751777649,0.006473757326602936,0.2903742790222168,-0.014757513999938965,-0.08289729803800583,-0.14559583365917206,-0.22780923545360565,-0.017625896260142326,0.2600560784339905,0.1053648591041565,0.30491429567337036,-0.04561454802751541,0.1753625124692917,-0.019720466807484627,-0.27411001920700073,0.0644228383898735,0.19558724761009216,-0.03648091107606888,0.27205243706703186,-0.1310540735721588,-0.2754962742328644,-0.06048566848039627,0.3124697506427765,0.28120094537734985,0.04636179655790329,-0.003896859474480152,-0.0932280570268631,-0.0035872682929039,-0.06369870901107788,0.24648317694664001,-0.2571709454059601,0.00021766139252576977,-0.06687788665294647,0.000635787786450237,-0.34148770570755005,0.00028370023937895894,0.5211477279663086,-0.5625404119491577,0.10029347985982895,0.04521686211228371,0.00012271205196157098,-0.0000947346052271314,0.13596731424331665,-0.00008944554429035634,0.11231021583080292,0.055208656936883926,-0.12359736114740372,-0.1401466429233551,0.1870293766260147,-0.00008319417975144461,0.26094549894332886,-0.00001810507819755003,0.34480851888656616,-0.03481024503707886,0.18628980219364166,0.5179331302642822,0.15552586317062378,-0.00009673154272604734,-0.24707528948783875,0.00020173550001345575,0.5471884608268738,0.05498090013861656,0.1303674429655075,0.08079201728105545,0.0024375286884605885,0.00009160732588497922,0.02054460532963276,0.00002542310903663747,-0.4154120683670044,-0.09367922693490982,0.2785053551197052,-0.13415779173374176,0.014103423804044724,0.00008943220746004954,-0.2765422463417053,0.00008630967204226181,-0.08186738938093185,0.3606707453727722,0.42205536365509033,0.04389798641204834,0.15135331451892853,-0.00010423833737149835,-0.07889918982982635,-0.00005349202547222376,-0.09488827735185623,0.08225546777248383,-0.4290788471698761,-0.2628127336502075,-0.11744832992553711,0.000004981685378879774,0.5115964412689209,-0.000005842421614943305,-0.5458221435546875,-0.6310504674911499,-0.4312789738178253,-0.20020711421966553,0.18986234068870544,0.00009005606261780486,0.4580000936985016,0.0001082521557691507,-0.007314911112189293,-0.4625924527645111,-0.17455057799816132,0.22961567342281342,-0.2174895703792572,-0.08292823284864426,-0.1551658660173416,-0.16710427403450012,-0.0053148637525737286,0.1444556564092636,0.012257702648639679,-0.009720695205032825,0.017670493572950363,0.019347574561834335,0.06830022484064102,0.06033005937933922,0.010185574181377888,-0.015199344605207443,-0.020350754261016846,-0.009900860488414764,-0.011345133185386658,-0.05387851223349571,0.08914729207754135,-0.06956278532743454,-0.06747007369995117,0.046595312654972076,0.07580883800983429,0.10576024651527405,0.003313090419396758,0.057558901607990265,0.08529810607433319,0.02203354239463806,-0.03139258176088333,-0.012891351245343685,-0.12667562067508698,-0.15470042824745178,-0.05878565087914467,-0.04300716146826744,0.08695951104164124,0.12573648989200592,-0.07130356132984161,-0.08873260021209717,-0.020890265703201294,-0.02043057791888714,0.07192162424325943,0.11490978300571442,0.04001585766673088,0.2883232533931732,0.15757113695144653,0.019565703347325325,-0.1267564594745636,-0.1184893548488617,0.2005346119403839,0.24384482204914093,0.11109350621700287,0.024641143158078194,-0.1625269651412964,-0.17115800082683563,-0.08229340612888336,-0.052287131547927856,0.012386302463710308,-0.019978299736976624,-0.01687527634203434,-0.15218795835971832,0.04561933875083923,0.04564566910266876,0.06719323992729187,0.08846151828765869,0.1673223227262497,0.05779796466231346,0.06444978713989258,-0.09064225852489471,0.055320654064416885,0.22304588556289673,-0.12924692034721375,-0.3083271086215973,-0.08594469726085663,-0.2805325984954834,-0.0824195072054863,-0.07116419821977615,0.1002933457493782,0.17167091369628906,0.03339875862002373,0.2239038646221161,0.1826436072587967,0.004524753894656897,-0.10979977995157242,-0.3693552017211914,0.015747040510177612,-0.000052998038881924,-0.022831279784440994,0.131834477186203,0.002582192188128829,-0.285102903842926,-0.36643192172050476,-0.20501987636089325,-0.260611355304718,-0.1228785589337349,0.05103050172328949,0.29635509848594666,-0.12048035860061646,-0.1981571912765503,-0.2275482565164566,-0.24189655482769012,0.07636067271232605,0.3163822591304779,0.030095895752310753,0.09824790060520172,0.033342186361551285,0.025957299396395683,0.06397394090890884,0.015729648992419243,-0.07831957936286926,-0.010056569240987301,-0.059258848428726196,-0.009419264271855354,-0.0627044215798378,-0.08668681234121323,0.057898834347724915,0.0049664778634905815,0.05795156955718994,0.146002858877182,0.1737968623638153,0.0656745582818985,0.04450301080942154,0.05389156937599182,0.034626927226781845,-0.0023049218580126762,0.01742428168654442,0.05447789654135704,-0.011739622801542282,-0.02879222482442856,0.0034378226846456528,-0.044455669820308685,-0.07921139150857925,-0.10473249107599258,-0.02009318210184574,0.01296586636453867,0.05670423060655594,0.04000001773238182,-0.025569722056388855,-0.05303804576396942,0.15417395532131195,0.1476866602897644,0.17867055535316467,-0.0035564692225307226,-0.023728936910629272,0.10120049118995667,0.11734884977340698,0.11604991555213928,0.15098173916339874,0.02991653047502041,0.010760946199297905,0.10224736481904984,0.008621721528470516,0.010254398919641972,0.008010908961296082,0.005574032198637724,0.0036680782213807106,0.0005268316599540412,-0.010277725756168365,-0.012918051332235336,-0.010860078036785126,-0.004475455731153488,0.000255817110883072,-0.00040690816240385175,0.008001299574971199,0.012325252406299114,0.011658434756100178,0.0070922537706792355,-0.0015201615169644356,-0.01049177534878254,-0.001778799807652831,-0.003247319022193551,-0.0010454285657033324,-0.002758300630375743,-0.0016125631518661976,0.003423157148063183,0.01042899303138256,0.015308949165046215,0.006398610770702362,-0.0069821858778595924,-0.017181281000375748,-0.021832920610904694,0.010638008825480938,0.015371430665254593,0.009379747323691845,-0.0019955041352659464,-0.011556057259440422,-0.016874002292752266,-0.006267081014811993,-0.010087952949106693,-0.005954590160399675,0.0002628731890581548,0.006033016834408045,0.010695882141590118,-0.012607898563146591,-0.017961997538805008,-0.011696724221110344,-0.0007757852436043322,0.008299817331135273,0.01318142656236887,-0.005091692321002483,0.0003909074002876878,0.01632627844810486,0.022848840802907944,0.008538159541785717,0.009479583241045475,0.004579518921673298,0.0035479937214404345,-0.002909064758569002,-0.0192527174949646,-0.019533753395080566,-0.014934319071471691,-0.023795709013938904,-0.021282972767949104,-0.009814470075070858,0.019750190898776054,0.014737086370587349,0.01183237787336111,0.010109388269484043,0.006842810660600662,-0.0029168282635509968,-0.0039850277826189995,0.006795910652726889,0.0010620809625834227,-0.030663594603538513,-0.02194804884493351,0.014250353910028934,0.041938673704862595,0.004519617650657892,0.008720684796571732,-0.02944975346326828,-0.02308531105518341,0.006133811082690954,0.03281770274043083,0.009113019332289696,0.00786650087684393,0.03008965216577053,0.02537684701383114,0.0009196478640660644,-0.0276383887976408,0.0012262804666534066,0.0006633428856730461,0.03601035475730896,0.03096548095345497,-0.004375432152301073,-0.03816903382539749,-0.006795375607907772,-0.007073311135172844,-0.0060873678885400295,0.009715837426483631,-0.003090341342613101,0.05297951400279999,-0.07358872145414352,-0.16894088685512543,0.0000092746049631387,-0.017764881253242493,-0.07930824160575867,-0.056360483169555664,-0.13489249348640442,0.11239737272262573,0.2862648069858551,0.19491666555404663,0.0017881764797493815,0.15738807618618011,0.13510678708553314,-0.07296864688396454,-0.07569640129804611,-0.058680858463048935,-0.0040935371071100235,0.03425569087266922,0.055090487003326416,0.22040003538131714,-0.05542958527803421,-0.04883285239338875,0.09193987399339676,0.2207970768213272,-0.1522359848022461,-0.2510937750339508,0.04615163803100586,0.04822700098156929,0.12575729191303253,0.11854977905750275,-0.10841085761785507,-0.254519522190094,-0.10630014538764954,-0.20690694451332092,-0.09957372397184372,-0.17997018992900848,0.096115842461586,0.4384145736694336,-0.14406253397464752,-0.11493663489818573,0.009286566637456417,-0.24350117146968842,0.13321690261363983,0.17322006821632385,0.04006873816251755,-0.013776480220258236,-0.0010789459338411689,0.030690740793943405,0.017706338316202164,-0.004926933906972408,-0.00363889685831964,0.017563724890351295,0.027824116870760918,-0.006608498748391867,-0.054062239825725555,0.0035736735444515944,0.1339419037103653,0.04943973943591118,0.004181118216365576,0.021700488403439522,0.0595366433262825,-0.0005252400878816843,-0.05643628537654877,-0.011851062066853046,-0.03844982385635376,-0.020531103014945984,0.025734297931194305,0.014006046578288078,0.017872687429189682,-0.11465147882699966,-0.06962409615516663,0.04914074018597603,0.048787642270326614,-0.06786717474460602,0.0536968931555748,-0.07488646358251572,-0.06469771265983582,0.03510385751724243,0.060323163866996765,-0.04616294428706169,-0.060550495982170105,0.09267425537109375,0.053288646042346954,-0.07763199508190155,-0.05876458063721657,0.052872493863105774,-0.08316771686077118,0.14221595227718353,0.08525121957063675,-0.09116397053003311,-0.07817724347114563,0.09089628607034683,-0.011714130640029907,0.010118890553712845,-0.004833547864109278,-0.025799022987484932,-0.006550583988428116,0.047704972326755524,-0.06768316775560379,0.06451600790023804,0.02494535967707634,-0.06425086408853531,0.08604410290718079,0.01917213760316372,-0.05457587167620659,0.0005344328819774091,0.09299933910369873,-0.1391095519065857,0.07558047771453857,0.029604962095618248,0.04157079756259918,-0.06590044498443604,-0.13570550084114075,0.04424453154206276,-0.05312428995966911,-0.07353588193655014,0.049697909504175186,-0.06282919645309448,-0.0018863484729081392,0.02187076210975647,-0.10505123436450958,0.10357233881950378,0.02671309933066368,-0.04170779138803482,-0.04170147329568863,-0.010328035801649094,-0.08821414411067963,0.07731897383928299,-0.013954835012555122,0.05959705635905266,-0.10171133279800415,0.09583534300327301,-0.04222404956817627,-0.11070246249437332,-0.03126130253076553,0.1326761096715927,-0.026111600920557976,0.006146850064396858,0.19246193766593933,-0.09474988281726837,-0.13599322736263275,0.05364145711064339,-0.04914218932390213,-0.012079755775630474,-0.021390778943896294,0.028891026973724365,-0.06021454185247421,-0.08612791448831558,-0.10286539793014526,0.5907994508743286,0.4609922170639038,0.016161514446139336,-0.008385499939322472,0.7068626880645752,0.07303474098443985,-0.071334108710289,0.0011042439145967364,-0.11438743025064468,-0.19040514528751373,-0.0011564111337065697,0.014983472414314747,-0.050754908472299576,0.02026348188519478,-0.09398137778043747,0.07441790401935577,-0.2438555806875229,-0.06003719940781593,-0.002225925214588642,0.009005428291857243,-0.13080042600631714,-0.1158783882856369,0.05349110811948776,-0.07993875443935394,-0.00012399304250720888,-0.2109144926071167,0.0016333474777638912,-0.015430497005581856,0.07049400359392166,0.09845548123121262,0.05152236670255661,-0.20421788096427917,0.35137543082237244,0.24883317947387695,-0.0015748426085337996,0.007792985066771507,0.016450461000204086,0.2433503270149231,0.17046590149402618,0.15311934053897858,-0.07857311517000198,0.32735323905944824,-0.0003814512165263295,0.022890325635671616,-0.0297962985932827,0.1557498276233673,-0.22361873090267181,-0.09796387702226639,0.10436476022005081,0.01803068071603775,0.0013110220897942781,-0.007308586500585079,0.12775257229804993,-0.10547737032175064,0.017785513773560524,-0.5179060101509094,0.5559350252151489,-0.044187985360622406,0.002142571844160557,-0.010818221606314182,0.3319135904312134,0.040758974850177765,0.3318115472793579,-0.0037455917336046696,0.15385210514068604,0.2218228578567505,-0.0023820146452635527,-0.003911678213626146,0.28987917304039,0.039089806377887726,0.14642971754074097,-0.010738775134086609,0.020952489227056503,0.08375471085309982,-0.12811411917209625,0.0642477348446846,-0.19744692742824554,-0.035744789987802505,-0.11028923094272614,-0.09941598773002625,0.05343344062566757,0.017690332606434822,0.04510507360100746,-0.13627703487873077,-0.20413784682750702,0.02855616994202137,-0.08132904767990112,-0.04485635459423065,0.05164172127842903,0.0035465380642563105,0.09016289561986923,0.1462053507566452,0.15331877768039703,0.2573433518409729,0.028736243024468422,0.045445095747709274,-0.3613952100276947,0.13135935366153717,-0.05884738638997078,-0.01606634259223938,-0.06756288558244705,-0.07717061042785645,0.3995843529701233,0.2653210461139679,0.3028966784477234,0.23056524991989136,0.048378799110651016,0.10500376671552658,-0.30878788232803345,-0.08920672535896301,0.1840573400259018,0.0196890439838171,-0.09337276965379715,-0.24195124208927155,-0.42397069931030273,-0.06657012552022934,-0.1668321192264557,-0.26715365052223206,-0.16055889427661896,0.034793414175510406,0.41762033104896545,-0.1040411964058876,-0.08455900102853775,-0.28623196482658386,-0.011918534524738789,-0.09360428154468536,0.44135424494743347,-0.03411662578582764,-0.04672173038125038,-0.10857590287923813,-0.02147563360631466,0.012647929601371288,0.12075673788785934,0.06922226399183273,0.07064522057771683,-0.20164793729782104,-0.06847233325242996,-0.05410609766840935,0.049678951501846313,-0.20625609159469604,-0.10438263416290283,0.018324054777622223,0.005630154628306627,0.017424006015062332,0.09902380406856537,-0.05800184980034828,0.024392498657107353,0.14125953614711761,0.008842984214425087,0.009088383987545967,-0.2088232934474945,-0.026293782517313957,-0.1008656695485115,0.1290082484483719,-0.05218569561839104,-0.016445185989141464,0.1828075498342514,-0.1494196206331253,-0.07518838346004486,0.1379879117012024,-0.02813427895307541,0.04994799941778183,0.1371360868215561,-0.043365173041820526,0.10018772631883621,-0.10120182484388351,0.024859143421053886,0.0726165920495987,-0.26914089918136597,0.21441997587680817,0.20823776721954346,0.018102014437317848,0.06157427653670311,0.047163281589746475,-0.23996631801128387,-0.0037765726447105408,0.11422888934612274,0.058250848203897476,0.07217463105916977,0.08042797446250916,-0.16772499680519104,-0.0524076446890831,-0.0010980392107740045,-0.03492552414536476,0.03304634988307953,-0.04376155883073807,0.048504043370485306,0.0655442550778389,0.03181782364845276,0.19406306743621826,0.11121243238449097,0.007204268593341112,-0.21015557646751404,-0.039058469235897064,-0.0644192174077034,0.12184122949838638,-0.03912089392542839,-0.030744634568691254,0.22513440251350403,-0.009137865155935287,0.11039365828037262,0.070696622133255,0.11173120886087418,0.18286748230457306,-0.4089324176311493,0.15134361386299133,0.1318204700946808,0.123212531208992,0.1299181580543518,0.08786721527576447,-0.125065878033638,0.03177069500088692,0.02064601704478264,-0.16302579641342163,-0.12102900445461273,-0.10238499194383621,0.7357882261276245,-0.12541231513023376,-0.22218596935272217,-0.14917513728141785,-0.06766123324632645,-0.1488467901945114,0.44400283694267273,0.10291197896003723,0.08204610645771027,-0.012364487163722515,-0.0032940683886408806,-0.03287256509065628,-0.02239631488919258,-0.15185561776161194,-0.10668784379959106,-0.2053447812795639,-0.16362817585468292,-0.09373340755701065,-0.09071383625268936,0.21517184376716614,0.1478762924671173,-0.013465765863656998,0.021259412169456482,-0.09161140024662018,-0.1888074427843094,-0.04194371774792671,0.04630991443991661,0.028343673795461655,0.0316438190639019,-0.0028920851182192564,0.011561608873307705,-0.04707153141498566,0.008503085002303123,-0.16921046376228333,-0.23684576153755188,-0.17549732327461243,-0.12804044783115387,0.11091071367263794,0.0778922587633133,0.000321515544783324,-0.050874147564172745,0.003970659803599119,0.07355302572250366,0.09074275940656662,0.09890583902597427,0.1336858719587326,0.2571980655193329,0.21884465217590332,0.10176731646060944,-0.04346112161874771,0.07682709395885468,0.15435191988945007,0.21467475593090057,0.23639927804470062,0.15999387204647064,-0.0053525082767009735,-0.005957361310720444,-0.01305210031569004,-0.01640675589442253,0.0665147602558136,-0.01905493438243866,-0.07272932678461075,-0.029335636645555496,-0.09837175905704498,-0.15240003168582916,-0.05050478130578995,-0.06031640246510506,-0.0367387980222702,0.06010882556438446,0.06467105448246002,0.03130083531141281,0.03641415387392044,0.017135506495833397,0.011287776753306389,-0.021626006811857224,-0.0013880118494853377,0.07010209560394287,-0.05316062271595001,0.02630813606083393,0.04424532130360603,0.010414711199700832,0.036149341613054276,0.06276630610227585,0.09038322418928146,-0.08648337423801422,-0.011030076071619987,0.040769051760435104,0.02785082347691059,0.08306153118610382,0.11307200789451599,0.00388799118809402,0.02589460462331772,0.002565718488767743,-0.017953110858798027,-0.022446658462285995,0.021041790023446083,0.29632318019866943,0.013790395110845566,0.05054367333650589,0.07992927730083466,-0.041615407913923264,-0.12334036082029343,0.19911006093025208,-0.16508348286151886,-0.10945886373519897,-0.04212617874145508,-0.23611660301685333,-0.1532643735408783,0.17171423137187958,0.13080674409866333,0.2045769989490509,0.19930213689804077,0.05820459872484207,0.08988191932439804,0.03726761415600777,-0.24493975937366486,-0.2349838763475418,-0.286254346370697,0.0031637856736779213,-0.1354764699935913,0.43909919261932373,0.046609777957201004,-0.013035646639764309,0.3116930425167084,0.14101845026016235,0.16000492870807648,-0.4010239541530609,-0.12650403380393982,-0.12467257678508759,-0.09114541858434677,-0.21911264955997467,0.0400952473282814,0.43873804807662964,-0.14890380203723907,-0.30265459418296814,-0.1428997963666916,-0.024728484451770782,-0.16357573866844177,0.12090764939785004,-0.08687315881252289,0.08490332216024399,0.18841582536697388,0.06793233007192612,0.19042938947677612,-0.6444716453552246,0.13021790981292725,0.2108304798603058,0.1193709447979927,0.08863788843154907,0.09993930160999298,-0.4891009032726288,-0.015798669308423996,-0.022583670914173126,-0.041410498321056366,0.015154278837144375,0.006719275377690792,-0.01840941607952118,0.017911437898874283,-0.02354426123201847,-0.13008570671081543,-0.05464717373251915,-0.11429652571678162,-0.09594333916902542,0.03334946557879448,-0.035752903670072556,-0.026405097916722298,0.06668664515018463,0.06351405382156372,-0.022065024822950363,-0.010517341084778309,0.0030857303645461798,0.06713468581438065,-0.010754896327853203,0.01648237556219101,0.06784147769212723,-0.06445659697055817,-0.00800311379134655,-0.004949095193296671,0.0560622476041317,0.05713445693254471,-0.023816075176000595,-0.04772336408495903,-0.006629779003560543,0.0515701062977314,0.06800009310245514,0.10145121812820435,0.04002222418785095,0.03792901337146759,0.00804165843874216,0.13064958155155182,-0.12030699849128723,-0.0340857096016407,0.18008242547512054,0.14052501320838928,0.044365815818309784,0.06454061716794968,-0.10005943477153778,-0.10943680256605148,-0.002513175830245018,0.03430093079805374,0.05172009393572807,0.07508615404367447,-0.012881521135568619,0.0010388175724074244,-0.08565259724855423,-0.16260336339473724,-0.11313209682703018,-0.17077955603599548,-0.1100260317325592,-0.1295522302389145,-0.13188549876213074,0.1625971794128418,0.16177548468112946,0.15680961310863495,0.012003033421933651,-0.08384720236063004,-0.1669311225414276,-0.007158408407121897,-0.049047261476516724,0.010651230812072754,0.024331677705049515,0.09523043781518936,0.18438738584518433,0.03846495971083641,0.05529872328042984,0.05135241150856018,0.047230031341314316,-0.04706428945064545,-0.10044687986373901,0.05597905442118645,0.10982370376586914,0.11426259577274323,0.029849257320165634,0.013866680674254894,-0.061195213347673416,-0.0001095297047868371,0.002445183228701353,-0.027110053226351738,0.020663823932409286,0.1898365616798401,0.4459584057331085,-0.12459179759025574,-0.10901249200105667,-0.15407611429691315,-0.036712534725666046,0.17605233192443848,0.2956017851829529,0.060311365872621536,-0.13013242185115814,-0.058699220418930054,-0.225950226187706,-0.10390541702508926,0.04667353257536888,-0.06288798153400421,-0.14491750299930573,-0.45804786682128906,-0.22218558192253113,0.45380908250808716,-0.10345815867185593,0.008313328959047794,-1.0068838596343994,-0.10415047407150269,0.06151625141501427,-0.4963099956512451,-0.1822463721036911,0.6465564370155334,0.2866407334804535,-0.08465953171253204,0.5487937927246094,-0.16930954158306122,0.1028098538517952,0.03222423046827316,0.17068153619766235,0.2473062127828598,0.07911444455385208,0.06594125181436539,-0.6751521229743958,0.17083755135536194,0.10183174163103104,-0.007195976097136736,-0.07071433961391449,0.12560248374938965,0.12338077276945114,-0.08235074579715729,0.3263101577758789,-0.04161727800965309,0.19839687645435333,0.24248450994491577,0.25782203674316406,-0.07180369645357132,0.22199787199497223,-0.2726370692253113,-0.6111069917678833,0.0021995771676301956,-0.24916808307170868,-0.36421820521354675,-0.10778246074914932,0.4439672827720642,0.28246715664863586,0.15265625715255737,0.22177976369857788,-0.23315690457820892,0.07173788547515869,0.04619324579834938,-0.23282098770141602,-0.007110129576176405,0.2534022033214569,-0.13360105454921722,0.3184834420681,-0.12110931426286697,-0.06708817929029465,0.23762620985507965,0.5575774312019348,-0.4869435429573059,0.0001768924412317574,-0.22420746088027954,-0.352128803730011,-0.14677482843399048,-0.487946480512619,0.25893262028694153,0.11253960430622101,-0.13889019191265106,0.2160552740097046,-0.3742275834083557,-0.18523871898651123,-0.06834685802459717,-0.13083863258361816,0.1840282678604126,0.08156087249517441,-0.2194080799818039,0.08963941037654877,0.08795490860939026,0.04437190666794777,0.16012685000896454,0.06094099208712578,-0.020511630922555923,0.08694060146808624,-0.00216357852332294,-0.03719137981534004,-0.017776696011424065,-0.07293921709060669,0.018796028569340706,0.11770842224359512,0.12954463064670563,-0.02084839902818203,0.025298111140727997,0.07859877496957779,0.05699814856052399,-0.005870550870895386,0.03098749928176403,0.05809643864631653,-0.13718047738075256,-0.005892661400139332,0.035931240767240524,-0.015687698498368263,0.16223852336406708,0.04742526635527611,0.03247304633259773,0.027202513068914413,0.008387024514377117,-0.0008744052611291409,-0.004686677362769842,-0.049410201609134674,0.03738730400800705,0.003688964992761612,0.024959484115242958,-0.06339363753795624,-0.03634876385331154,0.05828055739402771,-0.0015836675884202123,-0.012298217043280602,-0.01114119216799736,0.0007856219308450818,0.1490085870027542,0.03831065818667412,0.026646139100193977,0.00840002577751875,-0.035020336508750916,-0.007159468252211809,0.18438126146793365,0.04980555549263954,-0.15864482522010803,-0.05062501132488251,0.009469890035688877,0.02727253921329975,-0.05791427567601204,-0.1277422457933426,-0.789619505405426,-0.23610074818134308,-0.008208705112338066,-0.01890995353460312,0.022359028458595276,-0.19583357870578766,0.32912757992744446,-0.12866485118865967,0.04288746416568756,-0.050681352615356445,0.09478376805782318,-0.002724064514040947,-0.24275149405002594,-0.11448593437671661,-0.03358669951558113,-0.062019407749176025,0.12845906615257263,0.26346030831336975,0.24367323517799377,0.04510527104139328,-0.022441575303673744,-0.04019876942038536,-0.01469806395471096,0.07880064845085144,-0.3736770749092102,-0.11039873957633972,-0.03600878268480301,0.05059298500418663,0.12549123167991638,0.10899154841899872,-0.026584327220916748,0.10120972245931625,0.06156487017869949,0.08433014154434204,-0.07642011344432831,-0.07568781822919846,0.029375996440649033,-0.16260217130184174,-0.03538769856095314,-0.02282579615712166,-0.028047284111380577,0.10662952065467834,0.006861257832497358,-0.10002914071083069,0.0029708791989833117,-0.004907702095806599,0.001142786000855267,-0.1022731214761734,-0.06320732086896896,-0.43847131729125977,-0.020381975919008255,0.07626098394393921,0.053059499710798264,0.014121904037892818,-0.05548490956425667,0.19994276762008667,-0.07046018540859222,0.06078408285975456,-0.020435728132724762,0.04127999395132065,0.10406219214200974,-0.13238272070884705,0.0597161203622818,-0.09950853139162064,-0.02324623055756092,0.14509570598602295,0.06957320123910904,0.332568496465683,0.054376088082790375,0.04100463166832924,0.03480731323361397,0.1251760572195053,0.06739750504493713,-0.1337394267320633,-0.041474562138319016,-0.1255229115486145,-0.08764367550611496,0.07726727426052094,0.04001752287149429,-0.20107673108577728,-0.046115707606077194,0.07421986758708954,0.016767989844083786,-0.19296503067016602,-0.32510218024253845,0.2634238600730896,-0.030899707227945328,-0.046687182039022446,-0.1349439024925232,-0.16001181304454803,-0.12266644090414047,0.14727327227592468,0.19187511503696442,0.09937752783298492,0.10765372961759567,-0.04141172021627426,-0.2189810574054718,-0.1982405036687851,0.12974868714809418,-0.03310249000787735,-0.009710930287837982,-0.032782405614852905,-0.02348281629383564,0.10460226982831955,-0.090333953499794,-0.00672239251434803,0.08403629809617996,0.0335918590426445,0.05810605734586716,0.019260182976722717,-0.1528938114643097,-0.14204709231853485,-0.01202378235757351,0.05843362957239151,0.18516966700553894,0.033410459756851196,-0.11928489059209824,-0.12455727905035019,-0.046792708337306976,-0.007351605221629143,-0.024442356079816818,-0.15474966168403625,-0.21438731253147125,-0.06845801323652267,0.08740875869989395,0.10439203679561615,0.1480066329240799,0.012698804028332233,0.07691273093223572,0.023900507017970085,-0.008168186992406845,-0.12969470024108887,-0.04729451239109039,-0.08544989675283432,0.005083748605102301,0.12959955632686615,0.005645540542900562,-0.07404256612062454,-0.11714841425418854,-0.03173341229557991,-0.059306394308805466,0.0359109491109848,-0.01781299151480198,-0.02477087266743183,0.030024131760001183,0.12874974310398102,0.030561255291104317,0.015206494368612766,-0.017554031684994698,-0.022120917215943336,0.09009678661823273,-0.04371688887476921,-0.01835791952908039,0.0713558942079544,0.1780371516942978,0.11497410386800766,-0.2318497896194458,0.05961018055677414,0.0595257543027401,0.044062290340662,0.09384298324584961,-0.04845597594976425,0.003128570970147848,-0.06594572961330414,0.07408522814512253,0.07694517076015472,0.10767143964767456,-0.06979994475841522,-0.03269369527697563,0.1971697062253952,-0.027216404676437378,-0.09477362036705017,-0.1297502964735031,-0.05543915927410126,-0.14530381560325623,-0.002104296116158366,-0.09210507571697235,0.04152923449873924,0.003985332325100899,0.006883189547806978,0.0031416493002325296,-0.2876444160938263,0.0014326542150229216,-0.011129836551845074,0.042752549052238464,0.11343380063772202,0.04373089596629143,-0.2956315279006958,0.09334462881088257,-0.007518663536757231,0.03480669856071472,0.1688418984413147,0.09622474014759064,0.22953948378562927,-0.10916170477867126,-0.0686081275343895,0.031417205929756165,0.06909151375293732,0.07204201072454453,0.19427154958248138,-0.117668017745018,-0.0908237025141716,-0.011407141573727131,-0.10453364253044128,0.13791166245937347,0.14541389048099518,-0.1782129406929016,-0.13253800570964813,-0.01665986143052578,0.026923231780529022,0.08076333999633789,0.32842501997947693,-0.1850307732820511,-0.11952709406614304,0.0473523885011673,0.06264118105173111,0.042814675718545914,0.2967226803302765,-0.04142638295888901,-0.06581374257802963,0.027004780247807503,0.010146502405405045,0.09386374801397324,0.21666543185710907,0.03828046843409538,0.013378451578319073,0.004064647480845451,-0.0009028494241647422,-0.1786104440689087,-0.1264575719833374,0.16790351271629333,0.11158868670463562,0.05984988808631897,0.05517004057765007,0.11758030951023102,0.12256120890378952,0.09495839476585388,0.058911509811878204,-0.01334286481142044,-0.1737513691186905,-0.2039332240819931,0.5957596302032471,-0.07665728032588959,0.006936755031347275,-0.01877010427415371,0.2266019880771637,0.16469304263591766,-0.1470460593700409,-0.060287993401288986,0.05314606428146362,0.02940669097006321,-0.15552736818790436,-0.2572735846042633,0.15193922817707062,0.07791269570589066,0.029676487669348717,0.05632737651467323,0.04902031272649765,0.03925750404596329,-0.4307865500450134,-0.07399311661720276,-0.179687961935997,-0.11424269527196884,-0.07466733455657959,-0.2544948160648346,0.15508006513118744,0.014879465103149414,-0.022018952295184135,0.128459632396698,-0.02190212346613407,-0.03259764984250069,0.11928281933069229,0.022250263020396233,-0.06187225133180618,-0.020739281550049782,0.11914031952619553,0.07823602855205536,-0.3856598436832428,-0.06887488812208176,0.04537542536854744,0.13042451441287994,0.12476405501365662,0.14606772363185883,-0.19385257363319397,-0.03296148404479027,-0.06371796876192093,-0.0004756186390295625,0.02044590935111046,0.4209132492542267,-0.21068838238716125,0.18119792640209198,0.06105102598667145,0.031087635084986687,0.043553706258535385,0.1290351152420044,-0.017941564321517944,0.26839694380760193,0.05470146983861923,0.08478014171123505,-0.03432277590036392,0.05906659737229347,-0.13730771839618683,0.20800994336605072,0.0467674657702446,-0.030744288116693497,-0.11154042184352875,0.005199037026613951,-0.0017699198797345161,-0.0366748571395874,0.035384248942136765,-0.08453924208879471,-0.09652265161275864,0.03446106240153313,-0.2616034150123596,0.17459715902805328,0.0805276483297348,0.08452118188142776,-0.12078527361154556,-0.15921936929225922,-0.07947396486997604,-0.07129552215337753,0.04348871484398842,-0.05115056782960892,-0.14049088954925537,-0.12900549173355103,0.08581345528364182,-0.21000345051288605,-0.2438962608575821,-0.10709498077630997,0.02006221003830433,0.21100685000419617,0.2988339364528656,-0.05492132157087326,0.2910206913948059,0.11155436933040619,-0.11869309842586517,0.19697313010692596,-0.04801991209387779,0.10479962825775146,-0.25824758410453796,-0.02836284413933754,0.22808653116226196,0.5990885496139526,-0.16933758556842804,1.0131511688232422,0.07913901656866074,-0.3528805673122406,0.6816384792327881,0.10464107990264893,0.3659158945083618,-0.2486778348684311,-0.11937688291072845,0.2509743273258209,-0.04625844955444336,0.10370536893606186,0.43083715438842773,-0.09306555241346359,0.04124414548277855,0.08389417827129364,0.023913981392979622,-0.11353033781051636,-0.23363375663757324,-0.136824369430542,0.11116545647382736,-0.03759492188692093,0.43927526473999023,-0.09366961568593979,-0.25504398345947266,0.04652727022767067,-0.17473798990249634,0.01085667870938778,0.1966652125120163,0.054737187922000885,-0.055186927318573,0.2019740641117096,0.0346771702170372,-0.2561669647693634,-0.11277451366186142,-0.15953972935676575,0.03653115779161453,0.0857793316245079,0.33684787154197693,-0.10986083745956421,0.10840853303670883,0.11975003033876419,-0.12577183544635773,0.1997765749692917,0.2597354054450989,-0.016472244635224342,-0.2812843322753906,0.018460078164935112,0.03168224170804024,0.3356218636035919,-0.14452669024467468,-0.10561663657426834,0.28689104318618774,0.20486703515052795,0.3398659825325012,0.15054498612880707,0.18997155129909515,0.14549750089645386,0.19462667405605316,0.09212791174650192,-0.08948894590139389,-0.10553009063005447,0.19969378411769867,-0.056207284331321716,-0.2544701397418976,0.01305015292018652,-0.09058532863855362,-0.041580911725759506,0.2082800567150116,0.07008899748325348,-0.05343473330140114,0.021848727017641068,0.126203253865242,-0.21223701536655426,-0.06774064153432846,-0.2150816172361374,0.15666010975837708,0.012810347601771355,0.08555229753255844,0.040680013597011566,-0.08119244873523712,0.016464034095406532,0.0744926854968071,-0.0451926626265049,-0.08174393326044083,-0.07710312306880951,-0.019065463915467262,-0.07880977541208267,-0.0482197031378746,-0.1508484184741974,-0.12164755910634995,-0.004606079775840044,-0.17859044671058655,-0.1931372582912445,-0.050756584852933884,-0.07164911180734634,-0.03359457477927208,0.017715880647301674,-0.17717410624027252,-0.27509942650794983,-0.15920276939868927,-0.059609558433294296,-0.0858372300863266,-0.039408065378665924,0.045805346220731735,-0.04622039943933487,0.038509801030159,-0.04444832354784012,-0.07745493203401566,0.015352832153439522,-0.01724892668426037,-0.07686613500118256,0.061512693762779236,-0.020242605358362198,0.06444647908210754,0.022919412702322006,-0.02012457698583603,0.053434424102306366,-0.3330271244049072,0.07873464375734329,0.04142652079463005,0.1324732005596161,0.2768077552318573,0.27553194761276245,-0.34427791833877563,-0.09053207188844681,0.043596427887678146,-0.045354194939136505,-0.06529465317726135,0.0018642760114744306,0.16460949182510376,0.03135327622294426,0.03303508460521698,-0.030099118128418922,0.052121732383966446,-0.04422387480735779,-0.01306561566889286,-0.024340664967894554,-0.01276681199669838,-0.030576538294553757,0.07808557897806168,-0.00769559433683753,-0.05093742161989212,0.03867248818278313,0.024031156674027443,-0.010256224311888218,-0.014875657856464386,-0.0780881866812706,-0.15968944132328033,0.05597895756363869,0.04251079261302948,-0.012347448617219925,-0.034050408750772476,0.028199737891554832,0.008472301997244358,0.037981804460287094,0.06465524435043335,0.10842111706733704,0.0204427819699049,-0.007779485080391169,0.09755893796682358,0.03125973418354988,-0.02405697852373123,0.003574526868760586,-0.1393829584121704,-0.08279265463352203,-0.1087305024266243,-0.0659288763999939,0.06734735518693924,-0.04830879718065262,-0.11569312959909439,-0.14452268183231354,0.09409161657094955,0.03520851954817772,0.13235393166542053,0.1649174690246582,0.09279695898294449,0.0005686424556188285,0.08120020478963852,-0.04576939716935158,-0.049023840576410294,-0.12666389346122742,0.013951940461993217,-0.06401170045137405,-0.013447610661387444,-0.11346948891878128,-0.2624131441116333,-0.1532863825559616,-0.06265290826559067,0.05136331170797348,0.07525217533111572,0.009776705875992775,-0.05109589546918869,0.00837508961558342,-0.07327031344175339,0.03471981734037399,0.20445920526981354,-0.018611984327435493,-0.07927896082401276,-0.19881662726402283,-0.1376294493675232,-0.11091944575309753,0.44011765718460083,-0.04356871917843819,-0.045960683375597,-0.057661235332489014,-0.0032980062533169985,-0.051490042358636856,-0.09240777045488358,-0.07966773211956024,-0.07497710734605789,-0.005374504253268242,-0.09385853260755539,-0.16312511265277863,0.15047720074653625,0.013452248647809029,0.11418862640857697,0.0021150982938706875,0.13209089636802673,-0.04505403712391853,0.14468204975128174,0.01215259451419115,0.046637751162052155,0.039506103843450546,0.10711131244897842,0.24271509051322937,0.14597263932228088,0.04384511336684227,-0.04036113619804382,-0.05453869700431824,0.016507646068930626,-0.07260338962078094,0.07908420264720917,0.008129443041980267,-0.15755818784236908,-0.09873266518115997,-0.1337529718875885,-0.4397902488708496,0.12961557507514954,0.03342039883136749,-0.03393670171499252,-0.007606002502143383,0.07037358731031418,-0.1835690587759018,0.09871233254671097,-0.0035118672531098127,-0.05074160546064377,-0.053130343556404114,-0.02536122128367424,-0.023283733054995537,0.3867820203304291,0.10505162924528122,-0.005924356169998646,0.07768595963716507,0.06159370392560959,0.2019929736852646,0.09389440715312958,-0.042848553508520126,-0.1499546319246292,-0.028356634080410004,-0.09890967607498169,0.302176833152771,-0.21560372412204742,-0.0827215239405632,0.16326391696929932,0.015634099021553993,0.07150295376777649,0.3113526999950409,-0.1462414264678955,-0.0357113741338253,-0.040736351162195206,-0.016098061576485634,-0.03666333854198456,0.10461064428091049,0.3212439715862274,-0.0003935476706828922,0.03447837010025978,-0.04388565570116043,-0.003965926356613636,0.11628248542547226,0.03456626832485199,-0.0006774123758077621,0.04410037398338318,0.0076154968701303005,-0.0030380082316696644,-0.14842218160629272,0.1877700239419937,-0.0315343476831913,-0.049235083162784576,0.058492183685302734,0.027266215533018112,0.2049838751554489,-0.050317198038101196,0.03333642706274986,0.03955506533384323,0.09748316556215286,0.09579622745513916,0.0311135221272707,0.011485587805509567,-0.0569474883377552,0.004186532460153103,-0.07875746488571167,-0.002630038419738412,-0.0007659369730390608,-0.05497093126177788,0.008624267764389515,0.11142811924219131,0.020391084253787994,-0.04068225249648094,0.24100740253925323,-0.19882112741470337,0.039867572486400604,0.007714529987424612,0.0379241406917572,0.10208868235349655,0.21426792442798615,-0.12037205696105957,-0.07970483601093292,0.021790334954857826,0.02717207372188568,0.0432312898337841,-0.05194976180791855,-0.44992226362228394,-0.04647943377494812,-0.01793547533452511,0.04241294413805008,0.1259908676147461,0.05588904023170471,0.14733901619911194,0.08781125396490097,0.04126933217048645,0.00009984541247831658,0.08451607823371887,0.1326807737350464,-0.0959557294845581,-0.031218934804201126,0.006731288507580757,-0.025254955515265465,-0.014855175279080868,-0.05782362446188927,0.2728657126426697,-0.029339153319597244,-0.0628683865070343,-0.03615143895149231,-0.07331396639347076,-0.08537037670612335,-0.46033287048339844,-0.009046327322721481,-0.013194143772125244,0.020314089953899384,0.0042031267657876015,-0.131259948015213,-0.056062303483486176,-0.0652259886264801,-0.05723944306373596,-0.017013976350426674,-0.020065924152731895,-0.21365761756896973,0.024137284606695175,0.04411991685628891,0.069850392639637,0.06792666763067245,-0.0017411303706467152,-0.16501721739768982,-0.036016758531332016,-0.027591237798333168,-0.024251364171504974,0.04615183174610138,-0.02404039353132248,-0.11303337663412094,0.3764721751213074,-0.07319209724664688,-0.03395597264170647,-0.005279919132590294,-0.021881548687815666,0.06284359842538834,0.03586607426404953,-0.013685525394976139,-0.12895455956459045,-0.045159995555877686,0.06272991746664047,0.19645927846431732,-0.027228306978940964,-0.07834337651729584,-0.11033423244953156,-0.06655336171388626,0.01271033938974142,0.21870198845863342,-0.10581544041633606,-0.07896886765956879,-0.002173634013161063,-0.03778940811753273,-0.023275738582015038,0.12674356997013092,-0.000599681050516665,-0.00024984628544189036,-0.04913635924458504,-0.03882816433906555,-0.0902116522192955,0.12284526228904724,-0.09819868206977844,0.0708257406949997,0.10990830510854721,0.13948383927345276,0.025550177320837975,-0.1401601880788803,-0.17055743932724,0.0070630754344165325,-0.025836719200015068,-0.03771539777517319,-0.1343659609556198,-0.29714271426200867,0.13468626141548157,-0.028010260313749313,-0.0341511033475399,-0.11144272983074188,-0.06264467537403107,0.04358655959367752,0.32410067319869995,0.07159622758626938,-0.05651140958070755,0.006623594556003809,-0.04050019383430481,-0.018231425434350967,-0.3636820912361145,0.08726244419813156,0.0042434921488165855,0.11915420740842819,0.0349777489900589,-0.20282818377017975,-0.08680414408445358,0.022435594350099564,0.0649818405508995,0.014116337522864342,-0.018200097605586052,-0.12413446605205536,-0.5122693777084351,0.06491825729608536,0.07682899385690689,0.08082543313503265,0.01928412728011608,-0.017132550477981567,0.2076546847820282,0.05745506286621094,-0.04549206420779228,0.018779629841446877,-0.03236135095357895,-0.05103195831179619,0.37910622358322144,-0.01037994958460331,-0.02119617350399494,-0.03073752485215664,0.005729146301746368,0.09464745968580246,-0.3718276917934418,0.001340952469035983,-0.0021656048484146595,0.02251403033733368,0.025786222890019417,0.12397700548171997,-0.08447928726673126,-0.07542446255683899,-0.10705959796905518,0.06629661470651627,0.11481598019599915,0.03149426728487015,0.0667632594704628,-0.06327662616968155,-0.4160167872905731,-0.4269949495792389,0.07620029896497726,0.34268373250961304,0.03956993296742439,-0.21827225387096405,0.2556421458721161,0.020163007080554962,0.16444489359855652,0.03778639808297157,-0.024116890504956245,-0.266165554523468,-0.08349896222352982,0.12267576903104782,0.1103886142373085,-0.19777464866638184,-0.3028419017791748,-0.14359162747859955,-0.023000668734312057,0.10527682304382324,-0.08347298949956894,-0.15612174570560455,0.11495567113161087,0.09974421560764313,0.49372416734695435,0.20335908234119415,-0.14501497149467468,-0.05895194411277771,0.11793491989374161,-0.04149415343999863,-0.013740734197199345,0.018727358430624008,-0.07999157905578613,0.07296887040138245,0.13210897147655487,-0.31808099150657654,-0.0794580802321434,-0.036967068910598755,0.040800780057907104,0.025214964523911476,0.3489037752151489,-0.12570518255233765,0.033293113112449646,-0.10067785531282425,-0.22992634773254395,0.10635299235582352,0.01988743618130684,0.04162450507283211,-0.39866775274276733,0.1844397783279419,-0.08004554361104965,0.18601670861244202,-0.058567631989717484,-0.09567383676767349,0.2084541618824005,-0.09377402067184448,-0.4042295813560486,0.3160800039768219,0.16178123652935028,0.13130061328411102,-0.026343146339058876,0.17744919657707214,-0.004486522171646357,0.12353787571191788,0.02138819359242916,0.04710469767451286,-0.2017379254102707,0.12036022543907166,-0.043476834893226624,-0.08045759797096252,0.16353337466716766,-0.11138463765382767,0.1707679182291031,-0.1762944459915161,0.10800228267908096,-0.18923348188400269,-0.09474313259124756,0.04513432830572128,0.14477986097335815,-0.07031426578760147,0.0012723832624033093,0.018942957744002342,0.03344760835170746,-0.04473079368472099,0.036232221871614456,-0.06302301585674286,-0.0015076450072228909,0.020694458857178688,0.07695380598306656,-0.0063332063145935535,0.0772414356470108,0.010006697848439217,-0.027743229642510414,0.08049152791500092,0.02839384600520134,0.06795341521501541,0.007055418565869331,0.08933867514133453,0.3141272962093353,0.10745622217655182,0.05166710168123245,0.06637115776538849,0.08019176125526428,0.026677582412958145,-0.3226078748703003,0.02733147330582142,0.004872296471148729,0.007325931452214718,0.03199600800871849,0.032129209488630295,0.06448963284492493,-0.011081135831773281,0.00426558218896389,-0.07395455986261368,-0.07938926666975021,0.0702243223786354,0.2681359350681305,-0.00960580538958311,0.034218691289424896,0.01434310246258974,0.018981024622917175,0.016052452847361565,-0.054279182106256485,-0.07516903430223465,-0.09836260974407196,-0.07526769489049911,-0.08789681643247604,0.00007384230411844328,0.019497528672218323,0.013092870824038982,0.07913462817668915,-0.021989015862345695,0.00767552200704813,0.02071012370288372,0.3091774880886078,0.030252909287810326,0.026227282360196114,0.01862296462059021,0.07381995022296906,-0.12787780165672302,-0.39486998319625854,0.03639572486281395,0.06626328080892563,0.07296670228242874,-0.009552853181958199,0.007246889173984528,-0.007988570258021355,0.0517035536468029,0.11641889810562134,-0.009940892457962036,-0.022317787632346153,0.020591991022229195,-0.4317229390144348,0.055636145174503326,0.06174556538462639,-0.020697956904768944,-0.002656199736520648,-0.10240626335144043,0.028319301083683968,0.008860313333570957,0.058214060962200165,0.10685564577579498,-0.035683345049619675,0.028688492253422737,0.13719719648361206,0.00005734006117563695,-0.05898040533065796,0.022653853520751,0.04997626692056656,0.030983947217464447,-0.1456303596496582,-0.04574448987841606,-0.008225715719163418,-0.02314486727118492,-0.0503523126244545,0.0803479552268982,-0.3357176184654236,0.08168723434209824,-0.0234556645154953,-0.06846249848604202,-0.0371510274708271,-0.08486748486757278,-0.16810426115989685,-0.026795605197548866,0.05802561715245247,0.07782498747110367,0.03613723814487457,-0.10167990624904633,-0.027923163026571274,0.01756288856267929,0.11478640139102936,0.016519200056791306,0.12288078665733337,-0.006319817155599594,-0.1802762895822525,0.18755191564559937,0.04518090933561325,-0.0604642853140831,0.12090359628200531,-0.04274662211537361,-0.05532986670732498,0.07989714294672012,0.06130537763237953,0.03934093937277794,0.12273865193128586,0.018675751984119415,0.10329392552375793,-0.08207384496927261,-0.001972438069060445,-0.06980041414499283,-0.1145833283662796,-0.11326881498098373,-0.1767248809337616,0.014466971158981323,0.06155744194984436,0.1310248225927353,0.046454641968011856,0.025200312957167625,-0.0007894749869592488,-0.05947963520884514,-0.035856179893016815,-0.07522528618574142,0.011960843577980995,0.09370605647563934,0.08086183667182922,0.055971693247556686,0.0028952716384083033,0.014907087199389935,0.08572389930486679,-0.021864887326955795,0.6413390040397644,0.09250134974718094,0.07027990370988846,0.007443990558385849,0.10237690061330795,0.0756443440914154,-0.09695547074079514,-0.02005087584257126,0.006104755215346813,0.014332900755107403,0.04694070294499397,0.011871568858623505,-0.08302224427461624,-0.03708389773964882,-0.006821065675467253,0.06886468082666397,0.1326822191476822,0.13681469857692719,-0.2513831853866577,-0.06078939139842987,0.02356776036322117,0.04365113005042076,0.053225141018629074,0.23663456737995148,0.15510517358779907,0.011872089467942715,-0.01721576228737831,-0.0527181513607502,-0.010823246091604233,-0.07568147033452988,0.5925151705741882,-0.03509661555290222,-0.02158288098871708,-0.0385279543697834,-0.04447893425822258,-0.14872975647449493,-0.13352654874324799,-0.03654460981488228,-0.029729750007390976,-0.044502876698970795,-0.11081542074680328,-0.06165825575590134,0.003386616474017501,0.07665398716926575,0.0475696325302124,0.05692562833428383,-0.034197691828012466,0.03444133326411247,0.3242495059967041,-0.04886526241898537,-0.08502975851297379,0.027266541495919228,0.13337470591068268,0.2939210534095764,0.2843325436115265,0.06422293186187744,-0.0434202142059803,0.04145573452115059,0.05856463685631752,0.11467081308364868,-0.05488521605730057,0.07508112490177155,0.03057059645652771,0.09269815683364868,0.08458299189805984,0.1842038929462433,0.20958226919174194,0.01863851770758629,-0.04798614978790283,0.04336866736412048,0.15851467847824097,0.4005085229873657,0.292886883020401,0.06052564084529877,0.07101050764322281,0.009205147624015808,-0.010055509395897388,-0.0541006363928318,0.269476056098938,0.14559847116470337,0.07815547287464142,-0.03584253042936325,-0.12477773427963257,-0.2284478396177292,-0.13128094375133514,-0.013284677639603615,-0.020710231736302376,-0.04018112272024155,-0.1551748365163803,-0.18776115775108337,0.24078547954559326,0.09244749695062637,0.021519478410482407,0.08127757906913757,0.0024032050278037786,-0.11604617536067963,-0.2519873082637787,-0.02007177099585533,-0.04495614767074585,-0.02433091029524803,-0.028556931763887405,-0.27299395203590393,-0.38591575622558594,-0.03177276998758316,0.00058647122932598,-0.04224149137735367,-0.0038843327201902866,-0.09262605011463165,0.15935969352722168,0.10445006936788559,0.051730722188949585,0.049646973609924316,-0.06578093767166138,-0.16739094257354736,0.11679388582706451,0.003043384989723563,-0.010662732645869255,-0.07951407134532928,-0.05740226060152054,-0.18974332511425018,-0.3184613883495331,-0.052485883235931396,-0.0446457602083683,-0.054458148777484894,0.0021496396511793137,-0.06522423028945923,0.06544862687587738,-0.004880551248788834,0.024530678987503052,0.07315032184123993,0.08810365945100784,0.13358339667320251,0.11681640893220901,-0.029621632769703865,0.001241218182258308,-0.018210679292678833,0.042142417281866074,0.2489982694387436,-0.5249741077423096,-0.20569008588790894,-0.07161690294742584,-0.03182573989033699,-0.02956579625606537,0.024477628991007805,0.060945063829422,0.038029994815588,-0.03468449413776398,-0.05616074427962303,0.06454552710056305,0.027903130277991295,-0.16290412843227386,-0.011672082357108593,-0.056645527482032776,-0.061125632375478745,-0.021876148879528046,-0.03787815198302269,-0.1740642637014389,-0.3091771602630615,-0.19249051809310913,-0.19056983292102814,-0.2737841308116913,-0.14161750674247742,0.013659889809787273,-0.08649974316358566,-0.11676200479269028,-0.16012229025363922,-0.19383855164051056,-0.11096558719873428,0.16302978992462158,0.11077479273080826,0.11411441117525101,0.09228529036045074,0.20829962193965912,0.20074619352817535,0.2672121524810791,0.018741533160209656,0.006263946183025837,-0.0790705606341362,0.011665811762213707,-0.01199198979884386,-0.265911340713501,0.05397006869316101,0.09878995269536972,0.17634648084640503,0.08723293989896774,0.035588931292295456,-0.036186035722494125,0.0035545961000025272,0.10131263732910156,0.014580532908439636,0.062207020819187164,0.03745153546333313,0.2536427080631256,-0.13141155242919922,-0.05013122782111168,-0.10518226772546768,-0.02408134564757347,-0.022963009774684906,0.2842864990234375,0.09699484705924988,-0.11422528326511383,-0.027608731761574745,