{"version": "0.5.2", "metadata": {"date": {"year": 2023, "month": 11, "day": 23, "hour": 22, "minute": 20, "second": 17}, "loudness": -19.87839698791504, "gain": 0.8019916428019658, "name": "SinMix Engl Savage 120 KT88", "modeled_by": "SinMix", "gear_type": "amp_cab", "gear_make": "Engl Savage Mesa Oversized", "gear_model": "www.sinmix.pl", "tone_type": "hi_gain"}, "architecture": "WaveNet", "config": {"layers": [{"input_size": 1, "condition_size": 1, "head_size": 8, "channels": 16, "kernel_size": 3, "dilations": [1, 2, 4, 8, 16, 32, 64, 128, 256, 512], "activation": "Tanh", "gated": false, "head_bias": false}, {"input_size": 16, "condition_size": 1, "head_size": 1, "channels": 8, "kernel_size": 3, "dilations": [1, 2, 4, 8, 16, 32, 64, 128, 256, 512], "activation": "Tanh", "gated": false, "head_bias": true}], "head": null, "head_scale": 0.02}, "weights": [0.021846208721399307, 0.38520547747612, -0.69153892993927, -0.6495517492294312, -0.26441699266433716, 0.35415118932724, -0.08414997905492783, 0.7518875002861023, -0.01749660260975361, 0.07851435989141464, -0.1409568339586258, -0.19264644384384155, -0.8827943205833435, -0.6825774908065796, -0.34967753291130066, 0.14605949819087982, 0.0913725346326828, 0.18935182690620422, -0.27438265085220337, -0.021502168849110603, 0.23841609060764313, -0.04504728317260742, -0.07234222441911697, -0.08235886693000793, 0.14203831553459167, -0.028114698827266693, -0.062202293425798416, 0.031179267913103104, -0.11227164417505264, -0.21458572149276733, 0.12239252775907516, 0.15776000916957855, 0.09508422762155533, -0.24051646888256073, -0.0853089764714241, -0.2391110062599182, 0.1920609474182129, 0.16106505692005157, 0.2580317556858063, -0.0981084480881691, 0.0026904912665486336, -0.16486777365207672, 0.2595285475254059, -0.09254840016365051, 0.0468393936753273, -0.2394571453332901, 0.062227483838796616, -0.08664517104625702, 0.12455592304468155, -0.033032115548849106, -0.07131655514240265, 0.3263956606388092, 0.01504550687968731, -0.17492829263210297, 0.26076140999794006, -0.12326598912477493, -0.16968119144439697, 0.056214362382888794, -0.13085398077964783, -0.2524300515651703, 0.24446766078472137, -0.005847326014190912, -0.05530628189444542, -0.0897657573223114, 0.026350045576691628, -0.10414379090070724, 0.13064701855182648, -0.10077519714832306, 0.010422618128359318, 0.2896152138710022, 0.024669788777828217, 0.0325678326189518, -0.09574592858552933, 0.2538433372974396, 0.20987053215503693, -0.027226418256759644, 0.1481102555990219, -0.04517386853694916, -0.14614368975162506, -0.21761254966259003, -0.21834461390972137, 0.28740909695625305, 0.20269683003425598, -0.11933242529630661, -0.2342323660850525, -0.15509580075740814, -0.11381401121616364, 0.0869508758187294, 0.16745860874652863, -0.07121562212705612, -0.15908271074295044, -0.059228841215372086, 0.05634857714176178, 0.20761071145534515, -0.03314986824989319, -0.02658960595726967, -0.11573896557092667, 0.15495899319648743, -0.05272582173347473, -0.2562088370323181, 0.2713232636451721, 0.18611091375350952, -0.2116158902645111, 0.09425562620162964, -0.04519873112440109, -0.1563466489315033, 0.0195234976708889, -0.03302881494164467, -0.17201146483421326, -0.05200700834393501, -0.10752098262310028, 0.08497697114944458, -0.11350813508033752, 0.11627031117677689, -0.04123177006840706, -0.1276736855506897, 0.09330515563488007, -0.09933482855558395, 0.018826771527528763, -0.10178420692682266, 0.16023163497447968, 0.011909822933375835, -0.2049785703420639, 0.17605380713939667, -0.11669667810201645, -0.21014288067817688, 0.08542711287736893, -0.0849229171872139, 0.08357378840446472, -0.2388593703508377, 0.01006057858467102, -0.02145775407552719, 0.09546929597854614, -0.01288188062608242, 0.24385720491409302, -0.125691220164299, 0.04533931612968445, -0.03608909249305725, 0.18692371249198914, 0.07383987307548523, 0.2158898562192917, -0.02116622030735016, 0.1496705263853073, -0.11462002247571945, 0.0020946154836565256, -0.044418707489967346, -0.012127136811614037, 0.12085334211587906, -0.0697554498910904, -0.25053170323371887, -0.029427824541926384, -0.11530652642250061, -0.17099379003047943, 0.19230584800243378, 0.08687734603881836, -0.2632865309715271, 0.20727157592773438, -0.14129529893398285, -0.044043052941560745, -0.14131486415863037, 0.017925696447491646, -0.04986916854977608, -0.07901942729949951, -0.039176180958747864, -0.2168094664812088, -0.00752110593020916, -0.14191582798957825, 0.2544410824775696, -0.1165495291352272, -0.09187126904726028, 0.3264402151107788, -0.04954937845468521, 0.030761783942580223, 0.2398311197757721, -0.14026209712028503, 0.18537278473377228, -0.2176273912191391, -0.06347481161355972, -0.018022017553448677, -0.015747565776109695, -0.0689128041267395, 0.053339749574661255, -0.10249865055084229, 0.03277119621634483, -0.05176648125052452, 0.1354309469461441, -0.08139920979738235, 0.0690390095114708, -0.25689464807510376, 0.0888780951499939, 0.027518363669514656, 0.2612314522266388, -0.12398385256528854, -0.10239358991384506, 0.07187096774578094, -0.09092404693365097, -0.16484186053276062, 0.25493359565734863, -0.07305638492107391, -0.08751515299081802, 0.21324217319488525, 0.0994720384478569, -0.19591554999351501, 0.08831541985273361, -0.08569822460412979, 0.1444842517375946, -0.07836750894784927, 0.1668892651796341, 0.03524174913764, -0.07847534120082855, -0.1304726004600525, 0.22156810760498047, 0.06783060729503632, -0.03543758764863014, -0.2545627951622009, -0.03785807266831398, -0.10929372161626816, -0.32850757241249084, 0.06073988601565361, -0.11356110125780106, -0.24911291897296906, 0.09113804996013641, 0.06303355097770691, 0.2436695694923401, -0.07638359814882278, 0.058802198618650436, -0.3079237639904022, -0.03076685592532158, 0.049147944897413254, 0.2288094162940979, 0.062454428523778915, 0.11587846279144287, -0.2029748111963272, 0.13645094633102417, 0.13952605426311493, 0.1536037027835846, 0.09130239486694336, -0.10557964444160461, -0.29433685541152954, -0.004115774296224117, 0.07652595639228821, -0.13561636209487915, -0.0824868306517601, 0.01723835989832878, -0.17906272411346436, -0.1984289139509201, 0.10348652303218842, -0.3662290573120117, -0.05806796997785568, -0.018727930262684822, -0.32601428031921387, -0.03309822827577591, 0.1308174878358841, 0.10912325233221054, -0.0526854507625103, 0.04310544580221176, -0.1303378790616989, 0.14095599949359894, -0.12248563021421432, -0.11057811230421066, 0.05423232913017273, 0.04481985419988632, 0.08164863288402557, -0.03327525034546852, 0.08787080645561218, -0.03708523139357567, -0.1834636777639389, 0.08235976099967957, 0.1459980607032776, -0.09650681167840958, -0.015067169442772865, -0.09309079498052597, 0.006644998211413622, -0.02145339734852314, -0.028259729966521263, -0.19365495443344116, 0.2715282738208771, -0.10672804713249207, 0.13289456069469452, 0.0003263549297116697, 0.05072137340903282, -0.13998982310295105, -0.01713792234659195, 0.08791697025299072, 0.11313585191965103, 0.06834529340267181, -0.027840811759233475, -0.07226622104644775, 0.03782004490494728, 0.028761619701981544, -0.20558978617191315, 0.111409991979599, 0.05540136247873306, -0.15129727125167847, 0.002816232852637768, -0.07495125383138657, -0.051427073776721954, -0.06464864313602448, 0.07301568239927292, -0.18319861590862274, -0.020134832710027695, -0.029224924743175507, -0.08488518744707108, -0.03147418051958084, 0.046214085072278976, -0.13814780116081238, 0.008537583984434605, 0.11957991123199463, -0.01738516055047512, -0.08931678533554077, -0.18347060680389404, 0.04894109070301056, 0.12081438302993774, -0.11447662115097046, 0.12680292129516602, 0.1686018854379654, -0.12470103800296783, 0.07229144871234894, 0.14083236455917358, 0.05789313465356827, -0.06787215173244476, -0.06397213786840439, -0.1468055248260498, 0.1358390748500824, 0.23043887317180634, 0.18786530196666718, 0.014108638279139996, -0.05606833100318909, 0.04129499942064285, 0.061309073120355606, -0.01561849843710661, -0.08290127664804459, 0.04805969074368477, 0.012570851482450962, -0.15395385026931763, 0.1356106698513031, 0.20316480100154877, 0.10408177226781845, 0.2174374908208847, 0.19971460103988647, -0.09474578499794006, 0.01974278874695301, 0.18787217140197754, 0.02321259304881096, -0.01772075518965721, 0.20456160604953766, 0.012052048929035664, 0.15505732595920563, -0.008657732978463173, -0.062059152871370316, -0.15390753746032715, -0.011732597835361958, 0.01862623356282711, 0.10633429884910583, -0.0075349025428295135, 0.2840115427970886, -0.05378539115190506, 0.006829180754721165, -0.3161505460739136, 0.04247008264064789, -0.024906516075134277, -0.36163759231567383, -0.10808315128087997, 0.1823369562625885, -0.1413736790418625, 0.13573382794857025, 0.17342080175876617, 0.09900292754173279, -0.10216173529624939, -0.08394378423690796, -0.31285902857780457, 0.07307124137878418, -0.04254123196005821, 0.14942392706871033, -0.14808174967765808, -0.14848411083221436, -0.10246121883392334, 0.08941838145256042, 0.1616019755601883, 0.33105090260505676, 0.14453867077827454, -0.08620135486125946, -0.14128442108631134, 0.11496420949697495, 0.11220662295818329, -0.0850808173418045, 0.07190995663404465, 0.1522964984178543, -0.27133139967918396, 0.07853370159864426, 0.08252999186515808, -0.25518980622291565, -0.07235277444124222, -0.015629250556230545, -0.3304956257343292, 0.09544266015291214, 0.16665665805339813, 0.018187787383794785, -0.027704555541276932, 0.06086977571249008, 0.07106322050094604, -0.028018170967698097, -0.12677808105945587, 0.16059467196464539, 0.09940340369939804, -0.12285885959863663, 0.10395599901676178, 0.061758387833833694, -0.04255768656730652, 0.05112481117248535, -0.12744775414466858, -0.008689481765031815, 0.10808409005403519, -0.033601079136133194, -0.07653243094682693, -0.03103691339492798, 0.0006194346351549029, -0.05157339572906494, 0.016272522509098053, 0.1517745405435562, 0.10181383043527603, -0.06188414618372917, 0.05769840255379677, 0.055385198444128036, 0.07904341071844101, -0.08700717985630035, 0.047499578446149826, -0.08917877823114395, -0.056690022349357605, 0.024869106709957123, -0.11952715367078781, 0.02421267144382, 0.1635415256023407, -0.0018211783608421683, -0.11725512892007828, -0.01770261488854885, 1.6027039237087592e-05, -0.1593998521566391, 0.08048835396766663, -0.15757153928279877, -0.18962474167346954, -0.12535689771175385, -0.05155565217137337, 0.06002885475754738, -0.11126874387264252, 0.10197588056325912, -0.05232430621981621, 0.0416874960064888, 0.12974528968334198, -0.0060125128366053104, 0.14892815053462982, 0.22568407654762268, 0.3541589379310608, 0.1101832166314125, -0.2513265609741211, -0.10196109861135483, -0.03212442994117737, -0.08338718861341476, -0.33543330430984497, -0.07850730419158936, -0.28009194135665894, -0.2703688144683838, 0.003531814320012927, 0.027196815237402916, 0.2671984136104584, 0.10888338834047318, -0.09642893821001053, -0.2409842163324356, -0.05899868905544281, 0.10488615930080414, 0.2923692464828491, 0.1805921196937561, -0.04571361094713211, -0.14007988572120667, 0.0654556006193161, -0.002122671576216817, 0.03591523319482803, 0.09054157137870789, -0.21822144091129303, -0.1235567033290863, -0.10412586480379105, -0.21032929420471191, -0.3136424720287323, 0.051808446645736694, -0.16846328973770142, -0.11532728374004364, 0.04628482460975647, -0.06783647835254669, -0.2254827320575714, -0.08132290095090866, -0.1837574541568756, -0.19704024493694305, 0.04073557257652283, 0.03223781660199165, 0.1905270367860794, 0.07886359095573425, -0.041458528488874435, 0.06312292069196701, 0.09516337513923645, 0.2141743302345276, 0.16074877977371216, 0.024392763152718544, -0.018352054059505463, -0.218646839261055, 0.19978748261928558, -0.16315574944019318, -0.25712132453918457, 0.1396246701478958, -0.10547211021184921, -0.23877328634262085, 0.054743342101573944, 0.16156171262264252, 0.2667408287525177, -0.1471775323152542, 0.013983087614178658, -0.13182847201824188, 0.1349511593580246, 0.0944930911064148, 0.3950919508934021, -0.09862885624170303, 0.0018983298214152455, -0.20656369626522064, 0.19545404613018036, -0.03319009393453598, 0.14825235307216644, -0.15636971592903137, 0.06332875788211823, -0.296122670173645, 0.11369989067316055, -0.1320037841796875, -0.12456771731376648, 0.2404417246580124, -0.19547082483768463, -0.4280288517475128, -0.032076697796583176, -0.08190256357192993, -0.35155966877937317, -0.008639024570584297, -0.13115449249744415, -0.26059597730636597, 0.016933266073465347, 0.08203089237213135, 0.02911062352359295, -0.011857242323458195, -0.016691910102963448, 0.04383338615298271, -0.1312764436006546, 0.06664841622114182, -0.18141666054725647, 0.09786143898963928, -0.1875324845314026, -0.0033568772487342358, 0.19051888585090637, -0.14617642760276794, 0.1623000204563141, 0.03351948782801628, -0.10087316483259201, 0.09115542471408844, 0.11967893689870834, 0.07687105983495712, -0.2686001658439636, -0.11880353093147278, -0.15649351477622986, 0.12493571639060974, -0.1403483897447586, 0.19378596544265747, -0.1686209738254547, -0.06899434328079224, 0.017706606537103653, 0.11400149762630463, 0.10991201549768448, 0.14434516429901123, -0.14146305620670319, -0.12983107566833496, -0.06625635176897049, 0.22967636585235596, -0.028461750596761703, -0.20767639577388763, 0.17639818787574768, 0.16901016235351562, -0.0962834432721138, 0.01721809059381485, -0.08272787183523178, -0.02258545532822609, 0.1262042373418808, -0.030609415844082832, -0.031056798994541168, 0.1788087636232376, 0.14791564643383026, 0.1503140777349472, -0.052257705479860306, -0.0809650719165802, -0.27990826964378357, 0.09959572553634644, 0.09978822618722916, -0.19854207336902618, -0.16809728741645813, 0.16239359974861145, 0.397842675447464, 0.1770477294921875, -0.15411515533924103, 0.2077721357345581, -0.05128292739391327, 0.1045178771018982, 0.17944040894508362, -0.025063268840312958, 0.033466119319200516, -0.3157602846622467, -0.11325273662805557, 0.027425436303019524, 0.19436216354370117, -0.14959539473056793, -0.02464408241212368, -0.3205638527870178, -0.0018457080004736781, 0.1571870893239975, 0.29648369550704956, -0.015767520293593407, 0.028216660022735596, -0.23859450221061707, -0.08191309869289398, 0.16599421203136444, 0.2751484513282776, -0.10414794832468033, -0.10046829283237457, 0.15055854618549347, 0.14683687686920166, -0.07369167357683182, 0.13067665696144104, 0.04237455129623413, 0.06280001997947693, 0.2939983606338501, 0.10035943984985352, -0.01958107389509678, 0.3078269958496094, 0.004262453876435757, -0.09957785159349442, -0.2247476875782013, -0.07632675766944885, 0.0014544955920428038, -0.027722781524062157, 0.08896050602197647, 0.17940346896648407, -0.027851879596710205, -0.17005829513072968, 0.16939257085323334, -0.039434660226106644, 0.20054863393306732, -0.14294962584972382, 0.006113281939178705, 0.15944382548332214, -0.09089884907007217, 0.1464643031358719, -0.02560551092028618, -0.16657961905002594, -0.09570267051458359, -0.05387828126549721, 0.17479155957698822, -0.06002380698919296, 0.06100454181432724, -0.1508035808801651, -0.07122243195772171, 0.019771236926317215, -0.08037392050027847, 0.016671258956193924, 0.12407363206148148, -0.10560587048530579, 0.0859236866235733, -0.08508044481277466, 0.15792348980903625, -0.11142698675394058, 0.039117831736803055, -0.0833757147192955, 0.06600526720285416, 0.11144892126321793, 0.055855974555015564, 0.021240420639514923, 0.07971903681755066, 0.07191623002290726, 0.00015759812959004194, 0.21353071928024292, -0.1289263218641281, 0.019618473947048187, 0.06484946608543396, 0.023069778457283974, 0.13008418679237366, -0.04190303012728691, -0.11266764998435974, -0.06903009861707687, -0.01941157504916191, -0.1267605423927307, -0.07036660611629486, 0.25600680708885193, 0.10063190758228302, -0.01453534048050642, -0.30469024181365967, 0.13421212136745453, -0.12930665910243988, -0.13614271581172943, 0.05737699568271637, -0.07196280360221863, -0.10856415331363678, -0.07889783382415771, 0.03768651559948921, 0.0720999613404274, -0.06656032055616379, 0.04212454333901405, 0.03701024502515793, 0.06480493396520615, 0.1122526302933693, 0.1561211347579956, -0.10585560649633408, -0.11009828001260757, -0.20146051049232483, 0.23350587487220764, -0.02363019809126854, 0.12968724966049194, -0.0033753591123968363, 0.08527487516403198, -0.020350458100438118, 0.1796550750732422, -0.10521316528320312, -0.1650601178407669, -0.026549547910690308, -0.10536652058362961, -0.13951940834522247, 0.16814659535884857, -0.1329994797706604, -0.08735845237970352, -0.034827277064323425, -0.04400645196437836, -0.04297434538602829, 0.015132016502320766, -0.0413648895919323, -0.07065451145172119, 0.09440931677818298, -0.007952427491545677, -0.07285962998867035, 0.03802448883652687, -0.10635977983474731, -0.033492326736450195, 0.011297528631985188, 0.11284759640693665, -0.13167746365070343, 0.05928276479244232, 0.12527015805244446, 0.0070047019980847836, -0.08014282584190369, -0.002591355936601758, -0.12697719037532806, -0.10986118018627167, -0.01934591680765152, 0.19020956754684448, 0.11820203065872192, 0.0704030767083168, 0.03274044394493103, 0.028344033285975456, 0.10196858644485474, 0.03239061310887337, -0.09431368112564087, 0.052377454936504364, 0.08291777968406677, -0.07683368772268295, 0.12564171850681305, 0.10084071755409241, -0.11393798887729645, -0.020112385973334312, 0.051748283207416534, -0.08805880695581436, -0.02344190515577793, -0.012606278993189335, -0.10914315283298492, 0.07970888167619705, -0.016980014741420746, 0.07860284298658371, -0.0851026102900505, 0.04958304762840271, -0.0919891893863678, 0.1506822556257248, -0.21969561278820038, -0.12467318773269653, 0.02386755309998989, 0.05105670168995857, -0.024829205125570297, -0.13018009066581726, -0.09760051220655441, 0.004883433226495981, -0.1310414969921112, -0.025960134342312813, 0.11088771373033524, -0.0067253089509904385, 0.13224531710147858, 0.07010095566511154, 0.23569054901599884, -0.26393210887908936, 0.05216221138834953, 0.0793161690235138, -0.06444987654685974, -0.09846233576536179, -0.0888117104768753, 0.2869589626789093, -0.2843456566333771, 0.6958282589912415, -0.7212963104248047, 0.0071454825811088085, 0.8699293732643127, 0.9285758137702942, -0.6481221914291382, 0.17536728084087372, 0.1656322479248047, -0.5413048267364502, -0.3999314308166504, 0.292970210313797, -0.6748032569885254, 0.13856153190135956, 0.4493539035320282, -0.0266130194067955, 0.08557669073343277, 0.04818573594093323, 0.0865638330578804, 0.32466956973075867, -0.013292551971971989, 0.17727936804294586, 0.0892615094780922, -0.018026525154709816, 0.07866442203521729, 0.09969370812177658, 0.001297678449191153, -0.013416038826107979, -0.03157440572977066, 0.20992901921272278, -0.016131874173879623, -0.07389304041862488, -0.047243133187294006, -0.1983003318309784, -0.07416827976703644, -0.1043616458773613, 0.004411674104630947, -0.16661526262760162, -0.26755577325820923, -0.0061710593290627, 0.2585330903530121, -0.05303163826465607, -0.04141990467905998, 0.24108509719371796, -0.10287176072597504, -0.018302587792277336, 0.11905497312545776, 0.039604078978300095, 0.15415816009044647, 0.0115763945505023, 0.2161344587802887, -0.18523934483528137, -0.1276315599679947, 0.07730162143707275, -0.22286562621593475, -0.029007382690906525, -0.18658387660980225, 0.14131154119968414, -0.2611773610115051, 0.18372377753257751, 0.2574135363101959, 0.04069333150982857, 0.014790485613048077, 0.26608413457870483, -0.24124638736248016, 0.08284172415733337, -0.27033206820487976, 0.021175645291805267, 0.10700065642595291, 0.015025080181658268, 0.14514191448688507, -0.10007858276367188, 0.18215855956077576, 0.08979439735412598, -0.009960504248738289, 0.010063775815069675, 0.12520581483840942, -0.03154463320970535, -0.0530901700258255, -0.1707581728696823, -0.2402917593717575, -0.3219154179096222, 0.31164050102233887, 0.16830803453922272, 0.06758786737918854, 0.1543741673231125, 0.14269548654556274, 0.04760320112109184, 0.18503127992153168, -0.3221825957298279, 0.2752058804035187, -0.03942537307739258, 0.19179767370224, -0.1805381178855896, 0.03847089037299156, -0.2751818597316742, -0.06795050948858261, 0.12429273128509521, 0.0488605834543705, 0.32316267490386963, 0.35432595014572144, 0.30199918150901794, -0.009465123526751995, 0.18091025948524475, 0.03787720203399658, -0.22863423824310303, -0.1301945149898529, 0.003695843741297722, -0.1908668428659439, 0.07806396484375, 0.13963796198368073, -0.23895585536956787, 0.25662752985954285, -0.08880025893449783, 0.3164682388305664, -0.470827579498291, -0.40749743580818176, -0.0989440456032753, 0.17462977766990662, -0.06925276666879654, -0.4963182806968689, -0.6330344080924988, 0.3616151511669159, 0.3718872666358948, 0.015238813124597073, -0.24696266651153564, -0.42410367727279663, 0.1586427092552185, 0.08176150172948837, 0.2840004861354828, -0.2726028561592102, -0.2292584478855133, 0.16721896827220917, 0.1773391216993332, 0.02780112810432911, 0.14202773571014404, -0.22486472129821777, 0.26356810331344604, -0.2428886443376541, 0.09249415993690491, -0.17060360312461853, -0.08917003124952316, 0.020489051938056946, -0.0887056440114975, 0.10719432681798935, -0.2862740755081177, -0.15195819735527039, -0.06484801322221756, -0.1411619484424591, -0.07900697737932205, -0.26525500416755676, -0.22810862958431244, -0.3708960711956024, -0.004174188710749149, -0.02140718325972557, 0.13307982683181763, -0.0936071053147316, -0.017465120181441307, -0.0076030101627111435, -0.3302890360355377, 0.13545389473438263, 0.1472005397081375, -0.3624893128871918, -0.40218105912208557, 0.09596773982048035, 0.01438391488045454, -0.46378904581069946, 0.0431419275701046, 0.16599205136299133, -0.09855048358440399, -0.025050127878785133, 0.4912753701210022, 0.14752623438835144, -0.29955124855041504, 0.030249057337641716, 0.021605100482702255, 0.32829946279525757, -0.2894851863384247, 0.1580914705991745, -0.2206307351589203, -0.2150658816099167, 0.03714924678206444, -0.3095020353794098, 0.012809302657842636, -0.2606648802757263, -0.33938223123550415, -0.12171724438667297, 0.09333004057407379, 0.15189456939697266, -0.07891674339771271, 0.20257996022701263, -0.0608660951256752, -0.06161486357450485, 0.016725949943065643, -0.0030756692867726088, -0.14950159192085266, -0.17665685713291168, -0.14395588636398315, 0.10445081442594528, -0.035214632749557495, -0.23646877706050873, -0.11867020279169083, -0.05736730247735977, 0.003464894834905863, 0.19411875307559967, -0.3375169038772583, -0.3000554144382477, 0.04477416351437569, -0.07901203632354736, 0.08416441828012466, 0.1115717887878418, 0.2012033462524414, -0.18255411088466644, 0.0706268772482872, 0.2542122006416321, 0.1663711816072464, 0.01885639876127243, -0.13413256406784058, 0.15566378831863403, 0.08077997714281082, -0.1004137247800827, -0.0054088132455945015, 0.17479738593101501, -0.09356173127889633, -0.17065036296844482, -0.2539621889591217, 0.19924281537532806, -0.1427215337753296, 0.07275885343551636, 0.11510152369737625, 0.24077099561691284, -0.06882032752037048, -0.15798121690750122, -0.1245000958442688, 0.12467014044523239, -0.17512886226177216, 0.039598919451236725, -0.2700229287147522, 0.06271640211343765, -0.13042354583740234, 0.24373796582221985, -0.11125525087118149, -0.04295126348733902, 0.11026709526777267, -0.00299406168051064, 0.1764821857213974, 0.0930710956454277, -0.2566377818584442, 0.12173833698034286, -0.1429051011800766, -0.058989301323890686, 0.14367160201072693, 0.2165168821811676, -0.23496054112911224, -0.03983812779188156, 0.027966277673840523, 0.09930222481489182, 0.21884725987911224, -0.19293732941150665, -0.20288458466529846, 0.2587624490261078, -0.01590115576982498, -0.05793638527393341, -0.03538832813501358, -0.19468146562576294, -0.0342540480196476, -0.2442302256822586, 0.1885657161474228, 0.10942551493644714, -0.01754867658019066, -0.03964768722653389, 0.05455034598708153, -0.09831135720014572, 0.13481220602989197, -0.1474061906337738, -0.12446819990873337, 0.006647598464041948, 0.3139234483242035, 0.05308493599295616, -0.044463008642196655, -0.056953638792037964, -0.023913027718663216, 0.03578517958521843, 0.059299882501363754, 0.26447173953056335, 0.03265853598713875, 0.1281815618276596, 0.010153082199394703, 0.06368011981248856, 0.05594700574874878, 0.25981757044792175, -0.2139190286397934, -0.002562606008723378, -0.025964172556996346, 0.034529656171798706, 0.11936521530151367, -0.4865218698978424, 0.04645228385925293, -0.10057990998029709, 0.0898870974779129, -0.29318949580192566, -0.14704115688800812, 0.09246522933244705, -0.11612213402986526, 0.03009546548128128, 0.03938058763742447, -0.19826050102710724, 0.08859322965145111, -0.1860627382993698, -0.12804536521434784, -0.18675890564918518, 0.0818059965968132, -0.00031091764685697854, -0.1015918031334877, -0.06716184318065643, -0.19446896016597748, -0.1715695708990097, 0.03577476367354393, -0.06149895861744881, 0.05795913562178612, -0.010624313727021217, -0.10087994486093521, 0.07069002836942673, -0.12898600101470947, 0.16791020333766937, 0.024750471115112305, -0.019791360944509506, 0.128408282995224, -0.04991700500249863, 0.036564406007528305, 0.009385369718074799, 0.05562958866357803, -0.10578269511461258, -0.02408553659915924, -0.06435628235340118, -0.1795012652873993, 0.25477921962738037, 0.23377831280231476, -0.10961718112230301, -0.35344308614730835, -0.19955457746982574, 0.24132731556892395, -0.05723698437213898, 0.20706132054328918, -0.18638384342193604, 0.2755587697029114, 0.1398506909608841, 0.13553820550441742, -0.40294912457466125, 0.04163910076022148, -0.33871209621429443, -0.04082803428173065, -0.10493795573711395, 0.41368985176086426, -0.3582039177417755, -0.11687842756509781, -0.1355842500925064, 0.05773398280143738, -0.04200204834342003, 0.2089793086051941, -0.25764670968055725, -0.11829880625009537, 0.3536823093891144, -0.1058003380894661, -0.4033949375152588, 0.36822518706321716, -0.17508117854595184, -0.06007196009159088, 0.1910826712846756, -0.19805115461349487, 0.11912564933300018, 0.08960497379302979, 0.00026005884865298867, 0.14551544189453125, 0.18576762080192566, -0.0483705960214138, 0.0601220540702343, 0.35335320234298706, -0.2176649570465088, -0.043222036212682724, 0.16409216821193695, 0.40693730115890503, 0.02718709036707878, -0.042530886828899384, -0.02259800210595131, -0.049560584127902985, -0.19880926609039307, 0.14366032183170319, -0.13308681547641754, 0.09575489908456802, 0.029143666848540306, 0.14181385934352875, 0.2789987027645111, -0.1690863072872162, -0.06390544772148132, 0.12623125314712524, -0.19149817526340485, 0.05926457419991493, -0.14247973263263702, 0.18755768239498138, 0.05754018574953079, 0.1954268515110016, -0.18366307020187378, -0.08535303920507431, -0.16775332391262054, 0.09346840530633926, 0.022868243977427483, 0.012811124324798584, -0.12291554361581802, -0.002770670922473073, -0.3138122856616974, 0.22554582357406616, -0.18968336284160614, -0.10593044012784958, -0.2072458565235138, 0.09647900611162186, 0.20001770555973053, -0.119489386677742, 0.10476956516504288, 0.2933955490589142, -0.15269224345684052, 0.14416790008544922, 0.08275944739580154, -0.14516347646713257, 0.13431495428085327, -0.09764961898326874, 0.002786516910418868, 0.061938896775245667, -0.15545280277729034, 0.2894405722618103, 0.1494908481836319, -0.26344186067581177, 0.004557539243251085, 0.2623521387577057, -0.11197872459888458, 0.22025920450687408, -0.13313841819763184, 0.24049320816993713, -0.2528272569179535, -0.31558921933174133, -0.2153141349554062, -0.051173243671655655, -0.003568052314221859, 0.10860244929790497, -0.2678183913230896, -0.13432154059410095, -0.09150682389736176, 0.33533212542533875, 0.1942591667175293, 0.2583065330982208, 0.07025440782308578, -0.19774925708770752, -0.2285591959953308, 0.23773308098316193, 0.1708303540945053, 0.2894992232322693, -0.18755796551704407, -0.1359252631664276, 0.3882150650024414, 0.09255436807870865, -0.15850050747394562, 0.25507989525794983, -0.2565784156322479, -0.27770864963531494, 0.2021825611591339, -0.08009635657072067, -0.08681368082761765, 0.21506771445274353, -0.11998441070318222, -0.12536084651947021, 0.22983011603355408, -0.3072474002838135, -0.23358017206192017, 0.12648648023605347, -0.10553327947854996, -0.1016140878200531, 0.2804288864135742, 0.16465908288955688, -0.03400285914540291, -0.25076842308044434, 0.011044270358979702, -0.014644429087638855, -0.07022517174482346, 0.26507192850112915, 0.044718194752931595, 0.15248936414718628, 0.05184050649404526, -0.0318523608148098, -0.1291441172361374, -0.029509130865335464, 0.16696561872959137, 0.20869430899620056, -0.2653285264968872, -0.21156448125839233, -0.33341145515441895, 0.16665783524513245, -0.08930701017379761, 0.3088531196117401, -0.1677182912826538, -0.09298648685216904, -0.22030425071716309, 0.3357427716255188, 0.12692272663116455, 0.24286644160747528, 0.03585945442318916, -0.08362730592489243, -0.2662566602230072, 0.09298180788755417, -0.06293376535177231, 0.33370500802993774, -0.09052324295043945, -0.05902930349111557, 0.11202993243932724, -0.02090555988252163, 0.07590188086032867, 0.09329784661531448, -0.38638004660606384, 0.12673482298851013, 0.2137005627155304, -0.19896136224269867, -0.00921480543911457, 0.1279665231704712, -0.14558880031108856, -0.18902644515037537, -0.0013581500388681889, 0.23037494719028473, -0.012021038681268692, -0.07253136485815048, -0.02210945263504982, 0.062179092317819595, -0.23694626986980438, 0.09680577367544174, -0.1888141632080078, 0.007767244707792997, -0.011191715486347675, 0.06283461302518845, 0.10516095906496048, 0.10437814146280289, 0.18908749520778656, -0.06575756520032883, -0.11421842873096466, 0.0016722342697903514, 0.03472159430384636, 0.020457617938518524, -0.003674055216833949, 0.17696641385555267, -0.2773890793323517, -0.11519733816385269, 0.026557087898254395, -0.020111652091145515, 0.14397366344928741, 0.24224577844142914, 0.07202011346817017, -0.12534797191619873, 0.21042415499687195, 0.019629988819360733, -0.342846155166626, 0.11737935990095139, 0.023138349875807762, 0.03141240403056145, 0.2214147299528122, -0.18336963653564453, 0.013573774136602879, 0.012039216235280037, 0.14376461505889893, 0.11441956460475922, -0.013383634388446808, -0.14123809337615967, 0.09559383988380432, 0.04747805371880531, 0.07699435204267502, -0.1953001618385315, -0.11510560661554337, 0.20182998478412628, -0.09213311225175858, 0.008052380755543709, -0.009676222689449787, 0.06466296315193176, 0.12784208357334137, 0.21845316886901855, -0.022936012595891953, -0.015295385383069515, 0.02720644511282444, 0.07550771534442902, 0.44388994574546814, 0.15021255612373352, 0.09656160324811935, -0.11233609914779663, 0.33208292722702026, 0.10292072594165802, 0.09342969954013824, 0.009130756370723248, 0.1712188720703125, 0.08170207589864731, -0.03417458012700081, -0.04584389925003052, -0.13900169730186462, -0.12371640652418137, 0.006664126180112362, 0.02506488375365734, -0.049009330570697784, -0.21851801872253418, 0.0819183886051178, 0.04168269410729408, -0.03827492147684097, 0.07252944260835648, 0.056252796202898026, 0.035383190959692, -0.07976948469877243, 0.1047486960887909, -0.11536496877670288, 0.07231613993644714, 0.2594429552555084, 0.06565441191196442, -0.09006879478693008, 0.11073002219200134, -0.26216158270835876, -0.05978197604417801, 0.12976078689098358, -0.06496505439281464, -0.04944387078285217, -0.021196188405156136, 0.0021753443870693445, -0.05018523335456848, 0.1466694176197052, -0.2907097041606903, 0.43516916036605835, -0.05910062417387962, 0.03182663023471832, -0.3173356354236603, -0.18409156799316406, 0.475716233253479, 0.020037824288010597, 0.18794843554496765, 0.06686747074127197, 0.13305777311325073, -0.10489358007907867, 0.1285274177789688, 0.29863232374191284, -0.02903394214808941, -0.41873055696487427, -0.1847078800201416, -0.46230730414390564, 0.33771875500679016, 0.14108885824680328, 0.010548543184995651, -0.4469263553619385, -0.11172199249267578, -0.3897857666015625, 0.5471152663230896, 0.2944755256175995, -0.1078428104519844, 0.026862161234021187, -0.003848982509225607, -0.4328232705593109, 0.34626275300979614, -0.16802920401096344, -0.2655021548271179, 0.44251689314842224, -0.31461459398269653, -0.07985854148864746, 0.40451696515083313, -0.3846210539340973, -0.19235293567180634, 0.2264612317085266, -0.07046738266944885, -0.3217979967594147, 0.4335852861404419, -0.08352266997098923, -0.2544156610965729, -0.015220493078231812, 0.16851474344730377, 0.0502992644906044, 0.10301674902439117, -0.139293372631073, -0.19462934136390686, -0.28895723819732666, 0.08372944593429565, 0.1730312556028366, 0.05428476631641388, -0.038797494024038315, -0.07121076434850693, -0.10706616938114166, -0.1353960931301117, 0.05258997902274132, -0.20154212415218353, -0.026499943807721138, -0.028530031442642212, 0.10389972478151321, 0.03488488122820854, 0.22381390631198883, -0.006941267289221287, -0.019884606823325157, -0.2729545533657074, 0.24890270829200745, -0.03508710861206055, 0.017704103142023087, 0.013472691178321838, 0.027904700487852097, -0.03406718373298645, -0.3135322630405426, 0.028738541528582573, 0.14083917438983917, -0.16778069734573364, -0.03351500630378723, 0.15294694900512695, 0.06299125403165817, -0.09069431573152542, 0.3113666772842407, -0.06748008728027344, -0.03390970453619957, 0.09204186499118805, -0.192050039768219, -0.03682338446378708, 0.017786981537938118, -0.10491126775741577, 0.1588163524866104, -0.08466718345880508, -0.05961030721664429, 0.2329302877187729, 0.11913090944290161, 0.07325119525194168, 0.11277145892381668, -0.09037155658006668, 0.1848982274532318, -0.2768210470676422, 0.04948842152953148, -0.10219097137451172, -0.11416781693696976, 0.26860085129737854, -0.21351587772369385, -0.15462473034858704, 0.13814865052700043, 0.03804904595017433, 0.11430992931127548, -0.15553578734397888, 0.19704225659370422, -0.12055553495883942, 0.04299706593155861, 0.16013440489768982, 0.06434600800275803, -0.21047614514827728, 0.1700567901134491, -0.12553362548351288, 0.14969082176685333, -0.012704418040812016, 0.05354241281747818, -0.31408053636550903, 0.23171366751194, -0.22889529168605804, 0.06923393160104752, 0.13317365944385529, -0.13326530158519745, 0.07137401401996613, -0.00353682111017406, -0.17643284797668457, 0.21670611202716827, -0.16680698096752167, -0.18970707058906555, 0.26367032527923584, 0.044202640652656555, -0.15245956182479858, -0.059836484491825104, 0.14656588435173035, 0.20521514117717743, -0.07190040498971939, 0.028963962569832802, -0.10002441704273224, 0.2135920226573944, -0.07059231400489807, -0.20732061564922333, 0.08188458532094955, -0.16303609311580658, 0.07987338304519653, -0.0741514191031456, 0.11358564347028732, -0.1727626621723175, -0.18079760670661926, -0.057617537677288055, 0.09179841727018356, -0.20408156514167786, -0.1644924432039261, -0.030353963375091553, 0.21372123062610626, -0.0038360876496881247, 0.07070616632699966, -0.010715956799685955, 0.07826787978410721, -0.12086625397205353, 0.3258354067802429, 0.08099072426557541, 0.06905974447727203, -0.09185793995857239, 0.11307641863822937, -0.08484236150979996, -0.0474323071539402, -0.2055124193429947, 0.17449627816677094, -0.17846651375293732, -0.13422167301177979, 0.17446811497211456, -0.12872609496116638, -0.13866743445396423, 0.13883225619792938, -0.17575816810131073, 0.12781816720962524, 0.14238794147968292, -0.17760378122329712, 0.08610653132200241, 0.1289430856704712, -0.0663529634475708, -0.10642395913600922, -0.15296772122383118, -0.046345971524715424, -0.11854057013988495, 0.10324966162443161, 0.04037107899785042, -0.18069054186344147, -0.013048714026808739, 0.024305863305926323, -0.048519521951675415, -0.15107640624046326, 0.09485559165477753, 0.18829329311847687, -0.021501950919628143, 0.001441015861928463, 0.012645154260098934, 0.14842963218688965, -0.09900105744600296, -0.24906091392040253, 0.030483413487672806, 0.16194114089012146, -0.06811511516571045, -0.04557562619447708, -0.11658268421888351, 0.19482003152370453, 0.11740908026695251, 0.23854896426200867, 0.03045685961842537, 0.1252553015947342, -0.10277751833200455, 0.046608395874500275, -0.26448965072631836, 0.13482336699962616, -0.011624544858932495, -0.10327544063329697, -0.02798580564558506, -0.010570266284048557, -0.12790830433368683, -0.01679140515625477, 0.07547185570001602, -0.05174323543906212, -0.12492167204618454, 0.11427699774503708, 0.1369083970785141, -0.031208472326397896, -0.04905032366514206, -0.0200685765594244, -0.07377132773399353, -0.12980301678180695, -0.2924531102180481, 0.017872096970677376, 0.03635447844862938, -0.2819538414478302, 0.12140099704265594, 0.08561001718044281, 0.10362596809864044, 0.3600674867630005, 0.187856525182724, 0.3900506794452667, 0.03120679222047329, -0.22899505496025085, -0.03545955568552017, -0.09582813084125519, -0.13836148381233215, 0.3679506182670593, -0.27382293343544006, -0.06506075710058212, -0.316454142332077, 0.02063915506005287, 0.3300829827785492, 0.23292173445224762, -0.2119031548500061, -0.2258288711309433, -0.34416601061820984, 0.12345666438341141, 0.22189992666244507, 0.17400549352169037, -0.01908613182604313, -0.10063520818948746, 0.27985861897468567, 0.41472822427749634, -0.22991809248924255, 0.41180840134620667, 0.10864946991205215, -0.0975203812122345, 0.42062339186668396, -0.24142535030841827, -0.20206515491008759, 0.17074057459831238, -0.3379848301410675, -0.13581836223602295, 0.11557742953300476, -0.26463496685028076, -0.33557143807411194, 0.41581642627716064, -0.09064353257417679, -0.138582244515419, 0.15971159934997559, 0.45323312282562256, -0.0273730605840683, -0.03990460932254791, -0.21497340500354767, 0.2377224862575531, 0.11801467090845108, 0.27260053157806396, 0.09055277705192566, 0.012750682421028614, -0.039967384189367294, -0.07720742374658585, 0.06377236545085907, 0.06986299157142639, 0.06433048844337463, 0.08143021166324615, 0.16061300039291382, 0.1350674331188202, -0.010748492553830147, -0.0003063558542635292, 0.08309857547283173, -0.08521606773138046, 0.22542333602905273, -0.05042874813079834, 0.07990040630102158, -0.12269730865955353, 0.10907084494829178, -0.02878057025372982, 0.026774797588586807, -0.07324040681123734, 0.11639940738677979, -0.06884003430604935, 0.07189369201660156, -0.08515739440917969, 0.1467827707529068, -0.1754714995622635, -0.10243777185678482, 0.1239437460899353, -0.2122766524553299, -0.11595550179481506, 0.1256161481142044, -0.17203274369239807, 0.08912185579538345, 0.2255621999502182, -0.2365061491727829, -0.03978912904858589, 0.090083047747612, -0.2149888426065445, -0.11652185767889023, -0.12144362181425095, -0.07975561916828156, -0.06117231771349907, -0.04603145271539688, 0.07810197025537491, -0.08575665950775146, -0.08669533580541611, -0.20606310665607452, -0.13905437290668488, 0.19949428737163544, -0.1867431402206421, -0.13452477753162384, 0.11724962294101715, -0.050331961363554, 0.03876644745469093, 0.24959851801395416, 0.03263206407427788, 0.23855717480182648, -0.21492940187454224, 0.16443385183811188, -0.0643531009554863, 0.16462008655071259, 0.010745302774012089, 0.015903182327747345, -0.3295033872127533, 0.05941168963909149, 0.003825422842055559, -0.06425409764051437, -0.22861821949481964, 0.00593324052169919, -0.28844407200813293, 0.16248616576194763, -0.0679548904299736, 0.22453033924102783, -0.013774964027106762, 0.004644670058041811, 0.19292277097702026, -0.14791634678840637, 0.07249704748392105, 0.38330402970314026, -0.15325047075748444, 0.0025681667029857635, 0.2229255884885788, -0.1014496237039566, -0.0844673216342926, 0.173669695854187, -0.15025760233402252, 0.2457885444164276, -0.11419136077165604, 0.1466083526611328, 0.06053033098578453, -0.07154108583927155, -0.2630881071090698, 0.02816007100045681, -0.05425841361284256, 0.21309596300125122, -0.17593428492546082, 0.21456633508205414, 0.13919737935066223, 0.05954621359705925, 0.10121466964483261, -0.2878759205341339, -0.18022051453590393, 0.31768134236335754, 0.19094116985797882, 0.12076813727617264, -0.36378568410873413, -0.08799626678228378, -0.23572076857089996, 0.27950066328048706, 0.0514691136777401, 0.27062320709228516, -0.4352339506149292, -0.18418458104133606, -0.31989163160324097, 0.09786109626293182, 0.16143125295639038, -0.10758008062839508, 0.06646781414747238, 0.3792915940284729, -0.21017897129058838, 0.3383389413356781, 0.15288706123828888, -0.26947593688964844, 0.21306578814983368, 0.19024933874607086, -0.2662433385848999, 0.1703053116798401, 0.004863961134105921, -0.14210228621959686, 0.3410463333129883, -0.026993008330464363, -0.18793949484825134, 0.09469541162252426, 0.22934985160827637, 0.0951196700334549, -0.002951329108327627, 0.22883959114551544, 0.1998768001794815, 0.09696218371391296, 0.025975795462727547, 0.23318994045257568, -0.15050598978996277, 0.15670879185199738, -0.02708897553384304, -0.006142149213701487, -0.0024817960802465677, 0.08784476667642593, 0.07993867248296738, 0.03513803705573082, -0.03416939824819565, 0.05618419125676155, 0.324981153011322, -0.0935334861278534, -0.4596714675426483, 0.024608559906482697, 0.13367168605327606, -0.4791569113731384, 0.03692121431231499, -0.9481604695320129, -0.3626527488231659, -0.8561216592788696, 1.029435634613037, -0.6383932828903198, -0.6969889998435974, -0.9367477297782898, 0.3314184844493866, -0.6205376982688904, 0.6417236924171448, -0.5474581718444824, 0.026590298861265182, -0.12777435779571533, -0.13444724678993225, 0.16515155136585236, 0.03884468600153923, -0.09303412586450577, -0.0018864040030166507, -0.1758044809103012, -0.10319583863019943, 0.04009788855910301, -0.1611143946647644, 0.06492165476083755, 0.1315995156764984, 0.1551121473312378, 0.10829740762710571, 0.03017965331673622, -0.005460307002067566, -0.15490958094596863, -0.23621590435504913, -0.034547239542007446, -0.3327392339706421, 0.033091675490140915, 0.09996729344129562, -0.4431767761707306, 0.2484273910522461, -0.09636832028627396, -0.03377962484955788, 0.020960496738553047, -0.1379612535238266, 0.3008808195590973, 0.23396918177604675, 0.25616705417633057, -0.1081235259771347, -0.2741144299507141, 0.053681474179029465, 0.21776176989078522, 0.04661243408918381, 0.05563417822122574, 0.032322291284799576, -0.022091612219810486, -0.039536990225315094, 0.052203867584466934, -0.17189033329486847, -0.2312142252922058, -0.1133463978767395, 0.10390482097864151, 0.15285196900367737, 0.041413646191358566, -0.11270388960838318, 0.26632797718048096, 0.10924074053764343, 0.06368829309940338, 0.2616255581378937, 0.07748454064130783, 0.11776969581842422, 0.009992990642786026, -0.1221456378698349, -0.2803169786930084, 0.24443450570106506, 0.026102082803845406, 0.3212842643260956, 0.1475517749786377, -0.2250600904226303, -0.12728509306907654, 0.14673763513565063, -0.16016797721385956, -0.03772258758544922, 0.007679364178329706, 0.2877344787120819, -0.18954205513000488, -0.07847099751234055, 0.41812822222709656, -0.03114614263176918, -0.03456592932343483, 0.1179375946521759, 0.2978350520133972, -0.11125858128070831, -0.21985884010791779, -0.159908726811409, -0.17905674874782562, -0.009201296605169773, -0.15261361002922058, -0.5015959739685059, -0.25050482153892517, -0.31453844904899597, -0.1958349198102951, -0.09481649100780487, -0.20419423282146454, 0.17622743546962738, 0.36941879987716675, -0.1257271021604538, -0.20574304461479187, -0.17988145351409912, -0.14791814982891083, 0.23168808221817017, 0.3610883355140686, 0.18705998361110687, 0.02007834054529667, 0.2904796004295349, -0.3080776333808899, 0.0927562266588211, 0.3704136610031128, -0.0406770259141922, -0.07555568218231201, 0.09229236841201782, -0.0007729021599516273, 0.0551612488925457, 0.09589407593011856, -0.04676069691777229, 0.10394643992185593, -0.11926906555891037, 0.24563533067703247, 0.10363505035638809, 0.0958184152841568, 0.0460977740585804, 0.0675201416015625, 0.020640313625335693, -0.06878883391618729, -0.17803213000297546, -0.020277317613363266, 0.06980835646390915, 0.19279393553733826, -0.07855211198329926, -0.03425034508109093, 0.037905167788267136, -0.07430322468280792, 0.2110610008239746, 0.14616836607456207, -0.04046862572431564, 0.261239618062973, -0.20606714487075806, -0.18722084164619446, -0.20528967678546906, 0.027226341888308525, 0.0634172335267067, -0.46682992577552795, 0.28127747774124146, -0.03650062531232834, 0.09988038241863251, -0.3588952124118805, 0.05577922239899635, 0.3283434212207794, 0.21433928608894348, 0.3228589594364166, 0.006284661125391722, 0.20838135480880737, -0.0428897961974144, 0.17685015499591827, 0.26633220911026, -0.005171353928744793, -0.06874508410692215, -0.144783154129982, 0.20833703875541687, -0.03185659646987915, 0.06318053603172302, 0.031517308205366135, 0.6696863174438477, 0.06500876694917679, 0.14340153336524963, -0.19738516211509705, -0.047647684812545776, -0.20492716133594513, -0.177007257938385, 0.20991183817386627, -0.06512784212827682, -0.16513913869857788, 0.007268392015248537, 0.012200403958559036, 0.10105091333389282, 0.192083477973938, -0.33689138293266296, 0.014272605068981647, -0.0978340283036232, -0.006836672313511372, 0.08975669741630554, -0.06621081382036209, 0.23591606318950653, 0.27934786677360535, -0.05392880365252495, -0.04386206343770027, -0.14929242432117462, 0.00044523770338855684, 0.024302199482917786, 0.3761206865310669, -0.2930549085140228, 0.15198689699172974, 0.2735961973667145, -0.02269389107823372, -0.15747173130512238, -0.09077377617359161, -0.00028029465465806425, -0.25686681270599365, -0.2026665210723877, -0.13968265056610107, -0.036354027688503265, 0.0840480700135231, -0.03407548367977142, -0.09544884413480759, -0.07434692233800888, 0.043904390186071396, 0.03858356922864914, 0.043204471468925476, -0.12954537570476532, -0.2176433503627777, 0.0670330747961998, 0.05661587044596672, 0.14875972270965576, 0.05382521077990532, 0.056266944855451584, 0.11995025724172592, 0.036871202290058136, 0.27564460039138794, 0.052689630538225174, 0.112273208796978, -0.0019355808617547154, -0.141665518283844, 0.18281376361846924, -0.00043299098615534604, 0.17428825795650482, -0.19749592244625092, 0.17055627703666687, 0.16965070366859436, 0.10508643835783005, -0.18218682706356049, -0.033554770052433014, -0.09386663138866425, -0.07513004541397095, -0.13119927048683167, -0.3619364798069, -0.2307027131319046, 0.1552128791809082, 0.07836950570344925, -0.1371118724346161, 0.19880172610282898, -0.1990445852279663, 0.07308253645896912, -0.35312193632125854, 0.30394890904426575, 0.22206297516822815, 0.14259393513202667, 0.2807270884513855, -0.28125521540641785, -0.06360232084989548, -0.3731832206249237, -0.6308234930038452, 0.16156837344169617, -0.09953819960355759, 0.2597838044166565, 0.13256819546222687, -0.013675444759428501, 0.3042423129081726, 0.10182676464319229, -0.5694341659545898, 0.02540462277829647, 0.04095135256648064, -0.12595222890377045, -0.14742246270179749, -0.03187720850110054, -0.034410323947668076, -0.1008773148059845, -0.14903199672698975, 0.02522711455821991, 0.2886256277561188, 0.18756183981895447, 0.03893819823861122, 0.16860772669315338, -0.06416849046945572, -0.1488138884305954, 0.1311480849981308, -0.008376541547477245, -0.11820764094591141, 0.12252978980541229, -0.029082201421260834, -0.11137555539608002, -0.2304174154996872, -0.049065131694078445, -0.2134614884853363, -0.010368985123932362, -0.11512447148561478, -0.06329952925443649, 0.10341937094926834, 0.06018935516476631, -0.34609538316726685, -0.19001400470733643, 0.14217379689216614, 0.08192386478185654, -0.2603338062763214, 0.06403839588165283, 0.14447109401226044, -0.12540937960147858, -0.16192764043807983, -0.09662719815969467, 0.12216997146606445, 0.020432433113455772, 0.16719256341457367, -0.11956319212913513, -0.12287304550409317, 0.022691497579216957, 0.13322363793849945, -0.08935137838125229, -0.0753907710313797, 0.14268282055854797, -0.2828903794288635, -0.10820750892162323, -0.16645517945289612, -0.080760158598423, -0.023534847423434258, 0.1181458979845047, 0.021884772926568985, 0.08858462423086166, 0.24147693812847137, -0.08831518888473511, -0.01272646151483059, 0.10583283007144928, 0.042780254036188126, 0.025141017511487007, -0.03924655541777611, 0.12381831556558609, 0.04092332348227501, -0.08406324684619904, -0.06297679990530014, -0.04013049602508545, 0.17692279815673828, -0.2355891466140747, 0.25411680340766907, -0.18991082906723022, 0.23629844188690186, 0.14826008677482605, 0.07113979011774063, -0.0836385115981102, -0.1114194393157959, -0.2655225992202759, 0.16744071245193481, -0.23866093158721924, 0.192227303981781, -0.2929850220680237, 0.05721289664506912, -0.02288450114428997, 0.1489345282316208, -0.12406608462333679, -0.01533431839197874, -0.1429181545972824, -0.15831990540027618, -0.030514806509017944, 0.0044933706521987915, -0.006934087723493576, -0.3330853283405304, 0.40774986147880554, 0.20178471505641937, 0.027084602043032646, 0.13454210758209229, 0.01377489510923624, -0.0458889864385128, -0.03290439769625664, -0.1454642415046692, -0.1933102309703827, 0.08470383286476135, 0.21012821793556213, -0.006174319423735142, 0.0341462641954422, 0.07222640514373779, -0.26504620909690857, -0.003090163227170706, 0.1432618647813797, 0.019603794440627098, 0.0644252747297287, 0.05155579373240471, 0.1478155553340912, -0.19992098212242126, -0.01636570505797863, 0.3019750118255615, 0.2740447521209717, 0.08214809745550156, -0.4967994689941406, 0.35647568106651306, 0.04650311544537544, -0.2226381003856659, 0.06439752131700516, -0.046056125313043594, 0.17826589941978455, -0.23524543642997742, -0.18845734000205994, 0.2752302587032318, -0.21612632274627686, 0.2616787552833557, -0.09734145551919937, 0.3231700658798218, 0.12981855869293213, -0.3484122157096863, -0.26305341720581055, 0.1616562306880951, 0.19976532459259033, 0.3930897116661072, 0.08460571616888046, -0.29813122749328613, 0.0018352442421019077, 0.5286786556243896, 0.06881848722696304, 0.13578763604164124, 0.12014201283454895, -0.4126351475715637, 0.27286672592163086, -0.01744791679084301, -0.24806459248065948, 0.26037922501564026, -0.051827576011419296, -0.33496737480163574, 0.26293736696243286, 0.009888741187751293, -0.1802571415901184, 0.334379643201828, -0.09432915598154068, -0.4316408038139343, -0.2261047065258026, -0.2845486104488373, -0.08067014068365097, -0.22943180799484253, -0.07772109657526016, 0.3581932783126831, -0.0953090637922287, 0.16856303811073303, -0.04629828780889511, 0.24372462928295135, 0.16519729793071747, -0.22633789479732513, 0.19621433317661285, 0.079697385430336, -0.11694339662790298, 0.1005995124578476, -0.06776263564825058, 0.033118121325969696, -0.3574105203151703, -0.028810562565922737, 0.31088417768478394, 0.31556960940361023, 0.01591268554329872, -0.303205668926239, -0.11266281455755234, -0.0486457534134388, 0.19964565336704254, 0.10336321592330933, 0.08307868987321854, -0.13235391676425934, -0.10294921696186066, -0.33260059356689453, 0.0029969201423227787, 0.15655595064163208, 0.09450652450323105, -0.0605732798576355, 0.3009110391139984, -0.02373754419386387, -0.29393380880355835, 0.08913978934288025, 0.0632157027721405, -0.05657712742686272, 0.23350970447063446, 0.04858607053756714, 0.034792084246873856, 0.17633670568466187, 0.005826800130307674, -0.041353389620780945, -0.12256515026092529, -0.04233662784099579, -0.1646067053079605, 0.2355303168296814, -0.09150681644678116, -0.16720229387283325, -0.21771398186683655, -0.05333247780799866, 0.16485533118247986, -0.14684797823429108, 0.04760117083787918, 0.06710990518331528, -0.017020508646965027, 0.16797186434268951, -0.014698159880936146, 0.0896034985780716, 0.17253485321998596, -0.2063046544790268, 0.16689230501651764, -0.04601083695888519, -0.018684757873415947, -0.3237462043762207, -0.12778238952159882, 0.29113560914993286, 0.07285706698894501, -0.09809117019176483, -0.025790411978960037, -0.16876403987407684, -0.20837949216365814, 0.2879113256931305, -0.053848352283239365, 0.09834320843219757, 0.24759240448474884, -0.21288904547691345, -0.05073476582765579, 0.18552199006080627, -0.17201751470565796, 0.04212627559900284, 0.025246476754546165, -0.28070661425590515, -0.0019528334960341454, -0.01636340841650963, -0.23362216353416443, -0.15140728652477264, 0.25769928097724915, -0.17471830546855927, -0.16458988189697266, 0.31880342960357666, 0.2068544626235962, -0.10600894689559937, -0.1349974423646927, 0.02645828388631344, 0.0063163465820252895, 0.015988880768418312, 0.12163495272397995, -0.09039382636547089, -0.003981493879109621, 0.11552979052066803, -0.11081337928771973, -0.11036348342895508, 0.0043743751011788845, 0.001546630635857582, -0.022442994639277458, 0.0428888201713562, 0.00333607685752213, 0.28749439120292664, -0.282382607460022, -0.06067840754985809, 0.17144891619682312, 0.0360826812684536, 0.0736541673541069, -0.06248752027750015, -0.15851068496704102, -0.08113444596529007, 0.09289293736219406, 0.17733953893184662, -0.032459378242492676, -0.23992015421390533, -0.0476376935839653, 0.11050999164581299, -0.10211396962404251, 0.18358726799488068, 0.034723784774541855, 0.04131360352039337, 0.14498688280582428, 0.08882740139961243, -0.014888004399836063, 0.21861228346824646, -0.06305719912052155, -0.005316507536917925, 0.0736670270562172, -0.007933758199214935, -0.034503139555454254, 0.10317245870828629, -0.09557972103357315, -0.17086073756217957, 0.27073976397514343, -0.09457465261220932, 0.2520846426486969, -0.19324898719787598, -0.12757548689842224, -0.0683177039027214, -0.23115742206573486, 0.03356737270951271, 0.08568451553583145, -0.06796078383922577, -0.022751381620764732, -0.02192751131951809, 0.19879862666130066, 0.13388673961162567, 0.15896137058734894, 0.18127888441085815, 0.08036144822835922, -0.048355359584093094, -0.15418264269828796, 0.1786230057477951, -0.032342806458473206, -0.09431911259889603, -0.013693147338926792, -0.06600704044103622, -0.008295274339616299, 0.031538888812065125, -0.12346982955932617, -0.2334011346101761, -0.0413852334022522, 0.18506959080696106, -0.2766842842102051, 0.058730386197566986, 0.0623970553278923, -0.35511472821235657, 0.023445716127753258, -0.16704517602920532, -0.002922643208876252, -0.08677291870117188, -0.03122761845588684, -0.26288720965385437, 0.1013418436050415, 0.1829022467136383, -0.21516110002994537, -0.13566350936889648, -0.07160481065511703, -0.2132425457239151, 0.06612688302993774, 0.14093655347824097, 0.01748490147292614, -0.060787588357925415, -0.2107013761997223, -0.06555613875389099, 0.02053624391555786, -0.05933428183197975, 0.28889915347099304, 0.10944443196058273, 0.20841804146766663, 0.08947937935590744, 0.10706909745931625, -0.06119813770055771, -0.10947256535291672, 0.003026979975402355, -0.12492959201335907, -0.2147587239742279, 0.07389011234045029, 0.07759743183851242, -0.19852563738822937, 0.1458262950181961, 0.08833735436201096, 0.019223103299736977, -0.023821726441383362, -0.05067683383822441, -0.043031834065914154, 0.07015116512775421, 0.016479765996336937, 0.11960811167955399, 0.007020371966063976, -0.22610518336296082, -0.010840038768947124, 0.0661468580365181, -0.20346404612064362, 0.16091644763946533, -0.14988455176353455, -0.04323510453104973, 0.1698988974094391, 0.09433555603027344, -0.1618388146162033, 0.07338877767324448, 0.010495176538825035, 0.17469462752342224, 0.055872902274131775, -0.17171195149421692, -0.0014537121169269085, 0.0809030756354332, -0.01725575141608715, -0.16084741055965424, -0.0030570600647479296, -0.017276769503951073, 0.30414047837257385, -0.34617942571640015, -0.09456755220890045, 0.010317428037524223, -0.09727423638105392, -0.03144191950559616, 0.03971976414322853, -0.03209542855620384, -0.028022415935993195, -0.09917076677083969, -0.4469412565231323, -0.026620706543326378, -0.09323467314243317, -0.07170949131250381, -0.23778237402439117, -0.09177125990390778, 0.20185863971710205, 0.04485514760017395, -0.17354121804237366, 0.1101585254073143, -0.10460656881332397, 0.025798261165618896, 0.30733048915863037, 0.1628999263048172, 0.033418603241443634, -0.0005897882510907948, -0.13691653311252594, 0.012630760669708252, -0.42208608984947205, 0.09665393829345703, 0.006864681839942932, 0.11719173938035965, -0.1519469916820526, -0.1460721790790558, 0.37285465002059937, 0.013295896351337433, -0.01992759294807911, -0.03543251380324364, 0.06677018105983734, 0.02104962058365345, -0.11396730691194534, -0.09056162089109421, 0.1597861647605896, 0.32721319794654846, 0.12939512729644775, -0.029452500864863396, 0.8651554584503174, -0.026036599650979042, 0.23009714484214783, 0.02389894239604473, -0.07336470484733582, -0.3829440772533417, -0.025329072028398514, 0.26593056321144104, 0.20189553499221802, -0.10151952505111694, 0.07216231524944305, 0.23262684047222137, -0.07578631490468979, -0.11855528503656387, -0.012749218381941319, 0.11090513318777084, -0.061581969261169434, -0.06537601351737976, 0.044759199023246765, 0.010383281856775284, -0.14944180846214294, -0.28963425755500793, 0.033917058259248734, 0.040483392775058746, 0.03005857951939106, -0.23126648366451263, -0.2726539373397827, -0.20319727063179016, -0.1378331184387207, 0.2715819478034973, 0.16582199931144714, -0.11342593282461166, -0.001621485105715692, -0.10059834271669388, 0.08341500163078308, 0.06252635270357132, -0.2447575032711029, 0.11845827102661133, 0.057984281331300735, 0.01151927188038826, 0.15872743725776672, 0.022782064974308014, -0.11432872712612152, -0.037140414118766785, 0.07753519713878632, -0.16936835646629333, 0.14476676285266876, 0.11705798655748367, 0.01231924258172512, -0.006712295114994049, -0.2193719446659088, -0.2101317048072815, -0.042130906134843826, 0.2565443217754364, 0.015839777886867523, 0.42032477259635925, 0.016568157821893692, 0.1673991084098816, 0.15766765177249908, 0.006590919103473425, 0.03074236959218979, -0.3457701504230499, 0.556425154209137, 0.4756891131401062, -0.13647772371768951, 0.20206014811992645, -0.09951582551002502, 0.6225293278694153, -0.2629426419734955, 0.18205150961875916, 0.15601356327533722, -0.31321820616722107, -0.21498757600784302, 0.05807804316282272, -0.0294843390583992, 0.025603095069527626, 0.1535443514585495, -0.18535231053829193, -0.5173376798629761, -0.37693849205970764, 0.41914910078048706, 0.16591212153434753, 0.10096674412488937, -0.10119978338479996, 0.3212568461894989, -0.062371399253606796, -0.07017198204994202, 0.15903012454509735, 0.15133081376552582, -0.08664096891880035, 0.0479983352124691, -0.18813200294971466, -0.1347055435180664, 0.14509280025959015, 0.27439287304878235, -0.36267635226249695, 0.005491491872817278, 0.09922458976507187, -0.693963885307312, 0.15022872388362885, -0.048823416233062744, -0.044174518436193466, -0.07279796153306961, -0.17789903283119202, 0.09955677390098572, -0.0800938531756401, 0.0034353965893387794, 0.19299903512001038, -0.22049480676651, 0.015820348635315895, 0.16348786652088165, 0.14673848450183868, 0.05102590098977089, -0.10207785665988922, 0.09734555333852768, -0.2596459686756134, -0.08859146386384964, -0.1531212031841278, 0.10723374038934708, 0.26385998725891113, 0.2376341074705124, -0.04210931435227394, -0.1809133142232895, -0.25240156054496765, 0.03757740929722786, 0.027219917625188828, -0.25053849816322327, 0.1424304097890854, 0.06630174070596695, -0.16061429679393768, -0.047705043107271194, 0.008037561550736427, -0.02991812489926815, -0.041535634547472, 0.21272361278533936, -0.10444197058677673, 0.00039204195491038263, -0.058485355228185654, -0.21084849536418915, -0.047363895922899246, 0.24832099676132202, -0.1469363421201706, -0.14764688909053802, 0.27284374833106995, 0.08874695003032684, -0.3073892593383789, -0.37190964818000793, -0.20365846157073975, -0.09456056356430054, 0.29458850622177124, 0.2989540696144104, -0.05296102911233902, -0.2666585445404053, 0.18395648896694183, -0.10909909754991531, -0.036775022745132446, -0.006244676187634468, 0.229716956615448, -0.08603160083293915, 0.11656217277050018, 0.2911667823791504, 0.4240614175796509, -0.07222775369882584, -0.11061301827430725, 0.09426269680261612, 0.07931721955537796, 0.16247360408306122, -0.17469199001789093, -0.12314298003911972, -0.25578340888023376, -0.04999931901693344, 0.18076612055301666, -0.1389155238866806, -0.09861268848180771, -0.11443290114402771, 0.0023860507644712925, -0.028776168823242188, 0.2483503222465515, 0.2045968770980835, 0.0005826415144838393, 0.24863311648368835, 0.06560579687356949, 0.05718791484832764, -0.014829149469733238, 0.020829875022172928, -0.17883093655109406, 0.16179470717906952, 0.033820152282714844, -0.12254504859447479, 0.1842006891965866, 0.11055412143468857, -0.23082184791564941, 0.21638984978199005, -0.15245385468006134, 0.14655067026615143, 0.004696608986705542, 0.05189789831638336, -0.0656903088092804, 0.18411603569984436, -0.24106352031230927, -0.020010219886898994, 0.2698468863964081, -0.002591197844594717, -0.12379239499568939, -0.0286723505705595, 0.42391374707221985, -0.2919194996356964, -0.2661154568195343, 0.07419122755527496, 0.44600972533226013, -0.042840924113988876, -0.44613245129585266, 0.5188391804695129, 0.1469888538122177, -0.038994211703538895, -0.0563928447663784, -0.057524267584085464, -0.04476781561970711, -0.0804453119635582, 0.15111681818962097, 0.010476541705429554, -0.09362589567899704, 0.41068023443222046, 0.3625168800354004, -0.44974127411842346, 0.08867146074771881, -0.1301957070827484, -0.11503972113132477, -0.06308816373348236, -0.013704203069210052, 0.0443410649895668, 0.060767192393541336, -0.14870543777942657, 0.0253435131162405, 0.2154875546693802, 0.1286594271659851, -0.42486870288848877, -0.06364963948726654, -0.18636417388916016, 0.04307694360613823, -0.4502812325954437, -0.45635637640953064, 0.4993354082107544, -0.017292717471718788, 0.266485333442688, 0.18504613637924194, 0.09292507916688919, -0.36507755517959595, 0.1378282755613327, 0.053807105869054794, -0.055505022406578064, 0.1095808669924736, 0.053059887140989304, 0.23913611471652985, -0.023048654198646545, 0.08370690047740936, 0.048913877457380295, -0.18957379460334778, -0.10865466296672821, -0.4851008653640747, 0.12037348002195358, 0.0207217950373888, -0.02763385698199272, -0.07689941674470901, -0.1531526744365692, -0.04622058570384979, 0.046408720314502716, 0.09335256367921829, -0.16745251417160034, 0.14351871609687805, -0.837014377117157, 0.06432168930768967, -0.01700674742460251, 0.1169671043753624, 0.011604318395256996, 0.17254893481731415, 0.11236628144979477, 0.08423313498497009, -0.13930322229862213, -0.15119771659374237, -0.16433893144130707, -0.0005330282729119062, -0.08554394543170929, -0.0960216373205185, 0.12649379670619965, 0.14160557091236115, -0.19649174809455872, 0.1189332902431488, 0.4803149998188019, -0.3488609194755554, -0.2230849266052246, 0.20909102261066437, 0.11267353594303131, -0.07392552495002747, -0.09705080837011337, -0.09037891030311584, 0.22087585926055908, -0.2725081443786621, 0.03373955935239792, 0.1883106231689453, -0.22455079853534698, 0.06527870893478394, 0.2595154643058777, 0.1465255618095398, 0.26357749104499817, -0.04506969824433327, 0.3323323428630829, -0.12651434540748596, -0.2455093264579773, -0.13130350410938263, -0.04630649834871292, 0.25809991359710693, 0.2149340659379959, 0.05593191087245941, -0.016019834205508232, -0.20092809200286865, -0.13356009125709534, 0.15959951281547546, -0.21161772310733795, -0.0653337761759758, 0.1904873102903366, -0.22373256087303162, -0.18292300403118134, 0.14918507635593414, -0.38606852293014526, 0.02571103535592556, 0.2138243168592453, -0.2756665050983429, 0.1500636786222458, -0.08870749920606613, -0.24497155845165253, 0.030314933508634567, 0.11220893263816833, -0.0628809779882431, -0.10514524579048157, 0.10399728268384933, 0.0731031745672226, -0.1552560031414032, -0.008054617792367935, 0.12129105627536774, 0.08390893042087555, 0.10772749036550522, -0.14028619229793549, -0.0623418353497982, -0.0625801607966423, -0.15079353749752045, -0.13743604719638824, 0.1928146481513977, -0.06201571971178055, -0.09445259720087051, -0.07193275541067123, -0.3409189283847809, -0.09492188692092896, -0.1527087241411209, -0.12192872166633606, -0.18130551278591156, -0.4980233311653137, 0.960611879825592, 0.3305908441543579, -0.34377849102020264, 0.026173358783125877, -0.10500335693359375, -0.20588868856430054, 0.37653300166130066, -0.7700141072273254, 0.7957891225814819, 0.7433184385299683, -0.002174471039324999, -0.4770600199699402, 0.24616427719593048, -0.5780226588249207, 0.28339818120002747, -0.05173039436340332, 0.10683988779783249, -0.2878103256225586, 0.10698463022708893, 0.24691200256347656, 0.23023438453674316, 0.13352836668491364, -1.19186079245992e-05, 0.09224002808332443, 0.17050446569919586, 0.27708637714385986, -0.309817373752594, 0.15666481852531433, 0.07741200178861618, -0.20178747177124023, 0.14994153380393982, -0.03162665665149689, 0.05129173770546913, 0.07124980539083481, 0.535143256187439, 0.05645657330751419, -0.028759881854057312, -0.2901317775249481, -0.09198268502950668, -0.024187121540308, -0.37910133600234985, 0.031755395233631134, 0.05025371536612511, 0.1561485379934311, 0.24694712460041046, -0.023624973371624947, 0.020335784181952477, -0.12796741724014282, -0.056401774287223816, -0.2267323136329651, 0.48622626066207886, 0.07856547832489014, -0.14585477113723755, -0.013595301657915115, 0.0195025522261858, 0.05362268537282944, -0.4408644437789917, 0.1888526976108551, 0.19878128170967102, -0.2749097943305969, 0.0015986139187589288, 0.2799234986305237, 0.14617371559143066, 0.032182496041059494, 0.23612278699874878, 0.02430545538663864, -0.13064798712730408, 0.2707315981388092, -0.3595040440559387, 0.4543122351169586, 0.3982274532318115, -0.23337702453136444, 0.1652371883392334, -0.17955493927001953, 0.33864131569862366, 0.028148598968982697, 0.13761422038078308, -0.1911781132221222, 0.31375330686569214, -0.2958837151527405, 0.214566171169281, -0.2242375761270523, 0.3526921570301056, -0.4556538462638855, 0.26671838760375977, -0.1549820750951767, 0.1388302892446518, 0.17137624323368073, -0.30088022351264954, 0.3402406871318817, -0.39136847853660583, -0.3875245749950409, -0.10817068815231323, -0.0014477892545983195, -0.013524994254112244, 0.034271638840436935, 0.03995037451386452, -0.22076289355754852, 0.04898162558674812, 0.40860021114349365, 0.29743802547454834, 0.29880431294441223, 0.27682527899742126, -0.19262440502643585, -0.13512739539146423, 0.26979973912239075, 0.32700052857398987, 0.1528826355934143, 0.4073449671268463, 0.1065111979842186, 0.040279120206832886, 0.22120627760887146, -0.21979275345802307, 0.12634031474590302, 0.22520487010478973, 0.015034516341984272, 0.1634211540222168, 0.009862556122243404, -0.12016256898641586, 0.23176242411136627, 0.27264776825904846, -0.20500627160072327, 0.30609941482543945, 0.06466834247112274, 0.019672930240631104, 0.21225705742835999, 0.20806817710399628, 0.04725014790892601, -0.3872009217739105, -0.11354182660579681, 0.29044049978256226, 0.14001710712909698, 0.15150752663612366, -0.1977209448814392, -0.25485795736312866, 0.26621192693710327, 0.07358786463737488, 0.4128069281578064, -0.11335340142250061, 0.10647623986005783, 0.11871790885925293, 0.025051958858966827, -0.19917358458042145, 0.26920372247695923, -0.3345832824707031, 0.127903014421463, 0.3801308572292328, 0.15866613388061523, -0.20168852806091309, -0.048289041966199875, 0.07399497926235199, 0.21188253164291382, -0.2499181628227234, 0.3701935410499573, -0.28396472334861755, -0.1979944407939911, -0.04282752424478531, 0.18063503503799438, 0.21261826157569885, -0.2174864113330841, 0.04556428641080856, 0.23031984269618988, -0.10343427956104279, 0.32348769903182983, -0.13629600405693054, 0.09024889022111893, 0.16083016991615295, -0.1318802684545517, 0.20841015875339508, -0.09047012031078339, 0.18135756254196167, 0.02358917146921158, 0.5495557188987732, -0.031037097796797752, 0.2559465765953064, -0.1915782243013382, -0.5099309086799622, -0.3860473930835724, 0.5872656106948853, -0.30355483293533325, 0.13680797815322876, -0.009928537532687187, 0.13114674389362335, 0.2297273874282837, -0.28318464756011963, 0.19871318340301514, -0.13080066442489624, -0.2881321609020233, -0.1304188370704651, 0.3401618003845215, 0.07543536275625229, 0.08270014822483063, -0.14075937867164612, -0.09022072702646255, 0.08946113288402557, 0.2660881578922272, 0.24818862974643707, 0.01661098748445511, -0.20771563053131104, -0.08103777468204498, -0.42460042238235474, 0.32330501079559326, -0.378142774105072, -0.25741592049598694, 0.010373231954872608, 0.26045942306518555, -0.21861331164836884, -0.21342599391937256, -0.3449748456478119, -0.10364660620689392, 0.4566270709037781, -0.12584686279296875, -0.0970584899187088, -0.23764699697494507, -0.19039011001586914, 0.19316431879997253, -0.42859047651290894, 0.3749673366546631, 0.06367175281047821, -0.26244816184043884, 0.1450645625591278, 0.20766881108283997, 0.026578709483146667, 0.05065344274044037, -0.2545222342014313, -0.004883523564785719, -0.04062008112668991, -0.26046445965766907, 0.556609570980072, -0.26225513219833374, -0.3669019341468811, 0.16972067952156067, 0.13739462196826935, -0.029210232198238373, -0.052343595772981644, 0.11456384509801865, 0.040434252470731735, -0.035830747336149216, 0.04704609513282776, -0.1685866117477417, 0.0005642147152684629, -0.2117195427417755, -0.07991567999124527, 0.16171041131019592, 0.01378636248409748, 0.08547867834568024, 0.2584940791130066, 0.10985786467790604, -0.05882498249411583, 0.29135623574256897, 0.05488920211791992, 0.1321547031402588, 0.22759614884853363, -0.08341305702924728, -0.10615840554237366, 0.06013285368680954, -0.420833557844162, -0.12626424431800842, 0.19144055247306824, -0.18937291204929352, -0.060643840581178665, -0.470243364572525, -0.4007332921028137, 0.5090994238853455, 0.17582610249519348, 0.5693004727363586, -0.39135614037513733, -0.09280171990394592, -0.15873612463474274, 0.23705358803272247, 0.15565714240074158, 0.05340667814016342, 0.0038887914270162582, -0.09858626872301102, -0.11982906609773636, 0.14532406628131866, 0.1283479481935501, 0.2635743021965027, -0.39638110995292664, -0.0078116487711668015, -0.1030636578798294, 0.0006725624552927911, 0.1615772545337677, 0.3535411059856415, -0.16933134198188782, 0.23572273552417755, -0.12124940007925034, -0.04601897671818733, 0.14434239268302917, -0.03377178683876991, 0.0793953388929367, -0.02328534796833992, 0.21066908538341522, -0.06525538116693497, 0.0218465905636549, 0.05193798616528511, 0.09954527020454407, 0.06408034265041351, -0.14578847587108612, -0.1581220030784607, -0.022457722574472427, -0.060601528733968735, 0.03763537108898163, 0.1300552785396576, 0.3573417663574219, -0.0321374386548996, -0.18502050638198853, -0.3836488723754883, 0.03871293365955353, 0.1076544001698494, 0.20232027769088745, -0.1141439750790596, -0.19218553602695465, -0.005600757896900177, 0.205348938703537, -0.25225967168807983, -0.11589281260967255, -0.04862840473651886, 0.20850004255771637, 0.3201974332332611, -0.20573264360427856, -0.022824179381132126, -0.087506003677845, 0.10112319886684418, -0.08347832411527634, 0.18522880971431732, 0.030637118965387344, -0.2320757359266281, 0.10302343964576721, -0.07922535389661789, -0.1626749336719513, -0.05203452333807945, -0.12018579244613647, 0.12611538171768188, 0.10333485901355743, 0.07623253017663956, -0.025460239499807358, -0.02859184518456459, -0.1841621994972229, -0.15730854868888855, 0.028159338980913162, -0.03148867189884186, -0.05443965643644333, 0.0624808743596077, 0.15208210051059723, 0.10301247239112854, 0.135342076420784, 0.038949284702539444, 0.13204792141914368, 0.08436109870672226, -0.3144100308418274, -0.03802431747317314, -0.18660645186901093, 0.10911284387111664, -0.06420765072107315, -0.015123754739761353, -0.27504730224609375, -0.1029217392206192, -0.013504252769052982, 0.2522544264793396, -0.0747029036283493, 0.17128106951713562, -0.105979323387146, -0.21983292698860168, 0.0786166861653328, 0.3572891056537628, 0.15792065858840942, 0.15514791011810303, 0.13953827321529388, -0.14358088374137878, -0.20975801348686218, -0.09832781553268433, -0.0062390719540417194, -0.10866141319274902, 0.14749252796173096, 0.011888692155480385, 0.1227460503578186, 0.13019350171089172, -0.03701753541827202, -0.12850426137447357, 0.0055609154514968395, -0.1037159189581871, -0.3125598132610321, -0.09273633360862732, 0.1982622891664505, 0.0863451436161995, -0.08032331615686417, -0.3140473961830139, -0.21737322211265564, 0.04123090207576752, 0.2044142782688141, 0.08772796392440796, -0.046928901225328445, -0.08506258577108383, -0.11891406029462814, 0.00991117674857378, 0.12635263800621033, -0.26351407170295715, -0.0425400584936142, 0.06816266477108002, 0.22469168901443481, 0.06351162493228912, -0.24750731885433197, -0.24325917661190033, -0.024883734062314034, 0.1215701550245285, 0.1315736025571823, 0.05656791105866432, -0.08169399201869965, 0.23063769936561584, -0.2430563122034073, -0.11855323612689972, -0.34826692938804626, 0.2697058320045471, 0.07206443697214127, 0.0714813694357872, 0.05703520029783249, 0.061246346682310104, -0.42094889283180237, 0.1098405122756958, -0.07752929627895355, 0.1381157785654068, -0.04128728061914444, -0.18581457436084747, 0.27626943588256836, -0.11835912615060806, -0.18959453701972961, -0.4832947254180908, 0.2062278687953949, 0.19657504558563232, 0.02327783778309822, 0.1711592823266983, 0.00452817790210247, 0.17403237521648407, -0.058137014508247375, 0.1703060418367386, -0.019065629690885544, 0.16498327255249023, -0.020772749558091164, -0.030143683776259422, -0.026402410119771957, 0.019444873556494713, -0.014888330362737179, 0.10430025309324265, -0.07431768625974655, 0.00981969852000475, -0.10270906239748001, 0.13677607476711273, 0.1612037718296051, 0.037183307111263275, -0.04197966679930687, -0.06443687528371811, -0.004075468517839909, 0.09953701496124268, 0.06002403050661087, -0.06304290890693665, -0.17908939719200134, -0.0737447738647461, -0.19228269159793854, -0.027489252388477325, -0.20500455796718597, 0.627319872379303, -0.00591588718816638, 0.03629559651017189, 0.35592740774154663, 0.15572458505630493, -0.24280644953250885, 0.2841176986694336, -0.16041749715805054, 0.14078471064567566, 0.11781616508960724, -0.18359695374965668, -0.13053248822689056, 0.0961233600974083, -0.15641635656356812, -0.2063136249780655, 0.3009743392467499, -0.24183452129364014, 0.15409241616725922, -0.11535735428333282, -0.1590811014175415, 0.008714095689356327, -0.4960361421108246, -0.13543887436389923, -0.16612732410430908, 0.290271133184433, 0.021159879863262177, 0.2519361078739166, -0.04759718477725983, 0.13611914217472076, 0.18700459599494934, -0.11442650854587555, -0.16433924436569214, -0.0792144313454628, 0.04906487092375755, 0.06562350690364838, -0.1740337461233139, 0.043858837336301804, 0.09464944154024124, -0.0012516803108155727, 0.011776589788496494, -0.09284448623657227, -0.2044442892074585, 0.1727364957332611, -0.016979306936264038, -0.23146411776542664, -0.017576802521944046, 0.3686842918395996, -0.061653878539800644, 0.3395081162452698, -0.05036546289920807, -0.041504159569740295, 0.17373020946979523, -0.040360163897275925, -0.2848797142505646, 0.21291667222976685, 0.10549096763134003, -0.251522034406662, 0.03521173074841499, 0.023005284368991852, -0.18377774953842163, 0.05557062476873398, -0.049996063113212585, -0.003539440454915166, 0.2348138839006424, 0.011277660727500916, 0.04755230247974396, -0.12303173542022705, -0.09668263047933578, -0.11947211623191833, 0.2591249346733093, -0.049215350300073624, -0.2015771120786667, 0.3569159507751465, 0.1377452164888382, 0.09143758565187454, -0.12114788591861725, -0.10362472385168076, 0.14418378472328186, -0.19649071991443634, -0.20496346056461334, -0.183106929063797, -0.26050788164138794, 0.02561151050031185, -0.16181829571723938, 0.11969420313835144, 0.04811149463057518, -0.020922208204865456, 0.043552059680223465, -0.09629471600055695, -0.2838344871997833, 0.16652393341064453, -0.04498523846268654, -0.018646104261279106, -0.0763479545712471, -0.0684918686747551, -0.35361701250076294, 0.21768775582313538, -0.21453100442886353, -0.07727789133787155, 0.15966513752937317, 0.12530386447906494, -0.2047320157289505, 0.29527172446250916, 0.031358733773231506, -0.0005991625948809087, 0.08192985504865646, -0.028378654271364212, -0.23315240442752838, 0.04132494702935219, -0.11263676732778549, -0.13215118646621704, 0.4748152196407318, 0.08747722953557968, 0.21117065846920013, -0.012140604667365551, -0.14117217063903809, -0.11192255467176437, 0.1046862006187439, -0.1355258673429489, -0.0346623919904232, 0.2803593873977661, 0.06207236647605896, -0.1448059380054474, -0.053329769521951675, -0.17447541654109955, 0.007013263646513224, 0.034652046859264374, -0.021511195227503777, 0.02359539456665516, -0.14501862227916718, -0.13206349313259125, -0.19567056000232697, -0.04734425246715546, 0.004319728817790747, 0.2963170111179352, -0.12587808072566986, -0.04266827926039696, -0.11957979202270508, 0.24394772946834564, 0.10142888873815536, -0.004544064402580261, -0.09073624014854431, 0.012535572983324528, 0.11254661530256271, 0.33632588386535645, 0.15332119166851044, -0.1113402247428894, -0.03818256035447121, -0.15978582203388214, 0.1765793114900589, -0.060924023389816284, 0.018031060695648193, -0.1208571344614029, -0.030299220234155655, -0.006278942804783583, -0.0970042273402214, 0.17149029672145844, 0.08580225706100464, -0.017899319529533386, 0.0740622729063034, -0.2290698140859604, 0.033284321427345276, -0.11984121054410934, -0.1397814154624939, 0.1064494252204895, 0.49759283661842346, 0.25518599152565, -0.3872796893119812, 0.24897128343582153, 0.12312782555818558, -0.18855904042720795, -0.4967748522758484, 0.029597852379083633, 0.0008628408540971577, 0.1596558839082718, 0.02893848903477192, 0.015136003494262695, -0.07351721078157425, 0.04165465012192726, -0.11105158179998398, -0.057293035089969635, 0.017918113619089127, -0.17827992141246796, 0.1382126808166504, -0.15376511216163635, -0.028083527460694313, 0.17469193041324615, 0.09451770037412643, 0.24743807315826416, -0.3339086174964905, 0.08343327045440674, -0.15844719111919403, 0.837327241897583, -0.17855586111545563, -0.19476304948329926, 0.26015418767929077, 0.2209126204252243, -0.10178932547569275, 0.6032687425613403, 0.11235661804676056, 0.0282443854957819, 0.10665625333786011, -0.04650982841849327, -0.039989545941352844, 0.25081390142440796, 0.19604156911373138, -0.3019038736820221, 0.4863622188568115, -0.357897013425827, -0.23714707791805267, 0.09697170555591583, 0.19427607953548431, 0.2975449562072754, 0.2593419849872589, -0.2523202896118164, 0.17582961916923523, -0.053020600229501724, 0.11749372631311417, 0.16777777671813965, 0.12070076167583466, -0.007619139738380909, -0.29105231165885925, -0.03177850320935249, 0.08256421238183975, -0.15463773906230927, 0.2495388388633728, -0.0698787197470665, 0.1529145985841751, -0.12594380974769592, -0.1502799242734909, -0.18567726016044617, -0.19836170971393585, -0.002997647738084197, 0.1896401345729828, -0.08164702355861664, -0.14512066543102264, 0.46746063232421875, 0.03191375359892845, -0.11606622487306595, -0.0040331329219043255, -0.2850872874259949, 0.1396038830280304, 0.14795942604541779, 0.06810691952705383, -0.10978181660175323, 0.21228455007076263, -0.05845130234956741, -0.02746628038585186, 0.0938132107257843, -0.06248652935028076, 0.011079144664108753, 0.1171061247587204, 0.10222501307725906, -0.16557037830352783, -0.08208684623241425, -0.2341884821653366, 0.4295000731945038, -0.2773955464363098, 0.16829566657543182, 0.14144107699394226, -0.006961692590266466, -0.10926065593957901, -0.02676909975707531, 0.19522859156131744, -0.17404653131961823, 0.021072296425700188, 0.1322401612997055, -0.1438755989074707, -0.0563511922955513, -0.12241127341985703, 0.03241095691919327, 0.20300732553005219, -0.3024592399597168, 0.1395140439271927, -0.030528701841831207, 0.18887682259082794, -0.14527839422225952, 0.024815363809466362, -0.2278430312871933, 0.06342687457799911, 0.09802111238241196, 0.24443289637565613, -0.06282950192689896, -0.0935930386185646, -0.03543473035097122, 0.07427449524402618, -0.09028717875480652, -0.14278912544250488, -0.24538162350654602, 0.043128468096256256, 0.10530838370323181, -0.2909432649612427, -0.021712621673941612, 0.005002056248486042, -0.16665694117546082, -0.1397096812725067, 0.10247950255870819, 0.0833599716424942, -0.14008653163909912, 0.28941869735717773, 0.08367880433797836, -0.15170076489448547, -0.05059245228767395, -0.2198808789253235, 0.2285139411687851, 0.3180158734321594, -0.06515476107597351, -0.05214405432343483, 0.054838262498378754, -0.28045788407325745, 0.16308937966823578, -0.3170105218887329, -0.15582317113876343, 0.12864263355731964, 0.003610772080719471, 0.007743588648736477, -0.06923824548721313, 0.010478224605321884, -0.1739688515663147, -0.07630958408117294, 0.17919747531414032, -0.028446942567825317, 0.03297102451324463, -0.1523243933916092, 0.12795902788639069, -0.06895340979099274, 0.11285622417926788, 0.09528206288814545, -0.08154609054327011, -0.28554660081863403, -0.05307009443640709, 0.10746289789676666, -0.12821218371391296, 0.09761161357164383, 0.036273293197155, -0.05518903583288193, 0.04507127031683922, -0.12842999398708344, -0.33354708552360535, 0.0722571387887001, -0.01021635066717863, -0.0433012917637825, -0.2328399270772934, 0.10688051581382751, -0.1615007519721985, 1.8028758859145455e-05, -0.07534703612327576, -0.24590221047401428, 0.21262970566749573, 0.16106641292572021, 0.06630045175552368, 0.2042778581380844, -0.11713047325611115, -0.2512800693511963, 0.08174844086170197, 0.16439864039421082, 0.024988478049635887, -0.15516754984855652, -0.022914748638868332, 0.08056048303842545, -0.14512495696544647, 0.13558027148246765, -0.020913153886795044, 0.07003729045391083, 0.03678349032998085, -0.3640711009502411, -0.1963488608598709, 0.12290109694004059, -0.2264663130044937, -0.17111405730247498, 0.028575915843248367, 0.19047558307647705, -0.07945399731397629, -0.2195826917886734, -0.09870998561382294, -0.03764906898140907, 0.16936424374580383, 0.10097159445285797, -0.107001893222332, -0.10603062063455582, -0.009688099846243858, 0.18813420832157135, 0.13422344624996185, 0.024287378415465355, -0.43166041374206543, 0.10960450023412704, 0.2729133367538452, -0.1882658451795578, 0.05475112423300743, 0.12109969556331635, 0.021092208102345467, -0.06408946961164474, 0.3836023509502411, -0.00871005468070507, -0.004525973927229643, 0.08624399453401566, -0.12194053083658218, -0.16781237721443176, -0.003125495743006468, -0.1932225227355957, 0.2542741894721985, 0.2383212447166443, -0.0071364217437803745, -0.1532006561756134, 0.03638475760817528, 0.2727712094783783, 0.12239989638328552, 0.04332378879189491, 0.19856032729148865, -0.057602379471063614, -0.16757047176361084, 0.08422305434942245, -0.07930897176265717, 0.17996390163898468, 0.07386643439531326, -0.19957800209522247, 0.29061827063560486, -0.19320116937160492, -0.1407163441181183, -0.28644660115242004, 0.18689025938510895, 0.013756820932030678, 0.2235746681690216, -0.015576664358377457, -0.055002208799123764, -0.2570727467536926, 0.2860778570175171, -0.010529860854148865, -0.18476618826389313, 0.1253245621919632, -0.032178401947021484, -0.08311596512794495, 0.4412508010864258, -0.2162431925535202, -0.20215968787670135, 0.11718292534351349, 0.158206045627594, 0.06705521792173386, 0.18931084871292114, 0.0008505473961122334, 0.039180900901556015, 0.15341691672801971, 0.147055521607399, -0.1572754979133606, 0.049288611859083176, 0.12354385852813721, 0.11095265299081802, 0.22522209584712982, -0.13481640815734863, 0.23810827732086182, -0.03973497450351715, 0.014540856704115868, 0.011107188649475574, -0.07376423478126526, -0.05118807032704353, -0.26043379306793213, 0.04268336668610573, 0.11155935376882553, -0.013499456457793713, 0.18185384571552277, 0.06442157179117203, 0.2818598449230194, -0.031099451705813408, 0.05339391902089119, 0.15131857991218567, 0.07059013098478317, -0.041761066764593124, -0.34079962968826294, 0.06468445807695389, 0.26967674493789673, 0.0779942199587822, -0.005394204054027796, -0.13076896965503693, -0.23281565308570862, -0.0020421266090124846, 0.2346566617488861, -0.14932537078857422, -0.11286365985870361, 0.231197789311409, -0.057092513889074326, -0.19584573805332184, 0.1451803296804428, -0.0979195088148117, 0.0334065742790699, 0.06417150050401688, 0.010701179504394531, -0.12782028317451477, 0.05921031907200813, -0.2381933629512787, -0.14049425721168518, 0.24668748676776886, -0.2849327325820923, -0.10474832355976105, 0.2443457394838333, 0.12118913233280182, 0.037521254271268845, 0.1500091850757599, -0.06008508428931236, -0.0347951203584671, 0.17158636450767517, -0.32830125093460083, 0.10642959177494049, -0.6524361371994019, 0.10355283319950104, 0.018981747329235077, -0.4967556595802307, -0.14183370769023895, -0.25327005982398987, 0.3419445753097534, 0.15241709351539612, -0.12858843803405762, 0.03398196026682854, 0.10874786227941513, -0.1724388599395752, 0.09573034942150116, 0.10774967819452286, -0.025921903550624847, -0.08655845373868942, -0.04974646866321564, 0.010636101476848125, -0.2110411673784256, 0.004553359001874924, 0.12815988063812256, -0.16495336592197418, -0.032709892839193344, 0.12026596814393997, 0.16789744794368744, 0.3757380545139313, 0.09147512167692184, -0.5221364498138428, 0.3412325382232666, 0.019985893741250038, -0.36422955989837646, -0.08720234781503677, 0.010398415848612785, -0.5761215686798096, -0.04772226884961128, 0.29369643330574036, -0.2880520820617676, 0.022005299106240273, 0.14332453906536102, -0.24131928384304047, 0.07416635006666183, 0.2771903872489929, -0.4738091230392456, -0.18254615366458893, 0.1920531541109085, 0.023585133254528046, 0.15724213421344757, -0.008002524264156818, -0.02461639791727066, -0.05147306248545647, -0.2600400149822235, 0.05238554626703262, 0.11411213129758835, 0.2249397337436676, 0.13928547501564026, -0.012128595262765884, 0.11813899129629135, 0.11288367211818695, -0.4234031140804291, -0.04003208130598068, 0.09138689190149307, -0.005757309030741453, -0.0516723208129406, -0.15160560607910156, -0.2863141596317291, 0.16048943996429443, -0.175478994846344, 0.1058502048254013, -0.19411255419254303, -0.03852754458785057, -0.05500306934118271, 0.13960760831832886, 0.09412115812301636, -0.17576362192630768, -0.05113482475280762, -0.12759755551815033, -0.15518076717853546, -0.35691750049591064, 0.2983039319515228, -0.04742972552776337, -0.06464236974716187, 0.21464292705059052, -0.25740256905555725, -0.138954296708107, -0.22123397886753082, -0.09550412744283676, 0.12921898066997528, 0.07170240581035614, -0.044049087911844254, 0.03340793401002884, 0.27202108502388, 0.025983836501836777, -0.04040483385324478, 0.013962384313344955, -0.05394389107823372, 0.07744131237268448, 0.20129509270191193, -0.08028542250394821, -0.18700355291366577, 0.09057395160198212, 0.13898257911205292, -0.03421050310134888, -0.04366146773099899, 0.10894946753978729, 0.007795242127031088, -0.15159644186496735, -0.006320237182080746, 0.5930046439170837, 0.13383382558822632, 0.41703975200653076, -1.083675503730774, -0.3845893144607544, 0.18321289122104645, 0.22106511890888214, -0.488359659910202, 0.5132818222045898, 0.20233340561389923, -1.0062118768692017, 0.3162345588207245, -0.05500711128115654, -0.6703143119812012, -0.11032839119434357, -0.29975536465644836, -0.04696154221892357, -0.3278375267982483, -0.014804814010858536, 0.06379576027393341, 0.1264372169971466, -0.023814495652914047, -0.3345576226711273, 0.03169200196862221, -0.12219374626874924, 0.16595394909381866, 0.11238905787467957, -0.039379481226205826, 0.08986940234899521, -0.08447322994470596, 0.20532843470573425, 0.22738675773143768, 0.10091838985681534, -0.06338154524564743, 0.1562577188014984, -0.24361775815486908, 0.14601686596870422, 0.13011106848716736, 0.1538703590631485, -0.2377004772424698, -0.1800929754972458, 0.0718337744474411, -0.06807885318994522, 0.24947260320186615, -0.0903182402253151, 0.020681489259004593, -0.0016031682025641203, 0.07418050616979599, -0.31379324197769165, 0.5045950412750244, -0.22235305607318878, -0.14788281917572021, 0.06954541057348251, -0.05176294595003128, 0.15714377164840698, 0.12310733646154404, -0.0960160568356514, -0.3326880931854248, 0.0852353572845459, -0.23993068933486938, 0.007129778154194355, 0.39818042516708374, 0.18436762690544128, 0.05481531098484993, -0.3512122333049774, 0.06196965277194977, -0.21464873850345612, 0.18806175887584686, 0.1334327757358551, 0.31447315216064453, 0.39889663457870483, 0.11371885240077972, -0.21800923347473145, -0.3115466833114624, 0.029515059664845467, -0.3791806101799011, 0.4408074617385864, 0.3703180253505707, 0.11917755752801895, -0.29941681027412415, 0.344030499458313, -0.0022938442416489124, 0.030766192823648453, 0.09072060137987137, -0.04678287357091904, -0.1429271101951599, 0.069333016872406, -0.1779199242591858, 0.2562645673751831, 0.33857038617134094, 0.0027597229927778244, 0.1419660896062851, -0.36755871772766113, -0.44463860988616943, -0.14318275451660156, -0.24028709530830383, -0.11864655464887619, 0.2828860580921173, 0.29426583647727966, 0.33982715010643005, -0.15559646487236023, 0.11287406086921692, 0.10985993593931198, 0.2229359745979309, 0.19412249326705933, 0.11093409359455109, -0.31607455015182495, 0.14857281744480133, -0.004191432148218155, -0.23427648842334747, -0.19431675970554352, 0.003675637301057577, -0.20278450846672058, -0.11101561784744263, -0.267321914434433, -0.16322676837444305, 0.041641511023044586, -0.12414592504501343, 0.2773164212703705, -0.025747627019882202, -0.21941576898097992, -0.08274273574352264, 0.12162971496582031, -0.04438083618879318, 0.16645069420337677, 0.15567511320114136, 0.3137856125831604, -0.24887968599796295, 0.01940668188035488, -0.11577456444501877, 0.11272617429494858, 0.03531913459300995, 0.21782252192497253, -0.11476961523294449, -0.26400935649871826, 0.26668575406074524, 0.11748140305280685, 0.1375274658203125, 0.2521478831768036, 0.29547205567359924, -0.3727606534957886, -0.043456632643938065, 0.09917033463716507, -0.006851449608802795, -0.31094157695770264, 0.11712944507598877, -0.22468599677085876, -0.042482953518629074, 0.32802528142929077, 0.310613751411438, 0.12552034854888916, -0.3194316625595093, -0.1679629683494568, -0.2603570222854614, 0.12436385452747345, -0.24588558077812195, 0.29535815119743347, 0.3536042869091034, 0.07657332718372345, 0.2513253092765808, 0.011390132829546928, 0.3189958333969116, 0.09825637191534042, 0.003878906602039933, -0.19498586654663086, 0.08354482054710388, -0.008498835377395153, 0.014688661321997643, -0.1884956955909729, -0.16983744502067566, 0.24902398884296417, -0.15663400292396545, 0.243142232298851, -0.19737747311592102, 0.26877763867378235, 0.028674019500613213, -0.2084021270275116, 0.19051259756088257, -0.2856922745704651, -0.10749324411153793, -0.21348339319229126, 0.0964207798242569, 0.01769544743001461, -0.15026672184467316, 0.10826807469129562, -0.07474295794963837, -0.19901086390018463, 0.0964328944683075, -0.17130163311958313, 0.3612407147884369, 0.011589142493903637, -0.04125293344259262, -0.04044229909777641, -0.04960773512721062, -0.37567561864852905, -0.23788465559482574, -0.04661408066749573, -0.20261970162391663, -0.07728422433137894, 0.015253971330821514, -0.19803589582443237, 0.07560643553733826, 0.11124775558710098, 0.22289617359638214, -0.27027881145477295, 0.4448949098587036, -0.19438929855823517, -0.05265337601304054, 0.36881524324417114, 0.09155537933111191, 0.45479243993759155, 0.25829994678497314, -0.012365628965198994, -0.20581011474132538, -0.293597012758255, 0.08432956039905548, 0.44322872161865234, 0.3469780385494232, -0.26935938000679016, 0.09987539798021317, -0.5384959578514099, -0.46605104207992554, -0.10114842653274536, -0.20747368037700653, -0.018397267907857895, -0.19652961194515228, 0.07089974731206894, 0.2846406400203705, 0.2940264940261841, 0.24715034663677216, -0.3263227939605713, 0.1310640424489975, 0.05496843904256821, 0.25647374987602234, 0.3791867792606354, -0.036753568798303604, -0.33740711212158203, 0.10935107618570328, 0.05856987461447716, 0.20939990878105164, 0.12468618154525757, -0.22698310017585754, 0.22173377871513367, 0.09970134496688843, -0.11415861546993256, 0.045122385025024414, 0.23334597051143646, 0.016911540180444717, -0.09656663984060287, -0.1630893051624298, -0.2823951542377472, 0.07359795272350311, 0.10547719150781631, -0.0763140395283699, -0.038479164242744446, 0.21144746243953705, 0.07992152124643326, 0.09971314668655396, -0.18801940977573395, -0.1554488241672516, -0.3162420392036438, -0.6271427869796753, 0.05908770486712456, -0.023583028465509415, -0.053573139011859894, 0.15974491834640503, 0.004886236507445574, 0.23812898993492126, -0.3375755548477173, -0.3133046627044678, 0.39355045557022095, -0.030536586418747902, -0.039503637701272964, -0.03230711817741394, 0.04364858940243721, -0.05925470590591431, -0.031062960624694824, 0.0011179310968145728, 0.12881462275981903, 0.1208421066403389, -0.13570033013820648, 0.14405587315559387, 0.039568863809108734, 0.03605494648218155, 0.12964221835136414, -0.04347514733672142, -0.019705496728420258, 0.1884063333272934, 0.11374962329864502, 0.060085441917181015, -0.16754566133022308, 0.056274980306625366, 0.17479412257671356, -0.23487427830696106, -0.09207455813884735, 0.019679322838783264, 0.10835547000169754, -0.09135396778583527, -0.0622495599091053, 0.3276727795600891, 0.0010582502000033855, 0.17360195517539978, -0.3570075035095215, 0.18360760807991028, 0.21890486776828766, 0.14139842987060547, -0.02987411618232727, -0.18745337426662445, 0.17639949917793274, 0.2684577703475952, 0.2774643898010254, -0.2785945236682892, -0.06139282509684563, -0.2811333239078522, 0.2591084837913513, 0.0804395005106926, -0.2528202533721924, 0.06623481214046478, -0.007765394635498524, 0.062094397842884064, 0.028693504631519318, 0.09832679480314255, -0.07442125678062439, 0.06437836587429047, 0.13108377158641815, 0.16874566674232483, -0.11756404489278793, -0.01206894125789404, -0.15110152959823608, -0.12838053703308105, 0.15198560059070587, -0.17090600728988647, 0.09797818213701248, -0.05560969188809395, -0.08381456136703491, -0.2638414800167084, 0.09231878817081451, 0.07520855963230133, 0.05226462706923485, 0.04312058910727501, -0.21903450787067413, -0.048453181982040405, 0.07371777296066284, -0.11430677026510239, -0.07961131632328033, 0.03931039944291115, 0.1565573662519455, -0.07673085480928421, 0.06983441859483719, -0.22091923654079437, -0.0064650122076272964, 0.17303308844566345, -0.06251957267522812, -0.18886344134807587, -0.32975104451179504, 0.0546409972012043, 0.27764832973480225, 0.15278957784175873, -0.07826991379261017, -0.20712785422801971, -0.11971631646156311, -0.10237950086593628, 0.11278033256530762, -0.22785110771656036, -0.04643607512116432, 0.004837960936129093, 0.18831466138362885, -0.2798989415168762, -0.10224457085132599, -0.07384119927883148, -0.04682876914739609, -0.031736940145492554, -0.295575886964798, -0.2181570678949356, 0.1128847599029541, -0.04094070941209793, -0.19930095970630646, 0.16433122754096985, -0.07318045943975449, -0.07979730516672134, 0.07239894568920135, -0.07693308591842651, 0.19541248679161072, 0.03580940142273903, -0.18202032148838043, 0.04206249117851257, 0.03922097757458687, 0.027406208217144012, 0.008371279574930668, 0.16808587312698364, -0.17878077924251556, -0.1523742526769638, 0.012101642787456512, -0.16665084660053253, 0.08854071795940399, 0.09417683631181717, -0.10442857444286346, -0.15226168930530548, -0.19775423407554626, -0.06845898181200027, 0.23582257330417633, -0.023521805182099342, 0.1352946162223816, -0.08551349490880966, -0.026654375717043877, -0.1846541166305542, 0.18507269024848938, -0.09072890877723694, -0.017438147217035294, -0.20908711850643158, -0.08470328152179718, 0.4528224766254425, -0.003952927887439728, 0.13450230658054352, -0.17062146961688995, -0.007736975327134132, 0.10152951627969742, 0.04522461071610451, 0.083118736743927, 0.1772790402173996, 0.12093029171228409, 0.07892514020204544, -0.11449062824249268, 0.0907062366604805, 0.12275511026382446, -0.06582165509462357, 0.20801468193531036, 0.031178254634141922, -0.030654843896627426, 0.14763103425502777, -0.09704314917325974, 0.14394216239452362, -0.019274715334177017, 0.05754907801747322, 0.008502156473696232, 0.039284463971853256, -0.08447396010160446, -0.24117881059646606, 0.03268754109740257, 0.028117915615439415, 0.15620772540569305, -0.027592139318585396, -0.24577875435352325, 0.32042020559310913, -0.05693398043513298, 0.17228540778160095, -0.22324897348880768, 0.020528655499219894, 0.2919493317604065, 0.07576585561037064, 0.10012995451688766, -0.2565343677997589, 0.17267009615898132, 0.10685954242944717, 0.03448612615466118, -0.2565728724002838, -0.024855509400367737, -0.22046172618865967, 0.2549411952495575, -0.06521038711071014, -0.30246326327323914, 0.03255780413746834, -0.2103753387928009, -0.023556552827358246, 0.033400118350982666, 0.005682448856532574, -0.020782766863703728, 0.04117417708039284, 0.07968921959400177, 0.2549246847629547, -0.18069759011268616, -0.03930997848510742, 0.041593749076128006, -0.12250891327857971, 0.12271670252084732, 0.010003240779042244, 0.11904827505350113, 0.13116881251335144, -0.07349209487438202, -0.19305825233459473, -0.26834914088249207, -0.009989997372031212, 0.17652961611747742, -0.0440649539232254, 0.08995195478200912, -0.10499347001314163, -0.23822739720344543, 0.025746824219822884, 0.21032428741455078, -0.2078387588262558, 0.11257369816303253, 0.11969776451587677, 0.2397751659154892, 0.09111499786376953, 0.12117685377597809, 0.07560458779335022, -0.03257938101887703, -0.14309489727020264, 0.3109326660633087, 0.02449774369597435, -0.09073800593614578, -0.20998866856098175, -0.0572727732360363, 0.16483575105667114, 0.03955290839076042, 0.04628021642565727, 0.20902442932128906, 0.15738871693611145, 0.04952960088849068, -0.045957524329423904, -0.26270848512649536, 0.0495370551943779, 0.14637331664562225, 0.0999670922756195, -0.20042972266674042, -0.0179646834731102, 0.16011649370193481, 0.15200063586235046, -0.07883473485708237, 0.06941844522953033, 0.009939013049006462, -0.11973078548908234, 0.20002269744873047, -0.028257030993700027, 0.05137721821665764, -0.2974972426891327, 0.08673013001680374, 0.4049564003944397, -0.3264560103416443, -0.013711298815906048, -0.11479693651199341, -0.0756981298327446, 0.3539489805698395, -0.05631891265511513, 0.10817307978868484, -0.17961415648460388, 0.13427968323230743, 0.047697700560092926, -0.06995321810245514, 0.05883881822228432, -0.15184560418128967, -0.12294229865074158, 0.024138234555721283, -0.10223307460546494, -0.14071409404277802, 0.39303699135780334, 0.3065151572227478, -0.012574777007102966, -0.1673336923122406, -0.2780609726905823, -0.0347924642264843, 0.2420574128627777, 0.026538638398051262, -0.12091127783060074, -0.06248195841908455, -0.04635748639702797, 0.15889587998390198, -0.06492511928081512, 0.04116212949156761, -0.17277155816555023, 0.09813772141933441, -0.14605648815631866, -0.10826029628515244, -0.23915277421474457, 0.32745760679244995, 0.0269757267087698, -0.16695594787597656, 0.01643163152039051, -0.06695106625556946, -0.1590297371149063, 0.26800236105918884, 0.1887061595916748, -0.007125137839466333, 0.12492890655994415, 0.1271405816078186, 0.051621533930301666, 0.04219098761677742, 0.1165524274110794, -0.034591108560562134, 0.11910267919301987, 0.0616990365087986, -0.24879403412342072, 0.19520027935504913, -0.3915797173976898, 0.003833394031971693, 0.15961715579032898, -0.34053942561149597, 0.09368821978569031, 0.05574014410376549, 0.2131996899843216, -0.3070222735404968, -0.09398922324180603, 0.40463489294052124, 0.13024599850177765, -0.10234081745147705, -0.014561549760401249, 0.17985187470912933, -0.08052504807710648, 0.11761175841093063, -0.12588904798030853, -0.11334281414747238, -0.21174252033233643, 0.15073037147521973, 0.09497278183698654, -0.20381663739681244, 0.10501199215650558, 0.0897422805428505, -0.01849682256579399, -0.27072176337242126, -0.06325949728488922, 0.06394331157207489, -0.09975510835647583, 