{"version": "0.5.2", "metadata": {"date": {"year": 2023, "month": 11, "day": 24, "hour": 18, "minute": 42, "second": 2}, "loudness": -22.024967193603516, "gain": 0.7481538473421752, "name": "SinMix SinAmp", "modeled_by": "SinMix", "gear_type": "amp_cab", "gear_make": "Razor SinAmp Bogner Ubercab", "gear_model": "www.sinmix.pl", "tone_type": "hi_gain"}, "architecture": "WaveNet", "config": {"layers": [{"input_size": 1, "condition_size": 1, "head_size": 8, "channels": 16, "kernel_size": 3, "dilations": [1, 2, 4, 8, 16, 32, 64, 128, 256, 512], "activation": "Tanh", "gated": false, "head_bias": false}, {"input_size": 16, "condition_size": 1, "head_size": 1, "channels": 8, "kernel_size": 3, "dilations": [1, 2, 4, 8, 16, 32, 64, 128, 256, 512], "activation": "Tanh", "gated": false, "head_bias": true}], "head": null, "head_scale": 0.02}, "weights": [0.014250189997255802, 0.525050938129425, -0.7603620290756226, -0.8653302192687988, -0.30085882544517517, 0.27983197569847107, 0.03278340399265289, 0.8257498145103455, -0.05966341868042946, 0.25964781641960144, -0.3951905071735382, -0.11502692848443985, -0.9753983616828918, -0.6946431994438171, -0.3425988554954529, 0.0026599967386573553, 0.014482079073786736, 0.20721396803855896, -0.023198265582323074, -0.19730648398399353, 0.003873090259730816, 0.023013461381196976, 0.10798212885856628, 0.15832173824310303, 0.07560867071151733, 0.15339793264865875, 0.18180987238883972, -0.03430206701159477, 0.03806322440505028, 0.009028851054608822, 0.0345776304602623, 0.004196384456008673, -0.12893564999103546, -0.14756211638450623, -0.04301600530743599, -0.10124163329601288, 0.0021768035367131233, -0.01370121818035841, 0.013364814221858978, -0.028637442737817764, 0.10155844688415527, -0.06215837225317955, 0.07856137305498123, -0.25863513350486755, -0.1429883986711502, -0.1580520123243332, 0.21945734322071075, 0.12613549828529358, 0.025329286232590675, 0.1065993681550026, 0.12291345000267029, 0.2203611433506012, 0.19621728360652924, 0.07172469794750214, 0.19662275910377502, 0.05219170078635216, 0.07711787521839142, -0.013964706100523472, 0.028240017592906952, -0.0302034430205822, 0.15627971291542053, -0.05696539208292961, -0.18092025816440582, -0.155252143740654, 0.24008966982364655, -0.037944260984659195, -0.21506287157535553, 0.29777494072914124, 0.003993879072368145, 0.05542851239442825, -0.37477225065231323, 0.035566870123147964, 0.1382499486207962, -0.14787828922271729, 0.21300150454044342, 0.20868030190467834, -0.22262629866600037, -0.03636111691594124, 0.09831403940916061, 0.16301576793193817, -0.2242889255285263, 0.04165094345808029, -0.05145125091075897, -0.2817107141017914, -0.06536434590816498, 0.24148400127887726, -0.11138951778411865, -0.14719538390636444, -0.17109456658363342, 0.008512547239661217, 0.14253933727741241, 0.3254850506782532, 0.01398798543959856, -0.03270527720451355, -0.40635642409324646, -0.0019828961230814457, 0.15648406744003296, -0.21323233842849731, -0.030097421258687973, -0.0015101610915735364, -0.1302570253610611, 0.1841069906949997, 0.01724860817193985, -0.3002201020717621, -0.049355458468198776, 0.07892467081546783, -0.36420580744743347, -0.02584644965827465, 0.07260002195835114, 0.06581179797649384, -0.052253030240535736, 0.05760355666279793, -0.08317991346120834, 0.15564709901809692, 0.049886420369148254, -0.12035670876502991, 0.07577811181545258, -0.06105438619852066, 0.013774369843304157, -0.08185762166976929, 0.11717402935028076, 0.002100331475958228, -0.18750102818012238, 0.1308211237192154, -0.13498377799987793, -0.19225069880485535, 0.03629442676901817, -0.07931801676750183, 0.04967265576124191, -0.1981348693370819, -0.009224646724760532, -0.027964970096945763, -0.15812210738658905, -0.00025315064704045653, 0.22010734677314758, -0.07651199400424957, 0.04191829264163971, -0.08109048008918762, 0.14172467589378357, 0.08443053811788559, 0.23898568749427795, 0.013306781649589539, 0.14023861289024353, -0.11840349435806274, -0.056251708418130875, -0.049629248678684235, 0.007834522053599358, 0.0838177278637886, -0.0801028236746788, -0.2287929356098175, -0.07477924227714539, -0.12745928764343262, -0.1447014957666397, 0.14271271228790283, 0.0799231305718422, -0.24690711498260498, 0.15991368889808655, -0.11704026162624359, 0.0156644769012928, -0.1269313246011734, -0.11584596335887909, -0.08474624902009964, -0.07727868109941483, -0.2609717845916748, -0.16365717351436615, 0.015442492440342903, 0.07511143386363983, 0.19788868725299835, -0.13875600695610046, 0.1322540044784546, 0.2719930410385132, -0.06781783699989319, 0.257902055978775, 0.18630169332027435, -0.1508188247680664, -0.03310835734009743, -0.145843967795372, -0.038996778428554535, 0.04896439239382744, -0.12509378790855408, -0.07006146758794785, -0.17198273539543152, -0.0412093847990036, 0.04916428402066231, 0.1602751463651657, 0.14689643681049347, -0.09090423583984375, -0.15533336997032166, -0.24922148883342743, 0.10285334289073944, 0.24784229695796967, 0.23421642184257507, -0.12095930427312851, 0.11408239603042603, 0.014907250180840492, -0.11512017995119095, 0.05867207422852516, 0.19506336748600006, -0.09357243776321411, 0.13686814904212952, 0.14923445880413055, 0.08253151178359985, 0.019569333642721176, 0.03589317947626114, -0.1017594113945961, 0.07281673699617386, -0.049074869602918625, 0.10412193834781647, -0.0293422881513834, -0.12919892370700836, 0.018427841365337372, -0.03737752139568329, -0.025336841121315956, 0.16275256872177124, 0.008889732882380486, 0.06013091653585434, -0.3086519241333008, -0.06474849581718445, 0.15915194153785706, -0.3145524859428406, -0.005026676692068577, 0.1830402910709381, -0.13801692426204681, -0.0022951296996325254, -0.16451886296272278, 0.2630942761898041, -0.018392624333500862, 0.0769549161195755, 0.03413975238800049, -0.03172464668750763, -0.04002368450164795, 0.3159935772418976, 0.01801600120961666, 0.15928037464618683, -0.08806069940328598, -0.09539209306240082, 0.025706496089696884, 0.08987726271152496, -0.05124249681830406, 0.08111341297626495, -0.15185733139514923, 0.11295847594738007, -0.0021267845295369625, -0.17503108084201813, 0.084941066801548, -0.09705039113759995, -0.09177868813276291, -0.10960778594017029, 0.04373512417078018, -0.2201947122812271, -0.07082688808441162, 0.0604356974363327, -0.07119476050138474, -0.04091807082295418, -0.08547428250312805, -0.07023770362138748, -0.1771518588066101, 0.06020794436335564, -0.09710574895143509, -0.10840871930122375, 0.050428733229637146, 0.07653237879276276, 0.08117508888244629, -0.027910148724913597, 0.0524737611413002, -0.04216448590159416, -0.18019166588783264, 0.044263504445552826, 0.13451388478279114, -0.09036553651094437, -0.05689374357461929, -0.09075549989938736, -0.01470573153346777, 0.011332336813211441, -0.026492184028029442, -0.14470769464969635, 0.1540490984916687, -0.09884603321552277, 0.12304902076721191, 0.04003651440143585, 0.056634582579135895, -0.18696483969688416, -0.0635002925992012, 0.09453363716602325, 0.14798764884471893, 0.10200252383947372, -0.03243139013648033, -0.08813503384590149, -0.02032083086669445, 0.02788652665913105, -0.19864192605018616, 0.07681609690189362, 0.049540501087903976, -0.14385372400283813, -0.032475486397743225, -0.08231505751609802, -0.03843691945075989, -0.10473506152629852, 0.0738571286201477, -0.17836669087409973, -0.0594492107629776, -0.026527274399995804, -0.09894022345542908, -0.012575747445225716, 0.016106830909848213, -0.17040973901748657, -0.14466555416584015, 0.09087829291820526, 0.15702831745147705, -0.13669395446777344, -0.1546383798122406, -0.12798985838890076, 0.15828005969524384, -0.08794089406728745, -0.05199388414621353, 0.20840491354465485, -0.10012591630220413, -0.09595002233982086, 0.18152794241905212, 0.028353897854685783, 0.09954942762851715, -0.11449549347162247, -0.10734832286834717, -0.08281537145376205, 0.05796673521399498, 0.1659146249294281, 0.19146095216274261, -0.09120329469442368, 0.08246825635433197, -0.12884505093097687, 0.04902731254696846, -0.10474072396755219, 0.2351679503917694, -0.03887899965047836, -0.12460815906524658, -0.04131903499364853, 0.23309601843357086, 0.137290820479393, 0.04677112400531769, 0.2486364245414734, -0.07014692574739456, -0.15876111388206482, 0.22776460647583008, 0.04671446606516838, -0.19220070540905, 0.24261778593063354, 0.043765317648649216, -0.01823468878865242, 0.028607601299881935, 0.020893806591629982, -0.01003312598913908, 0.00262494757771492, 0.013201307505369186, -0.03848181664943695, -0.09976458549499512, 0.21663466095924377, 0.0789463222026825, 0.0957530289888382, -0.25829923152923584, -0.09464169293642044, -0.12638194859027863, -0.30115291476249695, -0.24536076188087463, 0.08525529503822327, -0.06767792999744415, 0.01575397700071335, 0.09744099527597427, 0.01257074624300003, 0.014990115538239479, -0.011662435717880726, -0.1131478026509285, 0.011169650591909885, -0.1292819082736969, 0.08816700428724289, -0.010862681083381176, -0.052980102598667145, 0.012381870299577713, 0.03704359382390976, 0.12586960196495056, 0.254099041223526, 0.24346454441547394, -0.024277228862047195, -0.08596442639827728, 0.008348960429430008, 0.02960234507918358, 0.01614443026483059, -0.03013715147972107, 0.08611682802438736, -0.2102290540933609, -0.060835279524326324, -0.013863260857760906, -0.19131366908550262, -0.208922877907753, -0.10830458998680115, -0.258036732673645, -0.022287866100668907, 0.08286845684051514, -0.009407121688127518, -0.06228981167078018, 0.08019288629293442, 0.09002973139286041, 0.023250091820955276, -0.09235438704490662, 0.17258001863956451, 0.18627594411373138, -0.15061968564987183, 0.09392468631267548, -0.02102634124457836, -0.0174697358161211, 0.03715793043375015, -0.21403516829013824, 0.014300758950412273, 0.08871021866798401, -0.11531559377908707, -0.05551540106534958, -0.020564846694469452, 0.07496170699596405, -0.08246303349733353, 0.027978911995887756, 0.05670032650232315, 0.014509049244225025, -0.044903725385665894, 0.13885793089866638, 0.03325185924768448, 0.07442843914031982, -0.21332740783691406, 0.0628940761089325, -0.0774981677532196, 0.05507499724626541, -0.0006228138227015734, -0.13702434301376343, -0.06968387216329575, 0.1701839417219162, -0.007913975976407528, -0.20023715496063232, 0.009099838323891163, -0.014086326584219933, -0.2430553436279297, 0.1063077449798584, -0.1739799976348877, -0.2690291404724121, -0.10230911523103714, -0.06340689212083817, -0.023977132514119148, -0.09160908311605453, 0.14397792518138885, -0.023425132036209106, 0.04689260572195053, 0.16709241271018982, -0.017700128257274628, 0.2242891490459442, 0.21557825803756714, 0.27115967869758606, 0.19107232987880707, -0.23688195645809174, -0.01112863328307867, -0.11302588135004044, -0.07378466427326202, -0.24819160997867584, -0.1629883199930191, -0.27462238073349, -0.1809939444065094, -0.08142494410276413, 0.013480424880981445, 0.1640034168958664, 0.18333490192890167, 0.12846000492572784, 0.057220038026571274, 0.06151014566421509, 0.09682907164096832, 0.19531460106372833, 0.26249268651008606, -0.0140902204439044, -0.1028057262301445, -0.022502029314637184, -0.013002753257751465, -0.0034838567953556776, 0.17404863238334656, -0.21445292234420776, -0.05312565341591835, -0.21261776983737946, -0.18222592771053314, -0.22184816002845764, -0.017022768035531044, -0.15733647346496582, -0.022179633378982544, -0.03206262364983559, -0.06117022782564163, -0.12655289471149445, -0.1641901433467865, -0.16356001794338226, -0.10581651329994202, -0.041303399950265884, 0.0036060356069356203, 0.2137731909751892, 0.14396551251411438, -0.13263319432735443, -0.14146052300930023, 0.0664922371506691, 0.14222638309001923, -0.13234612345695496, 0.1400362253189087, 0.0554732009768486, 0.08096513897180557, 0.08030777424573898, -0.09428240358829498, 0.04114122688770294, 0.01614082045853138, -0.05004154518246651, 0.050050005316734314, -0.07551224529743195, 0.09501027315855026, -0.045606084167957306, -0.02233799360692501, 0.0925050750374794, 0.1457689106464386, -0.06337560713291168, 0.02957548201084137, 0.08764143288135529, 0.02775605209171772, 0.05419573560357094, -0.00954498816281557, 0.03196355700492859, -0.09919147938489914, -0.09015046805143356, -0.0413634330034256, 0.12386380136013031, -0.033659640699625015, -0.03533459082245827, -0.06409455090761185, 0.158158540725708, 0.11672236025333405, -0.12646159529685974, -0.12222445011138916, -0.15257397294044495, -0.016370363533496857, -0.040365952998399734, -0.13595819473266602, -0.060380157083272934, 0.02842915803194046, -0.1110936850309372, 0.098536916077137, -0.010779093950986862, 0.059157855808734894, 0.01724199391901493, 0.08727476745843887, -0.05167505145072937, -0.016599440947175026, -0.286214143037796, 0.14367522299289703, -0.10822401940822601, 0.09885141253471375, 0.1469545215368271, -0.06246449425816536, 0.26803210377693176, -0.009409223683178425, -0.012353033758699894, 0.19440580904483795, 0.08190442621707916, -0.005716806277632713, -0.3605649769306183, -0.067447729408741, -0.12242471426725388, 0.12832015752792358, -0.15886729955673218, 0.10676879435777664, -0.27140945196151733, -0.02966199815273285, 0.09606324881315231, 0.2594147026538849, 0.06551543623209, 0.06883012503385544, -0.26719850301742554, -0.0801030695438385, 0.008471905253827572, 0.3517829477787018, -0.05637143924832344, -0.1306886076927185, 0.268469899892807, 0.11708201467990875, -0.010616494342684746, 0.1211259737610817, -0.12592671811580658, 0.06381449103355408, 0.2269093096256256, -0.0716172307729721, 0.048645198345184326, 0.28213873505592346, 0.10810055583715439, 0.11165103316307068, -0.10991726070642471, -0.01891021989285946, -0.06904511898756027, 0.14569561183452606, -0.028463926166296005, 0.14455780386924744, -0.13621094822883606, 0.14303463697433472, 0.050585437566041946, 0.13655821979045868, -0.13571728765964508, -0.14056289196014404, -0.09239763021469116, 0.12278029322624207, -0.13943123817443848, -0.05378778651356697, 0.06824003159999847, 0.00639050779864192, -0.0890270322561264, -0.010989752598106861, -0.10557100176811218, -0.14037030935287476, -0.06707022339105606, 0.021051138639450073, 0.044075578451156616, 0.13846105337142944, 0.019550008699297905, 0.05465180426836014, 0.1371227353811264, 0.0928516760468483, -0.08352649211883545, 0.13814647495746613, -0.04349489510059357, -0.12494377046823502, -0.04666176810860634, -0.16044048964977264, 0.15268439054489136, -0.019728420302271843, -0.21746625006198883, -0.0031395438127219677, 0.0764153003692627, -0.04691733792424202, 0.05330776795744896, 0.0011562688741832972, -0.02438102662563324, -0.023944152519106865, -0.06599342077970505, -0.09976491332054138, -0.03312665969133377, 0.05274239555001259, 0.0038371679838746786, 0.04628051072359085, 0.10495709627866745, 0.004727167077362537, -0.21475297212600708, 0.13796685636043549, -0.07367295771837234, 0.24272987246513367, -0.10929016768932343, -0.024918531998991966, 0.20360885560512543, -0.05411447957158089, 0.12072432041168213, 0.014965520240366459, -0.12768976390361786, -0.05898604542016983, -0.08465112745761871, 0.1454719752073288, -0.11991661041975021, 0.11376307904720306, -0.05359377712011337, -0.04175161197781563, -0.01853882521390915, -0.11751667410135269, -0.02059616521000862, 0.2092910259962082, -0.06573675572872162, 0.11621785163879395, -0.1541004776954651, 0.12731792032718658, -0.13961032032966614, 0.09472204744815826, -0.030855191871523857, 0.029419299215078354, 0.15337365865707397, 0.08730775117874146, -0.009723320603370667, 0.12045153230428696, 0.10568712651729584, -0.030100148171186447, 0.24990329146385193, -0.09254039824008942, -0.015032429248094559, 0.10676954686641693, 0.059801701456308365, 0.11306089907884598, 0.01019144058227539, -0.14319057762622833, 0.043351903557777405, -0.039710357785224915, -0.013693874701857567, -0.0027682362124323845, 0.18126529455184937, 0.14816643297672272, -0.07942840456962585, -0.22734104096889496, 0.0830560028553009, -0.19892588257789612, -0.06030791997909546, 0.0038551539182662964, -0.14658775925636292, -0.032411325722932816, -0.13344401121139526, 0.1060742512345314, -0.01601923257112503, -0.018302837386727333, 0.10508232563734055, 0.08688724040985107, -0.02818142995238304, 0.1847028136253357, 0.07486961036920547, -0.050808604806661606, -0.1662062108516693, -0.17681989073753357, 0.1770412027835846, 0.039865560829639435, 0.08545426279306412, 0.0386463925242424, 0.015785232186317444, 0.03879764676094055, 0.11002650111913681, -0.1664658933877945, -0.0883764699101448, -0.0720829963684082, -0.1758260279893875, -0.06033976748585701, 0.11670409142971039, -0.20602619647979736, -0.004303962457925081, -0.09037740528583527, -0.10868470370769501, 0.031316377222537994, -0.03900180011987686, -0.003786749904975295, -0.15893161296844482, 0.08244277536869049, -0.0787644162774086, -0.06967069208621979, 0.14646832644939423, -0.23654818534851074, -0.2662242352962494, 0.05206036940217018, 0.2524714767932892, 0.11393905431032181, 0.031104618683457375, 0.2632159888744354, 0.2523799240589142, -0.1137312650680542, 0.10936465114355087, 0.10016538202762604, -0.1656946986913681, -0.12133391201496124, -0.030522635206580162, 0.17737732827663422, 0.034171078354120255, 0.11329931765794754, -0.04600902274250984, -0.03023686446249485, -0.21614649891853333, -0.06276728212833405, 0.10939940810203552, 0.19405651092529297, -0.22072026133537292, 0.007997036911547184, -0.08946444094181061, -0.046268220990896225, 0.09837324172258377, 0.27236661314964294, -0.1601320505142212, 0.066170334815979, 0.17691516876220703, -0.18878932297229767, 0.21928440034389496, 0.23266568779945374, 0.05344611406326294, 0.0451296828687191, 0.2986971437931061, -0.12491757422685623, 0.27131187915802, 0.007659156806766987, -0.17509984970092773, 0.016822436824440956, -0.08544361591339111, 0.025217408314347267, -0.0793679803609848, -0.12719084322452545, -0.010364261455833912, -0.16954097151756287, -0.013854914344847202, 0.06257501989603043, -0.017326895147562027, 0.006035698112100363, 0.060451798141002655, 0.18272694945335388, -0.0292768944054842, -0.004755204543471336, -0.011401141062378883, -0.01319783553481102, -0.03895104303956032, -0.029305987060070038, 0.33795666694641113, -0.5043448805809021, 0.7449440956115723, -0.7018072009086609, 0.19775225222110748, 0.9071820378303528, 0.8945258855819702, -0.5410694479942322, 0.1516394019126892, 0.24606040120124817, -0.42015498876571655, -0.3592740297317505, 0.2902193069458008, -0.7102874517440796, 0.19233131408691406, 0.46043092012405396, -0.2424660325050354, 0.271098256111145, 0.18975000083446503, -0.026941990479826927, 0.15041464567184448, 0.1395254135131836, 0.31378868222236633, 0.17872299253940582, 0.06771089136600494, 0.11247819662094116, 0.29231390357017517, -0.22885261476039886, 0.355675607919693, -0.19211511313915253, 0.375458300113678, -0.20244447886943817, 0.10620542615652084, -0.29575830698013306, -0.19760777056217194, 0.13476796448230743, 0.2448285073041916, -0.0027363162953406572, -0.1439005732536316, -0.10335613787174225, -0.06314623355865479, 0.13211862742900848, -0.004335192497819662, 0.05531308799982071, 0.1139858067035675, -0.10484883189201355, 0.014800528064370155, 0.39081430435180664, 0.15568487346172333, 0.09724581986665726, -0.00294742314144969, 0.29828494787216187, -0.07044485211372375, -0.17405429482460022, 0.07959307730197906, -0.30525386333465576, -0.08029481023550034, -0.27133214473724365, 0.18700459599494934, -0.18250532448291779, 0.1036214828491211, 0.2926770746707916, 0.025254083797335625, 0.10364137589931488, 0.24852022528648376, -0.10171843320131302, -0.15398374199867249, -0.09198369085788727, -0.3286711275577545, -0.07033847272396088, -0.07688435167074203, -0.06805618852376938, -0.2827409505844116, -0.036023784428834915, -0.09013264626264572, 0.10868721455335617, -0.024944083765149117, 0.3507089614868164, -0.2690230906009674, 0.03015075996518135, -0.11347592622041702, -0.3018176853656769, -0.1973584145307541, 0.2074747532606125, 0.09112893044948578, 0.13792040944099426, 0.12586480379104614, -0.2426970899105072, 0.0793355405330658, 0.22375383973121643, -0.17426519095897675, 0.20117734372615814, -0.07851056009531021, 0.15177586674690247, -0.10621041804552078, 0.13674284517765045, -0.1847541630268097, -0.02937289886176586, 0.17050319910049438, 0.0489618182182312, 0.21046613156795502, 0.31346118450164795, 0.27239057421684265, 0.10252601653337479, 0.2235615998506546, 0.01265363022685051, -0.1947028785943985, -0.17628546059131622, 0.011892584152519703, -0.2294446974992752, 0.16904310882091522, 0.0032196915708482265, 0.03154218569397926, 0.2564012110233307, 0.2651045024394989, 0.21020299196243286, -0.08906373381614685, -0.24252669513225555, 0.191630557179451, 0.1848992109298706, 0.09482543170452118, -0.3454795777797699, -0.01542162150144577, 0.1879628598690033, 0.2255416214466095, -0.18990424275398254, 0.21687214076519012, -0.26271384954452515, 0.24308767914772034, 0.13732290267944336, 0.28880900144577026, -0.2505853474140167, -0.24870164692401886, 0.16675831377506256, 0.25873929262161255, 0.1294247806072235, 0.1647893637418747, -0.2062898427248001, 0.11870524287223816, -0.23601284623146057, 0.06276410073041916, -0.18275940418243408, -0.053706005215644836, -0.014167901128530502, -0.040404997766017914, -0.031822945922613144, -0.2743224799633026, -0.15924285352230072, 0.1368505209684372, -0.10226136445999146, -0.19715718924999237, -0.17303073406219482, -0.2526458203792572, -0.2535931169986725, 0.19239568710327148, 0.15393976867198944, 0.09027285128831863, -0.10797726362943649, 0.02259337715804577, 0.1932726502418518, -0.2589792013168335, 0.12638752162456512, 0.23391221463680267, -0.3164319694042206, -0.21310904622077942, 0.07737784832715988, 0.19342336058616638, 0.06130126491189003, 0.1264002025127411, 0.2789194881916046, 0.08540599048137665, -0.03514816612005234, 0.23651403188705444, 0.1086915135383606, -0.11485990881919861, -0.12053872644901276, 0.21316535770893097, 0.17437027394771576, -0.37482500076293945, 0.2558959722518921, -0.06707151979207993, -0.3518531024456024, -0.07174498587846756, -0.1914592832326889, -0.10122813284397125, -0.26681023836135864, -0.1532382220029831, 0.09983114898204803, -0.13841651380062103, 0.273591548204422, -0.09418381005525589, 0.35886234045028687, -0.042292747646570206, -0.24144808948040009, 0.2623102068901062, -0.03784359246492386, 0.12613771855831146, 0.010336398147046566, 0.06680257618427277, 0.07207772135734558, 0.08979920297861099, -0.15433810651302338, -0.009439346380531788, -0.35498642921447754, -0.15862764418125153, 0.0006235761102288961, -0.12621371448040009, -0.30502280592918396, -0.06338763236999512, -0.08630272001028061, 0.042271360754966736, 0.12641000747680664, 0.07264076918363571, -0.1998106688261032, 0.009740673005580902, 0.1659262627363205, 0.19189393520355225, -0.11308666318655014, 0.013426613993942738, 0.0724598616361618, 0.19189617037773132, -0.12233492732048035, -0.09530328959226608, 0.14286094903945923, 0.140980526804924, -0.19999085366725922, -0.22944480180740356, 0.277323842048645, -0.11163988709449768, 0.04240282624959946, 0.11514762043952942, -0.089278943836689, -0.1456846296787262, -0.28230220079421997, -0.04060642793774605, 0.12367604672908783, -0.25346916913986206, 0.05814201384782791, -0.29631108045578003, 0.3156887888908386, -0.10725843161344528, 0.32848450541496277, -0.0706929862499237, -0.19489938020706177, 0.0282763484865427, 0.08350057899951935, 0.11669731140136719, 0.11837906390428543, -0.2680133879184723, 0.17847603559494019, 0.08273525536060333, -0.008179896511137486, 0.22777824103832245, 0.20340466499328613, -0.19338536262512207, 0.08689525723457336, 0.1903102993965149, -0.0018752668984234333, 0.2205829620361328, -0.15555715560913086, 0.10614056885242462, 0.28241515159606934, 0.052652109414339066, 0.09494322538375854, -0.08130466938018799, -0.08417162299156189, -0.11829231679439545, -0.2470702826976776, 0.01613597385585308, 0.13202989101409912, -0.013452448882162571, -0.02806253731250763, 0.029208121821284294, -0.1401621252298355, 0.09815700352191925, -0.16547182202339172, 0.04155130311846733, -0.07592325657606125, 0.13680124282836914, -0.0506347119808197, 0.04287217557430267, -0.14531025290489197, 0.05843524634838104, -0.0031336883548647165, 0.1051047220826149, 0.13586406409740448, 0.009183690883219242, -0.066352978348732, 0.0979698896408081, -0.12087375670671463, -0.08699047565460205, 0.2505793571472168, 0.15649694204330444, 0.1824958622455597, -0.11667577177286148, -0.023472579196095467, 0.02273447997868061, -0.07451265305280685, 0.12006272375583649, 0.12298648059368134, -0.30115649104118347, -0.1440914124250412, -0.034347161650657654, 0.09818143397569656, -0.1591728925704956, 0.0303957499563694, 0.006836616899818182, -0.06894088536500931, 0.09703337401151657, 0.05487769469618797, -0.08536656200885773, -0.1741282194852829, -0.036332666873931885, 0.12655258178710938, -0.07422316074371338, 0.03273724019527435, 0.07188567519187927, -0.056563325226306915, -0.11680266261100769, 0.051729802042245865, 0.05910187214612961, -0.2196989208459854, -0.19850604236125946, 0.15434370934963226, -0.19444361329078674, 0.006029814947396517, -0.011208225041627884, -0.2363242655992508, 0.049196548759937286, -0.10655161738395691, 0.15303397178649902, -0.022825222462415695, -0.0449250303208828, 0.22300782799720764, -0.000858038489241153, -0.014157584868371487, 0.04595217481255531, 0.1739477962255478, 0.10021932423114777, -0.16789303719997406, -0.19905392825603485, -0.024604056030511856, -0.05806652829051018, -0.1142667680978775, 0.13847817480564117, -0.2700795829296112, -0.19950705766677856, -0.22579145431518555, 0.19659270346164703, -0.075929194688797, 0.22771042585372925, -0.11976359784603119, -0.011915799230337143, -0.03056875802576542, -0.018171552568674088, 0.007464942988008261, -0.23693835735321045, 0.12657389044761658, 0.04900579899549484, 0.005905661266297102, -0.10641074925661087, -0.10773560404777527, 0.034359659999608994, 0.06882496178150177, 0.05838773027062416, -0.2090740203857422, 0.01033442560583353, -0.12261056154966354, -0.057541102170944214, -0.0635104551911354, 0.114195816218853, 0.027352752164006233, -0.055685918778181076, -0.09931449592113495, 0.10354144871234894, 0.04972471669316292, 0.02329578809440136, 0.13177335262298584, -0.19369032979011536, -0.209299698472023, -0.24431216716766357, -0.12345971912145615, 0.15275689959526062, -0.2555384039878845, -0.12081675231456757, -0.1435895562171936, -0.02754555083811283, 0.15165506303310394, 0.22927214205265045, -0.12316089123487473, 0.036938685923814774, -0.012456469237804413, 0.0779406726360321, 0.14182156324386597, -0.07062969356775284, -0.10006172955036163, 0.1555030792951584, 0.046305231750011444, 0.14231696724891663, -0.042695485055446625, 0.1551348865032196, 0.16240361332893372, 0.09214607626199722, -0.37757664918899536, -0.15219803154468536, -0.06922172755002975, -0.00924695935100317, 0.13976989686489105, 0.008712854236364365, -0.13238783180713654, -0.06264539062976837, -0.11096519231796265, 0.09776751697063446, -0.11657612770795822, -0.11340831220149994, -0.21858462691307068, 0.03348498046398163, 0.1775149703025818, -0.037150610238313675, 0.22930023074150085, 0.1532496213912964, -0.07665055990219116, 0.03287596255540848, 0.043562885373830795, -0.056875795125961304, 0.07989200204610825, -0.059801749885082245, -0.147394061088562, 0.13059496879577637, -0.14534509181976318, 0.12940341234207153, 0.13077197968959808, -0.4372323751449585, -0.14039160311222076, 0.20216180384159088, 0.2752588987350464, 0.26092150807380676, 0.23198813199996948, 0.3736036717891693, -0.2513517439365387, -0.4464573860168457, 0.3266643285751343, -0.023190023377537727, -0.42588937282562256, 0.28916943073272705, 0.04532000795006752, -0.009896460920572281, -0.29986631870269775, 0.20943941175937653, 0.26067012548446655, -0.23832760751247406, -0.3514491021633148, -0.5633480548858643, -0.4085804522037506, 0.12581174075603485, 0.30571165680885315, 0.37044522166252136, -0.19029752910137177, -0.1346231997013092, -0.20741115510463715, -0.12427253276109695, 0.22251608967781067, 0.38497236371040344, -0.20656028389930725, -0.27908408641815186, 0.06851726025342941, -0.012473363429307938, 0.19435220956802368, 0.3179507851600647, -0.0429098978638649, -0.42384812235832214, 0.4016980230808258, -0.19416630268096924, -0.3542311489582062, -0.40620967745780945, -0.42669224739074707, -0.2535002827644348, -0.1632579118013382, 0.10363025218248367, 0.2962142825126648, -0.09199543297290802, 0.04847506806254387, -0.05795048177242279, 0.13290482759475708, 0.024791251868009567, 0.12960460782051086, -0.06493202596902847, -0.01128089614212513, 0.05110664293169975, -0.1657143235206604, -0.05353408679366112, 0.0928059071302414, -0.0880710780620575, -0.1412619650363922, -0.09777193516492844, -0.07489245384931564, 0.2004416584968567, -0.10603860020637512, 0.21567028760910034, 0.0828559547662735, -0.016257360577583313, 0.05906306952238083, 0.23056556284427643, 0.07504432648420334, 0.08656115084886551, -0.05874304845929146, 0.0388512946665287, -0.08451314270496368, -0.03279898688197136, -0.062239620834589005, 0.10322543233633041, -0.16249939799308777, 0.040254347026348114, -0.03624998405575752, 0.16969238221645355, 0.0894995704293251, -0.20646978914737701, -0.24573074281215668, 0.1541307270526886, -0.004090975970029831, -0.13173852860927582, 0.08147210627794266, -0.01340222917497158, -0.2182396948337555, -0.08605064451694489, 0.1128392294049263, 0.07927356660366058, -0.07503042370080948, 0.09690885245800018, -0.18101918697357178, 0.10883485525846481, -0.23700693249702454, 0.40461182594299316, -0.03795799985527992, -0.1894962042570114, 0.11065340042114258, -0.0912441685795784, -0.11448854207992554, 0.2060208022594452, -0.008227075450122356, -0.17464573681354523, 0.1633514016866684, -0.017397236078977585, 0.18910767138004303, -0.28015652298927307, 0.07714159041643143, 0.06948938965797424, -0.4848901629447937, -0.006559047382324934, 0.18933844566345215, -0.30371206998825073, 0.22558897733688354, 0.06458848714828491, 0.37033775448799133, -0.1558234691619873, 0.24475286900997162, -0.16478152573108673, 0.0645289421081543, -0.02926342375576496, 0.2612963318824768, -0.007343930657953024, 0.009547092951834202, -0.48853057622909546, 0.07191020995378494, -0.046890612691640854, 0.21701779961585999, -0.10820178687572479, -0.16650517284870148, 0.011314667761325836, -0.0021834548097103834, 0.17628128826618195, 0.35790836811065674, -0.02898140251636505, 0.021929379552602768, -0.1892009973526001, 0.06771552562713623, -0.014588886871933937, 0.1694713979959488, -0.016340700909495354, -0.09582838416099548, -0.09790822863578796, -0.07030091434717178, 0.06980100274085999, -0.06755557656288147, 0.2367471307516098, 0.25181618332862854, 0.02067496068775654, 0.0782148540019989, -0.13767333328723907, 0.027344094589352608, 0.03254504129290581, 0.1003308966755867, 0.1994018703699112, 0.07568169385194778, 0.4825029969215393, 0.23806457221508026, 0.17230220139026642, -0.10304219275712967, 0.1508721262216568, -0.09015530347824097, -0.01383066363632679, -0.3061006963253021, -0.12935663759708405, 0.002467453246936202, 0.05742577463388443, -0.07918090373277664, 0.1554480344057083, -0.13491959869861603, 0.1343134492635727, -0.00017165667668450624, 0.5665887594223022, 0.29854071140289307, 0.19352738559246063, 0.13649868965148926, 0.21030071377754211, 0.0536792054772377, 0.03505576774477959, -0.08022985607385635, -0.10311777144670486, -0.13163882493972778, -0.1275789886713028, -0.04131212458014488, 0.15474702417850494, 0.036093756556510925, -0.156666100025177, 0.057699352502822876, 0.04679826647043228, 0.08621502667665482, 0.08462966233491898, -0.052116308361291885, -0.050186533480882645, -0.11961545795202255, 0.2414909452199936, -0.03706309199333191, -0.20038096606731415, 0.021724149584770203, 0.04269671067595482, -0.11569197475910187, -0.1780332326889038, 0.16512738168239594, 0.08399738371372223, -0.156198188662529, 0.19752050936222076, -0.12211615592241287, 0.18123476207256317, 0.05162243917584419, 0.09772764891386032, -0.12036922574043274, -0.041061170399188995, -0.23954689502716064, 0.27655676007270813, 0.07859404385089874, 0.17115050554275513, -0.0949898362159729, 0.09517735242843628, -0.24165503680706024, 0.08649308979511261, 0.1794661283493042, 0.01586092822253704, -0.07055402547121048, 0.017982326447963715, -0.1701814979314804, 0.09041155874729156, -0.089166559278965, -0.1031821221113205, -0.038555361330509186, -0.02262149006128311, -0.19767463207244873, 0.33045002818107605, -0.02304127998650074, 0.13645434379577637, -0.05275266245007515, 0.14216704666614532, 0.014074783772230148, -0.0377439484000206, -0.21667860448360443, -0.12202847748994827, -0.22034473717212677, 0.1337779015302658, 0.21025556325912476, 0.20394764840602875, 0.03321589529514313, 0.018302394077181816, -0.15072274208068848, 0.10493845492601395, 0.25385335087776184, 0.08725341409444809, -0.1344292312860489, -0.06472346931695938, -0.05223941057920456, -0.11727364361286163, -0.2613270580768585, -0.02616133540868759, -0.18583957850933075, -0.29682469367980957, 0.0004992801113985479, 0.0218481607735157, 0.07358346879482269, 0.16921815276145935, -0.04400676488876343, -0.0990251898765564, -0.20782898366451263, 0.042440224438905716, 0.06314762681722641, -0.038257427513599396, -0.047829557210206985, -0.12289922684431076, 0.22548742592334747, 0.021491453051567078, 0.27450576424598694, 0.13996832072734833, 0.025052426382899284, 0.13455015420913696, -0.047757793217897415, -0.024726353585720062, -0.14951901137828827, 0.06420253962278366, -0.12228105962276459, -0.2910783886909485, -0.23532767593860626, -0.07098068296909332, 0.25146257877349854, -0.16285397112369537, -0.07149522006511688, -0.27059268951416016, 0.15246383845806122, -0.04466281458735466, -0.19083505868911743, 0.02499455399811268, -0.0021621284540742636, -0.0346684493124485, 0.011224716901779175, 0.29236847162246704, -0.11846897751092911, -0.009734515100717545, -0.11431079357862473, 0.17506812512874603, -0.048633940517902374, -0.27472391724586487, 0.07424094527959824, 0.03910684958100319, -0.17385515570640564, 0.23853664100170135, 0.061576757580041885, -0.016837334260344505, -0.1847546547651291, 0.06527039408683777, -0.24804182350635529, 0.04924917593598366, -0.004262522328644991, -0.0029786406084895134, -0.1978510022163391, 0.19030684232711792, 0.1408921182155609, 0.46554410457611084, -0.4244643747806549, 0.04442927986383438, -0.1762753278017044, -0.06563390791416168, 0.008489002473652363, -0.13362830877304077, 0.06691363453865051, -0.3561895787715912, -0.2080608457326889, 0.11702516674995422, -0.11389906704425812, 0.16959194839000702, -0.18290314078330994, -0.04460730031132698, 0.13366509974002838, -0.20446451008319855, 0.005374575965106487, 0.10586778074502945, -0.039957478642463684, -0.12588070333003998, -0.057769376784563065, -0.023707952350378036, -0.27425724267959595, -0.11971131712198257, -0.0713358148932457, 0.06516938656568527, 0.09236926585435867, -0.02192363515496254, 0.10123579949140549, 0.05570128187537193, 0.0007453006110154092, -0.16832563281059265, 0.17984150350093842, -0.04243795573711395, 0.05300665274262428, 0.10577902942895889, 0.09733529388904572, -0.01655980758368969, 0.022351933643221855, 0.20407992601394653, -0.023031964898109436, -0.13688905537128448, -0.06824512034654617, 0.0014347307151183486, -0.08013494312763214, -0.13277378678321838, -0.11153516918420792, -0.059727590531110764, -0.5056077837944031, -0.10150175541639328, -0.005072376225143671, 0.005808196030557156, -0.004655596800148487, -0.08583950996398926, 0.07587824761867523, -0.11315096169710159, 0.030540112406015396, -0.18340933322906494, -0.06342779099941254, -0.20438224077224731, -0.08236051350831985, 0.18548473715782166, -0.06289169192314148, -0.20274725556373596, -0.043457310646772385, 0.11365117132663727, 0.023038238286972046, -0.12891308963298798, 0.13167168200016022, 0.07449621707201004, -0.005403080023825169, 0.04462440684437752, 0.02366632968187332, -0.05831032991409302, 0.05606309697031975, -0.0799378901720047, 0.06685900688171387, 0.12293169647455215, -0.018356144428253174, 0.11143742501735687, -0.2114342749118805, -0.237548366189003, 0.21589882671833038, 0.13165518641471863, 0.023400917649269104, 0.027606358751654625, -0.07264401763677597, 0.006842433474957943, -0.11451785266399384, 0.03785810247063637, -0.04207750782370567, -0.14281971752643585, 0.04306027293205261, -0.051011692732572556, 0.06178208813071251, 0.023414405062794685, -0.31451815366744995, -0.08519981056451797, -0.0855441689491272, 0.08384343981742859, 0.05511191859841347, 0.05112883076071739, -0.03654957935214043, 0.004590808879584074, -0.10778603702783585, -0.09284656494855881, -0.03334718197584152, 0.01574227772653103, 0.0491553470492363, 0.007010699715465307, 0.133209228515625, 0.08981174230575562, 0.019802464172244072, 0.07043866068124771, -0.21525098383426666, 0.1244649887084961, 0.14865010976791382, -0.07294443249702454, -0.06076715141534805, -0.012142347171902657, -0.12575802206993103, 0.15295721590518951, -0.0029991448391228914, -0.1939244568347931, -0.05348829925060272, -0.16144047677516937, 0.18698027729988098, 0.03430048003792763, -0.14784611761569977, 0.22961799800395966, -0.11435100436210632, -0.13827203214168549, 0.1280249059200287, -0.08846912533044815, 0.1528860181570053, 0.010156565345823765, -0.08208615332841873, -0.035587213933467865, -0.05753263086080551, 0.12442625313997269, 0.18662545084953308, -0.02740507572889328, 0.07002539932727814, -0.2025013566017151, 0.020416932180523872, 0.044518835842609406, -0.11830765008926392, 0.039833955466747284, 0.010655070655047894, 0.027243033051490784, -0.1457493007183075, 0.0387144535779953, -0.027292000129818916, 0.16599133610725403, 0.024874556809663773, 0.010338257998228073, 0.017257193103432655, -0.10473697632551193, -0.17149266600608826, 0.03746110200881958, 0.10590213537216187, 0.2001366764307022, 0.11695224046707153, 0.044884275645017624, -0.14147761464118958, -0.0938701331615448, -0.04566454142332077, 0.031738314777612686, -0.053043071180582047, 0.08096781373023987, 0.136505588889122, 0.20670746266841888, -0.08081463724374771, -0.02035965397953987, -0.021125737577676773, -0.10861171782016754, 0.038483213633298874, 0.04716292396187782, 0.10936986654996872, 0.000446170597570017, 0.06370159238576889, 0.07162675261497498, 0.02137274295091629, 0.046723973006010056, 0.1271541714668274, -0.049716513603925705, 0.26203739643096924, 0.0025930912233889103, 0.034362830221652985, -0.14395584166049957, -0.11107324808835983, -0.17438887059688568, -0.26817798614501953, -0.17722320556640625, -0.05078974366188049, -0.1537841409444809, 0.07391361147165298, 0.09544895589351654, -0.2062499076128006, 0.0336478166282177, 0.04459169879555702, -0.24858637154102325, -0.15024375915527344, -0.2278607040643692, -0.04748394340276718, -0.20133543014526367, -0.03952065855264664, -0.1674211323261261, 0.0005363723030313849, -0.03487399220466614, -0.005170926451683044, -0.17898356914520264, 0.07994624972343445, -0.07621277868747711, 0.07874304056167603, 0.1128624677658081, 0.0811045840382576, 0.07114217430353165, 0.11743122339248657, 0.15027745068073273, 0.10977164655923843, -0.10464778542518616, 0.012660135515034199, -0.22845293581485748, 0.1954009234905243, 0.037637073546648026, 0.010620078071951866, -0.04262496158480644, -0.05221274495124817, 0.04596293717622757, -0.20114141702651978, -0.1433037519454956, 0.04126483201980591, 0.013152267783880234, 0.15610072016716003, -0.03898853436112404, 0.08828669786453247, 0.06127235293388367, -0.06378072500228882, 0.23301486670970917, 0.13161325454711914, -0.028939640149474144, 0.12933114171028137, -0.05238228663802147, -0.10229377448558807, -0.057296834886074066, -0.06857529282569885, -0.08317218720912933, 0.06552811712026596, -0.3002638816833496, 0.1573018580675125, 0.01790047436952591, 0.0439467653632164, -0.12829381227493286, 0.1584220975637436, -0.0648532509803772, 0.07093224674463272, -0.028278028592467308, 0.05532718822360039, -0.020559536293148994, 0.043402522802352905, 0.02669255994260311, 0.06586703658103943, 0.09394534677267075, -0.08886779844760895, -0.007912806235253811, -0.00545901944860816, 0.00986323319375515, -0.04354909434914589, -0.13746461272239685, -0.004641163162887096, -0.24447941780090332, 0.016266675665974617, -0.2205093502998352, 0.05801154300570488, -0.15283644199371338, -0.11436809599399567, -0.12779322266578674, -0.09436740726232529, -0.057529035955667496, -0.08215108513832092, 0.18332944810390472, 0.20118430256843567, -0.0006353069329634309, 0.09948994964361191, -0.10268422961235046, -0.09486952424049377, 0.1065351665019989, 0.03503373637795448, -0.12419866770505905, -0.11633428186178207, -0.04801356419920921, 0.04227343946695328, 0.09795664250850677, -0.13487419486045837, -0.12381279468536377, -0.006413010414689779, 0.07876899838447571, 0.03296928480267525, 0.16175925731658936, 0.1136515811085701, -0.052713874727487564, 0.302100270986557, 0.06786336749792099, 0.06816249340772629, -0.06341174244880676, 0.11222401261329651, 0.06685994565486908, 0.10067177563905716, 0.13106735050678253, -0.062174271792173386, 0.16372080147266388, 0.07088355720043182, 0.17412950098514557, 0.035340361297130585, -0.013821561820805073, -0.09149397909641266, -0.4003453850746155, 0.3866367042064667, 0.3073749542236328, -0.06524781137704849, 0.15775465965270996, -0.6778058409690857, -0.5876424312591553, -0.492010235786438, 0.7191842794418335, -0.9788016676902771, -0.3092416822910309, -0.7520597577095032, 0.14919082820415497, -0.5177409648895264, 0.2671385109424591, -0.7190244197845459, -0.335347056388855, -0.23612616956233978, 0.10325588285923004, 0.5297828912734985, 0.14540520310401917, 0.008972573094069958, -0.32126057147979736, -0.2167930155992508, 0.0635451003909111, -0.07804539054632187, -0.1081213653087616, -0.10893429070711136, 0.2922130227088928, 0.3218642771244049, 0.06755966693162918, 0.14062395691871643, 0.08946967124938965, -0.10419739037752151, -0.043080396950244904, -0.33399027585983276, -0.2582365572452545, 0.3040847182273865, -0.25612521171569824, -0.2392853945493698, 0.19387607276439667, -0.1656385362148285, 0.13263145089149475, 0.08196195960044861, 0.09577792137861252, 0.03318207338452339, 0.16131997108459473, 0.17826803028583527, -0.3455122709274292, -0.3424542248249054, -0.038831569254398346, 0.2416713833808899, -0.008730893954634666, 0.22539785504341125, -0.02315557561814785, -0.16007335484027863, 0.054759640246629715, 0.04358972609043121, -0.4791312515735626, -0.3943859040737152, 0.19411149621009827, 0.17291197180747986, 0.2601250112056732, 0.19198045134544373, -0.05735063925385475, 0.17338426411151886, -0.026626629754900932, -0.15552128851413727, 0.06926582753658295, -0.3633033037185669, 0.23616395890712738, 0.11029414087533951, -0.12870126962661743, 0.28246641159057617, 0.018301261588931084, 0.21302051842212677, 0.12323019653558731, -0.15544664859771729, -0.02300124242901802, 0.06932392716407776, 0.2672981321811676, -0.14123865962028503, -0.18703262507915497, -0.2775779962539673, 0.27194851636886597, -0.231709823012352, -0.08476381003856659, 0.14794586598873138, 0.23901569843292236, 0.19669456779956818, -0.10232111811637878, 0.18155625462532043, -0.12319602072238922, -0.010902688838541508, -0.13502107560634613, -0.27156534790992737, -0.11743110418319702, -0.05940185487270355, -0.17191489040851593, -0.05498627945780754, 0.15239176154136658, -0.21456016600131989, -0.026002978906035423, 0.012255778536200523, 0.10497790575027466, 0.06585966050624847, -0.006085407920181751, -0.12325356900691986, -0.2742031514644623, -0.11856940388679504, -0.0405113585293293, -0.022740907967090607, 0.03547089546918869, -0.04774310812354088, 0.1659989058971405, -0.4232400357723236, 0.10179802030324936, 0.049809567630290985, 0.05215977504849434, -0.03372206538915634, 0.02325032278895378, 0.0644935742020607, -0.10209154337644577, -0.013578915037214756, 0.18101085722446442, -0.11068053543567657, -0.04665517807006836, 0.1319073885679245, 0.12888853251934052, 0.02104509063065052, -0.2238200604915619, 0.04529942572116852, 0.016803691163659096, -0.02618195302784443, 0.004140128847211599, 0.05510368570685387, 0.02839978225529194, 0.15047895908355713, -0.1537059247493744, 0.12863393127918243, -0.12016314268112183, -0.15713895857334137, 0.260051965713501, 0.04784707725048065, -0.16277475655078888, 0.15444232523441315, -0.10252806544303894, -0.130227729678154, -0.07111525535583496, -0.12071113288402557, 0.05239395052194595, -0.06680887937545776, 0.06502991169691086, 0.05053235590457916, 0.05171686038374901, -0.21057523787021637, -0.025248732417821884, -0.00820161122828722, 0.1281382292509079, 0.2117045521736145, 0.10551337897777557, 0.11301705241203308, -0.07568588107824326, 0.16816119849681854, 0.11350316554307938, -0.2194068729877472, 0.12867014110088348, 0.009295128285884857, -0.002829928882420063, -0.0313618965446949, 0.2608160972595215, 0.38860946893692017, -0.01582789048552513, -0.21036101877689362, -0.034422218799591064, -0.2413713037967682, -0.15668976306915283, -0.11144574731588364, -0.06599592417478561, 0.07887109369039536, 0.08038152009248734, -0.028521304950118065, -0.02471686527132988, -0.05332024022936821, 0.1620827615261078, -0.007989265955984592, -0.24997419118881226, 0.04794323816895485, 0.030831335112452507, -0.02915824018418789, 0.02977437525987625, 0.07969281077384949, 0.3135973811149597, 0.5132230520248413, 0.12150637060403824, -0.3003886342048645, 0.11049604415893555, -0.38354647159576416, -0.14871704578399658, 0.3156487047672272, -0.45839348435401917, 0.08817649632692337, 0.4832778871059418, 0.13008318841457367, -0.35637998580932617, -0.0401214063167572, -0.10933178663253784, -0.34712204337120056, -0.3467579483985901, -0.38145655393600464, -0.017978450283408165, 0.22329306602478027, 0.09314262121915817, -0.2093377411365509, 0.12186304479837418, 0.10923674702644348, -0.21329449117183685, 0.09318041801452637, -0.30731406807899475, -0.28826358914375305, 0.28794345259666443, 0.14533886313438416, -0.051516976207494736, 0.037536706775426865, -0.006337921135127544, -0.11796605587005615, -0.1918787807226181, 0.37610194087028503, -0.23710498213768005, 0.04845868796110153, -0.20823031663894653, -0.07644933462142944, 0.09167423844337463, 0.051037199795246124, -0.10520291328430176, -0.162099689245224, 0.27773597836494446, 0.1620926409959793, 0.18372349441051483, 0.02440483495593071, -0.2754632830619812, 0.3483537435531616, 0.11685018241405487, -0.17904706299304962, -0.3359903395175934, -0.22994400560855865, 0.11821367591619492, -0.02597752772271633, 0.05956445261836052, 0.3863244354724884, -0.12472110986709595, -0.1046665832400322, 0.026085378602147102, 0.027624882757663727, 0.1446850448846817, 0.26385554671287537, 0.3433074355125427, 0.05221598967909813, -0.05959576740860939, -0.14767585694789886, -0.2164948731660843, 0.14886079728603363, 0.09688381105661392, 0.2282215803861618, 0.172798752784729, -0.04773552343249321, 0.3277856409549713, 0.22193139791488647, -0.16482393443584442, -0.063570536673069, -0.1043480709195137, -0.2656871974468231, -0.2451246827840805, 0.037163808941841125, -0.15917839109897614, -0.011613897979259491, 0.10993364453315735, -0.02573193795979023, 0.146479994058609, -0.001103611895814538, 0.03942151740193367, 0.05726978927850723, -0.005375005304813385, -0.2061110883951187, 0.17877095937728882, -0.20155899226665497, -0.24486927688121796, -0.21904325485229492, -0.010766474530100822, 0.013610485009849072, -0.16776955127716064, 0.2237713783979416, -0.4324355721473694, -0.04717769846320152, 0.3344745635986328, -0.13223107159137726, -0.07064323127269745, 0.21610838174819946, -0.18450599908828735, -0.12450837343931198, 0.11878278106451035, 0.017193060368299484, 0.04053067788481712, -0.12313609570264816, 0.2557205557823181, 0.003600173396989703, 0.046503398567438126, -0.3770264983177185, 0.08919742703437805, -0.19726283848285675, 0.13322396576404572, -0.116998091340065, 0.11328045278787613, -0.017337266355752945, 0.02547370456159115, -0.18959811329841614, 0.2723575830459595, -0.0005157893756404519, 0.17059911787509918, -0.07480701804161072, -0.1288422793149948, -0.3772316873073578, 0.1949504166841507, 0.16885270178318024, 0.23545649647712708, -0.08083368092775345, -0.09099996834993362, 0.26378586888313293, -0.04047422483563423, -0.15430381894111633, 0.21697013080120087, 0.32616734504699707, -0.11279162764549255, -0.05807632580399513, -0.144271582365036, 0.11698063462972641, -0.310592383146286, -0.12852667272090912, 0.22431477904319763, 0.07647830247879028, 0.10398303717374802, -0.18487153947353363, 0.25516605377197266, 0.06070553511381149, 0.026046166196465492, 0.05678300932049751, -0.19465100765228271, -0.21256588399410248, 0.1793840080499649, -0.12682847678661346, -0.18264272809028625, -0.05673166736960411, 0.06530407071113586, 0.058042414486408234, 0.07691075652837753, -0.15776875615119934, -0.16744187474250793, -0.20644651353359222, -0.06041031330823898, 0.09388906508684158, 0.09378974139690399, -0.16475334763526917, -0.30323442816734314, 0.043700188398361206, 0.24869723618030548, 0.22801007330417633, 0.2771686911582947, -0.016447976231575012, -0.1516663283109665, -0.1922994703054428, -0.07023971527814865, 0.11128556728363037, 0.15180154144763947, 0.07032455503940582, -0.09354218095541, 0.15281128883361816, -0.04735950380563736, -0.14011728763580322, -0.21295525133609772, -0.12367603927850723, -0.08710198104381561, -0.04195777699351311, -0.011735902167856693, -0.027957255020737648, 0.024941354990005493, -0.014596400782465935, -0.04793471843004227, -0.024583494290709496, 0.03009486012160778, -0.061198409646749496, -0.010052012279629707, 0.02686343714594841, 0.2432614266872406, -0.17788083851337433, -0.03472589701414108, -0.0008659937884658575, -0.03953148052096367, -0.11591684818267822, -0.06437179446220398, 0.16916294395923615, 0.09885206073522568, -0.01542305015027523, 0.10681633651256561, 0.2524144947528839, 0.29750269651412964, 0.01220788899809122, 0.15845537185668945, 0.14519977569580078, 0.0695016160607338, 0.09016053378582001, 0.13208171725273132, 0.09964155405759811, 0.01923355832695961, -0.29361480474472046, -0.18090058863162994, 0.048637665808200836, 0.01358189806342125, 0.07019804418087006, -0.003230487462133169, -0.2588218152523041, 0.11800253391265869, 0.09694389998912811, 0.27320170402526855, -0.1639847606420517, -0.007013085763901472, 0.14502309262752533, -0.0021310674492269754, -0.35406821966171265, -0.15745404362678528, -0.03608054667711258, -0.005383502226322889, -0.09556477516889572, 0.10701580345630646, 0.041237443685531616, 0.3283745348453522, 0.11179377138614655, 0.16050127148628235, 0.01775813102722168, 0.2180561125278473, 0.15880048274993896, -0.24952180683612823, 0.1506861299276352, 0.13810712099075317, -0.14510785043239594, -0.021175477653741837, -0.005005722865462303, -0.04497285932302475, 0.008019114844501019, -0.03492780774831772, 0.2816784977912903, 0.14396315813064575, -0.015262051485478878, -0.26878997683525085, 0.00293514016084373, 0.04177775979042053, 0.24532417953014374, 0.03589484468102455, 0.04297848418354988, -0.04326838627457619, -0.23976467549800873, -0.17389942705631256, -0.10342580825090408, 0.13713251054286957, 0.08028306066989899, -0.09521639347076416, 0.06995604187250137, 0.03726401552557945, 0.07497569918632507, 0.051825959235429764, -0.06617461144924164, -0.21703465282917023, 0.26280269026756287, 0.012823432683944702, 0.005156191065907478, 0.20305149257183075, -0.16976489126682281, 0.17556101083755493, 0.045072466135025024, 0.38948726654052734, 0.41273579001426697, 0.24201494455337524, 0.11625270545482635, -0.6891072988510132, -0.18559613823890686, -0.19341395795345306, 0.27324485778808594, -0.1387019157409668, 0.007222551852464676, 0.08504601567983627, -0.09914757311344147, 0.20791693031787872, 0.31301164627075195, -0.2897569239139557, -0.18352894484996796, 0.41405564546585083, 0.05588579922914505, 0.1940658539533615, -0.2835586369037628, -0.06177377700805664, -0.4768781065940857, 0.43162938952445984, 0.09422197937965393, -0.0450928620994091, -0.2907838225364685, -0.2094016820192337, -0.1822395920753479, 0.3052239418029785, 0.18861110508441925, 0.16956812143325806, -0.18630070984363556, -0.2330845296382904, -0.0519220195710659, 0.32242417335510254, 0.2415771484375, 0.22577333450317383, -0.2146896868944168, -0.2655346393585205, 0.12534405291080475, 0.12642993032932281, -0.24083776772022247, -0.17353327572345734, 0.2473067045211792, -0.3724735975265503, 0.31278401613235474, 0.15592844784259796, 0.35481297969818115, -0.16162905097007751, -0.08855531364679337, -0.06689516454935074, 0.24598094820976257, 0.13681374490261078, 0.42832884192466736, -0.1656506508588791, -0.28587672114372253, 0.3410826623439789, -0.10909099131822586, -0.3097171485424042, 0.18358191847801208, -0.26245802640914917, -0.09603579342365265, 0.20884737372398376, -0.14992685616016388, -0.12859989702701569, -0.3390398919582367, 0.04957997053861618, 0.29991987347602844, 0.01788526214659214, -0.19928929209709167, -0.4747716784477234, -0.3753133714199066, 0.00045987957855686545, 0.2983342409133911, 0.3576945960521698, -0.1302674263715744, -0.3239991366863251, -0.47210097312927246, 0.07581847161054611, 0.22369025647640228, 0.41719916462898254, -0.04612327367067337, -0.2650379538536072, -0.36788487434387207, 0.10269273817539215, 0.3721303641796112, 0.46316078305244446, -0.024037839844822884, -0.19320999085903168, 0.40504002571105957, -0.0007851074333302677, -0.18104735016822815, 0.08243359625339508, 0.012886871583759785, 0.020669277757406235, -0.10927522927522659, -0.13703033328056335, 0.023493267595767975, -0.14616505801677704, 0.07044589519500732, 0.08618508279323578, 0.0027472509536892176, -0.1284404993057251, -0.04899730905890465, 0.08034670352935791, -0.10879002511501312, 0.00482806283980608, 0.1170215904712677, 0.17354683578014374, 0.17518350481987, -0.0010784987825900316, -0.11257925629615784, -0.010209077969193459, -0.08049671351909637, 0.12203660607337952, -0.021976888179779053, 0.15988479554653168, -0.07572605460882187, 0.0765286535024643, 0.09728923439979553, 0.10578566044569016, -0.12260022759437561, -0.2455676645040512, -0.18455162644386292, 0.18012487888336182, 0.01694094017148018, 0.21369236707687378, -0.13680467009544373, -0.16515570878982544, -0.0009204347734339535, -0.0741063803434372, -0.032911188900470734, -0.028780216351151466, -0.16768790781497955, -0.12292864173650742, -0.042160097509622574, 0.2647877335548401, -0.028404345735907555, -0.10889118909835815, 0.09888316690921783, -0.07481515407562256, 0.24279102683067322, 0.22151069343090057, 0.4621270000934601, -0.11891592293977737, -0.24388103187084198, -0.2889256775379181, -0.03403034433722496, -0.04120045155286789, 0.10922162979841232, 0.10493554919958115, -0.008010845631361008, 0.07546524703502655, 0.14084157347679138, -0.02800286002457142, -0.018988395109772682, -0.09187360107898712, 0.027410106733441353, 0.01384730450809002, 0.21080541610717773, 0.016786638647317886, 0.007752643432468176, 0.08649608492851257, 0.033045731484889984, 0.009337597526609898, 0.18843649327754974, -0.10517504066228867, -0.16875432431697845, 0.07023479789495468, -0.0356103889644146, 0.03131359443068504, -0.01160752959549427, -0.136471226811409, -0.25613290071487427, 0.042104531079530716, -0.08488206565380096, 0.2243730127811432, -0.10764088481664658, 0.005048610735684633, -0.006498232949525118, 0.09366162866353989, -0.0279641505330801, 0.12537981569766998, 0.005756265949457884, 0.10012993961572647, -0.05898572504520416, -0.18670184910297394, -0.02327665314078331, -0.021305760368704796, -0.1364324390888214, 0.11494649946689606, -0.06368951499462128, 0.15664993226528168, 0.1669045090675354, -0.08116277307271957, -0.18851731717586517, 0.08082974702119827, 0.021874425932765007, 0.017534853890538216, 0.026045769453048706, 0.10300130397081375, 0.13001161813735962, -0.1632714420557022, 0.05226826295256615, -0.017213450744748116, -0.0501357838511467, -0.15739019215106964, -0.024323495104908943, 0.045794595032930374, -0.2282281070947647, -0.2056051641702652, -0.03634001314640045, 0.10956698656082153, 0.166423037648201, -0.10992038249969482, -0.1155887246131897, -0.17401064932346344, -0.0460767038166523, 0.07181636244058609, -0.09375122934579849, -0.018442470580339432, -0.08124160766601562, 0.06892325729131699, 0.211114764213562, 0.11873683333396912, 0.05297619849443436, -0.18509423732757568, 0.035060662776231766, 0.017046332359313965, 0.11900544911623001, 0.09377941489219666, 0.12333802878856659, -0.06646189838647842, 0.14954757690429688, -0.018719937652349472, 0.034567974507808685, -0.1529456526041031, -0.017273947596549988, -0.1499546766281128, -0.0012283254181966186, -0.13011206686496735, 0.041789378970861435, 0.04161928594112396, 0.0743405818939209, -0.46745166182518005, -0.13410428166389465, -0.09310556948184967, 0.17724601924419403, -0.17814499139785767, -0.07672952115535736, 0.20252683758735657, -0.22267931699752808, -0.16906797885894775, 0.03594955429434776, 0.011698510497808456, 0.004969912581145763, 0.3113544285297394, 0.049168430268764496, 0.05573338270187378, -0.2582986354827881, 0.045766301453113556, -0.13386575877666473, -0.014312701299786568, 0.1642148792743683, -0.13408058881759644, -0.3381839096546173, -0.1801915317773819, -0.16451270878314972, 0.22619293630123138, 0.28374990820884705, 0.0013608747394755483, -0.12385021895170212, -0.11615116894245148, 0.000750319566577673, 0.1380222886800766, 0.06840979307889938, 0.22491461038589478, -0.22871984541416168, -0.1634639948606491, 0.01551003847271204, 0.09716431051492691, -0.2513332664966583, -0.1986200362443924, 0.1360013335943222, -0.28619271516799927, 0.40434613823890686, -0.17119759321212769, 0.16426223516464233, -0.1644987314939499, -0.2879098057746887, -0.15772230923175812, -0.13931579887866974, -0.11753331124782562, -0.025728216394782066, 0.2082119584083557, 0.07049483805894852, 0.08944079279899597, 0.00927615538239479, 0.14651347696781158, 0.15635351836681366, -0.19152037799358368, 0.03655185550451279, 0.05030154064297676, -0.0011199403088539839, 0.09765245020389557, -0.02949397638440132, 0.23508137464523315, 0.06837575882673264, -0.18059830367565155, 0.3344438076019287, -0.044881220906972885, 0.011520350351929665, 0.25849270820617676, 0.08931343257427216, 0.06877509504556656, 0.05654849484562874, -0.017983300611376762, -0.06464511901140213, -0.04956934228539467, 0.006528420839458704, 0.12398679554462433, -0.11524467915296555, 0.03779120743274689, 0.045071542263031006, -0.04927721247076988, 0.10843077301979065, 0.26258784532546997, -0.025888796895742416, 0.1931033581495285, 0.165456622838974, -0.31117480993270874, -0.13166378438472748, -0.14150261878967285, 0.036537572741508484, -0.19610869884490967, -0.04823968559503555, -0.09026976674795151, -0.02054165117442608, 0.04445619508624077, 0.08332748711109161, 0.005600349511951208, 0.02243979647755623, -0.13674865663051605, 0.10120605677366257, -0.08936306834220886, -0.01790490373969078, 0.17983302474021912, -0.029826365411281586, 0.06255453079938889, 0.11388939619064331, 0.21236713230609894, -0.028653886169195175, 0.08096551150083542, -0.10141382366418839, 0.04938405007123947, 0.004998105112463236, 0.12432579696178436, -0.08609741181135178, 0.32739558815956116, 0.07085852324962616, -0.009340109303593636, -0.13765180110931396, -0.16406159102916718, 0.03412783518433571, -0.06946811079978943, 0.01157041173428297, 0.05215197056531906, -0.1676204353570938, -0.1277683824300766, -0.13991382718086243, -0.056133970618247986, 0.15782681107521057, -0.14413073658943176, -0.03485751152038574, -0.1624901294708252, 0.02212546579539776, 0.008078206330537796, -0.13056649267673492, -0.06251155585050583, 0.19893619418144226, -0.24764081835746765, 0.02740003913640976, 0.002046978333964944, 0.20671315491199493, -0.2752934992313385, -0.3288741707801819, -0.3082640767097473, -0.34935593605041504, 0.5873354077339172, 0.07614799588918686, 0.42414766550064087, -0.32630833983421326, -0.20092634856700897, -0.06680335849523544, -0.012820038944482803, 0.05130940303206444, 0.06460964679718018, -0.0006023848545737565, 0.2979568541049957, 0.4235869348049164, -0.1622983068227768, 0.01674129068851471, -0.14355973899364471, 0.10855372250080109, -0.0604955293238163, 0.42582622170448303, -0.8887001872062683, 0.04163326323032379, -0.29985544085502625, 0.004251265898346901, 0.006518479436635971, 0.08069341629743576, -0.015495403669774532, -0.07621261477470398, -0.1974920779466629, 0.12972712516784668, -0.019142983481287956, 0.32472947239875793, 0.0677705928683281, 0.32572412490844727, -0.13255757093429565, 0.14461229741573334, -0.20379507541656494, -0.12201980501413345, 0.14471131563186646, -0.11788690835237503, 0.23893456161022186, 0.10357647389173508, -0.13230451941490173, -0.10168838500976562, 0.3273879885673523, 0.334926962852478, 0.052539777010679245, -0.11632891744375229, -0.1754630208015442, -0.12263235449790955, -0.02736114338040352, -0.024132918566465378, -0.40482115745544434, 0.07515130192041397, 0.13786986470222473, -0.11696159839630127, 0.0648651197552681, -0.06612901389598846, -0.13113895058631897, 0.06015091389417648, -0.15030623972415924, 0.27548009157180786, 0.11394603550434113, -0.218605175614357, 0.2576564848423004, -0.18291345238685608, -0.13870179653167725, -0.3075867295265198, 0.3980584144592285, -0.06871985644102097, 0.12440915405750275, -0.014747328124940395, 0.0006243991665542126, -0.03268628939986229, 0.0888110026717186, 1.3652261259267107e-05, 0.0640062764286995, -0.029576247557997704, 0.06290428340435028, -0.045380838215351105, -0.058650773018598557, 0.019405918195843697, 0.27714717388153076, -0.3400220572948456, 0.07865726202726364, 0.17512086033821106, 0.07365650683641434, 0.020885320380330086, -0.12356604635715485, 0.010947993025183678, -0.11675195395946503, 0.0325278602540493, -0.02273700200021267, -0.0020059540402144194, -0.07995951920747757, -0.1150091290473938, 0.15627452731132507, 0.3773517608642578, 0.058297015726566315, 0.01077912375330925, -0.276787668466568, -0.04058719798922539, 0.08891530334949493, -0.07058833539485931, 0.253598690032959, -0.04806441441178322, -0.08906832337379456, 0.2139161080121994, -0.1718944013118744, -0.1719544678926468, -0.06890261173248291, 0.15776395797729492, 0.3468169867992401, -0.12200053036212921, -0.22038735449314117, -0.3278818428516388, 0.22764043509960175, 0.04856139421463013, 0.2003444880247116, 0.031277064234018326, 0.12578943371772766, -0.2010372281074524, 0.14906230568885803, 0.05989992991089821, 0.09151455760002136, -0.1323297619819641, 0.01303824596107006, -0.03006133809685707, 0.17992159724235535, -0.15888144075870514, 0.1724938005208969, -0.32982298731803894, 0.018635962158441544, -0.034197885543107986, 0.24499765038490295, -0.001478934776969254, -0.17217080295085907, 0.17548924684524536, 0.3256986439228058, -0.06973426789045334, 0.0770128145813942, 0.04032222926616669, 0.25409775972366333, 0.10007442533969879, 0.22286154329776764, 0.02002898044884205, 0.11662991344928741, -0.03187806159257889, 0.3127356767654419, 0.04691936448216438, -0.14401791989803314, 0.13517998158931732, 0.13444480299949646, -0.3202214241027832, 0.05722854658961296, 0.2081102579832077, -0.10358431190252304, 0.060981374233961105, -0.06672471016645432, 0.15099802613258362, -0.1974693238735199, -0.1522938460111618, 0.023502780124545097, -0.008504781872034073, -0.24220365285873413, 0.18769387900829315, 0.03785736486315727, 0.09762512147426605, -0.11383817344903946, 0.03290534391999245, 0.0541110597550869, 0.03307626396417618, -0.1145864874124527, -2.1131347239133902e-05, -0.15875612199306488, -0.1091809794306755, 0.07754138857126236, -0.14565806090831757, -6.974779012125509e-07, 0.10494531691074371, -0.2152337282896042, -0.0784466564655304, -0.05498452112078667, -0.17579619586467743, 0.14386573433876038, -0.04187370836734772, 0.24311159551143646, -0.13810130953788757, 0.3418577015399933, -0.11913076043128967, -0.02518589422106743, -0.0265080276876688, 0.1092870756983757, 0.11726529896259308, 0.04022898152470589, -0.4072984755039215, -0.07866214960813522, 0.038850169628858566, -0.2175586223602295, -0.03281387314200401, 0.25167402625083923, 0.16945943236351013, 0.03926502913236618, -0.03122381865978241, -0.10558552294969559, 0.021775303408503532, -0.12588518857955933, -0.03675956651568413, -0.2898347079753876, -0.436382532119751, 1.0749282836914062, 0.6103548407554626, -0.605225145816803, 0.3692380487918854, -0.08090151846408844, -0.27265918254852295, 0.25761842727661133, -1.0179318189620972, 0.8696568012237549, 0.7279558181762695, 0.06272035837173462, -0.21703116595745087, -0.005528207868337631, -0.66139155626297, 0.29896417260169983, 0.1676451414823532, -0.03942010924220085, -0.30785679817199707, 0.06875238567590714, 0.18427316844463348, 0.12419557571411133, 0.4166663587093353, 0.27254316210746765, 0.14297625422477722, 0.6167848110198975, -0.355938583612442, -0.08853889256715775, 0.058414727449417114, 0.09772545099258423, -0.390394002199173, 0.13036973774433136, -0.0818931981921196, -0.055396128445863724, -0.027726951986551285, 0.4040186405181885, 0.06658028811216354, 0.04839465022087097, -0.1237737163901329, -0.1630825400352478, 0.3178434371948242, -0.07937804609537125, -0.11937794089317322, -0.00807114690542221, 0.3411431908607483, 0.1986100673675537, -0.07580547779798508, -0.2736660838127136, -0.14648757874965668, 0.007962455041706562, -0.332016259431839, 0.2451154887676239, -0.3068186640739441, -0.008227366022765636, -0.19868621230125427, 0.029301470145583153, 0.2679458558559418, -0.30089089274406433, 0.2149048149585724, 0.2025575339794159, -0.3205258548259735, -0.3191777169704437, 0.08227679133415222, 0.40510159730911255, 0.09581884741783142, -0.020340895280241966, 0.004858446307480335, -0.2124234139919281, 0.424979567527771, -0.24819998443126678, 0.44476720690727234, 0.220679372549057, -0.12011895328760147, -0.017413685098290443, 0.008184772916138172, -0.13553336262702942, 0.10100013017654419, 0.04653080552816391, -0.21204787492752075, 0.4650968611240387, -0.3713691830635071, 0.14049164950847626, 0.10139371454715729, 0.7823042273521423, 0.11695331335067749, 0.3052195608615875, 0.10800353437662125, 0.022088510915637016, -0.24694132804870605, -0.008445880375802517, 0.5793459415435791, -0.23718546330928802, 0.09648140519857407, 0.43896716833114624, -0.08517227321863174, -0.07834161818027496, -0.3597502112388611, 0.32555264234542847, -0.40071505308151245, 0.0706426277756691, -0.1549699455499649, 0.3578464686870575, 0.09628911316394806, -0.21271522343158722, -0.11790665984153748, 0.04107963293790817, 0.3357142508029938, 0.0001739422878017649, 0.2653394639492035, 0.4374774098396301, -0.02813108079135418, 0.5114217400550842, 0.33411723375320435, -0.515079915523529, 0.2687073349952698, -0.2680411636829376, 0.40186193585395813, 0.14031994342803955, 0.15223319828510284, 0.22135977447032928, -0.31840917468070984, 0.30678680539131165, -0.3609791398048401, -0.13812902569770813, -0.19520922005176544, -0.07357712835073471, -0.16607949137687683, 0.3029126822948456, 0.21524301171302795, -0.42478281259536743, -0.14187876880168915, 0.20141632854938507, -0.11385630816221237, 0.03175058215856552, -0.14172126352787018, 0.31319954991340637, 0.11180427670478821, -0.20332570374011993, 0.05712399631738663, -0.0446423664689064, 0.11985771358013153, 0.057069286704063416, -0.044100452214479446, -0.03688966482877731, 0.34949439764022827, -0.034545157104730606, 0.02651129476726055, 0.1712152510881424, 0.10552056133747101, -0.27479296922683716, 0.06622298806905746, -0.03758731111884117, 0.10978370904922485, -0.2142118215560913, 0.12415633350610733, -0.4449440538883209, -0.06358864158391953, -0.006981667596846819, -0.12587465345859528, 0.12051849812269211, -0.00904897227883339, -0.09854176640510559, 0.19839631021022797, 0.02593449130654335, 0.05088648945093155, -0.2419762760400772, -0.09926143288612366, 0.0333561971783638, -0.07620523124933243, -0.020683417096734047, -0.12279916554689407, -0.0680774375796318, -0.0504285953938961, 0.14448344707489014, -0.09070268273353577, 0.4244706630706787, -0.04958977550268173, -0.170399010181427, -0.24434329569339752, 0.17172978818416595, 0.04391119256615639, 0.07391282171010971, 0.05736919119954109, 0.2604483664035797, 0.14899370074272156, -0.035071030259132385, -0.023620333522558212, 0.03246002644300461, -0.12766635417938232, 0.11528760194778442, 0.008784803561866283, 0.16906745731830597, -0.09191283583641052, 0.2731216549873352, -0.2402002364397049, -0.08023367077112198, 0.3238103985786438, 0.33951535820961, -0.14924736320972443, -0.3879202604293823, -0.041608281433582306, 0.042151328176259995, 0.5047772526741028, -0.3243291974067688, 0.09291999042034149, 0.08728604018688202, -0.013983185403048992, -0.32518598437309265, -0.2067089080810547, 0.06615767627954483, 0.11695584654808044, 0.08582030981779099, -0.04863307997584343, -0.2650182247161865, -0.14765167236328125, 0.0819290354847908, -0.148326575756073, 0.06930215656757355, 0.03135210648179054, 0.08548625558614731, 0.043361417949199677, 0.07520551979541779, -0.060289762914180756, -0.2115999013185501, 0.10984654724597931, -0.21609383821487427, -0.08458759635686874, 0.14751726388931274, -0.3419017493724823, 0.1647026687860489, -0.038852155208587646, -0.0023541259579360485, 0.09341351687908173, 0.2002260982990265, -0.21095262467861176, 0.041167814284563065, 0.032932695001363754, -0.0019053103169426322, -0.012454196810722351, -0.0869201198220253, 0.37359505891799927, 0.036920737475156784, -0.27828237414360046, -0.05493825301527977, 0.07597563415765762, 0.05912809073925018, -0.10541828721761703, 0.2904243469238281, 0.21905957162380219, 0.2476026564836502, 0.13032613694667816, 0.04675477743148804, 0.04891238361597061, -0.012545334175229073, -0.17685800790786743, -0.020244374871253967, 0.05041161924600601, -0.05618349090218544, -0.4029652178287506, 0.11746492981910706, -0.12568892538547516, 0.03558176010847092, -0.3379443883895874, 0.057185474783182144, 0.295212060213089, -0.11181382834911346, 0.02993280626833439, -0.05881087854504585, -0.37294241786003113, -0.3287836015224457, 0.28446316719055176, -0.16721487045288086, 0.008206706494092941, -0.15722356736660004, 0.1188325583934784, 0.272215336561203, 0.206827312707901, 0.1122729703783989, -0.2042602300643921, -0.28262022137641907, -0.0735747218132019, -0.1349184364080429, 0.059070490300655365, 0.17747464776039124, 0.12808437645435333, -0.40648746490478516, -0.36021918058395386, 0.00871878769248724, -0.09698260575532913, -0.08596673607826233, 0.09977450221776962, 0.08796706795692444, 0.13974474370479584, 0.011834544129669666, -0.07436370849609375, 0.04230548068881035, -0.1865597516298294, 0.13891912996768951, 0.20572105050086975, 0.34930792450904846, -0.07467851787805557, -0.1614929735660553, 0.11427848786115646, 0.05653690919280052, -0.026762494817376137, 0.14308972656726837, -0.02124716527760029, 0.009985056705772877, -0.029950829222798347, 0.05799456313252449, 0.03258748725056648, 0.052152007818222046, -0.044286198914051056, -0.09472107142210007, 0.27498799562454224, 0.08118586987257004, 0.1446310579776764, -0.12910151481628418, -0.11177339404821396, 0.2036774456501007, 0.039079610258340836, -0.11888213455677032, -0.10365047305822372, -0.03601069003343582, -0.014958844520151615, 0.05893596261739731, -0.09925048053264618, 0.052137743681669235, -0.12099894881248474, -0.4998731017112732, -0.03780791535973549, -0.08023032546043396, -0.021681809797883034, -0.11698173731565475, 0.02481628954410553, 0.18866723775863647, 0.17528089880943298, -0.18237018585205078, 0.014654546976089478, -0.20099791884422302, 0.048686325550079346, -0.15277183055877686, -0.21408775448799133, 0.2925976514816284, -0.31535738706588745, 0.14872746169567108, 0.2507191598415375, 0.19047683477401733, -0.038813501596450806, -0.02666349895298481, 0.22204551100730896, -0.12125153839588165, -0.23111259937286377, -0.2333150953054428, 0.13046352565288544, 0.13654135167598724, 0.19156453013420105, -0.05582493171095848, -0.21887193620204926, -0.11295584589242935, 0.04020063579082489, 0.11243501305580139, 0.045973677188158035, 0.09610243141651154, -0.18971027433872223, -0.21559445559978485, 0.05936671420931816, 0.2897286117076874, 0.3074169456958771, 0.09489906579256058, -0.3485415279865265, -0.20758824050426483, -0.06339681893587112, 0.26067501306533813, -0.34262555837631226, 0.031513411551713943, 0.11287480592727661, 0.15565632283687592, 0.100896917283535, 0.07649233192205429, 0.10723084211349487, 0.08979777246713638, -0.23751480877399445, -0.29712677001953125, -0.1938912570476532, 0.22339576482772827, 0.15775005519390106, 0.0506378635764122, -0.2880822420120239, 0.017906324937939644, 0.11964999884366989, -0.020190738141536713, 0.07309587299823761, -0.05123032629489899, -0.32304903864860535, 0.06396003812551498, 0.1830804944038391, -0.5178672671318054, -0.2035333663225174, -0.16910311579704285, 0.15362493693828583, 0.1513190120458603, 0.16598248481750488, -0.21829505264759064, -0.17092835903167725, -0.10236483812332153, 0.2261509895324707, 0.03813751041889191, 0.10952931642532349, -0.12595580518245697, 0.03622839227318764, -0.0992066040635109, 0.24711933732032776, 0.10373858362436295, 0.1277935802936554, -0.3025180399417877, -0.24021002650260925, -0.20071755349636078, 0.00020884870900772512, 0.08190038055181503, 0.11626583337783813, -0.16606031358242035, 0.043559808284044266, 0.07654228061437607, -0.2251865714788437, -0.09121145308017731, -0.348105251789093, -0.18498750030994415, -0.23112083971500397, 0.008975249715149403, 0.07443027198314667, -0.10233113169670105, 0.2155301421880722, 0.08152257651090622, 0.05632355064153671, 0.03306961804628372, 0.017953816801309586, 0.29089877009391785, 0.07034247368574142, -0.10950866341590881, 0.23369215428829193, 0.07034510374069214, -0.342130184173584, 0.009874457493424416, -0.23253165185451508, 0.20586246252059937, -0.17167003452777863, -0.1350989192724228, 0.2077791839838028, 0.23219084739685059, -0.05092281848192215, -0.20303919911384583, -0.16943015158176422, -0.0514090359210968, 0.16790935397148132, 0.27061158418655396, -0.15789282321929932, -0.24649517238140106, -0.2288338541984558, 0.08150527626276016, 0.18798188865184784, 0.21478185057640076, 0.15151092410087585, -0.1390984058380127, -0.09948864579200745, 0.15330365300178528, 0.2254830151796341, 0.07885328680276871, 0.05664253607392311, -0.23100411891937256, 0.2734021842479706, 0.049013346433639526, -0.25593802332878113, -0.1137830838561058, 0.1486976146697998, -0.24853795766830444, -0.2047271430492401, 0.11431273072957993, 0.2744843661785126, 0.20212070643901825, -0.004248795099556446, -0.016941983252763748, 0.360027015209198, -0.05431292951107025, -0.052509646862745285, -0.044086355715990067, 0.19567327201366425, -0.11200229078531265, 0.45434388518333435, -0.2700256109237671, -0.16672489047050476, 0.1719256341457367, -0.12656307220458984, 0.1338592767715454, -0.12429443746805191, 0.20714184641838074, 0.3470267951488495, 0.023584477603435516, -0.083783820271492, -0.2140173316001892, -0.06659775227308273, 0.03750583156943321, -0.05395738407969475, 0.08361724764108658, 0.12152206152677536, -0.2720840871334076, -0.1848909854888916, -0.08809526264667511, 0.020298877730965614, 0.2236691266298294, 0.11087113618850708, -0.15884575247764587, -0.030151348561048508, -0.009234686382114887, 0.1353183537721634, -0.09725455939769745, 0.0700094923377037, -0.07955852895975113, 0.08339415490627289, -0.017171110957860947, -0.14321382343769073, -0.08526449650526047, 0.2828473150730133, 0.05041801184415817, -0.06377267092466354, 0.14865796267986298, 0.3696044087409973, -0.16108551621437073, -0.34222498536109924, -0.006388764828443527, 0.10560330003499985, 0.07532167434692383, -0.14022937417030334, 0.11440350115299225, 0.3887476623058319, 0.010654639452695847, 0.011312524788081646, -0.49225500226020813, -0.18841533362865448, 0.4500267505645752, 0.029164442792534828, 0.2170862853527069, -0.0672527477145195, -0.07988042384386063, 0.18284864723682404, -0.1722256988286972, -0.3644758462905884, -0.07617510110139847, -0.17259906232357025, -0.18141594529151917, -0.07375072687864304, -0.06915377080440521, -0.014287319034337997, -0.10809706151485443, -0.13973620533943176, -0.15531286597251892, -0.05126192420721054, 0.06448755413293839, -0.003368091071024537, -0.22056566178798676, 0.04369369521737099, -0.20971618592739105, 0.21308138966560364, 0.08805130422115326, 0.2598429024219513, -0.23551145195960999, 0.13352984189987183, 0.14924947917461395, -0.18846167623996735, -0.030930547043681145, 0.0038130483590066433, -0.1539735496044159, 0.06165178120136261, 0.35669776797294617, 0.1344587504863739, 0.018915262073278427, 0.07833750545978546, 0.276386559009552, 0.17075727880001068, 0.07604432851076126, -0.3227695822715759, 0.13100627064704895, 0.22826805710792542, -0.30108872056007385, 0.17423921823501587, -0.24889211356639862, -0.11323793977499008, -0.002553572179749608, 0.31747445464134216, -0.9913733005523682, -0.30621764063835144, -0.20185266435146332, 0.30337005853652954, -0.027503320947289467, -0.011463010683655739, -0.13805308938026428, -0.12003123760223389, -0.06950436532497406, 0.1654273420572281, 0.1330779790878296, 0.2583259046077728, -0.28214338421821594, -0.14440028369426727, -0.029837151989340782, 0.23735471069812775, 0.29248371720314026, 0.10189322382211685, -0.27352991700172424, -0.14915569126605988, -0.23583845794200897, 0.3220742344856262, 0.3322823643684387, 0.03679559379816055, -0.29655447602272034, 0.10058709233999252, 0.15249773859977722, -0.4125823676586151, -0.11798042058944702, 0.19520968198776245, 0.3259378969669342, -0.08798978477716446, 0.06586818397045135, 0.00976312905550003, -0.035833243280649185, 0.15588125586509705, 0.26741546392440796, 0.13540305197238922, -0.2671905755996704, 0.09368027001619339, -0.01564588025212288, -0.20223522186279297, 0.010393542237579823, 0.32366594672203064, 0.4076162576675415, -0.35173889994621277, -0.20376943051815033, -0.8727806806564331, 0.5108650326728821, -0.2234247326850891, -0.19677425920963287, 0.16070888936519623, 0.49026113748550415, 0.15834815800189972, -0.11800269037485123, -0.27202126383781433, -0.0035402236972004175, 0.1426011025905609, 0.31587767601013184, -0.1712959110736847, -0.17967627942562103, -0.20378445088863373, 0.05018052086234093, 0.022834129631519318, 0.21779096126556396, -0.14912673830986023, -0.2902606129646301, -0.16252967715263367, -0.11658492684364319, 0.37489160895347595, 0.20411410927772522, -0.1309313029050827, -0.0810469537973404, 0.3637087345123291, -0.15316110849380493, -0.18935739994049072, -0.3619003891944885, -0.27093443274497986, -0.03089595027267933, -0.29048097133636475, -0.37034133076667786, 0.4146631062030792, 0.1797206997871399, 0.21046645939350128, -0.14694108068943024, -0.0905584841966629, -0.0806109830737114, 0.3731246590614319, -0.2441016137599945, -0.16340553760528564, 0.46164000034332275, -0.4786924421787262, -0.0909346267580986, 0.0661260336637497, -0.013510117307305336, 0.09821930527687073, -0.31443533301353455, 0.1873319447040558, 0.12379622459411621, -0.3278036415576935, -0.2726360857486725, -0.20696018636226654, -0.10678866505622864, 0.19978179037570953, -0.09688248485326767, -0.4186987578868866, -0.3185122311115265, -0.10050752013921738, 0.14296448230743408, 0.16372880339622498, 0.08652205765247345, -0.4313262701034546, -0.2143319547176361, -0.07743572443723679, 0.33150237798690796, 0.4299326539039612, 0.12629711627960205, -0.5190942883491516, -0.04927437752485275, -0.002279742853716016, 0.28678932785987854, -0.3508440852165222, 0.10506442934274673, 0.4179217517375946, 0.15641796588897705, 0.1115306094288826, -0.22093099355697632, 0.2687522768974304, 0.03274081274867058, -0.13745972514152527, -0.14644896984100342, 0.3109307289123535, -0.10953161865472794, -0.079347625374794, -0.08729719370603561, 0.11458487808704376, 0.01108639407902956, -0.13921815156936646, 0.07316509634256363, -0.07714252173900604, 0.03079824708402157, 0.19772152602672577, 0.048322830349206924, 0.11341400444507599, -0.030043072998523712, 0.01202053390443325, 0.23222893476486206, -0.19003070890903473, -0.06892579793930054, -0.12146572023630142, 0.1728718876838684, 0.08754468709230423, 0.20375341176986694, -0.03556884825229645, -0.12087255716323853, -0.09394002705812454, 0.1034269779920578, 0.10601881891489029, 0.09688690304756165, 0.10442323237657547, -0.20956741273403168, 0.041163064539432526, 0.09627271443605423, -0.02798270247876644, -0.043095141649246216, -0.24036173522472382, 0.060252413153648376, -0.24716821312904358, 0.02438930794596672, -0.33329227566719055, 0.0405040979385376, 0.013778558000922203, -0.01782293990254402, 0.1486242562532425, -0.28073233366012573, 0.12549734115600586, -0.1562872976064682, -0.06606266647577286, 0.32739347219467163, -0.0282589104026556, 0.15415692329406738, -0.015419798903167248, -0.14200475811958313, 0.04033491015434265, 0.06539218127727509, -0.22070419788360596, 0.1398402750492096, -0.05262865126132965, 0.35439255833625793, -0.37795692682266235, -0.16816923022270203, -0.12858112156391144, 0.08887064456939697, 0.04298783093690872, 0.04582605138421059, 0.10630414634943008, 0.34527072310447693, 0.3577106297016144, -0.11273766309022903, -0.0038245348259806633, -0.017771674320101738, 0.205288365483284, 0.20602886378765106, 0.09737741202116013, 0.07621903717517853, -0.20090070366859436, 0.15390101075172424, -0.05167916789650917, 0.2672647535800934, 0.02239448018372059, -0.08904775232076645, -0.15274162590503693, 0.16238367557525635, -0.03873336315155029, 0.140607088804245, -0.3001839816570282, 0.03528846055269241, 0.1331433355808258, -0.22015294432640076, -0.000677570584230125, 0.15962952375411987, -0.08916601538658142, 0.23738284409046173, 0.06805956363677979, -0.03916691988706589, 0.2427792102098465, 0.15695005655288696, 0.22684763371944427, 0.03719860315322876, 0.010232646018266678, -0.050170399248600006, -0.24497340619564056, -0.13043668866157532, -0.06509926915168762, 0.1345251202583313, -0.12835678458213806, 0.029165834188461304, 0.13113225996494293, -0.28900742530822754, -0.08215562999248505, -0.15613994002342224, 0.10169805586338043, -0.1023184061050415, -0.1760193556547165, -0.04059462621808052, -0.02814333140850067, 0.009134494699537754, 0.3058023154735565, 0.03281763941049576, 0.060223065316677094, -0.0890984982252121, 0.014999696984887123, -0.0048803528770804405, -0.0584787093102932, 0.0665789544582367, 0.10829644650220871, 0.1330406814813614, -0.10978412628173828, 0.2165348082780838, 0.2074844241142273, -0.03553079441189766, -0.10927341878414154, -0.25370365381240845, 0.16832150518894196, 0.10709147900342941, -0.020770251750946045, -0.06937341392040253, 0.18943648040294647, 0.27213993668556213, 0.014903067611157894, -0.0009716896456666291, 0.21945178508758545, -0.02308620512485504, -0.09719295799732208, -0.0013243764406070113, 0.016739526763558388, 0.009268469177186489, 0.13183481991291046, -0.06494662165641785, -0.21954461932182312, 0.3056211769580841, 0.05962690711021423, -0.18346863985061646, 0.12196695804595947, 0.019950149580836296, -0.32511094212532043, 0.07430778443813324, 0.22134758532047272, 0.09606798738241196, 0.023803362622857094, -0.06267552077770233, 0.0930224284529686, -0.027122216299176216, 0.08421756327152252, -0.28778567910194397, -0.03631971403956413, -0.03892527148127556, 0.1937924176454544, 0.17607960104942322, 0.09399273991584778, -0.22151914238929749, -0.33999040722846985, 0.07568566501140594, 0.042452625930309296, 0.19669246673583984, 0.023971209302544594, -0.25293001532554626, -0.2171611189842224, -0.06153877079486847, 0.3025357127189636, 0.12259440869092941, 0.1808091402053833, -0.06999094784259796, 0.4013760983943939, 0.045141879469156265, -0.08937633037567139, 0.024570854380726814, -0.009014534763991833, 0.16248945891857147, -0.06425934284925461, 0.027022920548915863, 0.1454528570175171, 0.20899930596351624, -0.1692427545785904, 0.051277048885822296, 0.07918593287467957, 0.003905627876520157, -0.22198376059532166, 0.1270751804113388, 0.04376200586557388, -0.023910237476229668, 0.12562295794487, 0.05301201716065407, -0.009878733195364475, -0.04831748828291893, -0.08185567706823349, 0.16280055046081543, -0.060083962976932526, -0.020680725574493408, 0.06275120377540588, -0.11389736086130142, -0.11128641664981842, 0.09029959887266159, 0.10983724147081375, -0.08747506886720657, -0.11208076030015945, 0.233846053481102, -0.006344932597130537, 0.018294788897037506, -0.39330044388771057, -0.0935991182923317, -0.012630008161067963, 0.3129652142524719, -0.13964100182056427, -0.005734460894018412, -0.028273364529013634, -0.0216043870896101, -0.09238974750041962, 0.06173238158226013, -0.08054302632808685, -0.06398504227399826, 0.06994564086198807, -0.19056549668312073, 0.06198706105351448, 0.4273006319999695, -0.20947368443012238, -0.21167348325252533, 0.2856425940990448, 0.3213004767894745, 0.045063164085149765, -0.024404706433415413, -0.5234798192977905, 0.17498306930065155, 0.25023630261421204, -0.6493016481399536, 0.06535410135984421, -0.01518202107399702, 0.18329034745693207, -0.021953720599412918, 0.14599092304706573, -0.4754902422428131, 0.16072800755500793, 0.3163898289203644, -0.30894148349761963, -0.0479993037879467, 0.24956364929676056, -0.16640637814998627, 0.1304560750722885, -0.21505598723888397, -0.28944531083106995, -0.19547905027866364, -0.22506122291088104, -0.09641818702220917, -0.08397417515516281, -0.06737274676561356, 0.04852403700351715, -0.12654684484004974, -0.24484297633171082, -0.047160472720861435, -0.04093409329652786, 0.09191388636827469, -0.1347937136888504, -0.04749312251806259, 0.21235668659210205, -0.24216340482234955, -0.0069407070986926556, -0.050972338765859604, 0.365762323141098, 0.007481016218662262, 0.15000957250595093, 0.2902155816555023, -0.05648905411362648, -0.10774295032024384, -0.025011271238327026, -0.20211359858512878, 0.08386753499507904, 0.33063173294067383, 0.07801532745361328, -0.009189706295728683, 0.500420093536377, -0.0225266981869936, -0.21759285032749176, -0.08474560081958771, 0.33907657861709595, -0.2754868268966675, -0.38821539282798767, -0.01980823650956154, 0.08248399943113327, 0.4412996470928192, 0.15128283202648163, -0.13329891860485077, -0.4603078067302704, 0.43148288130760193, -0.11622857302427292, -0.02130722999572754, -0.07148180902004242, 0.14250615239143372, 0.11010470241308212, -0.06027296558022499, 0.012852863408625126, 0.23083847761154175, -0.16074034571647644, -0.013507732190191746, -0.1838010549545288, 0.07889209687709808, -0.07329040765762329, 0.10935460031032562, -0.033397965133190155, -0.2444593608379364, -0.06404095143079758, 0.019062627106904984, 0.09715171903371811, 0.025852324441075325, -0.24390707910060883, -0.10929279029369354, -0.13057257235050201, 0.17510798573493958, -0.2109643667936325, -0.1015767902135849, 0.24440394341945648, -0.16595160961151123, 0.30601009726524353, -0.09829264134168625, -0.09142362326383591, -0.18629349768161774, 0.10131433606147766, -0.02815452590584755, -0.016842171549797058, 0.08323760330677032, -0.3322838842868805, 0.10541155934333801, 0.07975129038095474, -0.04470525681972504, -0.026810333132743835, 0.0025899005122482777, 0.06958533078432083, -0.048446498811244965, -0.027357863262295723, 0.18991409242153168, 0.060500483959913254, 0.023702532052993774, 0.2069016695022583, 0.3714168965816498, 0.0630340501666069, 0.7887083292007446, -0.7697715759277344, -0.5794373154640198, 0.16007451713085175, 0.4080848693847656, 0.1993878334760666, 0.07921010255813599, 0.19742773473262787, -0.3266248106956482, 0.3804304003715515, 0.09742924571037292, 0.05258391797542572, -0.178992360830307, -0.2973578870296478, 0.17754164338111877, -0.1556047648191452, 0.2659405469894409, -0.29998189210891724, 0.158075213432312, 0.3509328067302704, 0.09811461716890335, -0.18161913752555847, -0.2839650511741638, 0.35887566208839417, -0.43687349557876587, 0.2103964388370514, 0.08567290753126144, -0.2591431140899658, 0.2606079876422882, 0.07693857699632645, -0.4705648422241211, -0.17241820693016052, -0.1761166751384735, -0.26686030626296997, 0.08060187846422195, 0.07149113714694977, 0.05336806923151016, -0.05115113779902458, -0.012449195608496666, 0.13695330917835236, -0.1916426122188568, 0.3479682505130768, -0.1135493591427803, 0.48653364181518555, 0.44033482670783997, 0.05023246258497238, -0.025810929015278816, 0.2975935935974121, -0.4875641465187073, -0.4833569824695587, -0.16241423785686493, -0.3124566376209259, -0.49917638301849365, -0.3004680573940277, 1.0927786827087402, 0.03438343107700348, -0.023545050993561745, -0.03831418603658676, -0.026203017681837082, 0.10225856304168701, -0.24473623931407928, 0.19620952010154724, -0.21410000324249268, -0.16812533140182495, -0.16649019718170166, 0.31899362802505493, 0.22870996594429016, 0.159464493393898, 0.34976449608802795, 0.10931888967752457, -0.3489885926246643, -0.09456555545330048, 0.02720515988767147, -0.32418185472488403, 0.24052798748016357, -0.017676185816526413, -0.26116132736206055, -0.12378094345331192, 0.26883363723754883, 0.12425722926855087, -0.26661479473114014, 0.002269682940095663, -0.28427955508232117, 0.037694986909627914, -0.08902686834335327, -0.1480843424797058, 0.3612968623638153, 0.3299262225627899, 0.07321195304393768, -0.06658615171909332, -0.3468237519264221, -0.2306089997291565, -0.1484183818101883, -0.28916773200035095, 0.01447963435202837, 0.14779426157474518, 0.13655412197113037, 0.049804918467998505, -0.3180275857448578, -0.038709331303834915, 0.01503413263708353, 0.10009727627038956, 0.18627765774726868, 0.2282671481370926, 0.2586577534675598, 0.021237846463918686, -0.3885749280452728, 0.3372417390346527, -0.5297874212265015, -0.040080100297927856, 0.09878920018672943, 0.14236870408058167, -0.2735511362552643, -0.29964935779571533, -0.1113441213965416, 0.057091645896434784, 0.40309497714042664, -0.4223566949367523, 0.14884471893310547, -0.028287814930081367, -0.5106982588768005, 0.42735373973846436, -0.21382558345794678, -0.1468699872493744, 0.4833516776561737, -0.3199256956577301, 0.1496996283531189, 0.2230018973350525, -0.19661404192447662, 0.18490029871463776, 0.2618391811847687, -0.27476218342781067, -0.26759839057922363, 0.412967324256897, 0.013359776698052883, 0.2637587785720825, 0.1014702320098877, 0.06152736395597458, -0.061771709471940994, 0.36478307843208313, 0.32993659377098083, 0.08419741690158844, -0.09477011114358902, -0.046922724694013596, -0.1165304183959961, -0.16967366635799408, 0.32800137996673584, -0.1892431378364563, -0.07108429819345474, -0.23961780965328217, 0.33826348185539246, -0.3053019940853119, -0.17407222092151642, -0.30402565002441406, 0.15425027906894684, 0.10915528237819672, -0.021851597353816032, 0.16697503626346588, -0.48034948110580444, 0.08900557458400726, 0.34818214178085327, -0.011830384843051434, 0.0036323140375316143, 0.09517591446638107, -0.030614817515015602, 0.28158190846443176, -0.4534720182418823, -0.45475471019744873, 0.23655855655670166, -0.22793611884117126, 0.10075999051332474, 0.4527103006839752, 0.2591540217399597, -0.041135068982839584, 0.2745356261730194, 0.2236335575580597, -0.3810243308544159, -0.19382964074611664, -0.16653133928775787, 0.029880594462156296, -0.20105668902397156, -0.21901364624500275, 0.36071157455444336, 0.07915983349084854, -0.20800919830799103, 0.20442809164524078, -0.19611893594264984, -0.037181735038757324, 0.24307695031166077, -0.09506826847791672, -0.12374163419008255, 0.08674179017543793, -0.016983959823846817, -0.12893077731132507, -0.17707930505275726, -0.1126393973827362, -0.10345420986413956, -0.14387552440166473, -0.1653003692626953, 0.28283485770225525, 0.005303073674440384, 0.2544974088668823, -0.20800115168094635, 0.4678325057029724, -0.17544379830360413, -0.11629476398229599, 0.6941629648208618, 0.2209004908800125, 0.22777165472507477, 0.39104682207107544, 0.17615120112895966, -0.21067894995212555, -0.16256177425384521, 0.1682795137166977, 0.126195028424263, -0.2059594988822937, 0.020288651809096336, -0.5955192446708679, -0.30525273084640503, -0.19200871884822845, 0.2044883817434311, -0.0567462220788002, 0.15131081640720367, -0.35059598088264465, -0.21590277552604675, 0.23115625977516174, -0.17148210108280182, 0.03760678321123123, -0.2664608657360077, 0.066274493932724, 0.28057369589805603, 0.3977971076965332, -0.1173001378774643, -0.9190787672996521, -0.25984838604927063, -0.7799572348594666, -0.4601728916168213, 0.07650022953748703, -0.1760036200284958, -0.08729518949985504, 0.10212063044309616, -0.07272082567214966, -0.07675376534461975, -0.3243299126625061, 0.26844725012779236, 0.0033400878310203552, -0.4651814103126526, 0.5383065938949585, -0.20537841320037842, -0.011586058884859085, 0.07794000953435898, 0.09067992866039276, -0.38207364082336426, 0.18614734709262848, 0.4611211121082306, 0.15225249528884888, -0.18045593798160553, -0.5630361437797546, 0.06317277997732162, -0.1581747829914093, -0.10979850590229034, 0.06628052890300751, -0.0307459719479084, 0.20135726034641266, -0.20521195232868195, 0.2405945360660553, -0.04268448427319527, -0.33740147948265076, 0.3693053126335144, 0.14051580429077148, -0.16706587374210358, -0.14125262200832367, -0.03117290884256363, 0.024236688390374184, 0.21097710728645325, 0.18155406415462494, 0.04041704535484314, -0.07551875710487366, -0.20421592891216278, -0.027582602575421333, 0.02681114710867405, 0.023820072412490845, 0.2719530165195465, 0.17681168019771576, -0.1403636336326599, -0.2184448540210724, 0.28852561116218567, 0.04924078285694122, 0.010000529699027538, -0.1367858648300171, -0.1027272567152977, -0.08856493979692459, -0.12020066380500793, 0.055854931473731995, -0.17404721677303314, -0.06355327367782593, -0.015065385960042477, 0.10884612053632736, -0.22735261917114258, 0.3804836571216583, 0.051807504147291183, 0.25076013803482056, 0.10027921944856644, 0.010426217690110207, -0.06332491338253021, 0.36341527104377747, 0.02797345258295536, 0.0629797950387001, -0.41557934880256653, -0.22209949791431427, -0.2759675085544586, -0.27973389625549316, 0.024157756939530373, 0.2568005323410034, -0.38056644797325134, 0.15153087675571442, -0.06619077175855637, 0.0703033059835434, -0.01695927232503891, 0.11152585595846176, 0.05431429669260979, -0.210929736495018, 0.21297413110733032, 0.1838396042585373, 0.38871100544929504, -0.09679403156042099, 0.1861737221479416, 0.17032013833522797, 0.28021240234375, -0.17075102031230927, -0.20090419054031372, -0.17602546513080597, -0.04979642853140831, -0.08133099973201752, -0.007163083180785179, 0.029980644583702087, 0.1997826248407364, 0.11573971807956696, -0.2201475203037262, -0.04967678710818291, -0.016528883948922157, -0.5072365999221802, -0.0520511232316494, -0.07724655419588089, 0.16865944862365723, 0.07591726630926132, 0.16226984560489655, -0.2150823175907135, 0.07083488255739212, -0.08859764039516449, 0.059494998306035995, -0.0047592781484127045, 0.049702826887369156, -0.04292619973421097, -0.05977269262075424, 0.005581687204539776, 0.03457608446478844, 0.07789807766675949, 0.11996415257453918, -0.25418567657470703, 0.019060352817177773, -0.15618343651294708, 0.36118945479393005, -0.2099425345659256, 0.22485893964767456, -0.3970477283000946, 0.00579576101154089, -0.19186656177043915, -0.15347671508789062, -0.05814288184046745, -0.11175905913114548, -0.20986410975456238, -0.02649778127670288, -0.0640050545334816, -0.4245010316371918, 0.18262116611003876, 0.03601896017789841, 0.2797045111656189, 0.25525715947151184, -0.10082734376192093, -0.21335837244987488, -0.1004413366317749, -0.005178388673812151, 0.01353145856410265, 0.167963907122612, 0.058277446776628494, 0.3894297182559967, 0.15920282900333405, -0.2119125872850418, 0.17198136448860168, -0.046155355870723724, -0.17724163830280304, 0.12029066681861877, -0.11677590012550354, 0.0773746445775032, -0.2606949508190155, -0.043648261576890945, 0.06433568894863129, -0.04174745827913284, 0.05660999193787575, -0.05987988039851189, -0.21169798076152802, -0.0031714539509266615, 0.02268032915890217, -0.030190560966730118, 0.21394629776477814, -0.2406131625175476, 0.12796474993228912, -0.26571109890937805, -0.14189667999744415, -0.10050240159034729, -0.17850998044013977, 0.08318129926919937, 0.11372091621160507, 0.04537573084235191, 0.0686521828174591, 0.0726240798830986, 0.021274082362651825, -0.029622849076986313, -0.17198051512241364, -0.11261643469333649, 0.09320144355297089, -0.07943239063024521, 0.0752301886677742, 0.1124814823269844, 0.19437333941459656, 0.37562084197998047, 0.17946046590805054, 0.14662562310695648, 0.3237248957157135, 0.1560058742761612, -0.0770023912191391, -0.037406787276268005, -0.14507557451725006, 0.3570137619972229, -0.09798619896173477, -0.043800968676805496, 0.45700734853744507, 0.02953200601041317, -0.2548906207084656, -0.2656943202018738, 0.021507544443011284, 0.21283121407032013, 0.23447145521640778, 0.07829960435628891, 0.1402941346168518, -0.16189780831336975, 0.11072752624750137, 0.1298484206199646, -0.22266392409801483, -0.10101795196533203, 0.21130336821079254, 0.2628999948501587, -0.05081963539123535, -0.2141132652759552, 0.20923376083374023, 0.12322179973125458, -0.31141898036003113, -0.15392933785915375, 0.05562400072813034, -0.13036173582077026, 0.32104942202568054, 0.01595236174762249, 0.08179881423711777, -0.10844290256500244, -0.008708260022103786, -0.1390770524740219, 0.11527363210916519, -0.134079709649086, -0.2078295350074768, 0.3873337507247925, -0.1703738570213318, 0.15518759191036224, -0.3006693720817566, 0.05679326876997948, 0.29791945219039917, 0.07617095112800598, -0.018958721309900284, -0.16232168674468994, -0.006923156324774027, 0.2314661294221878, 0.1376735270023346, 0.09430026262998581, 0.20495225489139557, 0.12754639983177185, 0.09265916794538498, -0.35250788927078247, 0.18146535754203796, 0.23754224181175232, 0.18413430452346802, -0.026931721717119217, -0.04628957062959671, 0.08494607359170914, -0.09809526056051254, -0.1327887326478958, -0.09354078769683838, 0.16454295814037323, -0.20283396542072296, -0.4921078681945801, -0.07055515050888062, -0.25346341729164124, 0.6499254703521729, 0.15365296602249146, 0.22174084186553955, 0.19766981899738312, 0.10370288044214249, 0.008518258109688759, 0.30244410037994385, 0.005228793248534203, -0.07852299511432648, -0.4170263111591339, -0.04847105219960213, -0.1719987839460373, 0.048209428787231445, 0.0065025947988033295, 0.12706512212753296, -0.3484150767326355, 0.19754604995250702, 0.0297483392059803, -0.2080807387828827, -0.06680368632078171, 0.00777115672826767, 0.17769505083560944, -0.1771388202905655, -0.02875138446688652, 0.32292425632476807, -0.28725767135620117, 0.21301349997520447, -0.042938392609357834, 0.16024455428123474, -0.04593992605805397, -0.13893850147724152, 0.22715240716934204, -0.26609277725219727, -0.0669708251953125, 0.43362724781036377, 0.07129419595003128, -0.0822521522641182, -0.3534345030784607, -0.5397126078605652, 0.1688946783542633, -0.26989543437957764, -0.046434175223112106, 0.31774309277534485, -0.019147705286741257, 0.07573715597391129, -0.3004804253578186, -0.20203717052936554, -0.11933453381061554, -0.2285548895597458, 0.16967648267745972, -0.19506829977035522, -0.1158112958073616, 0.10510634630918503, 0.09604745358228683, -0.3415519595146179, 0.22125692665576935, -0.15643493831157684, -0.2378481924533844, -0.3136250376701355, 0.0582486167550087, 0.160299152135849, 0.13943496346473694, -0.1301572620868683, -0.4530811011791229, 0.05560807138681412, -0.27199599146842957, 0.0769510343670845, -0.033303722739219666, 0.18827739357948303, 0.2012539952993393, -0.2737921178340912, 0.006397997960448265, -0.004636433441191912, 0.02313895709812641, 0.10083890706300735, 0.033118315041065216, -0.05540567263960838, 0.019673461094498634, 0.0011028967564925551, -0.14234155416488647, -0.4108303189277649, 0.28083208203315735, -0.13633230328559875, -0.08490028977394104, 0.02320110611617565, 0.07601083815097809, 0.07890456169843674, 0.12819987535476685, 0.1936839371919632, 0.23600198328495026, 0.03845297917723656, -0.010638984851539135, 0.18411096930503845, 0.5783466696739197, -0.15099170804023743, -0.05445896461606026, -0.3041861355304718, -0.08427520096302032, -0.31161460280418396, 0.3309260904788971, 0.03715841844677925, 0.2382066398859024, -0.38578131794929504, -0.14034518599510193, -0.1090523973107338, 0.3209731876850128, 0.012831508181989193, 