{"version": "0.5.2", "metadata": {"date": {"year": 2023, "month": 11, "day": 24, "hour": 19, "minute": 27, "second": 42}, "loudness": -18.38194465637207, "gain": 0.7752294987322194, "name": "SinMix Soldano Slo100", "modeled_by": "SinMix", "gear_type": "amp_cab", "gear_make": "Soldano SLO100 Marshall MF400", "gear_model": "www.sinmix.pl", "tone_type": "hi_gain"}, "architecture": "WaveNet", "config": {"layers": [{"input_size": 1, "condition_size": 1, "head_size": 8, "channels": 16, "kernel_size": 3, "dilations": [1, 2, 4, 8, 16, 32, 64, 128, 256, 512], "activation": "Tanh", "gated": false, "head_bias": false}, {"input_size": 16, "condition_size": 1, "head_size": 1, "channels": 8, "kernel_size": 3, "dilations": [1, 2, 4, 8, 16, 32, 64, 128, 256, 512], "activation": "Tanh", "gated": false, "head_bias": true}], "head": null, "head_scale": 0.02}, "weights": [-0.13872987031936646, 0.7888123393058777, -0.8574178218841553, -0.8058856129646301, -0.48223525285720825, 0.039616748690605164, -0.16944870352745056, 0.7747966051101685, -0.13557393848896027, 0.2877790927886963, -0.3278353810310364, -0.14507417380809784, -1.011687994003296, -0.7397135496139526, -0.3982398808002472, 0.021015707403421402, 0.23316378891468048, -0.17570842802524567, -0.2828611135482788, -0.20244696736335754, 0.3167565166950226, 0.3430359363555908, 0.10081975907087326, -0.15504571795463562, -0.24914225935935974, 0.14720702171325684, -0.12756556272506714, -0.3583522140979767, 0.04676242917776108, -0.29662826657295227, -0.275409460067749, -0.003342999378219247, 0.0926455557346344, 0.09538699686527252, 0.08398941159248352, -0.39729347825050354, -0.31652384996414185, -0.007002372294664383, 0.3181456923484802, 0.292300283908844, 0.1467447727918625, -0.29117774963378906, -0.18468262255191803, -0.26888200640678406, 0.1410842090845108, 0.14542356133460999, 0.2231234908103943, -0.15946710109710693, -0.2817254960536957, 0.14911283552646637, -0.11996187269687653, -0.042542677372694016, 0.1887315809726715, -0.24016214907169342, -0.12561853229999542, 0.04981698468327522, -0.23096373677253723, -0.33391234278678894, 0.03252111375331879, -0.33090510964393616, -0.15091317892074585, -0.05136655271053314, -0.16066837310791016, 0.06302519142627716, -0.3584577441215515, -0.07157306373119354, -0.07092424482107162, 0.4447261393070221, 0.15262733399868011, 0.21959148347377777, -0.5141955614089966, -0.12383048236370087, -0.024534806609153748, -0.2833919823169708, 0.06103645637631416, 0.053768884390592575, -0.3678613603115082, -0.18715234100818634, -0.05750034376978874, 0.19678057730197906, -0.0963524878025055, 0.12376229465007782, -0.3570559024810791, -0.19140467047691345, -0.01861640438437462, 0.3722493350505829, 0.044855646789073944, 0.003095822874456644, -0.31461599469184875, -0.1195371150970459, 0.03525485470890999, 0.46161001920700073, 0.15429045259952545, 0.1073528304696083, -0.5292642712593079, -0.14991898834705353, 0.011021474376320839, -0.3332168161869049, -0.13060684502124786, -0.12481070309877396, -0.2661958634853363, 0.028340687975287437, -0.14134769141674042, -0.4378652274608612, -0.2016371190547943, -0.07813067734241486, -0.5019823312759399, -0.17781896889209747, -0.08306765556335449, 0.17103351652622223, -0.15743017196655273, -0.08480685204267502, -0.09259717911481857, -0.09715483337640762, 0.25619059801101685, -0.018581299111247063, 0.2669422924518585, -0.09541339427232742, -0.0810169130563736, -0.2717251181602478, 0.1624809205532074, -0.09457317739725113, -0.37101733684539795, 0.17065533995628357, -0.2306395322084427, -0.38548439741134644, 0.08324935287237167, -0.012566459365189075, 0.1795690804719925, -0.27153345942497253, -0.09928774833679199, -0.2192678451538086, 0.04057169705629349, 0.09370701014995575, 0.4076821804046631, -0.12429321557283401, -0.0733286663889885, -0.25615525245666504, 0.18135793507099152, 0.1841861754655838, 0.4175703525543213, -0.028717124834656715, 0.04841192066669464, -0.2944219708442688, -0.014728686772286892, -0.13745614886283875, -0.14177453517913818, 0.11150942742824554, -0.1736619919538498, -0.4169858396053314, -0.03089108318090439, -0.22241893410682678, -0.33004525303840637, 0.1839521825313568, -0.013937033712863922, -0.44004321098327637, 0.20559117197990417, -0.02491244114935398, 0.0429246760904789, -0.2518092691898346, -0.06832367926836014, 0.031888123601675034, -0.21979446709156036, -0.15005703270435333, -0.106900654733181, 0.03789793699979782, -0.03809914365410805, 0.13885661959648132, -0.16795428097248077, 0.018041890114545822, 0.21204428374767303, -0.09578441828489304, 0.14810165762901306, 0.13111527264118195, -0.17868614196777344, 0.061515554785728455, -0.11383973062038422, -0.02270364761352539, 0.0925569161772728, -0.05039525032043457, -0.06414587795734406, -0.056936249136924744, 0.017264526337385178, 0.0817771852016449, 0.08332236856222153, 0.11090616136789322, -0.09993204474449158, -0.0482461154460907, -0.19224220514297485, 0.12861399352550507, 0.13304005563259125, 0.17812201380729675, -0.15092647075653076, 0.006376173812896013, -0.03652570769190788, -0.13475021719932556, -0.05736453831195831, 0.13545146584510803, -0.12424338608980179, 0.02101633884012699, 0.08825987577438354, 0.053606655448675156, -0.08808152377605438, -0.014609393663704395, -0.12930944561958313, 0.12112776935100555, -0.029275184497237206, 0.25227296352386475, -0.016367783769965172, 0.05184018984436989, -0.13541769981384277, -0.06954509019851685, -0.08073040097951889, -0.03557286411523819, 0.04597902297973633, 0.11855576187372208, -0.10655241459608078, -0.0277837086468935, 0.2173156589269638, -0.11174645274877548, 0.024253670126199722, 0.23496182262897491, 0.04463296756148338, -0.03361541032791138, -0.2157488316297531, 0.07965245097875595, -0.12680982053279877, 0.03451423719525337, -0.12018215656280518, -0.06834406405687332, -0.09809323400259018, 0.11665839701890945, 0.04623259976506233, 0.19302602112293243, 0.052573252469301224, -0.1277986317873001, -0.02097606100142002, -0.0925576314330101, -0.021756531670689583, 0.13393159210681915, 0.03812004625797272, 0.12146660685539246, 0.023422712460160255, -0.02642485871911049, 0.12076093256473541, -0.03758043050765991, 0.10923918336629868, -0.07463421672582626, 0.10078401863574982, -0.020941250026226044, -0.03706562891602516, 0.11629028618335724, 0.11313119530677795, -0.11092232167720795, -0.045187707990407944, 0.032854143530130386, -0.26565274596214294, -0.2653646767139435, -0.073276586830616, 0.12563928961753845, 0.28829318284988403, 0.10956445336341858, -0.14357779920101166, -0.26020893454551697, 0.032046567648649216, -0.26706185936927795, -0.4062492251396179, 0.01906183362007141, -0.09601417183876038, -0.3296707570552826, -0.08107666671276093, 0.10218681395053864, 0.1519404649734497, 0.003426086390390992, -0.2641443908214569, -0.47637972235679626, 0.11606083810329437, 0.12475037574768066, 0.35266172885894775, 0.058335624635219574, -0.19394606351852417, -0.41806161403656006, -0.10208673775196075, 0.3270508348941803, 0.3734855055809021, 0.1303928941488266, -0.2522978186607361, -0.3089975416660309, -0.04384709149599075, -0.18646255135536194, -0.39687541127204895, 0.038056161254644394, -0.172873854637146, -0.37408655881881714, -0.05416073277592659, -0.30699622631073, -0.2673312723636627, -0.1299760937690735, -0.151688814163208, -0.4156225919723511, -0.08135227859020233, 0.11110541969537735, 0.09259872883558273, -0.07094008475542068, -0.33566415309906006, -0.24078120291233063, 0.1078321635723114, 0.48552826046943665, 0.25099095702171326, -0.0701732337474823, -0.5346123576164246, -0.217413529753685, 0.10614136606454849, -0.47056877613067627, -0.13803575932979584, 0.15076804161071777, -0.48489218950271606, -0.18832500278949738, 0.12728741765022278, 0.32124513387680054, 0.1740550696849823, -0.09255378693342209, -0.5517271757125854, -0.16217710077762604, 0.18031994998455048, 0.543512225151062, 0.2823781669139862, -0.04216461256146431, -0.3216625154018402, -0.22325608134269714, -0.013937355019152164, 0.2809499502182007, 0.3201286792755127, 0.017838958650827408, -0.49961057305336, -0.12515473365783691, 0.17570124566555023, -0.2270938605070114, -0.015575818717479706, 0.17837056517601013, -0.448945015668869, -0.24840378761291504, 0.1739959716796875, -0.3354491889476776, -0.27932536602020264, 0.18601569533348083, -0.3338492810726166, -0.11619152873754501, -0.02493492141366005, 0.2654070556163788, 0.0261379424482584, -0.03391271084547043, -0.10455457866191864, -0.05954520031809807, -0.041001468896865845, 0.1697830855846405, 0.042848359793424606, 0.1439075618982315, -0.2066669762134552, -0.05852310359477997, -0.16969074308872223, -0.2509739100933075, -0.20896686613559723, 0.03778944909572601, -0.02626803144812584, 0.04339621961116791, 0.042426396161317825, -0.01299465261399746, 0.02310319058597088, 0.06489386409521103, -0.18167589604854584, -0.0019432769622653723, -0.18344265222549438, 0.039713095873594284, -0.043748799711465836, -0.0056211696937680244, -0.003625799436122179, 0.011020049452781677, 0.035425372421741486, 0.22122889757156372, 0.22405683994293213, 0.03945454582571983, -0.045531876385211945, 0.033181335777044296, -0.017512883991003036, 0.04189952835440636, -0.020468436181545258, 0.019753893837332726, -0.1583615392446518, -0.024106724187731743, -0.06010444834828377, -0.14272518455982208, -0.17197185754776, -0.15623004734516144, -0.21389786899089813, 0.0016073804581537843, 0.030186641961336136, 0.16133533418178558, 0.08377379924058914, 0.24689924716949463, 0.04132695868611336, -0.44513583183288574, -0.1679215133190155, 0.2647102177143097, 0.5451719164848328, 0.01694013550877571, 0.009818976745009422, -0.37480446696281433, -0.17071254551410675, -0.04783983901143074, -0.5613743662834167, -0.14180795848369598, -0.00021136822761036456, -0.4763868749141693, -0.21260938048362732, 0.056536175310611725, 0.33289584517478943, 0.007484442088752985, -0.10040045529603958, -0.33693721890449524, -0.10887766629457474, 0.03949340432882309, 0.4897138476371765, 0.1814928650856018, -0.04678719863295555, -0.5606808662414551, -0.10070593655109406, 0.016674650833010674, 0.4007091522216797, 0.1565699577331543, -0.2200864553451538, -0.41148027777671814, 0.01921631209552288, -0.08809072524309158, -0.5134773254394531, -0.14739465713500977, -0.09616408497095108, -0.594183087348938, -0.04691796004772186, -0.25780731439590454, -0.6185475587844849, -0.2594296932220459, -0.1498895138502121, -0.38055816292762756, -0.24316418170928955, 0.25973424315452576, 0.19316424429416656, 0.013598493300378323, -0.021832866594195366, -0.08069159090518951, 0.27781298756599426, 0.11280981451272964, 0.11193782836198807, -0.05539719760417938, -0.12480824440717697, 0.15482167899608612, 0.13512706756591797, 0.03967869281768799, -0.08675096184015274, 0.0821492075920105, -0.17993760108947754, -0.027682151645421982, 0.15308503806591034, -0.03878425806760788, 0.06361481547355652, -0.003148284973576665, -0.02381127141416073, -0.06499636918306351, 0.06762344390153885, -0.013424045406281948, 0.03746532276272774, 0.02114243619143963, 0.04029592126607895, -0.011297215707600117, 0.1692420095205307, -0.10952571034431458, -0.14367496967315674, -0.05192279815673828, -0.11068504303693771, 0.09477146714925766, 0.023404959589242935, -0.1131344810128212, -0.11461551487445831, 0.17653530836105347, -0.04325752705335617, 0.141354501247406, 0.21369120478630066, 0.04988811910152435, 0.0334678553044796, 0.07913848012685776, -0.06523673981428146, 0.04601841792464256, 0.19565728306770325, 0.03640155866742134, 0.31722939014434814, 0.08909568935632706, -0.19591741263866425, 0.09256694465875626, 0.08782704919576645, 0.1542418748140335, -0.2643223702907562, 0.13145563006401062, 0.05516250804066658, 0.21072225272655487, 0.09231340885162354, -0.09719333052635193, 0.1696338951587677, 0.03197320178151131, -0.06170604005455971, 0.17791499197483063, -0.06917554140090942, 0.13420748710632324, -0.12011847645044327, -0.0103642288595438, -0.036518394947052, 0.2080942690372467, -0.06213780492544174, 0.029644159600138664, -0.037611544132232666, 0.013632867485284805, 0.011222068220376968, 0.06696898490190506, 0.016334526240825653, -0.08311634510755539, -0.2020682543516159, -0.048895444720983505, 0.11005999892950058, 0.08009464293718338, -0.032159022986888885, -0.11385121196508408, 0.25098854303359985, 0.1060333177447319, -0.12621566653251648, 0.008478997275233269, -0.1389429122209549, -0.018723899498581886, 0.08708173036575317, -0.12251439690589905, -0.07051101326942444, 0.15441040694713593, -0.10758788138628006, -0.03993276506662369, -0.08090484142303467, -0.06731313467025757, 0.21934039890766144, 0.32653918862342834, -0.11896036565303802, -0.23239076137542725, -0.3226470947265625, 0.14662684500217438, 0.0940982922911644, 0.1357414275407791, 0.1340295374393463, 0.14101265370845795, 0.29565393924713135, -0.021962448954582214, 0.19487036764621735, 0.23557715117931366, 0.07247909903526306, -0.16905556619167328, -0.36007702350616455, -0.012015815824270248, 0.20916447043418884, 0.28448671102523804, -0.13613121211528778, -0.09298192709684372, -0.3053990602493286, -0.009343322366476059, 0.32926541566848755, 0.29169437289237976, 0.05332072451710701, -0.1413007527589798, -0.29507729411125183, -0.0674666315317154, 0.20812278985977173, 0.37408116459846497, -0.07289259135723114, 0.06675279140472412, 0.26997074484825134, 0.11555210500955582, 0.18882378935813904, 0.1552131325006485, -0.13963952660560608, 0.2662917971611023, 0.2570525109767914, -0.08306283503770828, 0.25139158964157104, 0.3263613283634186, 0.09742274135351181, 0.004647539928555489, -0.06841760873794556, 0.08886970579624176, -0.13697262108325958, 0.20123334228992462, 0.1221386194229126, 0.04370741546154022, -0.12523168325424194, 0.10588552057743073, 0.16023783385753632, 0.12292496114969254, -0.09875627607107162, -0.036283332854509354, -0.11001706123352051, 0.162580206990242, -0.03559684380888939, -0.06611490994691849, 0.10934548825025558, -0.07202312350273132, -0.04936446622014046, -0.06666704267263412, -0.07117483764886856, -0.09722039103507996, 0.19157125055789948, -0.08799687027931213, 0.06318999826908112, 0.09644792973995209, 0.08095783740282059, -9.351599146611989e-06, 0.16932041943073273, -0.0006469151703640819, -0.056853968650102615, 0.09624388813972473, 0.050560254603624344, -0.15399108827114105, -0.006888731382787228, -0.0967462956905365, 0.11630880832672119, 0.014635957777500153, -0.1071067824959755, -0.017296750098466873, 0.11632919311523438, 0.06039890646934509, 0.03844766691327095, 0.04247336834669113, 0.0774674341082573, -0.042267534881830215, -0.025699635967612267, -0.1406005471944809, -0.061147987842559814, -0.06926120817661285, -0.29708757996559143, 0.34063372015953064, 0.15963640809059143, 0.11086702346801758, -0.43746688961982727, -0.031769026070833206, -0.1807103157043457, 0.4618837237358093, 0.04827091097831726, -0.13144662976264954, 0.4157225787639618, 0.1066318154335022, 0.015474491752684116, 0.2421453595161438, 0.03401825949549675, 0.021401280537247658, -0.23676273226737976, 0.0557260662317276, -0.24554362893104553, 0.3689669668674469, 0.11820461601018906, 0.06299032270908356, -0.23325148224830627, -0.2716083228588104, -0.08865850418806076, 0.4202920198440552, 0.1115783303976059, 0.21150711178779602, -0.3658120632171631, -0.03971540555357933, -0.24509748816490173, 0.30275893211364746, 0.12414278090000153, -0.08136211335659027, 0.33952826261520386, 0.24723735451698303, -0.11776984483003616, 0.3363937735557556, 0.2631872594356537, -0.1379712074995041, 0.464399516582489, 0.06911428272724152, -0.11929447203874588, 0.3294071853160858, 0.21471896767616272, 0.10497017949819565, -0.1482919603586197, -0.18118439614772797, 0.2782052457332611, 0.06836476176977158, 0.1153826117515564, -0.23389853537082672, 0.07419852912425995, 0.12104452401399612, 0.15196962654590607, -0.11983039230108261, 0.11280588060617447, 0.02961069531738758, 0.0477435328066349, 0.03588182106614113, 0.07826735824346542, 0.06734231859445572, -0.11112487316131592, -0.057471226900815964, -0.08324798941612244, -0.06856390833854675, 0.21155104041099548, 0.16017426550388336, 0.029627667739987373, -0.04263714328408241, -0.031462278217077255, -0.08651452511548996, 0.00220968178473413, -0.112103670835495, 0.18508899211883545, -0.1638205200433731, -0.004638193175196648, 0.02052406780421734, 0.23000817000865936, 0.13183048367500305, 0.13802804052829742, 0.021332962438464165, -0.011373013257980347, -0.05662822723388672, 0.05689522624015808, 0.04773590341210365, 0.14941948652267456, 0.02435952238738537, 0.10338487476110458, -0.06011014059185982, 0.11438237130641937, 0.12865687906742096, -0.011100107803940773, -0.1236148402094841, -0.13686493039131165, -0.08132979273796082, -0.07247735559940338, -0.08525443822145462, -0.07019849866628647, -0.10227416455745697, -0.17517197132110596, 0.07212059199810028, 0.10964962095022202, 0.023649418726563454, 0.003415364306420088, 0.12173028290271759, 0.15852023661136627, -0.13923746347427368, -0.023008892312645912, 0.016054829582571983, -0.18546746671199799, -0.010612870566546917, 0.053864121437072754, 0.21401949226856232, -0.006350361276417971, 0.03856639564037323, -0.19189809262752533, 0.1115560531616211, -0.1267274022102356, -0.03392590209841728, 0.008171875961124897, 0.12546750903129578, -0.2389449179172516, 0.13558845221996307, -0.004467472899705172, -0.02740507386624813, -0.04076690599322319, 0.18275444209575653, -0.1904621720314026, -0.04255206510424614, 0.09825584292411804, -0.19469982385635376, 0.07383306324481964, 0.14060916006565094, 0.02592359483242035, -0.09641093760728836, 0.20511101186275482, -0.14947852492332458, 0.135719895362854, -0.07541829347610474, -0.1986929178237915, 0.04177258908748627, -0.06777215003967285, 0.18533822894096375, -0.17307044565677643, -0.15513600409030914, -0.12837210297584534, -0.06180762127041817, 0.04445073381066322, 0.08661599457263947, -0.021167069673538208, -0.016963180154561996, 0.11539188027381897, 0.09676164388656616, 0.04391251876950264, 0.053265079855918884, 0.0016265936428681016, -0.0010531157022342086, 0.01554636936634779, 0.0022538702469319105, 0.6728236675262451, -0.34536799788475037, 0.6990734934806824, -0.6692900657653809, -0.010323598980903625, 0.9248382449150085, 0.9440401196479797, -0.5026797652244568, 0.30144521594047546, -0.007846246473491192, -0.4421127140522003, -0.34160423278808594, 0.2456032931804657, -0.8654800057411194, 0.1535746306180954, 0.49193161725997925, -0.1890871375799179, 0.17403680086135864, 0.034050099551677704, 0.16778413951396942, 0.3776095509529114, 0.056654077023267746, 0.3397682011127472, -0.09612161666154861, 0.06518395245075226, -0.12331461906433105, 0.16085991263389587, -0.11134415864944458, 0.013369446620345116, -0.0010689673945307732, 0.09241165965795517, 0.20781737565994263, -0.00017824849055614322, -0.23007498681545258, -0.33605775237083435, 0.17132480442523956, 0.1291705220937729, -0.0931992381811142, -0.23430632054805756, 0.02005956880748272, -0.08005204051733017, 0.0839209333062172, 0.026127398014068604, 0.15575234591960907, 0.027249334380030632, -0.02144184522330761, 0.020057471469044685, 0.25692299008369446, -0.04768892377614975, -0.1567443460226059, -0.11873079836368561, 0.17014019191265106, -0.024539349600672722, -0.15468856692314148, -0.019637586548924446, -0.20343533158302307, -0.0779060497879982, -0.2256888896226883, 0.15546181797981262, -0.0578477680683136, 0.005886041559278965, 0.35856351256370544, 0.06660173088312149, 0.015604563988745213, 0.299219012260437, -0.05474678799510002, 0.008534660562872887, -0.22936731576919556, -0.21446584165096283, 0.08423583209514618, -0.0165331419557333, 0.10884220153093338, -0.2316882610321045, 0.036233216524124146, -0.19471809267997742, -0.03975585103034973, 0.01452063862234354, 0.13353362679481506, -0.11571945250034332, -0.0033666028175503016, -0.2345123589038849, -0.3707716763019562, -0.2327917516231537, 0.14663195610046387, 0.12849579751491547, 0.21692821383476257, 0.18670427799224854, -0.22477269172668457, 0.2087497115135193, 0.08410593867301941, -0.14746978878974915, 0.17177918553352356, -0.009235164150595665, 0.15356040000915527, 0.13748562335968018, -0.1463477462530136, -0.26389047503471375, -0.06391803175210953, 0.11769358813762665, 0.10889583826065063, 0.2992638647556305, 0.20177054405212402, 0.30409085750579834, -0.11097095161676407, 0.20487402379512787, -0.00707723293453455, -0.12791919708251953, -0.07563339173793793, 0.00308615923859179, -0.13692082464694977, 0.1821267008781433, 0.04818752408027649, 0.39152631163597107, 0.028569255024194717, 0.21078544855117798, 0.18328095972537994, -0.11888150870800018, -0.3382205069065094, -0.043075092136859894, -0.10462956875562668, -0.01923048309981823, -0.2553275525569916, -0.33736005425453186, 0.30865517258644104, 0.008338828571140766, -0.24031351506710052, 0.008257008157670498, 0.03488650545477867, 0.20646552741527557, 0.04853544756770134, 0.2956145107746124, -0.07438181340694427, 0.014748635701835155, 0.13814227283000946, 0.29135286808013916, -0.110753633081913, 0.1700088083744049, -0.11858650296926498, 0.3156864643096924, -0.15537138283252716, -0.008632879704236984, -0.17619723081588745, -0.03627607971429825, 0.08603452146053314, 0.041331078857183456, 0.008384646847844124, -0.2488822340965271, -0.23808430135250092, 0.03795913606882095, -0.0379105880856514, -0.2345474660396576, 0.09966650605201721, -0.20634788274765015, -0.22432154417037964, 0.035177163779735565, 0.12648941576480865, -0.024054255336523056, -0.11531305313110352, -0.07328550517559052, 0.014808248728513718, -0.22012007236480713, -0.05074850469827652, 0.1300620287656784, -0.16118170320987701, 0.09123536199331284, 0.09733845293521881, 0.20965373516082764, -0.21874092519283295, 0.13736233115196228, 0.20045939087867737, 0.2216615378856659, 0.153407484292984, -0.006734347436577082, 0.17254258692264557, -0.10596445202827454, 0.1689368486404419, 0.3127765357494354, 0.1333644986152649, -0.22345490753650665, 0.1446923315525055, -0.07641687989234924, -0.23653052747249603, -0.044496774673461914, -0.090150386095047, -0.012612482532858849, -0.210476815700531, -0.19761288166046143, 0.030909273773431778, -0.008240739814937115, 0.09221646934747696, 0.020416129380464554, 0.25830885767936707, 0.17212849855422974, -0.07232358306646347, 0.1205156221985817, -0.10176713764667511, -0.09083158522844315, -0.10115724802017212, -0.13234785199165344, 0.17293308675289154, -0.10761040449142456, -0.14919742941856384, 0.07594550400972366, -0.18338511884212494, -0.02196376584470272, 0.12071314454078674, -0.25182148814201355, -0.06644994765520096, -0.3584245443344116, 0.020560337230563164, -0.13820530474185944, -0.025513960048556328, 0.08690642565488815, -0.2770410478115082, -0.11938554793596268, 0.2566789388656616, 0.03616315871477127, -0.008644042536616325, 0.08160500228404999, 0.18952246010303497, 0.004820692352950573, 0.11896805465221405, -0.1498127281665802, 0.040457382798194885, -0.04886428639292717, -0.0899006798863411, -0.2327662855386734, 0.1681717187166214, -0.11523893475532532, 0.04717611148953438, 0.12262237071990967, 0.24674277007579803, -0.2225736528635025, -0.14298510551452637, 0.10357421636581421, 0.09581092745065689, -0.009168373420834541, 0.13015800714492798, -0.24146875739097595, 0.16693834960460663, -0.097756527364254, 0.1426505744457245, -0.19181057810783386, -0.21772323548793793, -0.035403795540332794, -0.10341131687164307, 0.04482673108577728, 0.18134060502052307, -0.41592592000961304, -0.1019403412938118, -0.24387308955192566, 0.036494411528110504, 0.008508535102009773, 0.320713609457016, -0.20496781170368195, 0.0973915159702301, 0.11936677992343903, 0.17974655330181122, 0.24077743291854858, -0.013653302565217018, 0.05840875580906868, 0.1394767463207245, 0.2153765857219696, 0.14901705086231232, -0.1397213190793991, -0.016253026202321053, 0.048454102128744125, -0.19616106152534485, -0.006009236443787813, 0.21483565866947174, -0.01472753006964922, -0.030248474329710007, 0.08866144716739655, -0.19065314531326294, 0.1553097516298294, -0.2633028030395508, -0.21274404227733612, 0.0017748235259205103, 0.11010966449975967, 0.0322129987180233, -0.06134422868490219, -0.048268843442201614, 0.07000865042209625, -0.03228217363357544, 0.0562707856297493, 0.04145672917366028, 0.048914920538663864, 0.11591380834579468, 0.2975010573863983, -0.3082057535648346, 0.2804430425167084, -0.1321236789226532, 0.15898612141609192, -0.17885155975818634, 0.12631787359714508, 0.056052759289741516, 0.02993692271411419, -0.16856351494789124, -0.11431322991847992, -0.2192813903093338, 0.23084650933742523, 0.0771973505616188, 0.03914438933134079, 0.24622581899166107, -0.09550020843744278, 0.25925213098526, -0.5783913135528564, -0.07661426067352295, -0.07899954915046692, -0.15513966977596283, -0.2044692188501358, -0.021381191909313202, -0.1421779990196228, 0.22983914613723755, -0.31759771704673767, 0.03298097103834152, -0.06997691094875336, 0.2767407298088074, -0.3068653643131256, -0.009853173978626728, -0.22234709560871124, -0.24322231113910675, -0.19099031388759613, -0.16645540297031403, 0.14466767013072968, 0.08459850400686264, -0.030603131279349327, 0.07239702343940735, 0.11189304292201996, -0.2481139898300171, 0.1277642697095871, -0.03782610595226288, 0.005873220972716808, 0.13205425441265106, -0.2871147692203522, 0.09733058512210846, 0.19602835178375244, -0.07781204581260681, 0.10840840637683868, -0.16089411079883575, 0.1820753961801529, 0.18703459203243256, -0.200178325176239, 0.10943401604890823, 0.084874726831913, -0.13159547746181488, 0.1950964480638504, -0.037948280572891235, -0.029242750257253647, 0.052667632699012756, 0.2034759223461151, 0.015184390358626842, -0.376189649105072, -0.029134247452020645, -0.11084679514169693, -0.33180901408195496, -0.22371798753738403, 0.25988060235977173, -0.32857367396354675, -0.0012935285922139883, -0.255075603723526, 0.1879911720752716, 0.009257861413061619, 0.2161218672990799, -0.12647399306297302, -0.13791844248771667, -0.0668540820479393, 0.10986360907554626, -0.04793453589081764, -0.15697437524795532, -0.09313402324914932, -0.03850429877638817, -0.2494105100631714, 0.20348967611789703, -0.02771051973104477, -0.08198268711566925, 0.08277511596679688, 0.08326904475688934, -0.07699067890644073, 0.13117115199565887, -0.1315699815750122, 0.1496574878692627, -0.0882740244269371, -0.14827556908130646, 0.049157336354255676, -0.03716297447681427, -0.12188620120286942, 0.026928704231977463, -0.08756427466869354, -0.09713330119848251, 0.047810859978199005, -0.10248767584562302, 0.11909274756908417, 0.15243372321128845, 0.018843457102775574, 0.03901923820376396, 0.24042287468910217, -0.17768071591854095, 0.17130956053733826, -0.009432204999029636, 0.24035878479480743, 0.022399770095944405, -0.0316474549472332, 0.10147257149219513, -0.1191519945859909, -0.08080563694238663, 0.15624205768108368, 0.00457656430080533, -0.06250853091478348, -0.2447202056646347, 0.05664532631635666, 0.13349010050296783, 0.14065170288085938, -0.13811494410037994, -0.1943320780992508, -0.07973049581050873, 0.2553361654281616, 0.19050323963165283, -0.024230383336544037, 0.1763445883989334, 0.2572004497051239, -0.16741977632045746, 0.03247344121336937, 0.02653559111058712, -0.13067187368869781, 0.10969818383455276, -0.07955463230609894, -0.22505787014961243, 0.18721330165863037, -0.10314564406871796, 0.263483464717865, 0.014622342772781849, 0.09124624729156494, -0.023447632789611816, -0.16086657345294952, -0.2786838412284851, -0.08041126281023026, 0.15988263487815857, 0.11562437564134598, -0.0758313536643982, -0.09363183379173279, 0.057794634252786636, 0.11460072547197342, -0.07270079106092453, 0.10036246478557587, -0.10033615678548813, -0.09104801714420319, 0.14956034719944, 0.16452045738697052, -0.11566372215747833, -0.039206523448228836, 0.3034459054470062, 0.2701111435890198, 0.03357328474521637, 0.16387870907783508, -0.01512229349464178, -0.0965055301785469, -0.18222977221012115, 0.22646862268447876, 0.1906190812587738, -0.1688176542520523, -0.10811331123113632, -0.16161726415157318, -0.07859195023775101, 0.15719139575958252, 0.06280720233917236, -0.06620486825704575, 0.11309591680765152, 0.12356392294168472, 0.032593585550785065, -0.07280538231134415, 0.15606944262981415, -0.1299356371164322, -0.013652291148900986, -0.034576136618852615, 0.022674471139907837, 0.13946501910686493, 0.25947654247283936, 0.1834949553012848, -0.023413345217704773, -0.09335390478372574, -0.06169453635811806, -0.056095752865076065, 0.033063411712646484, 0.015121589414775372, -0.02842971868813038, 0.012104452587664127, 0.03188746050000191, 0.01111063826829195, -0.14242681860923767, 0.05908627063035965, 0.12179601192474365, -0.09902844578027725, -0.17048166692256927, -0.04950086027383804, -0.16306884586811066, 0.14313770830631256, -0.053465791046619415, 0.2118571400642395, 0.11762158572673798, 0.09519020467996597, 0.0006272413302212954, 0.2364462912082672, 0.1014854684472084, 0.08917983621358871, -0.012643116526305676, -0.05022461712360382, -0.13714905083179474, -0.13362710177898407, -0.12825550138950348, 0.15954694151878357, -0.03637624531984329, 0.006830768659710884, -0.05969247594475746, -0.234236478805542, -0.0553060807287693, -0.045199017971754074, -0.24456067383289337, 0.16199034452438354, 0.057752471417188644, -0.013179306872189045, 0.09948677569627762, 0.06682616472244263, -0.21739907562732697, -0.07039307802915573, 0.0877377837896347, 0.08627261221408844, -0.11181772500276566, 0.0048591382801532745, -0.1956213414669037, 0.0670974925160408, -0.15396231412887573, 0.17762576043605804, 0.0471719466149807, -0.0004492281877901405, -0.08892391622066498, 0.04639007896184921, 0.12850677967071533, 0.12612633407115936, 0.039868079125881195, 0.1152854859828949, 0.06906949728727341, 0.09823232144117355, 0.13293664157390594, -0.05378171056509018, 0.02773841843008995, -0.10217591375112534, -0.0853755846619606, -0.2883540391921997, 0.014003565534949303, -0.1424211710691452, 0.1583614945411682, 0.13928364217281342, 0.18175897002220154, -0.05383668839931488, 0.2786780893802643, -0.04236944019794464, 0.22606530785560608, 0.02249731309711933, 0.07380000501871109, 0.0008561601280234754, 0.14155060052871704, 0.057791318744421005, 0.13949225842952728, 0.15741586685180664, 0.045834459364414215, 0.02603018842637539, 0.005508152302354574, -0.1711864024400711, 0.060898683965206146, 0.0798468217253685, 0.021033799275755882, -0.12847945094108582, -0.06680558621883392, -0.08385194838047028, 0.06157601252198219, 0.4849886894226074, 0.10348548740148544, -0.3899533152580261, -0.33727020025253296, 0.2536124587059021, 0.20033518970012665, -0.3794165551662445, 0.06635192036628723, 0.2889402508735657, 0.1131032332777977, 0.174967423081398, 0.2975143492221832, -0.13924778997898102, 0.2481951117515564, 0.14398688077926636, 0.7050284147262573, -0.07172856479883194, -0.3221224248409271, -0.11457992345094681, -0.2820911109447479, 0.09250061959028244, 0.45780929923057556, -0.03844334930181503, -0.439551442861557, -0.5382043123245239, -0.014414911158382893, 0.29189640283584595, 0.532068133354187, 0.13905447721481323, -0.16317036747932434, -0.3960082530975342, 0.1747516393661499, 0.4561093747615814, -0.1352451890707016, 0.2300073802471161, 0.050832025706768036, -0.257205069065094, 0.3809666335582733, 0.3555142283439636, -0.26999303698539734, 0.03863516449928284, -0.09164430946111679, -0.5118920207023621, 0.23541519045829773, 0.13658170402050018, 0.5144688487052917, -0.06212513521313667, -0.37031495571136475, -0.4136796295642853, 0.06636746227741241, -0.06398818641901016, 0.3065038025379181, -0.03300851956009865, -0.07098640501499176, -0.2128141075372696, -0.1491331309080124, 0.029160786420106888, 0.0027677558828145266, -0.06759438663721085, 0.13731426000595093, 0.02066970430314541, -0.24201367795467377, -0.16410237550735474, 0.06333907693624496, -0.01987287774682045, -0.09403197467327118, 0.21732009947299957, -0.09722746163606644, 0.09162162989377975, 0.07176167517900467, 0.11894048005342484, -0.05910378322005272, 0.10370171070098877, -0.2094269096851349, 0.14235161244869232, -0.009598150849342346, 0.2908266484737396, -0.09240067005157471, 0.2617981433868408, -0.02988337352871895, 0.04226280748844147, -0.11952108889818192, -0.18858033418655396, 0.021579252555966377, -0.18700332939624786, -0.17966310679912567, -0.10350210219621658, -0.2605757713317871, -0.11299293488264084, -0.09644410759210587, -0.1745372712612152, -0.046598341315984726, 0.08038823306560516, -0.15842443704605103, 0.13580606877803802, 0.03156444430351257, 0.1377822607755661, 0.04448336362838745, 0.02230340987443924, -0.1601015329360962, -0.10290300101041794, -0.15214303135871887, 0.24690280854701996, 0.09935557097196579, 0.15711690485477448, 0.19405026733875275, 0.06222465634346008, -0.07305604964494705, 0.21247078478336334, 0.1990649402141571, 0.12562711536884308, -0.14680448174476624, 0.12891221046447754, 0.11744389683008194, -0.041179507970809937, -0.056652531027793884, -0.11367107182741165, -0.2550468146800995, -0.12981250882148743, 0.1558852642774582, 0.006726519204676151, -0.10829667747020721, 0.025022117421030998, -0.016870060935616493, 0.1321333944797516, -0.015338852070271969, 0.029001150280237198, -0.20478607714176178, -0.21331048011779785, 0.23201483488082886, -0.03009405918419361, 0.2809913754463196, 0.21425199508666992, 0.18134233355522156, 0.0877254381775856, -0.0163987185806036, -0.09888818860054016, -0.15382413566112518, 0.10656391084194183, -0.14100824296474457, -0.053130414336919785, -0.12089705467224121, -0.11272598803043365, -0.07062552869319916, 0.1790987104177475, -0.12495236098766327, 0.1826072335243225, -0.23165763914585114, 0.3239228129386902, 0.15979860723018646, -0.08247238397598267, 0.13058654963970184, 0.008304246701300144, -0.01375165767967701, 0.1749032586812973, -0.14312851428985596, 0.21085506677627563, 0.2532573342323303, 0.03874891623854637, 0.04831862822175026, -0.13617847859859467, 0.17598849534988403, 0.11526364833116531, -0.09278783947229385, -0.03535948321223259, -0.11963062733411789, -0.17454326152801514, 0.21994763612747192, -0.1515210121870041, 0.2878575026988983, -0.08017263561487198, -0.24765917658805847, -0.2919425070285797, 0.11761463433504105, -0.20634132623672485, -0.034237463027238846, -0.013918545097112656, 0.07635831832885742, -0.12705932557582855, -0.12107854336500168, -0.030940130352973938, 0.03283338248729706, -0.09679095447063446, -0.18373948335647583, 0.10031090676784515, -0.08598189800977707, -0.06998700648546219, -0.08503387123346329, 0.0561254546046257, 0.007970409467816353, -0.19813987612724304, -0.03361709415912628, 0.09880831092596054, -0.009861452504992485, 0.10401522368192673, -0.20904569327831268, 0.2511465549468994, -0.1429189145565033, -0.045821476727724075, -0.09322940558195114, 0.16807588934898376, -0.06306488811969757, 0.007081873714923859, 0.10484378784894943, -0.1991186887025833, -0.1936216950416565, -0.0837719663977623, 0.11370021849870682, -0.029891474172472954, -0.06420736014842987, -0.2697922885417938, 0.4162473678588867, -0.1337338387966156, 0.05552952364087105, 0.14751526713371277, 0.014054336585104465, -0.14712736010551453, 0.07086559385061264, 0.1284683495759964, 0.126329243183136, -0.319365918636322, 0.04524814337491989, 0.06972425431013107, 0.24730531871318817, -0.043981119990348816, -0.03305375948548317, 0.13448481261730194, -0.058050964027643204, -0.05642402544617653, -0.07972660660743713, 0.10811320692300797, -0.0008105026790872216, -0.17809157073497772, 0.10614082962274551, 0.14256490767002106, -0.0315111018717289, 0.16384686529636383, 0.24074091017246246, -0.1506723016500473, 0.11974962055683136, 0.11358081549406052, 0.1524273008108139, -0.14599548280239105, -0.055981773883104324, -0.22651582956314087, -0.09979438036680222, 0.03670882806181908, 0.1671207994222641, 0.08786554634571075, 0.040966883301734924, -0.015713561326265335, -0.057657767087221146, 0.09593365341424942, 0.016126330941915512, -0.1383390724658966, -0.08424319326877594, 0.2240326702594757, 0.04223302751779556, -0.17791737616062164, 0.035449087619781494, 0.2378755658864975, 0.025150438770651817, 0.23343044519424438, 0.07485675066709518, 0.1594708263874054, -0.22745727002620697, -0.051297128200531006, -0.14090164005756378, 0.18191823363304138, -0.03493721783161163, -0.029638690873980522, 0.019555766135454178, 0.01356179267168045, 0.04012083262205124, 0.10935452580451965, 0.01710718683898449, 0.06912070512771606, -0.025268908590078354, 0.0903625637292862, 0.25711867213249207, 0.034503962844610214, -0.016982734203338623, 0.19372893869876862, -0.010022912174463272, -0.177064910531044, -0.1956106424331665, 0.0924161970615387, -0.01644495129585266, -0.04060308262705803, 0.07004274427890778, 0.14462989568710327, 0.18499405682086945, 0.1723228394985199, -0.031385838985443115, 0.0758104920387268, 0.002057948848232627, 0.034004196524620056, -0.03730160742998123, -0.02776622585952282, -0.12417377531528473, 0.2538323998451233, -0.06966984272003174, -0.026176806539297104, -0.016296841204166412, -0.06628866493701935, 0.16869524121284485, -0.20986244082450867, -0.17930454015731812, -0.31019678711891174, -0.15506720542907715, -0.08706291764974594, 0.06519860774278641, -0.08027050644159317, 0.034893520176410675, 0.029372669756412506, 0.01760159619152546, 0.012076361104846, 0.09708119183778763, 0.047295354306697845, 0.013849258422851562, -0.12050025910139084, -0.05649491772055626, -0.10381127893924713, -0.14785870909690857, -0.02547738328576088, -0.182008296251297, 0.15542574226856232, -0.060756780207157135, -0.16327713429927826, -0.17081549763679504, 0.046338729560375214, -0.09729365259408951, 0.15918993949890137, 0.004526333883404732, 0.10403572767972946, 0.11727185547351837, 0.1153477355837822, 0.013892498798668385, -0.1892073005437851, -0.026698673143982887, 0.1197836846113205, 0.22859840095043182, -0.0959119126200676, -0.1241723969578743, -0.12899912893772125, -0.15373383462429047, -0.053371917456388474, 0.06496462970972061, -0.020316533744335175, 0.0932668149471283, -0.0383571982383728, 0.09627144783735275, -0.01392406690865755, -0.16494452953338623, -0.15085965394973755, 0.019719161093235016, 0.3369152247905731, 0.3435591757297516, 0.07722143828868866, -0.009551103226840496, -0.17509587109088898, -0.03513288125395775, 0.23872776329517365, 0.2182748019695282, -0.028085585683584213, 0.0539829358458519, -0.15388455986976624, 0.11117667704820633, 0.05841650441288948, 0.12702132761478424, 0.06993179768323898, 0.024941008538007736, -0.24496042728424072, -0.02244414947926998, -0.23724330961704254, 0.0044462974183261395, 0.0741843432188034, -0.13211402297019958, -0.09267338365316391, 0.08102641254663467, -0.3339894413948059, 0.18058280646800995, -0.06755497306585312, 0.0204519871622324, 0.15293966233730316, 0.22684349119663239, -0.31677669286727905, -0.1769694685935974, -0.03325597569346428, 0.10781931132078171, -0.25751838088035583, 0.25694504380226135, 0.2144709825515747, -0.33820387721061707, -0.12774819135665894, -0.0451262928545475, -0.19982896745204926, 0.13628575205802917, 0.11630117893218994, 0.38086745142936707, -0.12369528412818909, -0.26447418332099915, -0.07865313440561295, -0.17272302508354187, 0.1563921570777893, 0.2844219207763672, -0.08597801625728607, -0.3010551929473877, -0.1350385993719101, -0.11153704673051834, 0.18523618578910828, 0.07755874842405319, -0.07878854125738144, -0.03639057278633118, -0.25507232546806335, 0.02840629406273365, 0.22809794545173645, -0.13158221542835236, 0.17144492268562317, -0.3105897903442383, -0.2826154828071594, 0.23878240585327148, 0.20042328536510468, -0.09141691029071808, 0.09728273004293442, 0.17958912253379822, -0.37092265486717224, 0.31140705943107605, -0.023621851578354836, 0.3350259065628052, -0.017264749854803085, -0.19573548436164856, -0.04314902424812317, -0.013806242495775223, -0.2070000022649765, 0.0324421189725399, 0.18857434391975403, 0.3457270860671997, -0.0140571603551507, 0.059310078620910645, -0.006151105742901564, 0.35969728231430054, 0.35319802165031433, -0.006933922879397869, 0.16832235455513, 0.24255338311195374, 0.08059493452310562, 0.010943872854113579, -0.21004700660705566, -0.07981227338314056, -0.11162950843572617, 0.02068810909986496, -0.3344886302947998, 0.03005407750606537, -0.28506922721862793, -0.14787916839122772, -0.14569801092147827, 0.028596462681889534, 0.11082889139652252, 0.025318006053566933, 0.1341399997472763, 0.26461106538772583, -0.09159412980079651, 0.1442617028951645, 0.012263487093150616, -0.055024269968271255, 0.24789758026599884, 0.2193203568458557, -0.11478904634714127, -0.07205044478178024, -0.06852971017360687, -0.06696964800357819, 0.04199711233377457, -0.2548409402370453, 0.0364312045276165, -0.0982493981719017, -0.06595505774021149, 0.024099579080939293, 0.023124366998672485, 0.008347340859472752, 0.1853005290031433, 0.03785160556435585, -0.02553246170282364, 0.14491009712219238, -0.023591401055455208, 0.0025428778026252985, -0.0054557714611291885, 0.04731782153248787, -0.13723686337471008, -0.07671450823545456, -0.003406464122235775, 0.1066511794924736, 0.07289760559797287, 0.030349813401699066, 0.25192299485206604, -0.2972971796989441, -0.4092673361301422, 0.3947955369949341, 0.14977866411209106, -0.6038568615913391, -0.02640581876039505, -0.6179408431053162, -0.6541975140571594, -0.5312522053718567, 0.7604299187660217, -0.7252340912818909, -0.6442131996154785, -0.9439964294433594, 0.24382001161575317, -0.5672279000282288, 0.16802233457565308, -0.3754349946975708, -0.361844927072525, -0.0999709963798523, 0.162721648812294, 0.2076960653066635, 0.1610984355211258, -0.16767877340316772, -0.09069790691137314, 0.1298687756061554, -0.06482356786727905, -0.14934812486171722, -0.014672352001070976, 0.20019301772117615, 0.027887139469385147, 0.20537135004997253, -0.35530680418014526, -0.17521017789840698, 0.037692755460739136, -0.3732868432998657, 0.17472487688064575, -0.022379577159881592, -0.1250125914812088, 0.05049804970622063, 0.006720319390296936, -0.06637870520353317, 0.19659364223480225, -0.3297256827354431, 0.09553074836730957, 0.38326501846313477, -0.05881262198090553, 0.043415047228336334, 0.18826787173748016, 0.1386224329471588, -0.24594911932945251, -0.24431177973747253, 0.04349467158317566, 0.21800366044044495, 0.15015974640846252, -0.024600103497505188, 0.42885833978652954, 0.32213902473449707, -0.10529260337352753, -0.24577024579048157, -0.16360639035701752, -0.03970249742269516, -0.12182486802339554, 0.1417015939950943, -0.061211057007312775, -0.19557541608810425, 0.15421462059020996, -0.07481473684310913, -0.09560985863208771, -0.3037276566028595, -0.15539143979549408, 0.04045489430427551, -0.2968347668647766, -0.0924338772892952, 0.032465413212776184, 0.06748288869857788, -0.21587799489498138, 0.09195935726165771, 0.22691483795642853, -0.1557920277118683, 0.14292147755622864, 0.14567753672599792, 0.252218633890152, 0.043411850929260254, -0.013634818606078625, 0.02928764559328556, 0.2289557307958603, -0.07713029533624649, -0.11140403151512146, 0.22256219387054443, 0.1825185865163803, -0.06524600088596344, -0.08089831471443176, 0.179639533162117, -0.07575507462024689, -0.07095437496900558, -0.20152178406715393, -0.3621302545070648, -0.2677871882915497, -0.18814386427402496, -0.0011727378005161881, 0.07155436277389526, 0.09066848456859589, -0.22730310261249542, 0.0884324237704277, 0.05341847613453865, 0.08063521981239319, -0.05736391991376877, 0.010310537181794643, -0.010850975289940834, -0.273836225271225, -0.12995679676532745, 0.03357299417257309, 0.06888635456562042, 0.299504816532135, -0.04476867616176605, 0.08276526629924774, -0.5365952849388123, -0.14239086210727692, 0.40648409724235535, -0.8059766888618469, -0.3898845314979553, 0.3966706693172455, 0.06989418715238571, -0.2330840826034546, -0.24871233105659485, 0.34131020307540894, -0.4530714750289917, -0.09056441485881805, 0.4309725761413574, 0.06476712226867676, 0.3110572397708893, -0.1034226194024086, 0.10241136699914932, -0.05691847205162048, -0.12108561396598816, -0.03933218494057655, 0.07092059403657913, -0.007275451440364122, 0.28690358996391296, -0.1818183809518814, -0.1076122373342514, -0.2032240629196167, 0.07526679337024689, 0.06450019031763077, 0.1255917102098465, 0.03928491100668907, 0.12967154383659363, -0.1121557280421257, -0.12097574025392532, -0.052801135927438736, -0.23086217045783997, 0.20477496087551117, -0.037869974970817566, -0.09054221212863922, -0.03523970767855644, 0.02082614228129387, -0.13360081613063812, -0.15097014605998993, 0.20758603513240814, 0.16345687210559845, 0.059396177530288696, -0.1875651329755783, 0.11397470533847809, -0.02459123358130455, 0.17261359095573425, 0.16312825679779053, -0.2140701562166214, 0.16599038243293762, 0.16638362407684326, -0.08858398348093033, -0.17963379621505737, 0.16561704874038696, 0.24108052253723145, -0.014954018406569958, 0.11675187945365906, 0.07097817957401276, -0.20243991911411285, -0.13464805483818054, 0.14497286081314087, -0.2698326110839844, -0.09400069713592529, -0.055162616074085236, -0.0661824494600296, -0.31384018063545227, -0.07451825588941574, 0.12637770175933838, 0.30484500527381897, -0.41120004653930664, -0.06069668009877205, 0.06843776255846024, 0.3030387759208679, -0.16372790932655334, 0.1184205710887909, 0.0930025726556778, 0.18786512315273285, -0.2389642596244812, -0.22628460824489594, -0.13865357637405396, -0.06255790591239929, 0.0759633481502533, 0.0684644803404808, -0.14792215824127197, 0.020181991159915924, -0.1644725799560547, -0.2448723167181015, -0.038082562386989594, 0.007772245444357395, 0.4127499759197235, -0.05630146712064743, -0.12421181052923203, -1.0767579078674316, 0.4175103008747101, 0.2670438289642334, 0.3228395879268646, -0.1529730260372162, 0.1231413409113884, 0.3859596848487854, 0.00989567581564188, -0.22220171988010406, -0.3050888776779175, 0.14331784844398499, 0.34323346614837646, -0.35789036750793457, -0.45559123158454895, -0.1683068424463272, 0.04467480629682541, 0.03837188333272934, 0.04160438850522041, 0.19844511151313782, -0.1424468755722046, -0.003477446734905243, 0.11856777220964432, -0.10117170959711075, 0.1789575219154358, 0.13576148450374603, 0.05809136852622032, -0.1694934219121933, 0.10260210931301117, 0.13176490366458893, 0.22064191102981567, -0.06450477242469788, 0.022084033116698265, 0.5649562478065491, -0.08022347092628479, -0.09253829717636108, -0.14798985421657562, -0.22246460616588593, 0.4216972589492798, 0.08159741014242172, -0.22155722975730896, -0.012802110984921455, -0.17601394653320312, -0.04472547024488449, -0.14847314357757568, 0.4680304229259491, 0.4507187008857727, 0.07283508777618408, 0.01979256235063076, -0.20339998602867126, 0.03599732741713524, 0.0850951224565506, -0.20615851879119873, -0.01715187169611454, -0.17074666917324066, 0.24814943969249725, 0.17472919821739197, -0.33927837014198303, 0.20153775811195374, 0.14224085211753845, -0.2459225058555603, 0.2428496927022934, -0.4678645730018616, -0.10309535264968872, -0.12688200175762177, 0.03631550073623657, 0.10639335215091705, -0.13156327605247498, -0.18346695601940155, -0.04780331999063492, 0.024024883285164833, 0.10966341942548752, 0.003795777214691043, 0.161889910697937, 0.04614869877696037, -0.23549100756645203, 0.1636398285627365, -0.2961660623550415, -0.06198584660887718, 0.0034377232659608126, 0.13085420429706573, 0.026240423321723938, -0.199836865067482, -0.11251042038202286, -0.29936420917510986, -0.03845981881022453, -0.17788651585578918, -0.0009845641907304525, 0.005279230419546366, 0.11986055225133896, -0.1542922705411911, 0.014979691244661808, 0.4192731976509094, 0.07010319083929062, -0.09362656623125076, 0.14607128500938416, 0.13351643085479736, -0.05795779824256897, 0.01027156226336956, -0.10651233047246933, 0.18885478377342224, 0.09204453229904175, 0.1555563062429428, -0.15547245740890503, -0.23553358018398285, -0.013152921572327614, 0.04731249436736107, 0.08818968385457993, 0.11758618801832199, -0.10006625950336456, -0.02974245324730873, -0.048410363495349884, -0.01750161312520504, -0.06549590080976486, 0.021598385646939278, 0.18122567236423492, -0.053340259939432144, 0.2030167132616043, 0.0381452701985836, -0.10277087986469269, 0.01335966307669878, 0.04595458507537842, -0.24156644940376282, 0.18050941824913025, -0.20765656232833862, 0.24599215388298035, -0.040553849190473557, -0.05643082782626152, 0.08359743654727936, -0.09184594452381134, -0.20712700486183167, -0.24967655539512634, 0.09898416697978973, 0.10827470570802689, -0.04386145621538162, 0.267984539270401, -0.11001350730657578, -0.2108701765537262, -0.1063421443104744, 0.08581697940826416, 0.047202277928590775, -0.08941606432199478, -0.13547733426094055, 0.18063005805015564, -0.010099651291966438, -0.2786489427089691, -0.10509564727544785, -0.24439339339733124, 0.35271599888801575, 0.14871059358119965, -0.11195869743824005, -0.19924324750900269, -0.13495564460754395, -0.013583722524344921, 0.013959460891783237, 0.30378180742263794, 0.19828881323337555, -0.09455693513154984, -0.16540668904781342, -0.030123796314001083, 0.07933447510004044, -0.20044387876987457, -0.0867425799369812, 0.07990360260009766, -0.1812773495912552, 0.451865553855896, -0.04317812621593475, -0.12372852861881256, 0.05011241137981415, 0.1526484340429306, -0.26267221570014954, 0.3540845513343811, 0.07331009954214096, 0.2578699290752411, 0.022539330646395683, -0.20080134272575378, 0.2316512167453766, -0.13979807496070862, 0.07662474364042282, 0.061371780931949615, 0.05447668582201004, -0.26222553849220276, 0.492584228515625, -0.24576711654663086, 0.5600032210350037, -0.2945120334625244, 0.12478523701429367, 0.000604777131229639, -0.41065722703933716, -0.42231932282447815, 0.23870094120502472, 0.14705465734004974, -0.04698927700519562, -0.02206013910472393, -0.1168094277381897, 0.3140813112258911, -0.15054002404212952, -0.02456970140337944, 0.01833439990878105, 0.037148360162973404, 0.14758826792240143, 0.06787087768316269, 0.10122823715209961, 0.15387335419654846, -0.06474260240793228, 0.01863366737961769, -0.12841279804706573, 0.19031785428524017, 0.03292175754904747, -0.13220730423927307, 0.14664682745933533, 0.014795913361012936, 0.5915244221687317, -0.5168516635894775, 0.18194100260734558, -0.11020227521657944, 0.1523207128047943, 0.1405342072248459, 0.09387842565774918, 0.10353775322437286, 0.3834551274776459, -0.05980350077152252, -0.25733858346939087, 0.08936731517314911, -0.07783707976341248, -0.0680788978934288, 0.20805132389068604, 0.02693399414420128, 0.14881080389022827, 0.060024771839380264, 0.12685911357402802, 0.27219733595848083, 0.06672859191894531, 0.040849994868040085, 0.007172818295657635, -0.26791825890541077, 0.15196937322616577, 0.16486558318138123, 0.16825957596302032, -0.059872135519981384, -0.14497682452201843, 0.08259347081184387, 0.1013023778796196, -0.0682331919670105, -0.2880563735961914, 0.004618838895112276, -0.027596769854426384, 0.11903328448534012, 0.07444114238023758, 0.12553523480892181, 0.14337560534477234, -0.10878852754831314, -0.10080476850271225, -0.10719642788171768, 0.029148349538445473, -0.10290432721376419, -0.04321989789605141, 0.051973775029182434, -0.12193988263607025, -0.2814546525478363, 0.04336651787161827, -0.17138296365737915, -0.1887321174144745, 0.13970457017421722, 0.10683467239141464, 0.03327614441514015, -0.10207615047693253, -0.06503597646951675, 0.1339377909898758, -0.09935283660888672, -0.0697009488940239, 0.03962351009249687, 0.10229282081127167, -0.18753179907798767, -0.0024383850395679474, -0.03241712972521782, 0.06096353381872177, -0.15358251333236694, 0.07027243077754974, 0.0054598418064415455, -0.1678350269794464, 0.019304387271404266, 0.1949678361415863, -0.05532185733318329, -0.22184757888317108, -0.1792006492614746, 0.279464989900589, -0.05383635312318802, 0.03331200033426285, 0.0003452223027125001, -0.2125840187072754, -0.041283298283815384, 0.1110760048031807, -0.018261538818478584, -0.11632581800222397, 0.07847324013710022, -0.013547082431614399, -0.04049311950802803, -0.006541928742080927, 0.08487144857645035, 0.0633474662899971, 0.08223620057106018, 0.07079295814037323, 0.04807715117931366, 0.015485595911741257, 0.03909774497151375, 0.30213674902915955, -0.011687260121107101, 0.03922806307673454, 0.06080795079469681, 0.17735829949378967, -0.1130571961402893, -0.06086482107639313, 0.2078883945941925, 0.09692903608083725, 0.07161404937505722, -0.019331205636262894, 0.15167805552482605, -0.17403477430343628, -0.10221775621175766, 0.30618783831596375, -0.069588303565979, -0.26207447052001953, -0.09999147057533264, -0.02807343378663063, 0.22648702561855316, 0.08742305636405945, -0.5160055160522461, -0.22321869432926178, -0.1820663958787918, -0.05925684794783592, 0.25148048996925354, -0.02216806262731552, -0.2207794040441513, 0.1610567718744278, 0.04644495248794556, -0.16858455538749695, -0.01696098782122135, -0.34923484921455383, 0.07070784270763397, 0.14424405992031097, 0.05489981174468994, -0.14352115988731384, -0.062473949044942856, -0.0862654447555542, 0.05033033341169357, -0.029920095577836037, 0.11625894904136658, -0.02748420275747776, -0.087088942527771, -0.4114874601364136, -0.03354603052139282, -0.1532372683286667, -0.1485794484615326, 0.20136655867099762, 0.10615769773721695, 0.04253794252872467, -0.7680768966674805, -0.026860488578677177, -0.16645772755146027, 0.10511408001184464, 0.2220279723405838, 0.16642989218235016, 0.26515358686447144, -0.16428734362125397, 0.3102574050426483, -0.0834016501903534, -0.14575670659542084, -0.08287249505519867, -0.06287440657615662, -0.014576188288629055, -0.05458226427435875, -0.0935332328081131, -0.03764710947871208, 0.4000093936920166, 0.053311750292778015, -0.08237391710281372, -0.08768092095851898, 0.14112529158592224, 0.09783054143190384, 0.17185258865356445, 0.0065145972184836864, -0.18878665566444397, -0.10835450887680054, 0.08020646870136261, 0.024076193571090698, -0.08147255331277847, 0.09852351993322372, 0.09268468618392944, 0.12409364432096481, 0.08782587200403214, -0.01969650201499462, 0.01858537830412388, -0.05523037537932396, 0.15912899374961853, -0.011521373875439167, 0.1367025077342987, -0.04261510819196701, -0.12621085345745087, 0.1936410367488861, 0.10150913149118423, -0.01063753291964531, -0.2315986305475235, -0.05169801041483879, -0.11232925206422806, 0.16247956454753876, -0.07550722360610962, 0.08780523389577866, -0.0872102901339531, -0.012266216799616814, 0.0793454498052597, 2.485850200173445e-05, -0.09981971234083176, 0.1986890584230423, 0.05178019776940346, 0.06726142019033432, 0.22826215624809265, 0.04496379569172859, -0.2138589769601822, -0.0381423644721508, 0.2302200198173523, 0.28402408957481384, 0.1500258892774582, 0.3266691565513611, -0.04520988464355469, -0.2904115617275238, 0.04897982254624367, 0.2061031013727188, -0.11116049438714981, 0.06875506788492203, 0.07875248789787292, 0.13032333552837372, -0.07128609716892242, -0.07881661504507065, -0.3906283378601074, -0.09622590243816376, 0.24010105431079865, 0.03553246706724167, -0.07984544336795807, -0.14995591342449188, -0.1283811628818512, 0.21474379301071167, -0.10149984806776047, 0.09736689180135727, 0.04405195638537407, -0.20486268401145935, -0.14330434799194336, -0.05687815323472023, 0.01192601677030325, -0.22168612480163574, 0.04487595707178116, -0.21227215230464935, 0.21673156321048737, 0.09815259277820587, 0.7630270719528198, -0.18370863795280457, 0.051394157111644745, 0.12627437710762024, 0.3531884551048279, 0.5024337768554688, -0.5828027129173279, -0.009349883534014225, -0.18759652972221375, -0.08839918673038483, -0.014240926131606102, 0.038855694234371185, 0.05992957577109337, 0.026103783398866653, -0.11013390868902206, -0.0011800001375377178, -0.056774500757455826, 0.7068201899528503, -0.12360843271017075, 0.0021362057887017727, 0.04579632356762886, 0.1232161670923233, -0.3635671138763428, -0.17494811117649078, -0.4218563437461853, 0.08259592950344086, 0.03330172225832939, -0.0986533984541893, 0.1765933334827423, -0.28568199276924133, 0.17334184050559998, 0.03118108958005905, -0.11163648962974548, 0.016540465876460075, 0.10962589085102081, -0.028640519827604294, 0.10226763784885406, -0.06400226056575775, 0.18128222227096558, 0.0013238766696304083, 0.14074154198169708, -0.12475521117448807, -0.005433476064354181, 0.1282118707895279, 0.2240101397037506, 0.00766555592417717, 0.025029709562659264, 0.24372419714927673, -0.23439061641693115, -0.11730365455150604, -0.06214125081896782, 0.048083726316690445, -0.09729013592004776, 0.38070327043533325, -0.039031460881233215, 0.07141046971082687, 0.10392416268587112, -0.0692962035536766, -0.08687886595726013, -0.012548853643238544, -0.3344474732875824, -0.05498470366001129, 0.035644255578517914, 0.15223479270935059, -0.48518815636634827, 0.24590128660202026, -0.018238786607980728, -0.12821660935878754, -0.13810870051383972, -0.03160750865936279, -0.07400112599134445, 0.08810683339834213, -0.2027677595615387, 0.06188148260116577, 0.07151675969362259, -0.2184084802865982, -0.08369304239749908, -0.04162364453077316, -0.007077353540807962, 0.1852623075246811, -0.09195063263177872, -0.21733775734901428, -0.17830467224121094, -0.22085483372211456, 0.2667223811149597, 0.23305034637451172, 0.061275664716959, -0.0516459085047245, -0.03795957937836647, -0.11499275267124176, 0.008866789750754833, -0.19652223587036133, -0.03101314604282379, 0.11788899451494217, -0.042815398424863815, 0.5107369422912598, -0.3697558641433716, -0.19524455070495605, -0.23883508145809174, 0.11907923221588135, -0.6864339113235474, 0.06926792114973068, 0.32234281301498413, 0.1753716915845871, 0.09209941327571869, -0.24528804421424866, -0.15523526072502136, -0.03897504508495331, 0.2048887312412262, 0.1273522675037384, 0.05432197079062462, -0.03443450853228569, -0.038982849568128586, -0.23132352530956268, 0.2819426655769348, 0.10186471045017242, 0.02110864222049713, -0.15277253091335297, 0.050709906965494156, -0.35292258858680725, 0.15026354789733887, -0.12283392250537872, 0.05787260830402374, 0.10288795828819275, 0.29090672731399536, 0.26819488406181335, -0.28977659344673157, -0.01803707145154476, 0.1997687965631485, 0.19423845410346985, 0.10365238785743713, 0.05671772360801697, -0.1395946443080902, -0.14182043075561523, -0.014596105553209782, 0.2423156499862671, 0.1609429568052292, -0.04599965363740921, -0.05995228886604309, 0.11607623845338821, -0.13440120220184326, -0.13900505006313324, 0.19513100385665894, -0.21154947578907013, 0.12822967767715454, 0.10333499312400818, -0.24839787185192108, -0.3121594190597534, 0.06643078476190567, -0.3331413269042969, -0.09240083396434784, -0.06721777468919754, -0.15340740978717804, 0.16501854360103607, 0.13872572779655457, 0.04006045311689377, -0.02582480199635029, -0.1475793421268463, -0.17609627544879913, 0.18033897876739502, 0.021333768963813782, -0.07993178814649582, 0.11767624318599701, -0.1890890896320343, 0.00187525968067348, 0.23206397891044617, -0.06312607228755951, 0.014109911397099495, 0.061228565871715546, 0.09459720551967621, -0.008645333349704742, -0.11119478195905685, -0.10355415940284729, 0.002327451016753912, 0.23795194923877716, 0.26228880882263184, 0.012980524450540543, -0.24003812670707703, -0.2701011896133423, -0.053857676684856415, -0.023464733734726906, 0.048696067184209824, 0.07470471411943436, -0.2060214728116989, -0.28762486577033997, -0.1330256313085556, 0.08230102062225342, 0.07427391409873962, -0.10324983298778534, 0.25852370262145996, -0.2898208498954773, -0.011652781628072262, 0.09154243022203445, -0.2057477831840515, -0.1878989040851593, 0.2761712968349457, -0.23806969821453094, -0.3113076984882355, 0.1651267260313034, 0.07420717179775238, 0.03386475890874863, -0.233920156955719, -0.09366322308778763, -0.18035957217216492, 0.3401760756969452, 0.1818646639585495, 0.08655385673046112, -0.2823672294616699, -0.015813712030649185, -0.09599819034337997, -0.5264809131622314, 0.062649667263031, 0.10003291070461273, -0.05724027380347252, 0.14464041590690613, -0.029971711337566376, 0.18160179257392883, -0.09050282835960388, -0.09682653844356537, 0.1589028537273407, -0.18614129722118378, 0.1440153568983078, -0.2229348123073578, -0.07361581176519394, -0.24667848646640778, 0.06645375490188599, 0.12807440757751465, 0.031905148178339005, -0.0928746834397316, -0.23662738502025604, -0.16348005831241608, 0.005564166698604822, 0.14831797778606415, 0.05883456766605377, -0.07216247916221619, 0.035629019141197205, 0.14700965583324432, -0.09229269623756409, 0.30125346779823303, -0.09641903638839722, -0.0976107269525528, 0.10247240960597992, 0.17207486927509308, -0.09925186634063721, -0.03629978746175766, 0.5319462418556213, -0.6359310150146484, 0.10018108785152435, -0.2665257751941681, 0.22335520386695862, -0.1576172560453415, 0.03467893600463867, 0.027450967580080032, 0.2026812583208084, -0.10628709197044373, 0.06421508640050888, 0.05521867424249649, 0.013650884851813316, -0.09359301626682281, -0.013311662711203098, -0.141032874584198, 0.07443048804998398, -0.07445507496595383, 0.0665491595864296, 0.10094340145587921, -0.08353723585605621, 0.1606748104095459, -0.001285421778447926, 0.27985307574272156, -0.11319652944803238, -0.08006319403648376, -0.10934888571500778, 0.10769415646791458, -0.06443436443805695, 0.1111525222659111, -0.03305036202073097, -0.0162664707750082, -0.2008327841758728, 0.007157687097787857, 0.12690499424934387, 0.1372113674879074, -0.1808653622865677, -0.10564983636140823, -0.015902232378721237, -0.05062513053417206, -0.13075944781303406, 0.13989244401454926, 0.07142537832260132, 0.05347302183508873, -0.09328754246234894, -0.16393440961837769, -0.34659436345100403, -0.0691285952925682, -0.11242961138486862, 0.1427621990442276, -0.11747701466083527, 0.07868972420692444, 0.03942956030368805, -0.009042863734066486, 0.1412932276725769, 0.09249117970466614, 0.14869076013565063, 0.05314134806394577, 0.03655363246798515, 0.04854514077305794, 0.3225953280925751, 0.02532671019434929, -0.2365056425333023, -0.3268333375453949, -0.09335194528102875, -0.31963926553726196, 0.016036489978432655, -0.28760239481925964, -0.06195426732301712, -0.005473874509334564, -0.11142916977405548, 0.035360999405384064, 0.03664602339267731, -0.07347699254751205, -0.018258659169077873, 0.07070831209421158, 0.1226455345749855, 0.18340469896793365, -0.04936109483242035, 0.05630415678024292, 0.04884852096438408, 0.03241580352187157, -0.003852540859952569, -0.1578376442193985, -0.2481088489294052, -0.25834792852401733, -0.07402767986059189, -0.1640995293855667, -0.23753491044044495, 0.16067151725292206, 0.14647583663463593, -0.07272085547447205, -0.08023513853549957, -0.22849053144454956, 0.011399068869650364, 0.15856142342090607, -0.142367884516716, -0.0449243038892746, -0.051970090717077255, 0.1193646714091301, -0.12205085158348083, 0.1269976794719696, 0.09979533404111862, -0.07489866018295288, -0.15345868468284607, -0.010382083244621754, 0.2923218011856079, -0.020614704117178917, 0.01934853009879589, 0.08908906579017639, -0.23371849954128265, 0.05127324163913727, 0.2497827410697937, -0.015932338312268257, 0.11169295012950897, -0.0015502492897212505, 0.2886344790458679, -0.006885650102049112, -0.20946864783763885, -0.13302871584892273, -0.10375070571899414, 0.19421088695526123, 0.1949986070394516, 0.0686330795288086, -0.050783928483724594, -0.14391039311885834, -0.0949084460735321, 0.13622882962226868, 0.06880248337984085, 0.0496876984834671, -0.1631726175546646, -0.1892922818660736, -0.13521839678287506, 0.13552376627922058, -0.2386736124753952, 0.01509091816842556, 0.20972730219364166, -0.1529376208782196, 0.34090328216552734, -0.056599948555231094, -0.1190175861120224, 0.07074062526226044, 0.11861465871334076, -0.16657298803329468, 0.06526108086109161, 0.077181875705719, 0.0419827401638031, -0.004805461969226599, -0.0012668543495237827, 0.08996524661779404, 0.06127218157052994, 0.11004838347434998, 0.009538977406919003, 0.10718444734811783, -0.036222781985998154, -0.01352810487151146, 0.03555656224489212, 0.09243127703666687, 0.27225589752197266, 0.15984033048152924, -0.03702189028263092, -0.29576975107192993, -0.011311400681734085, 0.11725220084190369, 0.03117549605667591, -0.2946583330631256, -0.4860893785953522, 0.38231006264686584, 0.43512922525405884, -0.45706474781036377, 0.24326005578041077, -0.28528866171836853, -0.12363237142562866, 0.5983523726463318, -0.8645761013031006, 1.0586276054382324, 0.5757845044136047, 0.2245941460132599, -0.1322142481803894, 0.3448892831802368, -0.7467657327651978, 0.008685681037604809, -0.009164752438664436, -0.0729321539402008, -0.11759427189826965, 0.22139357030391693, -0.05025298148393631, -0.20610465109348297, -0.049059007316827774, -0.040421050041913986, 0.09065056592226028, 0.2782529890537262, 0.18397396802902222, -0.14057061076164246, 0.21230162680149078, 0.03826327249407768, -0.18764591217041016, 0.3934532105922699, 0.1556595414876938, -0.2549987733364105, 0.05217047035694122, -0.01266089640557766, -0.118412084877491, 0.34495624899864197, -0.43151211738586426, -0.10773292928934097, 0.029706286266446114, -0.004873158875852823, -0.18801076710224152, 0.20880725979804993, 0.039029352366924286, 0.09096149355173111, 0.12304089218378067, 0.10593894869089127, -0.14234992861747742, -0.04306897521018982, -0.3606572151184082, 0.16173546016216278, 0.03145507723093033, -0.020518453791737556, -0.09866800159215927, -0.24906836450099945, -0.11987606436014175, -0.24953104555606842, 0.2030094414949417, 0.04800054803490639, -0.5027263164520264, 0.06039787456393242, 0.04266072064638138, 0.19512328505516052, 0.0905480906367302, 0.08140306174755096, -0.011862572282552719, -0.2749052047729492, 0.16445627808570862, -0.12603507936000824, 0.17534665763378143, 0.25537043809890747, 0.054098524153232574, 0.05712999403476715, 0.2600109875202179, -0.07523389905691147, 0.22662055492401123, 0.09536732733249664, -0.05572241544723511, 0.014205158688127995, -0.006442123092710972, 0.07795598357915878, -0.08123986423015594, 0.19125701487064362, -0.16626833379268646, -0.03117138333618641, -0.1644638180732727, 0.27842235565185547, -0.16022884845733643, -0.009545419365167618, -0.09835253655910492, -0.11391792446374893, -0.2168995440006256, 0.1607271432876587, -0.21709460020065308, -0.036556702107191086, -0.07601521164178848, -0.05145901441574097, -0.23453150689601898, 0.0614798478782177, -0.1483539640903473, -0.011981867253780365, 0.23764650523662567, 0.19888322055339813, -0.07904481887817383, -0.09059728682041168, -0.0925489068031311, -0.01745907962322235, 0.06027549132704735, 0.1482500582933426, -0.05208159610629082, 0.1579253375530243, 0.17694689333438873, 0.2604600489139557, 0.27717119455337524, 0.17504443228244781, 0.1362377554178238, -0.26996415853500366, 0.07581834495067596, 0.1908598095178604, 0.11750516295433044, -0.011507445015013218, -0.16174094378948212, 0.2853092849254608, -0.22983156144618988, -0.04078883305191994, 0.21052761375904083, 0.11978531628847122, 0.14721839129924774, -0.13878537714481354, 0.06176064535975456, 0.15147636830806732, -0.21536287665367126, 0.04360782727599144, 0.006551757920533419, 0.06758326292037964, 0.13306552171707153, 0.026276135817170143, 0.1957845687866211, -0.042334649711847305, 0.08690427988767624, 0.02099226601421833, -0.1386936455965042, -0.07494612038135529, 0.16646280884742737, -0.09495200216770172, 0.019087694585323334, 0.08370044082403183, -0.025457708165049553, -0.012422929517924786, 0.01372034102678299, -0.11461477726697922, 0.11209306865930557, -0.0369805283844471, 0.34433412551879883, -0.3279282748699188, -0.01494767889380455, 0.1307428479194641, 0.14034169912338257, 0.21078723669052124, -0.3950818181037903, -0.2837586998939514, 0.09687525779008865, -0.025666184723377228, -0.03885068744421005, 0.08880492299795151, -0.0887550637125969, -0.006160011515021324, -0.335808128118515, 0.18115752935409546, -0.3040793538093567, 0.09347285330295563, 0.023019054904580116, 0.280483603477478, -0.33339181542396545, 0.2452157586812973, 0.1591337025165558, -0.1760142594575882, -0.22121813893318176, -0.010429678484797478, -0.00785211194306612, 0.2245960533618927, 0.18464162945747375, 0.1912030130624771, 0.3013629615306854, -0.5267036557197571, 0.2349923849105835, -0.06453511863946915, -0.06966988742351532, -0.013417564332485199, 0.3146979808807373, 0.04106660932302475, 0.024343645200133324, -0.062359485775232315, -0.1086973026394844, -0.1313037872314453, 0.2824089527130127, 0.13693758845329285, 0.2859289348125458, -0.1786692589521408, -0.06697839498519897, -0.3574117422103882, 0.3409791886806488, -0.36528053879737854, 0.06362225115299225, 0.02027130499482155, 0.13601109385490417, -0.2664153277873993, -0.6169473528862, -0.12450116127729416, -0.013431251049041748, -0.05530844256281853, -0.1609411984682083, -0.003866282058879733, -0.3785683512687683, 0.41653305292129517, -0.33040761947631836, 0.06926357746124268, -0.24278146028518677, -0.02710912562906742, 0.36998650431632996, 0.048375144600868225, -0.39677461981773376, -0.2760690748691559, -0.17895899713039398, -0.17987416684627533, 0.17380015552043915, -0.2239793986082077, -0.504532516002655, 0.014979297295212746, -0.22089314460754395, 0.18240858614444733, 0.13118813931941986, 0.17291705310344696, -0.574211835861206, -0.025708051398396492, 0.2163965255022049, -0.05211702361702919, -0.3177887201309204, 0.24564000964164734, -0.11465496569871902, -0.6059199571609497, -0.001430776552297175, -0.2279113382101059, -0.3958813548088074, 0.16892565786838531, -0.06946055591106415, 0.2647048532962799, -0.039807241410017014, -0.24347542226314545, 0.46678853034973145, -0.31483396887779236, 0.05237731710076332, -0.03587903827428818, 0.06220514327287674, 0.21775656938552856, 0.001088760676793754, -0.054603010416030884, -0.22127357125282288, -0.048674337565898895, -0.09337013214826584, -0.029001085087656975, -0.12282980978488922, 0.19410252571105957, 0.1808934062719345, 0.13592326641082764, 0.19636955857276917, -0.022358201444149017, -0.16361340880393982, -0.23600775003433228, 0.05770422890782356, 0.1324026882648468, -0.014619997702538967, 0.1819779872894287, 0.09120799601078033, -0.08209134638309479, -0.00039582408498972654, 0.1711675077676773, -0.03240002691745758, -0.2512861490249634, -0.05205182731151581, -0.03645556792616844, 0.11606134474277496, 0.21252357959747314, 0.20837092399597168, 0.07228750735521317, 0.0889560878276825, 0.11469811201095581, -0.09272079914808273, 0.08796376734972, 0.014092236757278442, 0.07441430538892746, -0.17973050475120544, 0.0712762400507927, 0.17053116858005524, -0.0317670963704586, -0.4114607870578766, 0.16609303653240204, 0.08881864696741104, 0.2538861632347107, -0.2723340094089508, -0.4478718936443329, 0.009826283901929855, -0.06822885572910309, 0.09604758769273758, 0.05980426073074341, 0.025822971016168594, -0.025884589180350304, -0.05811598151922226, 0.001225736690685153, 0.07438011467456818, -0.14368757605552673, -0.014905326999723911, 0.13592493534088135, 0.01428814884275198, -0.024900930002331734, -0.158058300614357, -0.08157745748758316, 0.13760752975940704, 0.11160233616828918, -0.22052417695522308, -0.04889053478837013, -0.11834735423326492, -0.2465015947818756, 0.08296457678079605, 0.0034076988231390715, -0.08413831889629364, 0.09629395604133606, 0.12945851683616638, -0.2980234622955322, -0.017715802416205406, -0.10652828216552734, -0.01617751084268093, -0.12824922800064087, -0.0012254383182153106, 0.044998668134212494, 0.19896063208580017, -0.0568348728120327, 0.17912350594997406, -0.07515149563550949, 0.10753925144672394, 0.00969897024333477, -0.12712275981903076, 0.027173103764653206, -0.030859457328915596, 0.2793627977371216, 0.3129935562610626, -0.04613683372735977, 0.17092201113700867, 0.1323293149471283, -0.002192917512729764, -0.16745120286941528, -0.12863869965076447, -0.16092588007450104, 0.14951008558273315, -0.05057802423834801, 0.08773458003997803, 0.017101259902119637, -0.07495950907468796, 0.16205653548240662, 0.1461053043603897, -0.04644264280796051, 0.01086429599672556, 0.14483018219470978, 0.1744961142539978, -0.011295242235064507, 0.10193216055631638, 0.04496290162205696, 0.21725305914878845, -0.0922357365489006, -0.05418192967772484, -0.22765202820301056, -0.10957249253988266, 0.0011251810938119888, -0.17207153141498566, 0.14941918849945068, -0.1502775251865387, 0.2378925234079361, 0.21833473443984985, 0.09268075972795486, -0.02065448649227619, 0.07298378646373749, -0.1244283989071846, -0.2646941542625427, -0.20376472175121307, 0.238582044839859, 0.22702020406723022, -0.06710950285196304, -0.4178578853607178, 0.007549199741333723, 0.05139140784740448, 0.30517324805259705, 0.03614228963851929, 0.11165356636047363, -0.2810702621936798, 0.13382591307163239, -0.14257283508777618, 0.1197429895401001, -0.2709794044494629, -0.22579455375671387, 0.22704461216926575, 0.134837806224823, 0.10892082750797272, -0.33484435081481934, -0.14648863673210144, -0.13409805297851562, 0.23257113993167877, 0.03130616620182991, 0.14544785022735596, -0.2414352297782898, -0.06226158142089844, -0.1239745020866394, 0.3029365837574005, 0.27987775206565857, 0.1465584933757782, -0.3602696657180786, -0.004304525442421436, 0.4019084870815277, -0.1854061335325241, -0.030596129596233368, -0.4468212127685547, 0.10603326559066772, 0.08837495744228363, -0.07692025601863861, -0.230210080742836, 0.12288786470890045, -0.2262515127658844, -0.1181427389383316, -0.20758914947509766, -0.06755635142326355, 0.2167157381772995, -0.09895958006381989, 0.21556568145751953, 0.12319925427436829, -0.01585305482149124, 0.13145199418067932, 0.2668895423412323, 0.06466443836688995, 0.2648179233074188, 0.2423781454563141, 0.16954143345355988, 0.01013981830328703, -0.16361980140209198, -0.024730682373046875, 0.03725632280111313, -0.18112529814243317, -0.13662168383598328, -0.1322288066148758, 0.15998366475105286, 0.21169516444206238, -0.054887983947992325, -0.04174419865012169, -0.06608700007200241, -0.0015780674293637276, 0.2376442849636078, 0.05977899581193924, -0.08090468496084213, -0.2255612313747406, -0.2378600686788559, 0.004875491373240948, 0.12055904418230057, -0.04401415213942528, 0.14584343135356903, 0.19807195663452148, 0.004386077169328928, 0.2205456793308258, -0.010727443732321262, 0.28399139642715454, -0.09235238283872604, -0.15334956347942352, 0.3394432067871094, -0.08887631446123123, -0.26614922285079956, -0.09594128280878067, 0.27016377449035645, 0.22483234107494354, -0.20607855916023254, 0.05323239415884018, 0.04573039337992668, 0.000128540035802871, 0.04637821018695831, 0.038990143686532974, 0.09337329119443893, -0.19221414625644684, -0.1657848060131073, 0.2630128562450409, 0.10690276324748993, -0.03429040312767029, 0.07944750785827637, -0.27108585834503174, -0.05370717495679855, 0.09882853180170059, -0.07948582619428635, 0.011045528575778008, -0.31073886156082153, 0.2557845115661621, 0.2709370255470276, -0.08948568254709244, -0.06124923378229141, 0.016230884939432144, -0.032138824462890625, 0.0357203371822834, -0.020428620278835297, 0.5382298231124878, 0.16435544192790985, -0.04037003219127655, -0.4297802150249481, -0.14938923716545105, -0.06221890449523926, 0.2833652198314667, 0.04820164293050766, -0.1033129021525383, 0.24048830568790436, -0.03285915404558182, -0.0006899895379319787, -0.36733123660087585, -0.022793103009462357, -0.03432425484061241, -0.19532576203346252, -0.25089308619499207, -0.0874251201748848, 0.8305658102035522, -0.22177594900131226, 0.15303248167037964, -0.10905367881059647, -0.16442587971687317, 0.003939287271350622, -0.18679916858673096, -0.04377748817205429, 0.061081647872924805, -0.0761784091591835, 0.06500129401683807, 0.035184264183044434, -0.35933807492256165, 0.14080636203289032, 0.2071760594844818, 0.15861527621746063, 0.056737687438726425, -0.17953501641750336, -0.22451141476631165, -0.08146603405475616, -0.10231498628854752, -0.22410741448402405, -0.11168856173753738, 0.10898756235837936, 0.0025511833373457193, -0.0022309720516204834, -0.08370009064674377, -0.10974833369255066, -0.06551634520292282, -0.013818406499922276, 0.017868772149086, 0.08256152272224426, -0.1601925492286682, -0.1411820650100708, 0.059159837663173676, -0.04054081439971924, -0.03112052008509636, -0.027318838983774185, 0.025690821930766106, 0.18605650961399078, -0.03642204776406288, 0.02498559281229973, 0.20941811800003052, -0.09483709931373596, -0.15464210510253906, 0.34889522194862366, -0.20409047603607178, -0.18219563364982605, 0.19977661967277527, 0.035066138952970505, 0.04577130451798439, -0.10001422464847565, 0.15492616593837738, 0.15686798095703125, 0.3485015034675598, 0.01478404738008976, -0.34227222204208374, -0.036275919526815414, -0.09852034598588943, 0.030662911012768745, 0.09723629802465439, 0.1599149852991104, -0.21824699640274048, -0.24236729741096497, 0.07568173110485077, 0.059674620628356934, 0.04094461724162102, -0.12100297957658768, -0.04344254732131958, 0.05955816060304642, -0.20388677716255188, -0.19454140961170197, -0.2025081068277359, -0.029410352930426598, 0.14249682426452637, 0.35753151774406433, -0.07974720001220703, -0.244330495595932, -0.214999720454216, 0.35451456904411316, 0.197627454996109, 0.16715195775032043, -0.05359583720564842, -0.16029025614261627, 0.09564036130905151, 0.06806383281946182, -0.34287330508232117, 0.021831713616847992, 0.547132670879364, -0.24887847900390625, -0.1601191759109497, -0.24588440358638763, 0.051241371780633926, -0.37673819065093994, 0.04119083657860756, 0.11108449846506119, -0.09783095866441727, 0.41291409730911255, -0.49461832642555237, 0.2427443563938141, -0.07958892732858658, -0.40181195735931396, -0.3120823800563812, 0.015439193695783615, 0.07018563896417618, 0.13747043907642365, 0.1532357633113861, 0.19408437609672546, -0.1921946406364441, -0.1411707103252411, 0.4492136538028717, 0.056125372648239136, 0.00010808304068632424, -0.0511627122759819, -0.12432552874088287, 0.3366338014602661, 0.09502138942480087, -0.26440945267677307, 0.018538672477006912, 0.03954678028821945, 0.08288805931806564, -0.23368333280086517, -0.0880526453256607, -0.25706082582473755, 0.09391997009515762, 0.08067046850919724, 0.09765230119228363, -0.24876780807971954, 0.05455959960818291, -0.15872502326965332, 0.07155512273311615, 0.08826734125614166, -0.10171786695718765, -0.5499521493911743, 0.13987210392951965, -0.03293579816818237, -0.693824052810669, 0.33291134238243103, 0.4390539824962616, 0.36971625685691833, -0.28423264622688293, 0.22481372952461243, -0.046758122742176056, -0.47228676080703735, -0.2624776363372803, -0.25003480911254883, 0.08331625908613205, -0.2619669437408447, 0.06056221202015877, 0.1647706925868988, -0.07513034343719482, 0.041265618056058884, 0.005625621415674686, 0.0426005944609642, 0.0026414734311401844, 0.030336059629917145, -0.022356444969773293, -0.16173961758613586, -0.03384624421596527, -0.09093790501356125, 0.06945637613534927, 0.16841839253902435, -0.023064009845256805, -0.03808657079935074, -0.07999375462532043, -0.060501810163259506, 0.16070814430713654, -0.167344331741333, -0.008362201042473316, -0.05925947055220604, -0.006648242473602295, -0.008561019785702229, -0.08063959330320358, -0.18003582954406738, -0.10987506061792374, -0.11014536023139954, 0.0906875878572464, 0.10787664353847504, 0.1798463761806488, -0.11082376539707184, 0.041321221739053726, 0.09779325872659683, -0.29315710067749023, 0.13577966392040253, 0.2601054310798645, 0.05479636788368225, 0.014120637439191341, -0.13254061341285706, -0.2537980377674103, 0.01804198883473873, -0.1053888201713562, 0.08074873685836792, 0.012703918851912022, -0.22617897391319275, 0.0741562768816948, 0.1927218735218048, -0.014933519996702671, 0.19084757566452026, 0.026315290480852127, 0.058461010456085205, 0.04312501847743988, 0.4305938482284546, -0.27879682183265686, 0.021150946617126465, 0.03591929003596306, -0.08817548304796219, 0.1774439662694931, -0.06529773771762848, 0.038020770996809006, 0.05735133960843086, -0.11670222878456116, -0.08198120445013046, 0.10092055052518845, -0.04690861701965332, 0.0764041543006897, -0.13128608465194702, 0.04159802198410034, 0.009940721094608307, 0.16354307532310486, 0.11276578158140182, 0.05705149844288826, -0.031315822154283524, -0.2124088853597641, -0.05350339040160179, 0.09825416654348373, -0.06859996914863586, -0.06924479454755783, 0.011712858453392982, -0.28683626651763916, 0.023582249879837036, -0.1572171449661255, -0.5491423606872559, 0.11202029883861542, -0.10703784972429276, 0.14737021923065186, -0.0849556028842926, 0.03706179931759834, -0.055228788405656815, 0.018795188516378403, -0.12372475862503052, 0.353407084941864, -0.0327814556658268, 0.07178132981061935, 0.29353275895118713, -0.09774241596460342, 0.10437966138124466, -0.06711859256029129, -0.0507207028567791, 0.12591661512851715, -0.03894353657960892, 0.08461347967386246, 0.2585390508174896, -0.30108845233917236, 0.09501444548368454, 0.22223496437072754, 0.20005899667739868, -0.05026431009173393, -0.16946296393871307, -0.35868364572525024, 0.04275032877922058, 0.015143235214054585, -0.011056059040129185, 0.13044382631778717, 0.12575751543045044, 0.18090465664863586, 0.06271818280220032, -0.07957255840301514, -0.17146378755569458, -0.0007120350492186844, 0.13370801508426666, 0.16618891060352325, 0.02176765725016594, 0.049668606370687485, -0.15355366468429565, 0.08577637374401093, -0.006405049003660679, 0.009730760008096695, 0.009698168374598026, 0.207819402217865, 0.046150173991918564, -0.19866962730884552, -0.14003728330135345, 0.20810742676258087, 0.03300582244992256, 0.013453098013997078, 0.16199684143066406, -0.06558758020401001, -0.1593395471572876, -0.006330783478915691, -0.0182118471711874, -0.08316385000944138, -0.19456785917282104, 0.09767045080661774, 0.09173840284347534, 0.05972813814878464, 0.07238796353340149, 0.08536003530025482, 0.13435348868370056, 0.3010558485984802, -0.09224077314138412, -0.09402371197938919, -0.021833445876836777, 0.09032579511404037, -0.11651749908924103, 0.12233269214630127, 0.2218296229839325, -0.2084675133228302, -0.08726779371500015, 0.07561564445495605, -0.05068417266011238, -0.2664494514465332, -0.20752863585948944, -0.01233594585210085, 0.02033652365207672, -0.15006478130817413, 0.1764599233865738, 0.07943232357501984, 0.03345277160406113, -0.4716462790966034, 0.0021186661906540394, 0.11824538558721542, 0.027770284563302994, 0.04728605970740318, 0.11877045780420303, -0.20660603046417236, 0.05178077891469002, 0.11834539473056793, -0.29712986946105957, -0.006012533791363239, 0.03334186226129532, 0.09825015068054199, 0.09039373695850372, -0.12932905554771423, 0.17991586029529572, 0.06062009930610657, 0.08695570379495621, -0.33268430829048157, 0.032458022236824036, -0.23169191181659698, 0.20158995687961578, 0.002953062066808343, 0.032574258744716644, 0.08115808665752411, 0.09408386051654816, -0.09826383739709854, -0.18642458319664001, 0.06597435474395752, -0.051383696496486664, 0.30615290999412537, -0.08501092344522476, -0.021014928817749023, -0.20934881269931793, -0.11674129962921143, -0.09341755509376526, 0.0004031812131870538, 0.05294979363679886, -0.17977428436279297, 0.031212929636240005, -0.07707536965608597, -0.2653675079345703, -0.26673978567123413, -0.011813065968453884, -0.06341879814863205, 0.08245782554149628, 0.03940192610025406, -0.058163970708847046, -0.11573821306228638, 0.10300744324922562, -0.03472425043582916, -0.05594378337264061, 0.16853831708431244, -0.07048703730106354, -0.15442460775375366, -0.13025949895381927, -0.03455841541290283, -0.08161435276269913, -0.25542885065078735, 0.2263764590024948, 0.0710936039686203, 0.4908270835876465, 0.1910019963979721, -0.025298038497567177, 0.49861347675323486, 0.29640042781829834, 0.03156545013189316, 0.3953937292098999, -0.03139280527830124, 0.09175654500722885, 0.08296570181846619, -0.12117825448513031, 0.007953551597893238, 0.0198355820029974, 0.021715998649597168, -0.19687888026237488, 0.16962623596191406, 0.2084631323814392, -0.3158761262893677, 0.08055485785007477, -0.05527661740779877, 0.42484503984451294, 0.034438081085681915, 0.006642770487815142, -0.16374234855175018, 0.11396163702011108, 0.18672692775726318, 0.12019968777894974, 0.11539136618375778, 0.00638734083622694, -0.10766234248876572, -0.013687914237380028, 0.15614914894104004, -0.0781414806842804, 0.05295515060424805, -0.04988916218280792, 0.17712058126926422, -0.027469707652926445, -0.07803840190172195, -0.12210521847009659, -0.0056341225281357765, 0.010400533676147461, 0.28923270106315613, -0.06368376314640045, 0.07832707464694977, 0.6376281976699829, -0.1416190266609192, -0.15570062398910522, -0.09569978713989258, -0.017927179113030434, -0.000927693850826472, -0.16047058999538422, -0.11555727571249008, 0.20402607321739197, -0.07429082691669464, 0.08196090906858444, 0.08875426650047302, -0.020509183406829834, 0.2202123999595642, 0.12123040109872818, -0.01332985982298851, 0.12377980351448059, 0.143158420920372, -0.4814293086528778, -0.08117208629846573, -0.10560144484043121, -0.2151879221200943, -0.13119100034236908, 0.12538877129554749, 0.12150603532791138, -0.10782063752412796, 0.04755329713225365, -0.2561435401439667, -0.22054758667945862, -0.24050597846508026, 0.05477381870150566, -0.10730096697807312, -0.07263322919607162, 0.09721795469522476, -0.009198710322380066, 0.15977640450000763, -0.03988774120807648, 0.14656615257263184, -0.011620714329183102, 0.12072573602199554, 0.054645802825689316, 0.028823919594287872, -0.24903202056884766, -0.05626503378152847, -0.12486746907234192, -0.029482973739504814, -0.12954600155353546, -0.12296890467405319, 0.3869233727455139, -0.0922534242272377, -0.04238054156303406, -0.12181119620800018, -0.20966367423534393, 0.05346928909420967, 0.010334741324186325, 0.015302362851798534, 0.07757247984409332, 0.1381470113992691, 0.01902160421013832, 0.14975886046886444, -0.05697362497448921, 0.10715439915657043, -0.025896461680531502, -0.15309493243694305, 0.0774560272693634, 0.230416402220726, -0.11853504180908203, 0.23902200162410736, -0.1238936111330986, -0.16171598434448242, -0.3805091083049774, -0.16207833588123322, -0.00414774427190423, 0.08012926578521729, 0.015515508130192757, -0.1244984120130539, 0.15166719257831573, -0.3713383972644806, -0.1874830424785614, -0.14408454298973083, 0.20403139293193817, 0.15512041747570038, 0.20054301619529724, -0.2772519886493683, -0.19625625014305115, 0.04631368815898895, 0.07029324769973755, -0.04054487869143486, -0.4170311689376831, -0.22472010552883148, -0.20531107485294342, -0.13117076456546783, 0.3553864061832428, -0.43413037061691284, -0.18154768645763397, 0.007464217487722635, -0.2547697424888611, -0.378258615732193, 0.026783965528011322, 0.06388542801141739, -0.008401373401284218, 0.26640307903289795, -0.022525493055582047, 0.14189313352108002, 0.1631924957036972, 0.18051777780056, -0.2996085584163666, 0.5389782190322876, -0.09775218367576599, -0.1448604017496109, 0.28478702902793884, 0.05123694986104965, 0.024000341072678566, 0.007504606153815985, -0.014964581467211246, 0.20979800820350647, 0.03810970485210419, 0.18776507675647736, -0.30927759408950806, 0.05656716972589493, 0.2539348602294922, 0.02025737427175045, -0.060575541108846664, 0.07587360590696335, 0.032745711505413055, 0.15821796655654907, 0.10683022439479828, 0.27675187587738037, 0.2841452658176422, 0.6809461712837219, -0.8422076106071472, -0.4693066477775574, 0.1247042864561081, 0.06684846431016922, 0.19465333223342896, 0.038806065917015076, 0.058712881058454514, -0.8113494515419006, 0.04402168467640877, -0.3304942846298218, -0.3506191670894623, 0.1681033968925476, -0.2485540211200714, -0.2864469289779663, -0.011952321045100689, 0.5177879333496094, -0.36060720682144165, 0.0003736571816261858, -0.047445639967918396, -0.16583020985126495, -0.1707594245672226, -0.3011323809623718, 0.1727360486984253, -0.29379990696907043, 0.12512850761413574, 0.19111745059490204, 0.05884792283177376, 0.10003473609685898, 0.1546495258808136, 0.4969363212585449, -0.46566882729530334, 0.15771304070949554, -0.41795578598976135, -0.042790353298187256, -0.22749054431915283, 0.38730520009994507, -0.3063158094882965, -0.11110543459653854, 0.028164327144622803, -0.2148376703262329, 0.3486727774143219, 0.08167824894189835, -0.44509533047676086, -0.07751563936471939, 0.15442925691604614, 0.07159700989723206, 0.21020224690437317, -0.2949996590614319, -0.29910171031951904, -0.08415532857179642, -0.16441021859645844, -0.22723402082920074, -0.14510242640972137, 0.14865602552890778, 0.047316860407590866, -0.3373980224132538, -0.043296925723552704, -0.07634962350130081, 0.1300509124994278, 0.10091597586870193, 0.2638014853000641, -0.05108935013413429, -0.12757760286331177, -0.3517065942287445, 0.24460233747959137, 0.13671013712882996, 0.3397621512413025, 0.2953251600265503, -0.11834745854139328, -0.13115614652633667, -0.24022968113422394, 0.14374257624149323, -0.24103397130966187, -0.019078809767961502, 0.09258010983467102, 0.1457512378692627, -0.21945038437843323, 0.31430312991142273, 0.1493973731994629, -0.15977618098258972, 0.07718686759471893, 0.07661993056535721, -0.2848638892173767, -0.0494142584502697, -0.08494823426008224, 0.41499248147010803, 0.3361632525920868, -0.32123127579689026, 0.25822848081588745, -0.3117219805717468, -0.07639297097921371, -0.021214256063103676, -0.030124453827738762, -0.26941242814064026, 0.16934791207313538, 0.24550209939479828, 0.0734766498208046, -0.20458489656448364, 0.05732620507478714, -0.0361257903277874, 0.024485761299729347, 0.27386245131492615, 0.25015825033187866, -0.2327929586172104, 0.2616288363933563, -0.08166871219873428, -0.07054611295461655, -0.23998257517814636, -0.07241291552782059, 0.21937204897403717, -0.16613012552261353, -0.5429974794387817, -0.04805746302008629, -0.25593745708465576, -0.19720704853534698, 0.34401848912239075, -0.14125673472881317, -0.1389196664094925, 0.1353522092103958, 0.10806998610496521, -0.016595466062426567, -0.11050207912921906, -0.20062895119190216, -0.18383833765983582, -0.3359224796295166, -0.12389691919088364, 0.585680365562439, 0.017444096505641937, -0.007889270782470703, 0.4020799398422241, -0.1192789077758789, -0.08801133930683136, 0.1278916746377945, 0.03158503398299217, -0.004901643376797438, -0.13007476925849915, 0.03009178675711155, -0.08991773426532745, 0.24910986423492432, 0.6648892164230347, -0.20252293348312378, -0.0940946638584137, -0.10255079716444016, -0.3644711375236511, -0.17655199766159058, 0.2832709550857544, -0.08133919537067413, 0.10908789932727814, -0.2822006344795227, 0.07292637228965759, -0.1127927303314209, -0.07579179853200912, -0.26972824335098267, -0.06957734376192093, 0.1648532599210739, 0.1939234882593155, 0.1305479109287262, 0.05903086066246033, 0.17751364409923553, 0.3496403694152832, 0.31026703119277954, -0.01122818049043417, 0.23873691260814667, -0.6617864966392517, 0.3583132326602936, -0.1799379587173462, -0.31060004234313965, 0.17841050028800964, -0.1009979248046875, 0.31028619408607483, 0.05624644458293915, 0.581015408039093, 0.3329012095928192, -0.033172812312841415, 0.20409314334392548, -0.6917925477027893, -0.20955854654312134, -0.09246388077735901, 0.03772933408617973, 0.18693682551383972, -0.2567897439002991, 0.20151515305042267, 0.00885756965726614, -0.2917771339416504, 0.013352437876164913, -0.018646204844117165, 0.0770396888256073, 0.06162020191550255, -0.10310370475053787, 0.23564128577709198, -0.08892253786325455, -0.320905476808548, 0.0016341082518920302, -0.11961781233549118, -0.16679982841014862, -0.0966767817735672, 0.14581409096717834, -0.07424535602331161, 0.015863418579101562, 0.20562641322612762, 0.11257785558700562, -0.22251053154468536, 0.022755412384867668, -0.041453227400779724, -0.09779080003499985, -0.0020172977820038795, 0.08668871223926544, 0.572360634803772, 0.15512286126613617, 0.08482406288385391, 0.1086302250623703, -0.067447729408741, -0.060328833758831024, 0.22232450544834137, 0.018364161252975464, -0.027589546516537666, -0.18649902939796448, -0.45425885915756226, 0.24311384558677673, 0.08443167060613632, -0.14011891186237335, 0.11746060103178024, -0.21749797463417053, 0.4500264823436737, 0.17788748443126678, -0.08234412223100662, -0.016639215871691704, -0.07157302647829056, -0.01323185209184885, 0.08207109570503235, 0.268537700176239, 0.28465622663497925, 0.014184457249939442, 0.08742869645357132, -0.459559828042984, -0.17816351354122162, 0.3183864653110504, 0.40173131227493286, 0.02183063142001629, -0.4283484220504761, 0.2730390429496765, -0.2649345397949219, -0.29378587007522583, -0.07483118027448654, 0.10889884829521179, -0.1270078420639038, 0.1845332682132721, -0.3752715587615967, 0.078205905854702, -0.33607134222984314, -0.16978046298027039, -0.2827841639518738, -0.029041379690170288, 0.23685041069984436, -0.11165329068899155, -0.2169678807258606, -0.22979040443897247, -0.0838477611541748, -0.49224400520324707, 0.17359104752540588, -0.04412543401122093, 0.012508101761341095, 0.12466498464345932, -0.4109756648540497, -0.047887254506349564, 0.17350268363952637, -0.2497047632932663, -0.0652475506067276, -0.13744059205055237, -0.13169410824775696, 0.046927209943532944, 0.20242412388324738, -0.24941274523735046, -0.1402835100889206, -0.034382980316877365, 0.18166537582874298, 0.18116208910942078, -0.2839197516441345, 0.24454055726528168, 0.01419440284371376, 0.057439979165792465, 0.024498270824551582, -0.09672898054122925, 0.07722452282905579, 0.09475192427635193, 0.292291522026062, -0.006294436752796173, -0.07647476345300674, 0.27809804677963257, 0.030267074704170227, 0.055716171860694885, 0.13991129398345947, 0.2748919427394867, -0.05420032888650894, -0.21539007127285004, -0.17270004749298096, 0.12038151174783707, 0.06654886156320572, 0.12046562135219574, -0.25991663336753845, 0.15397143363952637, -0.037722088396549225, -0.06464451551437378, 0.19213387370109558, -0.032537270337343216, 0.33938297629356384, 0.2966032028198242, 0.3223370313644409, -0.1489725410938263, 0.11765499413013458, 0.03436771407723427, 0.2897740602493286, 0.15853381156921387, 0.20409424602985382, -0.4808678925037384, 0.15433794260025024, 0.12982432544231415, 0.17138871550559998, -0.07776961475610733, 0.08816997706890106, 0.267352432012558, -0.1025722324848175, 0.2541711926460266, -0.004618171136826277, 0.15531513094902039, 0.004331000614911318, -0.2774304449558258, -0.12328819185495377, 0.015902217477560043, 0.025187522172927856, -0.011608981527388096, 0.01364616584032774, -0.08953505754470825, -0.009305160492658615, -0.2077707201242447, 0.022638820111751556, -0.224168598651886, 0.025942161679267883, -0.08699464797973633, -0.0861208438873291, -0.11010175198316574, -0.07406029105186462, -0.1877363920211792, 0.30704542994499207, 0.15771010518074036, 0.2993377149105072, -0.04257870092988014, -0.03356241434812546, 0.23464731872081757, -0.06831882894039154, -0.0663716271519661, -0.4159822165966034, 0.16821326315402985, 0.021802838891744614, -0.03670511022210121, -0.2701999843120575, -0.1282738298177719, -0.10255396366119385, 0.38694512844085693, 0.22940480709075928, -0.02979411371052265, -0.9964751601219177, -0.0517379455268383, 0.15777717530727386, 0.26386702060699463, 0.04982294514775276, -0.10858955979347229, 0.1380268633365631, -0.05977702513337135, -0.0564587377011776, -0.49889513850212097, 0.16593614220619202, -0.517966628074646, -0.41084739565849304, 0.0976954996585846, 0.1706235408782959, 0.05403270199894905, -0.22356362640857697, 0.08945702016353607, 0.0009578255121596158, -0.11955434083938599, -0.017588559538125992, 0.12357756495475769, 0.3094695508480072, -0.14901210367679596, 0.3507494330406189, 0.14230391383171082, -0.10815394669771194, -0.28432193398475647, 0.17117968201637268, -0.18706996738910675, 0.28838464617729187, -0.02704809419810772, 0.0469018779695034, -0.2448565661907196, 0.21566571295261383, 0.038666948676109314, -0.007373714353889227, 0.08527397364377975, 0.2466089278459549, 0.009606298059225082, -0.11325356364250183, -0.10027885437011719, 0.013869961723685265, 0.16511201858520508, 0.013982756994664669, 0.0886852890253067, -0.06931473314762115, -0.10866784304380417, -0.2268693447113037, -0.11050751060247421, -0.05544998496770859, -0.0228730421513319, 0.21302580833435059, -0.1135135069489479, 0.2962585985660553, 0.0666113942861557, -0.05661085620522499, 0.08278144150972366, -0.08476662635803223, 0.26772525906562805, 0.05237090587615967, -0.0759173333644867, 0.03351086005568504, -0.12421315163373947, 0.017765343189239502, 0.1264561265707016, -0.19293373823165894, 0.16003504395484924, 0.11512969434261322, -0.04162251576781273, 0.09695202112197876, 0.04149605706334114, -0.06787478178739548, -0.17101269960403442, 0.16177648305892944, 0.045611973851919174, -0.10815633088350296, 0.04227064549922943, 0.08710424602031708, 0.2106313407421112, 0.41645532846450806, -0.09113821387290955, -0.13482916355133057, 0.1918272227048874, -0.17923599481582642, 0.04714542627334595, 0.13968990743160248, -0.08993691951036453, 0.16744716465473175, 0.27080026268959045, 0.07903899997472763, -0.09302223473787308, 0.19778884947299957, 0.4736568331718445, 0.333876371383667, -1.3822218179702759, 0.03427179157733917, -0.03716062754392624, 0.4190201461315155, 0.06478230655193329, 0.029258564114570618, -0.01034201867878437, -0.28334587812423706, 0.010299081914126873, 0.36786940693855286, 0.9290503859519958, 0.43495437502861023, -0.8731313943862915, -0.0763845220208168, 0.168772354722023, 0.2503817081451416, -0.41653433442115784, -0.0600271113216877, 0.41740378737449646, -0.11003335565328598, -0.01875968649983406, -0.13827098906040192, 0.11316845566034317, 0.03567937761545181, -0.023115208372473717, 0.3944213390350342, 0.36662107706069946, 0.14772672951221466, 0.11957141011953354, 0.19019390642642975, -0.09406968206167221, 0.1290511041879654, 0.055857449769973755, -0.0025664849672466516, -0.11465175449848175, 0.14853061735630035, 0.0673532634973526, 0.03339286893606186, -0.20506876707077026, 0.1565447449684143, -0.09903645515441895, -0.03100777231156826, 0.03936927765607834, -0.09658648073673248, 0.02643103525042534, -0.047887858003377914, -0.044426966458559036, 0.10678506642580032, 0.30502647161483765, -0.16696447134017944, -0.04524717107415199, 0.0022972740698605776, 0.24408940970897675, 0.03631388023495674, 0.1593475639820099, -0.05987534299492836, -0.16922156512737274, -0.5363507270812988, -0.28959909081459045, -0.06735309213399887, 0.19950087368488312, 0.2647361755371094, 0.0730687826871872, 0.11824290454387665, 0.001407383824698627, 0.3143322169780731, -0.1691124588251114, 0.08637983351945877, 0.20029465854167938, -0.3550117313861847, 0.0032983426935970783, -0.03160140663385391, -0.1518964320421219, 0.03142099827528, -0.4115113914012909, -0.04465818777680397, -0.05141833797097206, 0.02241472341120243, 0.12769454717636108, 0.008326316252350807, -0.2166626900434494, -0.22351087629795074, -0.031171392649412155, 0.06067946180701256, -0.27439069747924805, -0.08114603161811829, 0.21037329733371735, 0.18516823649406433, -0.02869987115263939, -0.28487637639045715, -0.29161733388900757, 0.045662421733140945, 0.2208433896303177, 0.21777647733688354, -0.10977669060230255, -0.166956827044487, 0.011336005292832851, 0.018188145011663437, 0.3558028042316437, -0.1320185661315918, -0.04055539518594742, -0.012663963250815868, 0.011384719982743263, 0.2356736660003662, 0.15966908633708954, 0.10821259766817093, 0.03570170700550079, -0.41446033120155334, 0.20095111429691315, -0.030872132629156113, -0.35741013288497925, 0.04028388112783432, 0.03689102455973625, 0.05371284484863281, -0.18445225059986115, 0.025142250582575798, 0.0830652117729187, 0.021853065118193626, -0.1827128678560257, -0.0038681139703840017, -0.380203515291214, -0.06596122682094574, -0.3366788625717163, 0.049322620034217834, -0.12816475331783295, -0.2410302609205246, -0.17074382305145264, -0.1996786892414093, 0.17107944190502167, 0.10295843333005905, 0.1784522980451584, -0.2859690487384796, 0.1648172289133072, 0.08660132437944412, 0.1806219220161438, -0.14625205099582672, 0.24325768649578094, 0.03306664153933525, -0.08441784977912903, -0.23620891571044922, -0.14597785472869873, -0.1545071303844452, -0.24487030506134033, 0.15272386372089386, 0.17919683456420898, 0.2949711084365845, -0.03898463770747185, -0.05672593414783478, 0.046987250447273254, -0.12012794613838196, 0.08574730902910233, -0.05769113451242447, 0.29544776678085327, -0.25794580578804016, 0.018483707681298256, 0.2563599944114685, 