{"version": "0.5.2", "metadata": {"date": {"year": 2023, "month": 11, "day": 23, "hour": 10, "minute": 59, "second": 30}, "loudness": -21.527328491210938, "gain": 0.8617078192263, "name": "SinMix MBDR Rev.F 1992", "modeled_by": "SinMix", "gear_type": "amp_cab", "gear_make": "mesa DR Rev.F 1992 Mesa Oversized 412", "gear_model": "www.sinmix.pl", "tone_type": "hi_gain"}, "architecture": "WaveNet", "config": {"layers": [{"input_size": 1, "condition_size": 1, "head_size": 8, "channels": 16, "kernel_size": 3, "dilations": [1, 2, 4, 8, 16, 32, 64, 128, 256, 512], "activation": "Tanh", "gated": false, "head_bias": false}, {"input_size": 16, "condition_size": 1, "head_size": 1, "channels": 8, "kernel_size": 3, "dilations": [1, 2, 4, 8, 16, 32, 64, 128, 256, 512], "activation": "Tanh", "gated": false, "head_bias": true}], "head": null, "head_scale": 0.02}, "weights": [0.26891452074050903, 0.5251660346984863, -1.006819725036621, -0.8763846755027771, -0.522138774394989, 0.43533119559288025, -0.14604492485523224, 0.8914642333984375, -0.26205047965049744, 0.3228907585144043, -0.40316396951675415, -0.18314652144908905, -1.0762077569961548, -0.8645727038383484, -0.5848183035850525, 0.1304582804441452, 0.24139359593391418, 0.4830915927886963, -0.05394330620765686, 0.1681647002696991, 0.4664146304130554, 0.25783324241638184, -0.26612046360969543, -0.31858089566230774, -0.17178510129451752, -0.22048993408679962, -0.2945297360420227, -0.27947893738746643, -0.32254165410995483, -0.4598056674003601, -0.1920248419046402, 0.3563024699687958, 0.3318496346473694, 0.07941051572561264, -0.3180566430091858, -0.5500956773757935, -0.17421221733093262, 0.3578408360481262, 0.488021582365036, 0.2172534465789795, -0.2194381207227707, -0.4990502595901489, -0.10508474707603455, 0.09368851780891418, 0.30955541133880615, 0.048524852842092514, -0.14087431132793427, -0.3390612304210663, -0.20733457803726196, -0.22756719589233398, -0.3029160797595978, 0.02824278734624386, -0.18002377450466156, -0.40633440017700195, -0.049335356801748276, -0.32009902596473694, -0.39949437975883484, -0.2596832811832428, -0.33424296975135803, -0.4996449053287506, -0.07778933644294739, 0.034747280180454254, 0.09813632071018219, 0.3413127362728119, -0.0271476898342371, -0.1454242467880249, 0.2561224400997162, -0.11087353527545929, -0.05904972553253174, 0.239009290933609, 0.03961312398314476, 0.10300923883914948, -0.040127355605363846, 0.2704087793827057, 0.28192365169525146, 0.027634287253022194, 0.17707517743110657, 0.031051987782120705, -0.09300211817026138, -0.2364177107810974, -0.28595560789108276, 0.2401645928621292, 0.24235200881958008, 0.006564715411514044, -0.13976989686489105, -0.17502200603485107, -0.1796063333749771, 0.030935144051909447, 0.20085810124874115, 0.06835643202066422, -0.08370456844568253, -0.06819669157266617, -0.04647782817482948, 0.16997654736042023, 0.005118297412991524, 0.0598193034529686, -0.037804339081048965, 0.1558224856853485, 0.01679600216448307, -0.20272105932235718, 0.28693658113479614, 0.2535547912120819, -0.1597556322813034, 0.11558780819177628, 0.019734952598810196, -0.1021445095539093, 0.04073179513216019, 0.04410000517964363, -0.11125175654888153, 0.006727613974362612, -0.05352206900715828, 0.043430302292108536, -0.12946704030036926, 0.394906610250473, 0.061867911368608475, -0.11902641505002975, 0.1850416213274002, 0.06320581585168839, 0.012808933854103088, -0.19275197386741638, -0.004349212162196636, 0.002699900884181261, -0.29916951060295105, 0.008652233518660069, -0.1414303034543991, -0.3135368525981903, -0.08692719042301178, -0.07178352773189545, 0.1757148653268814, -0.06829553842544556, -0.010196220129728317, -0.20237520337104797, -0.08971136808395386, -0.00021394852956291288, 0.3298111855983734, 0.045393358916044235, 0.015366039238870144, -0.2435084581375122, 0.0005858206422999501, 0.08913758397102356, 0.35987502336502075, 0.13387197256088257, 0.13560472428798676, -0.2361314743757248, -0.17909960448741913, -0.05540752410888672, -0.11020079255104065, -0.03936227038502693, -0.0799650028347969, -0.3389929234981537, -0.19641529023647308, -0.128087118268013, -0.2576698064804077, 0.019968179985880852, 0.07358919829130173, -0.3665669858455658, 0.034648388624191284, -0.19909699261188507, -0.024983972311019897, 0.025114109739661217, -0.0697331354022026, -0.2283688336610794, -0.10188885033130646, -0.20529323816299438, -0.2212091088294983, -0.07971678674221039, 0.02102591283619404, 0.26106131076812744, -0.044920776039361954, 0.0773252323269844, 0.3353431522846222, 0.02650625631213188, 0.2130061835050583, 0.2587180435657501, -0.05430593341588974, 0.010782148689031601, -0.22115275263786316, -0.1379222422838211, 0.17220506072044373, 0.08189154416322708, 0.03614360839128494, -0.11664868146181107, -0.10349015146493912, -0.044892121106386185, 0.14317651093006134, 0.25818029046058655, 0.020702969282865524, -0.10677884519100189, -0.3184303939342499, 0.009457098320126534, 0.19546250998973846, 0.3037855923175812, -0.028192656114697456, 0.06942574679851532, 0.08095921576023102, -0.016494769603013992, 0.0031163934618234634, 0.2575588822364807, 0.0005452900659292936, 0.08347195386886597, 0.21425248682498932, 0.177018404006958, -0.02546100504696369, 0.10776759684085846, -0.0036749832797795534, 0.10216103494167328, -0.0545501634478569, 0.06744562834501266, 0.2432229220867157, 0.1758095920085907, -0.18737322092056274, 0.17046654224395752, 0.1689492166042328, -0.05870475992560387, -0.20156680047512054, -0.1411731094121933, -0.08226589858531952, -0.2798697352409363, -0.04358302801847458, -0.0895201787352562, -0.2114471197128296, -0.017792601138353348, 0.08773227781057358, 0.20182926952838898, 0.031727440655231476, 0.031242970377206802, -0.30788454413414, -0.2072383463382721, 0.05128460377454758, 0.17966854572296143, 0.1614183634519577, 0.09021267294883728, -0.18911518156528473, -0.035831302404403687, 0.15250277519226074, 0.1098560243844986, 0.21799927949905396, -0.14117296040058136, -0.2612372934818268, -0.11751759797334671, 0.08979200571775436, -0.08431686460971832, -0.18085172772407532, 0.03340380638837814, -0.1299348622560501, -0.3000321686267853, 0.13147380948066711, -0.3216191530227661, -0.15871720016002655, 0.006682900711894035, -0.27850341796875, -0.14173437654972076, 0.15405429899692535, -0.09987777471542358, -0.021797265857458115, -0.08270058780908585, -0.09017237275838852, 0.24051576852798462, -0.11168969422578812, -0.02291213907301426, 0.046578675508499146, 0.13927330076694489, -0.0036802671384066343, -0.02453325130045414, -0.008791717700660229, -0.12619440257549286, -0.177228644490242, -0.016413988545536995, 0.042494188994169235, -0.0980614423751831, -0.11967051029205322, 0.003738089231774211, -0.003492658259347081, 0.07926788926124573, -0.13775554299354553, -0.272177517414093, 0.13363568484783173, -0.01479355338960886, 0.118894062936306, 0.10167806595563889, -0.05979907140135765, -0.23573000729084015, -0.14232392609119415, 0.18393152952194214, 0.15583625435829163, 0.1610586941242218, -0.12204474955797195, -0.09149331599473953, -0.08129071444272995, -0.062160082161426544, -0.2023342251777649, 0.012719688005745411, -0.034155379980802536, -0.1393941193819046, -0.0935506820678711, -0.16788102686405182, -0.03725173696875572, -0.1665639877319336, -0.017914539203047752, -0.1841476559638977, -0.12489180266857147, 0.020299218595027924, -0.15870295464992523, 0.13452835381031036, 0.16459931433200836, 0.06397464871406555, 0.020785484462976456, 0.12162962555885315, 0.0892297551035881, -0.01542136911302805, -0.18817390501499176, -0.0681585893034935, 0.04755215719342232, -0.12062684446573257, 0.011241716332733631, 0.09125687181949615, -0.14167438447475433, -0.04592352360486984, 0.06471733748912811, 0.07369040697813034, 0.05669873580336571, 0.012005661614239216, -0.16241498291492462, -0.05307464674115181, 0.17621512711048126, 0.19925467669963837, 0.12936584651470184, 0.023773886263370514, 0.006413332186639309, -0.12809577584266663, -0.09084499627351761, -0.06865686923265457, 0.17876677215099335, 0.07734113931655884, -0.16462522745132446, 0.008579544723033905, 0.11672795563936234, 0.10666552931070328, 0.11745250225067139, 0.12183596193790436, -0.10222485661506653, -0.09386653453111649, 0.11355405300855637, 0.011070065200328827, -0.13473835587501526, 0.12725399434566498, 0.0020735550206154585, 0.031199175864458084, -0.08813662827014923, 0.08804970979690552, -0.03736608847975731, 0.19437222182750702, -0.17485164105892181, 0.1865055412054062, 0.3000972270965576, 0.004017246887087822, 0.036035265773534775, 0.3606635332107544, -0.05382515490055084, -0.05623891204595566, -0.39637938141822815, -0.08857613801956177, -0.20814858376979828, -0.18559317290782928, 0.13579586148262024, 0.04491493105888367, -0.17721804976463318, -0.1922832429409027, -0.010696286335587502, 0.2699059247970581, 0.016209371387958527, 0.005125638097524643, -0.37162235379219055, -0.11937084794044495, -0.049879323691129684, 0.2160918265581131, 0.20498226583003998, 0.02446201629936695, -0.18477614223957062, 0.041356902569532394, 0.21541640162467957, 0.245852530002594, 0.12243182212114334, 0.04040920361876488, -0.24425296485424042, 0.2244030237197876, 0.0006565492949448526, -0.17885737121105194, -0.001427033101208508, -0.02174803800880909, -0.28310689330101013, 0.017315320670604706, -0.17277197539806366, -0.3806716799736023, -0.056939758360385895, 0.007449851371347904, -0.1941622644662857, 0.04180930554866791, -0.1289287507534027, 0.3075672686100006, 0.15256787836551666, 0.16162267327308655, -0.08596689999103546, 0.1853630244731903, 0.16596972942352295, -0.04861767962574959, 0.07978080958127975, -0.0008369422284886241, -0.1198534220457077, 0.023600146174430847, -0.19489073753356934, -0.0879763811826706, 0.06741073727607727, -0.10627744346857071, -0.15971063077449799, 0.0038357314188033342, 0.06886040419340134, 0.028918853029608727, -0.029237959533929825, 0.016417158767580986, 0.004175106063485146, -0.031154140830039978, 0.11838410794734955, 0.13575348258018494, 0.023134004324674606, -0.24404878914356232, -0.06172650679945946, -0.05824511498212814, 0.047189388424158096, 0.09803367406129837, -0.1570257544517517, -0.05601675435900688, 0.06600160151720047, -0.026819761842489243, -0.19038042426109314, -0.09027807414531708, -0.026847854256629944, -0.2222578376531601, 0.005010664463043213, -0.1893266886472702, -0.2511102557182312, -0.2060616910457611, -0.08497882634401321, -0.013200709596276283, -0.19778598845005035, 0.10611051321029663, -0.14222119748592377, 0.19798491895198822, 0.20388995110988617, -0.025726642459630966, -0.2486259490251541, 0.2738538086414337, 0.21129415929317474, -0.11769039928913116, -0.2996888756752014, 0.041762594133615494, 0.20056632161140442, -0.13689520955085754, -0.19405245780944824, 0.15411797165870667, -0.34559720754623413, -0.13618381321430206, 0.2330441176891327, 0.08970829844474792, 0.12345506250858307, -0.13656502962112427, -0.17558062076568604, -0.18337586522102356, 0.16437441110610962, 0.159861221909523, 0.14266479015350342, -0.04972948879003525, -0.12464188039302826, -0.10286533087491989, 0.29756399989128113, 0.05359593778848648, -0.05362352356314659, -0.14038746058940887, -0.28453049063682556, -0.01115668099373579, 0.10778941959142685, -0.24781902134418488, -0.16502128541469574, 0.2758786976337433, -0.21931762993335724, 0.03282947838306427, 0.2799626290798187, -0.1268203854560852, -0.07640565931797028, 0.15270407497882843, -0.23643767833709717, -0.0613638199865818, 0.27059048414230347, -0.018203822895884514, 0.13950739800930023, -0.1434624195098877, -0.548780083656311, -0.06089393422007561, 0.4335373640060425, -0.22342868149280548, -0.12041713297367096, 0.2970525920391083, 0.43521469831466675, 0.08095641434192657, -0.07820440083742142, 0.28985708951950073, 0.04030787944793701, -0.13970211148262024, 0.3205496370792389, 0.042353276163339615, -0.24424926936626434, -0.2780195474624634, -0.030460495501756668, 0.15823373198509216, 0.39186978340148926, 0.032277509570121765, -0.32880011200904846, -0.35136228799819946, 0.08668854832649231, 0.18326087296009064, 0.42114725708961487, -0.04159943014383316, -0.18411599099636078, -0.4569867253303528, -0.06905879080295563, 0.13494479656219482, 0.4974280893802643, -0.04194201901555061, -0.21086940169334412, 0.2665059268474579, 0.11369968950748444, -0.06274713575839996, 0.2562635540962219, -0.12103717029094696, -0.30671343207359314, 0.36737096309661865, -0.04014842212200165, -0.295836865901947, 0.3128887712955475, 0.023272674530744553, -0.2799798548221588, -0.1718016117811203, -0.03860985487699509, 0.009470948949456215, 0.28368502855300903, -0.05146826431155205, -0.42261189222335815, 0.18396003544330597, -0.1874646097421646, -0.21218104660511017, -0.31322866678237915, -0.002421137411147356, 0.5025004148483276, -0.2695206105709076, 0.16815021634101868, 0.350363165140152, -0.21197457611560822, 0.10688367486000061, 0.44474852085113525, 0.19665871560573578, -0.27750471234321594, -0.44626057147979736, -0.25995033979415894, 0.22060447931289673, 0.223558709025383, 0.3126729726791382, -0.168678417801857, -0.38552772998809814, -0.09141866862773895, 0.2157803624868393, 0.47634369134902954, 0.26550567150115967, -0.1822604387998581, -0.4391157925128937, -0.19580450654029846, 0.2552335858345032, 0.3070508539676666, -0.31921300292015076, 0.18800053000450134, 0.47882503271102905, -0.21651585400104523, 0.01932886429131031, 0.2303563356399536, -0.14378979802131653, 0.12708020210266113, 0.28921228647232056, -0.1519555151462555, 0.19172164797782898, 0.47323137521743774, 0.35985344648361206, 0.09218007326126099, -0.4486654996871948, -0.06942781060934067, -0.1421045958995819, 0.17259767651557922, 0.09023097902536392, -0.39694058895111084, 0.09553375840187073, 0.11240820586681366, 0.4114544987678528, -0.0777149349451065, -0.07825363427400589, 0.18245850503444672, 0.17779357731342316, -0.08788501471281052, 0.2159746289253235, 0.10900553315877914, -0.03598041087388992, -0.348561555147171, -0.0437316931784153, -0.05168012157082558, 0.16731145977973938, 0.0859825387597084, -0.03999985381960869, -0.2297077775001526, 0.0818411111831665, 0.040912121534347534, 0.3026794493198395, 0.1281408667564392, 0.048702672123909, -0.34016749262809753, 0.1153818815946579, 0.007568906061351299, 0.13784973323345184, -0.009297040291130543, -0.13865076005458832, 0.3769409656524658, -0.007829571142792702, -0.15469670295715332, 0.27274924516677856, 0.1343124806880951, 0.013771056197583675, 0.3283391296863556, 0.05524824187159538, 0.027951408177614212, 0.24586309492588043, -0.019601058214902878, -0.03591408580541611, -0.21461713314056396, -0.09937988221645355, -0.11869906634092331, -0.19374766945838928, 0.09711817651987076, -0.004926453810185194, -0.25712448358535767, 0.13339604437351227, -0.06246548891067505, 0.287270724773407, -0.10315112769603729, -0.014950818382203579, 0.2488415390253067, -0.04970349743962288, 0.13857333362102509, 0.06942681968212128, -0.11886247247457504, -0.07889369130134583, -0.14188192784786224, 0.13261693716049194, -0.06646941602230072, 0.2179602086544037, -0.08231300115585327, -0.05186326801776886, -0.06270163506269455, -0.12268137186765671, 0.02403109148144722, 0.3027452230453491, -0.03881297633051872, 0.10127202421426773, -0.20792824029922485, 0.12490087747573853, -0.12291691452264786, 0.14550557732582092, -0.024468963965773582, 0.04581186920404434, 0.20568780601024628, 0.09157433360815048, -9.836403478402644e-05, 0.16446132957935333, 0.1099042072892189, -0.01833150163292885, 0.2966958284378052, -0.08605214208364487, 0.0031395158730447292, 0.16032791137695312, 0.07046104967594147, 0.15701939165592194, 0.013608464039862156, -0.19850663840770721, 0.03297454118728638, 0.22461511194705963, 0.2157631665468216, -0.11843503266572952, 0.19550356268882751, 0.29640936851501465, 0.035021282732486725, -0.23817995190620422, -0.06234804913401604, -0.08220034837722778, -0.07561426609754562, -0.14522042870521545, -0.03919108584523201, -0.05607903003692627, -0.28625836968421936, 0.0014098328538239002, 0.011876266449689865, 0.14427779614925385, 0.07008250802755356, 0.008025532588362694, -0.1934138983488083, 0.06885060667991638, 0.08597595989704132, 0.09503429383039474, -0.08404195308685303, -0.24206691980361938, -0.009698481298983097, -0.07174675166606903, 0.11238330602645874, 0.18861174583435059, 0.12703901529312134, 0.020141419023275375, -0.03997211903333664, -0.05845941975712776, -0.11804945021867752, -0.2272668033838272, -0.05953208729624748, -0.07259336113929749, -0.029758330434560776, -0.09146089106798172, -0.01913902536034584, -0.2398858517408371, -0.001530726091004908, 0.010465934872627258, -0.19327670335769653, -0.046160344034433365, -0.21990486979484558, 0.22856973111629486, -0.09151823073625565, -0.3937513828277588, 0.18470950424671173, -0.2163984775543213, -0.40544238686561584, 0.02292058989405632, 0.23030827939510345, 0.25873875617980957, 0.05503673851490021, 0.24163728952407837, 0.3967319130897522, -0.08863759785890579, 0.0966312363743782, 0.2540188431739807, -0.1389569640159607, -0.1087639257311821, -0.18869706988334656, 0.14654164016246796, 0.10564961284399033, 0.323513388633728, -0.1490175575017929, -0.007018288131803274, -0.3593122363090515, -0.08750701695680618, 0.1274099051952362, 0.3860931992530823, -0.18026262521743774, 0.02024518884718418, -0.23953787982463837, -0.07087181508541107, 0.07933516800403595, 0.42242756485939026, -0.1368519812822342, 0.06017620861530304, 0.3209247291088104, -0.1570039540529251, 0.197360560297966, 0.37603679299354553, 0.0783025324344635, 0.02402309887111187, 0.44460025429725647, -0.10014954209327698, 0.2579939663410187, 0.16102515161037445, -0.1471245139837265, 0.18473854660987854, -0.05859015882015228, -0.022855011746287346, -0.046436820179224014, -0.036569058895111084, -0.05319321155548096, -0.15924741327762604, -0.035525932908058167, 0.06689596176147461, 0.04060421884059906, 0.010946474969387054, 0.06404772400856018, -0.016429845243692398, 0.010337326675653458, 0.0100057702511549, -0.030497409403324127, -0.029973961412906647, -0.049074891954660416, 0.03526479750871658, 0.593940794467926, -0.3405328691005707, 0.865545392036438, -0.7949957251548767, -0.017868107184767723, 0.9680688977241516, 1.0027843713760376, -0.2773882746696472, 0.2518889009952545, -0.06012949347496033, -0.28043708205223083, -0.7056984305381775, 0.21864646673202515, -0.7146472334861755, 0.3326410949230194, 0.4356483519077301, -0.035176750272512436, 0.2551228106021881, 0.1126263439655304, 0.0998586118221283, 0.25748389959335327, -0.037417080253362656, -0.015568219125270844, -0.011848252266645432, -0.04084572568535805, -0.1829211711883545, 0.32386258244514465, -0.15228986740112305, 0.1422988623380661, -0.004840061999857426, 0.22624355554580688, -0.11079445481300354, -0.1938355714082718, -0.024233078584074974, -0.4786744713783264, 0.17563408613204956, -0.1609175205230713, -0.220030277967453, -0.05815964564681053, 0.057629045099020004, -0.10367642343044281, 0.1115477904677391, -0.010990527458488941, 0.1807524412870407, 0.14953693747520447, 0.01929629221558571, -0.12463361024856567, 0.463034987449646, 0.14518892765045166, 0.13107231259346008, 0.006710262503474951, 0.2338532656431198, -0.23598186671733856, -0.22489987313747406, 0.020975211635231972, -0.19343501329421997, -0.058164071291685104, -0.16233794391155243, 0.28368693590164185, -0.13603529334068298, 0.13810871541500092, 0.2876967191696167, 0.025998150929808617, 0.05402408167719841, 0.155042365193367, -0.32492268085479736, -0.08643045276403427, -0.2831836938858032, 0.14678972959518433, 0.0870036631822586, 0.12658698856830597, -0.01786680705845356, -0.09767739474773407, 0.28730809688568115, -0.2584249675273895, 0.18012776970863342, 0.03918704017996788, 0.10258419811725616, -0.1811133623123169, -0.2226174920797348, -0.17483216524124146, -0.35961151123046875, -0.31130048632621765, 0.1460995227098465, 0.2818872034549713, 0.12727119028568268, 0.15090633928775787, -0.12927106022834778, 0.09949769079685211, 0.4615037143230438, -0.4471270740032196, 0.33529919385910034, -0.10879487544298172, 0.09407802671194077, -0.14821727573871613, 0.01672922447323799, -0.2701646387577057, -0.1360781490802765, 0.17526710033416748, 0.015793565660715103, 0.3556503355503082, 0.35231348872184753, 0.2944323420524597, 0.21149864792823792, 0.24438248574733734, 0.0611344613134861, -0.3396146595478058, -0.19911767542362213, -0.11148795485496521, -0.226021409034729, 0.1575988233089447, -0.052153330296278, 0.05014635995030403, 0.1927473247051239, -0.07206326723098755, 0.3485962152481079, -0.3872773051261902, -0.4806787967681885, -0.15412205457687378, -0.27564704418182373, -0.17396321892738342, -0.2528255581855774, -0.22313284873962402, 0.487219899892807, 0.4858037233352661, 0.1525660902261734, -0.14702580869197845, 0.19927255809307098, 0.27522075176239014, 0.1735295206308365, 0.23217828571796417, -0.20900189876556396, -0.3044392466545105, 0.1049390435218811, -0.0668293759226799, -0.0479021891951561, 0.06884467601776123, -0.25245729088783264, 0.19287239015102386, -0.24708431959152222, 0.24460624158382416, -0.015648065134882927, -0.1852084994316101, 0.15454567968845367, 0.006510624662041664, -0.006034039426594973, -0.2905223071575165, -0.22480438649654388, -0.006316295359283686, -0.25067126750946045, -0.23868924379348755, -0.26203569769859314, -0.2710394561290741, -0.1682477593421936, 0.18615442514419556, 0.4094741940498352, -0.02026974782347679, -0.08576066792011261, -0.09988408535718918, 0.010295113548636436, -0.35409122705459595, -0.09070169180631638, 0.12049572914838791, -0.4791976809501648, -0.2394895702600479, 0.10304876416921616, 0.17927749454975128, -0.09018493443727493, 0.23719747364521027, 0.32796618342399597, -0.1725442111492157, 0.06840185821056366, 0.05502694845199585, 0.013600721955299377, -0.22918394207954407, 0.005428023170679808, -0.003013733308762312, 0.2680281102657318, -0.3978599011898041, 0.17965231835842133, -0.19781973958015442, -0.29072025418281555, 0.06404005736112595, -0.04554632306098938, 0.005137530621141195, -0.22946377098560333, -0.0628373920917511, 0.05276654660701752, -0.04014730826020241, 0.17793670296669006, -0.05364365503191948, 0.377647340297699, 0.11772787570953369, -0.2049732357263565, 0.2840096950531006, -0.06134041026234627, 0.26198703050613403, 0.02350037172436714, 0.061559684574604034, -0.11365219205617905, 0.012696394696831703, 0.0724254846572876, -0.33778733015060425, -0.09469284117221832, 0.01282449159771204, 0.12854909896850586, -0.0973988026380539, -0.3052942752838135, 0.20928867161273956, -0.01317551638931036, 0.16602875292301178, 0.11708137392997742, 0.13736678659915924, -0.21727924048900604, 0.004144895821809769, -0.02236245758831501, 0.10306291282176971, -0.07852187007665634, -0.021039437502622604, 0.2839587926864624, 0.24166904389858246, -0.05471508577466011, -0.03869497403502464, 0.05481734499335289, -0.13388408720493317, 0.012720910832285881, -0.3182916045188904, 0.22131848335266113, -0.47953376173973083, -0.03414975479245186, -0.047536835074424744, 0.042802516371011734, -0.13233737647533417, -0.4099496304988861, 0.4713956117630005, -0.002885826863348484, -0.10841329395771027, 0.05851029232144356, -0.3853243887424469, 0.45744162797927856, -0.3195935785770416, 0.32038724422454834, -0.27615121006965637, -0.017375847324728966, -0.05636528134346008, -0.09741601347923279, 0.07198381423950195, 0.002756057307124138, -0.35359877347946167, 0.0726637989282608, -0.006689412519335747, 0.03110596165060997, 0.259540319442749, 0.31655484437942505, -0.3816293776035309, 0.23758526146411896, 0.3743721544742584, 0.07544346898794174, 0.29589563608169556, -0.1741756647825241, -0.07016568630933762, 0.33263036608695984, 0.03210332244634628, 0.231295645236969, -0.07265248149633408, -0.16307207942008972, 0.021866731345653534, -0.41842135787010193, 0.1881651133298874, 0.17769214510917664, 0.18915215134620667, 0.026115024462342262, 0.042071737349033356, -0.2001667022705078, 0.19927966594696045, -0.12499093264341354, -0.23453612625598907, -0.013208352960646152, 0.13857030868530273, -0.016810787841677666, -0.017309464514255524, -0.14717862010002136, 0.04586656391620636, -0.008937614969909191, 0.06604815274477005, 0.11663616448640823, 0.10757879912853241, -0.11902958154678345, -0.014838109724223614, 0.08649829775094986, -0.3066931664943695, 0.032535482197999954, -0.30398106575012207, 0.1513959914445877, -0.06798829883337021, -0.10501707345247269, 0.23305577039718628, -0.20545023679733276, 0.03369900584220886, -0.016829270869493484, -0.13482853770256042, -0.2792991101741791, 0.11464495956897736, 0.1286822110414505, 0.02733551897108555, -0.1678713709115982, -0.1954592764377594, -0.35208991169929504, 0.2419506013393402, 0.05148807168006897, 0.1669062376022339, -0.4650746285915375, -0.091770701110363, -0.09293446689844131, 0.12696227431297302, -0.24704419076442719, 0.05693063512444496, -0.03813091665506363, -0.11414475739002228, -0.1366354078054428, 0.2343749850988388, -0.10405835509300232, 0.08020757883787155, -0.2146826833486557, -0.03119194135069847, 0.008703276515007019, 0.19352735579013824, -0.11077821254730225, -0.037093646824359894, 0.08520866930484772, -0.10387915372848511, -0.009360870346426964, 0.2578534781932831, 0.12234083563089371, 0.04641260206699371, -0.3710320293903351, 0.005419971887022257, -0.028783215209841728, 0.41216912865638733, -0.0862342044711113, -0.07693811506032944, 0.07523056864738464, -0.03419460356235504, -0.18352918326854706, 0.23152615129947662, -0.1819768249988556, 0.031831044703722, -0.19948269426822662, 0.12251710891723633, -0.2021748125553131, 0.047087661921978, -0.14709167182445526, 0.09869500994682312, -0.18321195244789124, 0.18055005371570587, -0.15024642646312714, 0.0637490525841713, 0.05194660648703575, 0.1619945764541626, 0.16286088526248932, -0.06601620465517044, -0.131007120013237, 0.028050418943166733, 0.0955410897731781, -0.013224923051893711, -0.4846414029598236, 0.08728419244289398, -0.18065974116325378, 0.0686403214931488, -0.2202915996313095, 0.08725792914628983, 0.035084765404462814, -0.12627258896827698, -0.058138567954301834, 0.17493504285812378, 0.10320469737052917, -0.031296759843826294, 0.13793472945690155, 0.06795535236597061, -0.21874912083148956, 0.09871023148298264, -0.2032347321510315, 0.2384173423051834, -0.22451356053352356, 0.12662021815776825, -0.24257168173789978, -0.22931413352489471, 0.11641087383031845, 0.31271645426750183, -0.10260074585676193, -0.062472883611917496, 0.11517376452684402, -0.04772185906767845, -0.01805363968014717, -0.03435543179512024, 0.07248665392398834, 0.0836106464266777, 0.10967196524143219, 0.2033376693725586, 0.09836902469396591, 0.09317992627620697, 0.2571878135204315, 0.013551090843975544, -0.020126990973949432, -0.1945931315422058, 0.19078001379966736, -0.21144060790538788, 0.019082732498645782, -0.14503225684165955, 0.01415009144693613, -0.1504804939031601, -0.21903838217258453, 0.2733987867832184, 0.015139369294047356, -0.16782303154468536, 0.006426892708986998, 0.010617850348353386, 0.1274348646402359, -0.3171507716178894, 0.13802851736545563, -0.052340373396873474, -0.32649514079093933, -0.03060046397149563, -0.01907113753259182, 0.029047636315226555, -0.046126171946525574, -0.1520053595304489, 0.24652455747127533, 0.033298008143901825, 0.03482108190655708, 0.04999113455414772, 0.2221122682094574, 0.13228747248649597, -0.046013243496418, 0.2052195817232132, -0.27550071477890015, 0.3702060282230377, -0.36290431022644043, 0.14292635023593903, 0.3123328685760498, -0.3626890182495117, 0.0910354033112526, -0.18087539076805115, 0.07438415288925171, -0.20735326409339905, -0.07700952887535095, -0.2905568778514862, -0.08509929478168488, -0.41943085193634033, 0.3411300778388977, 0.032393623143434525, 0.6335342526435852, -0.27954742312431335, -0.15252962708473206, -0.06976461410522461, 0.2617221772670746, -0.014560101553797722, 0.2799435257911682, -0.2483370006084442, -0.18215510249137878, -0.24480116367340088, 0.053078535944223404, 0.08058908581733704, 0.4794189929962158, -0.3357703387737274, 0.2616214454174042, -0.44567692279815674, 0.6273485422134399, 0.2931767404079437, -0.266507089138031, 0.02236759662628174, 0.054785773158073425, 0.11204386502504349, -0.37267613410949707, -0.11646171659231186, 0.39109528064727783, -0.22313131392002106, 0.16237342357635498, -0.07688769698143005, 0.4188632667064667, -0.0027356587816029787, 0.21145685017108917, 0.03347223997116089, 0.0070822713896632195, 0.11690887808799744, -0.13929882645606995, 0.039334241300821304, 0.25559020042419434, -0.10161732882261276, -0.07354786247015, -0.06318972259759903, 0.12470150738954544, -0.10454291850328445, -0.1462191939353943, -0.1130995899438858, -0.18732978403568268, -0.028931735083460808, 0.01452187355607748, 0.15779736638069153, 0.035447586327791214, -0.08308988064527512, -0.04002911597490311, 0.2948485314846039, 0.02836114726960659, 0.12639445066452026, 0.12265332043170929, -0.12831680476665497, -0.40526115894317627, -0.6247130036354065, 0.05838356167078018, 0.1325651854276657, -0.01765826717019081, -0.12489171326160431, -0.049443889409303665, 0.025093603879213333, 0.25367987155914307, 0.12516435980796814, -0.18634261190891266, 0.0663532242178917, 0.09103226661682129, 0.07970163971185684, -0.05019257217645645, -0.006453386973589659, -0.06901658326387405, -0.20195160806179047, 0.036273449659347534, 0.009082877077162266, -0.035623323172330856, -0.07185356318950653, -0.10173078626394272, 0.19699980318546295, -0.31198129057884216, -0.0819246768951416, -0.01949896290898323, -0.05158538371324539, 0.12482010573148727, 0.29665249586105347, -0.026015834882855415, 0.06185733154416084, -0.1875026673078537, -0.34152543544769287, -0.07420674711465836, -0.28294646739959717, 0.12733884155750275, -0.1836673468351364, -0.03296558931469917, 0.07991527765989304, -0.1464599370956421, 0.1163811907172203, 0.19206838309764862, -0.37761542201042175, 0.40021267533302307, 0.04410051181912422, 0.12133757025003433, 0.025806857272982597, -0.20705589652061462, -0.07704290747642517, -0.287393182516098, -0.014811141416430473, 0.14126330614089966, 0.17378830909729004, 0.3039962351322174, 0.0011770217679440975, 0.0005517438403330743, 0.35412928462028503, 0.2944277822971344, -0.3680296242237091, -0.11572781950235367, -0.007276104763150215, 0.22502489387989044, -0.16931845247745514, 0.2099166363477707, -0.044688619673252106, 0.09569963067770004, -0.15125460922718048, 0.07687580585479736, 0.037883009761571884, 0.36544737219810486, 0.24273407459259033, 0.14371906220912933, 0.2605985701084137, -0.2598540186882019, 0.21731747686862946, 0.08133839070796967, -0.19439075887203217, 0.09971451014280319, -0.334769070148468, 0.018593521788716316, -0.026500476524233818, -0.03441867604851723, -0.13405248522758484, -0.21883319318294525, 0.008756492286920547, 0.48550722002983093, 0.31104499101638794, 0.03485037386417389, -0.3516320288181305, -0.43281176686286926, 0.5791950821876526, 0.2982631027698517, 0.29934975504875183, -0.03350208327174187, -0.4863198697566986, 0.141453817486763, -0.11619094014167786, -0.0747012346982956, 0.40678855776786804, 0.1557914912700653, -0.2465766966342926, -0.41495150327682495, -0.12143734842538834, 0.36414340138435364, 0.31765860319137573, -0.4800184965133667, 0.1197144165635109, 0.2507208287715912, 0.1564456671476364, -0.3729630410671234, 0.23056891560554504, 0.11893800646066666, -0.3606068789958954, -0.47506752610206604, 0.24217788875102997, 0.24754613637924194, -0.06883891671895981, 0.13515008985996246, 0.13245485723018646, 0.14764156937599182, 0.03550751134753227, -0.17827977240085602, 0.024331575259566307, 0.10378339141607285, -0.08239082247018814, -0.028991781175136566, -0.16050471365451813, -0.06159910187125206, -0.01019223127514124, -0.20034348964691162, -0.13587968051433563, -0.0011506987502798438, -0.11927071213722229, 0.13259078562259674, 0.09723270684480667, 0.07051656395196915, -0.14060567319393158, -0.009680027142167091, 0.13789108395576477, -0.0017915989737957716, 0.10464731603860855, -0.05134033039212227, -0.047607775777578354, -0.0047112563624978065, -0.19577452540397644, 0.08411731570959091, 0.21014438569545746, -0.10532035678625107, -0.17575958371162415, -0.1989022046327591, -0.21549920737743378, 0.22390815615653992, -0.04380669817328453, -0.21090494096279144, -0.1684216856956482, -0.0676540657877922, -0.017031634226441383, -0.3162093758583069, 0.2147223949432373, 0.10783281922340393, -0.03286176919937134, -0.14654414355754852, 0.040425099432468414, 0.17259202897548676, 0.02361229434609413, 0.13144250214099884, -0.03978782892227173, -0.15273338556289673, -0.1914966106414795, -0.08617120236158371, 0.269010454416275, 0.09822671115398407, 0.14564858376979828, 0.21266406774520874, 0.10296491533517838, -0.03687351197004318, 0.10869106650352478, 0.08187730610370636, 0.036023739725351334, -0.2946089804172516, -0.04284258931875229, -0.023252349346876144, 0.22474992275238037, -0.056360874325037, 0.03955962508916855, -0.013268418610095978, -0.08158017694950104, 0.10753241926431656, 0.1506432443857193, -0.09710095822811127, 0.18160134553909302, 0.004408452194184065, 0.14429563283920288, -0.163120836019516, 0.11646053194999695, -0.0011695249704644084, -0.04629010334610939, 0.014483703300356865, 0.1145455464720726, 0.11669328063726425, 0.07682982087135315, 0.32745128870010376, 0.07483842223882675, 0.033804770559072495, -0.04653577134013176, -0.09781531989574432, 0.05800347775220871, -0.1070164293050766, -0.0017360978526994586, 0.03989868238568306, 0.013467234559357166, -0.09357661008834839, -0.047146767377853394, -0.04584120213985443, -0.05052034929394722, -0.08256348967552185, 0.05918723717331886, 0.23011860251426697, -0.28873658180236816, -0.1280016452074051, 0.024619318544864655, -0.04685544967651367, 0.17004574835300446, -0.12966537475585938, 0.20825505256652832, 0.10033372789621353, 0.015049828216433525, 0.051285307854413986, -0.003072229214012623, 0.039059292525053024, -0.043205004185438156, -0.1517440676689148, 0.2093639224767685, -0.23187346756458282, -0.21400195360183716, 0.13385488092899323, -0.10317465662956238, 0.049356114119291306, 0.09042934328317642, 0.281364381313324, 0.3866990804672241, 0.14177493751049042, -0.1369289755821228, 0.04515383765101433, 0.21609045565128326, 0.09259524196386337, 0.0039266967214643955, -0.15071764588356018, -0.26120325922966003, -0.08985250443220139, -0.2267429232597351, -0.21224845945835114, 0.011519934982061386, 0.13698671758174896, -0.14284740388393402, -0.1315368413925171, 0.1646856814622879, -0.04890870675444603, -0.11666116118431091, -0.20246006548404694, -0.14785104990005493, 0.21599997580051422, 0.11685637384653091, -0.030372342094779015, 0.08895943313837051, -0.21429353952407837, 0.05267835035920143, -0.09973855316638947, -0.07146479189395905, -0.1333472728729248, -0.08848107606172562, 0.0129683343693614, 0.01848420687019825, -0.10805608332157135, -0.2639959752559662, -0.04570358991622925, 0.12348020821809769, 0.13306422531604767, 0.0269145630300045, 0.09007745236158371, -0.03231777250766754, -0.1259414106607437, 0.3181072175502777, 0.30845221877098083, 0.09422694146633148, -0.027241714298725128, -0.008388032205402851, 0.06689485162496567, -0.28904232382774353, -0.18631170690059662, 0.1796361654996872, -0.15179161727428436, -0.26880311965942383, -0.04695652052760124, 0.06154191121459007, 0.16726121306419373, 0.14661172032356262, -0.08651173114776611, -0.047042351216077805, 0.15733583271503448, -0.08820351213216782, -0.06234501674771309, 0.14333754777908325, -0.07742674648761749, -0.2152925580739975, -0.16547156870365143, -0.0890052393078804, 0.15417709946632385, 0.15879137814044952, 0.01088404469192028, -0.0006182296783663332, -0.08522727340459824, -0.10191717743873596, -0.1635906994342804, 0.0854501873254776, 0.22583766281604767, 0.16113300621509552, -0.04198984429240227, 0.0981178879737854, -0.05276335030794144, -0.13112716376781464, 0.009190678596496582, -0.1550658494234085, -0.19580811262130737, -0.017686013132333755, 0.008610145188868046, 0.010417762212455273, -0.11865822970867157, 0.09196845442056656, 0.42554110288619995, 0.04982677474617958, 0.2628534734249115, 0.2212255895137787, -0.049484629184007645, -0.07060560584068298, -0.5178947448730469, 0.02097739838063717, -0.3041229844093323, -0.0010448388056829572, 0.12596741318702698, -0.03210127726197243, -0.03830861672759056, 0.03825756162405014, 0.06488683819770813, -0.026418691501021385, 0.07772485911846161, 0.03296268358826637, 0.24580946564674377, 0.10397585481405258, -0.018070843070745468, 0.13513827323913574, 0.10127700120210648, -0.11913412809371948, -0.043707188218832016, -0.05091265216469765, 0.1561007797718048, -0.22222238779067993, 0.24319055676460266, 0.22408589720726013, 0.2481793314218521, 0.1921926736831665, 0.1621769219636917, -0.19257602095603943, -0.2270842343568802, -0.201934352517128, 0.23783086240291595, 0.13982774317264557, -0.025604581460356712, 0.3217936158180237, 0.12458071112632751, 0.048843421041965485, 0.11382321268320084, 0.07465909421443939, 0.1345021277666092, -0.16644449532032013, -0.2801033556461334, -0.05513167753815651, -0.010380693711340427, 0.1552295684814453, 0.34572333097457886, -0.26932698488235474, -0.17764908075332642, -0.043996118009090424, 0.11561014503240585, 0.01770535111427307, -0.3005455434322357, -0.053583405911922455, -0.0693918764591217, 0.013566888868808746, 0.18152889609336853, -0.011408176273107529, -0.06925544142723083, -0.09230105578899384, -0.4623994529247284, -0.24673840403556824, -0.33095216751098633, -0.2967740595340729, -0.2935221195220947, -0.12516365945339203, -0.33531224727630615, -0.09922914206981659, 0.3725496530532837, 0.42833757400512695, 0.39486563205718994, -0.21242859959602356, -0.13683517277240753, -0.1725538671016693, -0.007100156042724848, 0.19197161495685577, 0.07997971028089523, 0.10026547312736511, -0.04334581643342972, -0.05192337557673454, 0.04638771340250969, -0.02452532760798931, 0.21030238270759583, -0.0615449994802475, 0.04703002795577049, 0.2560717761516571, -0.19086724519729614, -0.12948593497276306, 0.0070890202187001705, -0.004415146075189114, 0.12288550287485123, -0.03131186217069626, 0.3254580795764923, 0.13841204345226288, -0.09617742151021957, 0.025096746161580086, 0.008534383028745651, 0.05347691476345062, 0.058334894478321075, -0.005967780016362667, 0.42365995049476624, 0.013005291111767292, 0.20165370404720306, -0.1122061163187027, 0.05497094988822937, -0.08709756284952164, 0.00989109929651022, -0.02999105677008629, -0.14920231699943542, 0.08997491747140884, 0.05488035827875137, 0.16405996680259705, -0.1506650745868683, -0.06440222263336182, 0.05218298360705376, -0.18261119723320007, 0.13985851407051086, 0.002895261161029339, 0.07014454901218414, -0.13075630366802216, 0.02759614959359169, -0.03548965975642204, -0.020967813208699226, 0.1204044446349144, -0.01955646276473999, -0.12141597270965576, 0.12045502662658691, 0.1534479409456253, -0.10194149613380432, -0.09521520882844925, 0.002201931783929467, 0.07505395263433456, 0.1714109182357788, -0.037538863718509674, 0.21221765875816345, -0.0427287220954895, -0.11563500016927719, -0.0681772530078888, -0.00791720487177372, 0.17393359541893005, -0.1361827254295349, -0.1886092871427536, 0.041004858911037445, -0.0037417684216052294, -0.18064062297344208, -0.02210770733654499, -0.000967223197221756, -0.0816192701458931, -0.18549278378486633, -0.00973743200302124, 0.18378035724163055, 0.20865873992443085, 0.11622728407382965, 0.08197770267724991, -0.05716802179813385, -0.07134151458740234, 0.10722263902425766, 0.08958285301923752, -0.06687886267900467, 0.005918458569794893, 0.0210043303668499, -0.16114287078380585, 0.06272642314434052, -0.07075558602809906, 0.08627744019031525, -0.04223273694515228, 0.059689439833164215, -0.1904107630252838, 0.11320468038320541, -0.14373435080051422, 0.11482632905244827, 0.08398088812828064, 0.12044189125299454, 0.060551002621650696, 0.10107950121164322, 0.04195604845881462, -0.0037459267769008875, 0.036205314099788666, -0.029761575162410736, 0.008807819336652756, 0.04883034527301788, 0.06374040991067886, -0.1036868616938591, -0.199610635638237, 0.04148676618933678, 0.06877219676971436, 0.08044087886810303, -0.20854832231998444, 0.05027832090854645, -0.15316134691238403, -0.12616974115371704, -0.06690779328346252, -0.03527636453509331, -0.02924817055463791, -0.13263735175132751, 0.12315913289785385, 0.020080847665667534, 0.09189587831497192, 0.253853440284729, -0.06915218383073807, -0.08082135021686554, -0.07211390882730484, -0.006439128890633583, -0.17133374512195587, -0.17241044342517853, 0.18104544281959534, 0.05636158958077431, 0.1466771513223648, -0.09991484135389328, 0.10150204598903656, -0.0036128221545368433, 0.018149245530366898, -0.0020364264491945505, 0.1390526294708252, 0.0915980339050293, 0.22964709997177124, 0.09245683997869492, -0.0716547891497612, 0.172515407204628, -0.04371511936187744, 0.4276621639728546, 0.09162073582410812, 0.1369895488023758, -0.08202080428600311, -0.09384241700172424, 0.05696279928088188, 0.11366593092679977, -0.19842849671840668, -0.017747441306710243, 0.05977325141429901, -0.10304241627454758, -0.6560137271881104, -0.007221818435937166, 0.38931721448898315, -0.37661463022232056, 0.28756001591682434, -0.6085819005966187, -0.06912874430418015, -0.14588452875614166, 0.7148039937019348, -0.9207324385643005, -0.3239939510822296, -0.9884858131408691, 0.2922706604003906, -0.863772451877594, 0.1738320142030716, -0.7860128283500671, 0.11783017963171005, -0.21820679306983948, 0.17781689763069153, 0.219197615981102, 0.09428735822439194, 0.19736818969249725, -0.25218045711517334, -0.1891506463289261, 0.0047556087374687195, -0.11877797544002533, 0.05904557183384895, -0.04125142842531204, 0.10229603946208954, 0.1416846513748169, 0.05448514223098755, -0.12180522084236145, 0.06782599538564682, -0.045698609203100204, -0.07115039229393005, 0.037043970078229904, -0.15490293502807617, 0.17322377860546112, 0.11836181581020355, -0.1425354927778244, 0.08268661797046661, -0.18817441165447235, 0.20862194895744324, 0.26587724685668945, -0.08749149739742279, -0.028804073110222816, -0.11525581777095795, 0.18148669600486755, -0.05334913358092308, -0.2611818313598633, 0.1606510728597641, 0.3079725503921509, 0.08952394127845764, 0.06581183522939682, 0.1005558967590332, 0.041769206523895264, -0.04023266211152077, 0.024084078148007393, -0.08678654581308365, -0.14663882553577423, 0.012745898216962814, 0.18130142986774445, 0.036706484854221344, -0.009135991334915161, 0.2623153030872345, 0.2829531729221344, -0.3083789646625519, -0.7014053463935852, -0.20131747424602509, -0.07022566348314285, -0.35837072134017944, 0.09308453649282455, -0.2789122462272644, -0.062335893511772156, 0.218035489320755, -0.13327422738075256, -0.0011872596805915236, -0.5314019322395325, -0.08617714792490005, -0.09143334627151489, 0.2772136926651001, 0.337453693151474, -0.36264777183532715, -0.20940405130386353, 0.269910991191864, -0.3379458487033844, -0.020182067528367043, 0.2368270307779312, 0.2588956356048584, -0.11805528402328491, 0.07286857813596725, 0.10102319717407227, -0.3073919415473938, -0.18790200352668762, -0.5391744375228882, -0.38095903396606445, -0.28457221388816833, -0.1616266965866089, -0.31666097044944763, -0.25339850783348083, 0.18506388366222382, -0.35705289244651794, 0.11968282610177994, 0.03161417692899704, 0.0034974615555256605, 0.12004422396421432, -0.07428454607725143, -0.21144594252109528, -0.16398032009601593, -0.3324895203113556, -0.01805654726922512, 0.13033460080623627, 0.5474116206169128, 0.20580258965492249, 0.127158984541893, -0.20358610153198242, 0.005431885365396738, 0.34301212430000305, -0.1743057817220688, -0.44810155034065247, 0.3721228539943695, 0.15027199685573578, -0.1445639431476593, -0.007768789306282997, 0.34713655710220337, -0.25783824920654297, -0.11942853778600693, 0.10240621864795685, 0.059924010187387466, -0.16576316952705383, 0.16498473286628723, 0.4662972688674927, -0.19445447623729706, -0.06032148748636246, 0.23861782252788544, -0.13688655197620392, -0.4119628667831421, 0.43783465027809143, -0.29478248953819275, -0.08298433572053909, -0.11259714514017105, -0.12703345715999603, 0.21162037551403046, -0.12353160232305527, 0.17695987224578857, 0.19453175365924835, -0.18585558235645294, -0.1441638320684433, -0.17631617188453674, -0.05266667902469635, -0.08747740834951401, -0.24345777928829193, 0.19920714199543, -0.0034606230910867453, 0.3805270195007324, -0.03615356609225273, -0.07225755602121353, 0.1520991027355194, -0.14501702785491943, 0.1243838518857956, -0.3846529722213745, 0.1748276948928833, -0.0692472755908966, -0.4558708369731903, 0.3394503891468048, 0.10374558717012405, 0.060506559908390045, 0.20149068534374237, -0.05927935987710953, -0.1206759661436081, 0.1786649376153946, 0.5992382764816284, 0.19878637790679932, 0.11432024091482162, 0.17204633355140686, -0.08996879309415817, 0.01426274236291647, -0.11273621022701263, -0.09878282248973846, 0.21397490799427032, 0.0502709336578846, 0.03458100184798241, 0.13750463724136353, 0.0003162688808515668, 0.15205103158950806, 0.2093086838722229, -0.18317995965480804, 0.017871126532554626, 0.0019263664726167917, 0.18591167032718658, -0.12928569316864014, 0.10980962216854095, 0.27243345975875854, 0.319899320602417, -0.3004670739173889, -0.23587363958358765, -0.18718035519123077, -0.060185112059116364, 0.13633990287780762, 0.16139326989650726, -0.24000510573387146, 0.12581641972064972, 0.21578504145145416, -0.3310778737068176, 0.11092507094144821, -0.28426510095596313, 0.05810881033539772, -0.15659154951572418, -0.013377909548580647, -0.1869552880525589, -0.018183529376983643, 0.2198270559310913, 0.007227532099932432, -0.09636662155389786, -0.1567865014076233, 0.15448787808418274, -0.22131040692329407, -0.17949385941028595, -0.22339196503162384, -0.40237730741500854, 0.21809197962284088, -0.20755310356616974, 0.13076120615005493, -0.18755419552326202, 0.030421162024140358, 0.05246404558420181, -0.1712496280670166, 0.40458112955093384, -0.2928340435028076, 0.1577572524547577, 0.07768142223358154, -0.12177655845880508, 0.16270096600055695, 0.34928303956985474, -0.023324348032474518, 0.1067407950758934, 0.10842640697956085, 0.16546787321567535, 0.14548178017139435, -0.03288872539997101, 0.12388881295919418, 0.20401762425899506, -0.023315483704209328, -0.006709887180477381, -0.2448965311050415, -0.1313098818063736, 0.12150543928146362, -0.12163181602954865, -0.05561541020870209, 0.1947571039199829, -0.14118777215480804, 0.04681553319096565, -0.11437089741230011, 0.06034793704748154, 0.15191857516765594, 0.16319021582603455, 0.17128820717334747, -0.16898968815803528, -0.17930565774440765, 0.12595659494400024, -0.24026533961296082, 0.34659555554389954, 0.0286001805216074, -0.16507063806056976, 0.37281230092048645, -0.0197896771132946, 0.07514964789152145, 0.20905494689941406, -0.2014799267053604, 0.4171508550643921, -0.04906263202428818, -0.2084677368402481, -0.13742250204086304, -0.07113920897245407, -0.03736244887113571, 0.005962748546153307, -0.17889438569545746, 0.13310924172401428, 0.06305378675460815, 0.01453271135687828, -0.06053364649415016, 0.10092467069625854, -0.04951522499322891, -0.17324316501617432, 0.188198983669281, -0.29772496223449707, -0.12293408066034317, -0.29385241866111755, 0.08414576947689056, 0.09836281836032867, -0.07646296918392181, 0.059388767927885056, -0.17004773020744324, -0.06480467319488525, 0.10514573007822037, -0.150146946310997, -0.07390778511762619, 0.043710026890039444, 0.1182355061173439, 0.08462877571582794, 0.11194135248661041, -0.06207899749279022, 0.035258665680885315, -0.07963363826274872, 0.15780335664749146, 0.03628743439912796, 0.14556074142456055, 0.10908526182174683, 0.10344373434782028, -0.2186315953731537, 0.2203015834093094, -0.12865720689296722, 0.0076762232929468155, 0.15350745618343353, 0.047239724546670914, 0.05711645260453224, -0.08180715143680573, -0.233122318983078, 0.02576237916946411, -0.06731556355953217, -0.09313152730464935, -0.21426047384738922, 0.06492647528648376, 0.06260086596012115, -0.03192245587706566, -0.11928527802228928, 0.09144601970911026, 0.022456949576735497, 0.06183677911758423, -0.09878849238157272, 0.1791047602891922, 0.04412858188152313, -0.06671102344989777, 0.3146969676017761, 0.10114496201276779, -0.04432698339223862, 0.057076409459114075, -0.1060563176870346, 0.33760929107666016, -0.06864000111818314, 0.019496899098157883, -0.259075403213501, 0.15278854966163635, 0.08797579258680344, 0.0320235937833786, -0.1106695756316185, -0.013873204588890076, 0.08979194611310959, 0.11171963810920715, -0.1235290989279747, -0.20818543434143066, -0.11251156777143478, -0.11025664210319519, -0.09442386776208878, 0.13069656491279602, -0.0687972903251648, 0.05756174027919769, -0.18029196560382843, -0.17002978920936584, -0.15747441351413727, 0.09183503687381744, 0.03137391805648804, -0.20534822344779968, 0.039240188896656036, 0.1718502938747406, 0.14005230367183685, 0.16906361281871796, 0.10245200246572495, -0.048185791820287704, -0.34055089950561523, 0.00024197594029828906, -0.09080169349908829, -0.0036473164800554514, 0.2567043900489807, 0.28271549940109253, -0.0864451676607132, 0.054453663527965546, -0.25930964946746826, -0.05781332775950432, 0.16844242811203003, -0.007878604345023632, 0.18541578948497772, -0.26008713245391846, -0.2981545925140381, -0.11106746643781662, -0.024192608892917633, -0.030200982466340065, 0.2548491656780243, 0.009211755357682705, -0.22219783067703247, 0.2960847318172455, 0.02138630300760269, -0.06124977394938469, -0.27360060811042786, -0.03896963968873024, 0.18667657673358917, 0.027757663279771805, -0.18416868150234222, 0.10335976630449295, -0.1500074863433838, -0.09567757695913315, 0.15977303683757782, 0.06473930180072784, 0.1185637041926384, -0.14368782937526703, -0.24712492525577545, 0.2432251125574112, -0.12157291918992996, 0.2069244384765625, -0.0031898105517029762, -0.02006344310939312, 0.16276933252811432, 0.06993809342384338, -0.06846018880605698, 0.04475300386548042, 0.019859910011291504, -0.17088356614112854, -0.15380612015724182, 0.002690529217943549, 0.20457051694393158, -0.03219670429825783, -0.03944442421197891, 0.10553224384784698, 0.10415725409984589, -0.072133868932724, -0.08344939351081848, 0.25592994689941406, -0.19471323490142822, -0.15567079186439514, -0.08574674278497696, 0.20748268067836761, 0.23811763525009155, -0.06451491266489029, -0.14761947095394135, 0.30519068241119385, -0.10924080014228821, 0.17286555469036102, -0.06672115623950958, 0.01635313779115677, 0.32298216223716736, -0.2223510891199112, 0.11790475994348526, -0.1531357765197754, 0.2504059970378876, 0.06917702406644821, -0.14656032621860504, -0.13102886080741882, 0.038157153874635696, -0.2774095833301544, 0.10971865803003311, 0.09517233818769455, 0.06606005132198334, -0.14916428923606873, -0.007671682629734278, 0.42050617933273315, 0.01112737413495779, 0.03640110790729523, 0.09516532719135284, 0.03370732441544533, -0.0705781951546669, -0.1941145658493042, -0.154026597738266, -0.002933334559202194, 0.14444392919540405, -0.10654089599847794, 0.1574895977973938, -0.08970580995082855, 0.005490523763000965, 0.07874951511621475, -0.03683024272322655, 0.17675112187862396, 0.10102500766515732, 0.09241010248661041, -0.012545760720968246, 0.029771680012345314, 0.03851082921028137, 0.03167949616909027, -0.08793129771947861, -0.11053711920976639, -0.12261102348566055, 0.20235806703567505, -0.08456829190254211, -0.11543689668178558, -0.15210561454296112, -0.0009567002416588366, 0.21450702846050262, -0.06461015343666077, 0.007996554486453533, 0.05695198476314545, 0.11766364425420761, 0.192300945520401, -0.025053761899471283, -0.1586976796388626, 0.018408313393592834, 0.08122140914201736, -0.08507794141769409, 0.17526791989803314, -0.4225902855396271, -0.19857816398143768, -0.2425585389137268, 0.3880739212036133, -0.021610796451568604, -0.2566263675689697, -0.028344256803393364, -0.07217773050069809, -0.18731001019477844, 0.270713746547699, 0.07324445992708206, 0.42894279956817627, -0.1991385668516159, -0.18627989292144775, -0.10321065038442612, 0.213265523314476, 0.058191582560539246, 0.10901359468698502, -0.3170444369316101, 0.04570166766643524, 0.1370500922203064, -0.1468079835176468, -0.15237309038639069, -0.1491774618625641, 0.30954408645629883, -0.16750721633434296, -0.1994311511516571, 0.2849430441856384, 0.04672187194228172, 0.13443952798843384, -0.1653999239206314, 0.1871124804019928, -0.02823103405535221, -0.23344342410564423, -0.015193113125860691, -0.08275371789932251, -0.014926030300557613, -0.23273633420467377, -0.1294267326593399, 0.05406210198998451, 0.0936199203133583, -0.17201544344425201, -0.027827559038996696, -0.1555391103029251, -0.2893972098827362, 0.08447674661874771, -0.03003779426217079, -0.061594847589731216, 0.045512743294239044, -0.13591401278972626, 0.17872081696987152, 0.09715502709150314, -0.21102535724639893, -0.016039175912737846, 0.014847535640001297, 0.12809620797634125, -0.07920441031455994, -0.08996079862117767, -0.1494697779417038, 0.016226183623075485, 0.00017310127441305667, -0.03870043158531189, -0.029719820246100426, 0.04959721490740776, 0.07349784672260284, -0.07640131562948227, -0.1778438240289688, 0.1512882113456726, -0.14092935621738434, -0.1995941549539566, -0.09936688840389252, -0.05458379536867142, 0.03541722893714905, -0.023197567090392113, -0.15169478952884674, -0.11366117745637894, -0.17323815822601318, -0.15406440198421478, -0.04983074963092804, -0.10839898884296417, -0.12277256697416306, -0.14986442029476166, 0.07074669003486633, -0.08598937839269638, 0.09292661398649216, 0.09094202518463135, -0.17228306829929352, -0.07271092385053635, 0.058354999870061874, 0.24787180125713348, -0.2086644172668457, 0.02582060731947422, 0.07698362320661545, 0.2452339380979538, -0.06410812586545944, 0.3474734127521515, 0.06102481484413147, 0.015738381072878838, -0.11642570793628693, -0.06669434905052185, 0.2546251118183136, -0.32624131441116333, -0.062172889709472656, -0.12340394407510757, -0.060999464243650436, 0.1603740006685257, -0.20641060173511505, 0.1918177604675293, -0.10348395258188248, -0.10144440829753876, 0.06299556791782379, 0.07013656198978424, -0.020526451990008354, 0.017293831333518028, -0.13520510494709015, -0.100262850522995, -0.09336135536432266, -0.10753289610147476, 0.040989700704813004, -0.08370931446552277, 0.1697450429201126, -0.09199649840593338, 0.020177224650979042, 0.19288817048072815, 0.14997032284736633, -0.13060839474201202, 0.13920864462852478, -0.14033301174640656, 0.11360763013362885, 0.17332874238491058, 0.13845618069171906, -0.03851594403386116, -0.06033415347337723, -0.014170453883707523, 0.0009754913044162095, -0.016014350578188896, -0.17007668316364288, -0.09926429390907288, 0.09270404279232025, 0.0003756930527742952, -0.0015228688716888428, -0.14721152186393738, -0.009041077457368374, 0.20323163270950317, -0.3237631022930145, -0.16193953156471252, -0.2925416827201843, 0.02801349386572838, -0.46321195363998413, -0.028372174128890038, 0.550208330154419, 0.007474545389413834, -0.15955588221549988, -0.2935124635696411, 0.24273231625556946, 0.38521432876586914, -0.3281654417514801, 0.21549808979034424, -0.2748778164386749, -0.12842297554016113, -0.0191634614020586, 0.07648620754480362, -0.09184527397155762, -0.06944602727890015, 0.0908624455332756, 0.25331953167915344, -0.03419925644993782, -0.28787916898727417, -0.10916126519441605, 0.10023783147335052, -0.2875720262527466, -0.33258023858070374, -0.12189725786447525, -0.0771174505352974, 0.30355167388916016, -0.2889133095741272, -0.03990396484732628, 0.004100851248949766, 0.20136961340904236, -0.12445173412561417, 0.038253672420978546, 0.1173858717083931, -0.05111994966864586, -0.18187803030014038, -0.053509872406721115, 0.25333502888679504, 0.11755973100662231, -0.044593073427677155, 0.005308394320309162, 0.031515054404735565, -0.052015677094459534, 0.06015584245324135, -0.03971083462238312, 0.15283840894699097, -0.14320795238018036, -0.06799868494272232, -0.21335625648498535, -0.37999019026756287, 0.39063069224357605, 0.18397870659828186, -0.16720794141292572, 0.012819267809391022, 0.14816059172153473, 0.25483065843582153, 0.025891494005918503, 0.19368182122707367, -0.09411114454269409, -0.11622709780931473, 0.01729128137230873, 0.27648407220840454, 0.025721479207277298, -0.27383187413215637, 0.15410903096199036, -0.12295882403850555, 0.14008867740631104, -0.1656053215265274, 0.1260041892528534, 0.2738107144832611, -0.03996865078806877, -0.024775825440883636, 0.22536581754684448, 0.18352530896663666, 0.2980343699455261, -0.050643421709537506, 0.07929491251707077, -0.15812161564826965, 0.08301039785146713, 0.07307980954647064, 0.21431982517242432, -0.009650126099586487, -0.031163668259978294, 0.3742903769016266, -0.1304236203432083, 0.05459563061594963, -0.23049259185791016, 0.07551306486129761, 0.06391874700784683, -0.15020005404949188, 0.06678195297718048, 0.17347973585128784, -0.15082824230194092, -0.2501147985458374, -0.21304334700107574, -0.11242226511240005, -0.10358060151338577, -0.06329534947872162, -0.025469012558460236, -0.1414456069469452, -0.24593991041183472, 0.05242243409156799, 0.14940230548381805, -0.2625363767147064, 0.06539316475391388, 0.009398221038281918, 0.0017276691505685449, 0.08416412025690079, -0.1430114507675171, 0.16565369069576263, -0.2834561765193939, -0.024522962048649788, 0.12762896716594696, -0.054750557988882065, -0.15511776506900787, -0.1919153332710266, 0.10292224586009979, -0.09958530217409134, 0.11078860610723495, 0.05988175794482231, 0.2484247386455536, -0.0836847648024559, -0.5862888693809509, 0.04211084172129631, 0.07226821035146713, 0.16152554750442505, 0.012305162847042084, 0.053246740251779556, 0.07428377121686935, 0.1894282102584839, 0.07538457214832306, 0.17768511176109314, 0.03325637802481651, 0.09964580088853836, 0.027353132143616676, 0.18707484006881714, -0.08304499089717865, -0.04284071922302246, -0.028824198991060257, -0.06395285576581955, -0.045439671725034714, 0.15574155747890472, 0.16309279203414917, -0.22644220292568207, 0.05948356166481972, 0.1560525745153427, 0.3060854375362396, 0.06926758587360382, 0.14528125524520874, -0.07628762722015381, -0.22531643509864807, -0.2655607759952545, 0.03878559172153473, 0.1098920926451683, 0.008465437218546867, 0.02486761286854744, 0.06533726304769516, -0.04610160365700722, 0.15363094210624695, 0.16616365313529968, 0.08989129960536957, 0.1683318316936493, 0.1449185162782669, -0.1464419662952423, -0.15354910492897034, 0.01740696281194687, 0.15174458920955658, -0.1923937350511551, 0.0008912900229915977, -0.16527153551578522, 0.001788045628927648, -0.031196624040603638, -0.16934973001480103, -0.03196916729211807, -0.0570979081094265, -0.10226034373044968, 0.08462299406528473, -0.039943255484104156, -0.07984865456819534, 0.1509813666343689, -0.021011387929320335, 0.05771800875663757, -0.03347796946763992, 0.09833657741546631, 0.06297070533037186, 0.09590831398963928, -0.049605242908000946, 0.06880993396043777, -0.051630664616823196, 0.025617703795433044, 0.08131622523069382, 0.21035492420196533, 0.1785900592803955, -0.3234187960624695, -0.25012069940567017, -0.15445087850093842, 0.046564552932977676, -0.07086194306612015, -0.19805806875228882, 0.08124180883169174, -0.083076611161232, -0.1297307163476944, -0.12980279326438904, -0.025945788249373436, 0.15602687001228333, -0.05350459739565849, 0.01283975038677454, -0.011179306544363499, -0.08549784868955612, -0.1786707192659378, -0.12336307018995285, -0.11918854713439941, 0.21012040972709656, -0.10040845721960068, -0.17607612907886505, 0.18219110369682312, -0.04296998307108879, -0.007559478748589754, -0.002968146000057459, -0.07715464383363724, -0.03796632960438728, 0.28263208270072937, 0.16752417385578156, 0.05168731510639191, -0.187137633562088, 0.014821025542914867, -0.10545504093170166, -0.005424766801297665, -0.11217464506626129, 0.06964420527219772, 0.15664520859718323, 0.05964870750904083, -0.001774071715772152, -0.06504848599433899, 0.134939044713974, -0.016902711242437363, 0.09822750836610794, -0.14142723381519318, 0.23161402344703674, -0.09521495550870895, -0.12160322815179825, -0.1091337651014328, -0.11030571907758713, 0.05417763441801071, -0.10994020104408264, 0.028117692098021507, 0.04794856160879135, -0.05478405952453613, -0.029777217656373978, 0.17776532471179962, 0.18056976795196533, -0.03529579937458038, -0.034243397414684296, -0.05941932648420334, 0.16177387535572052, -0.08367618173360825, 0.07739897817373276, 0.056198250502347946, 0.13627749681472778, 0.11639638245105743, -0.029296528548002243, 0.07482573390007019, 0.12296221405267715, -0.18634529411792755, 0.07684535533189774, -0.2533140778541565, -0.1856977790594101, 0.06507392972707748, 0.10370822250843048, -0.017094986513257027, 0.105532206594944, -0.18777476251125336, -0.043035928159952164, 0.17226161062717438, -0.06472217291593552, -0.037318743765354156, -0.3374740779399872, 0.0012174822622910142, -0.059006284922361374, -0.18261858820915222, -0.008339128457009792, 0.11241880059242249, -0.1094214990735054, 0.12216508388519287, -0.030858157202601433, 0.031085386872291565, -0.14137285947799683, -0.1078643724322319, -0.25845232605934143, -0.043856170028448105, 0.15466830134391785, -0.014492503367364407, -0.062139470130205154, -0.05440805107355118, 0.10348328202962875, -0.04806816577911377, -0.0951114296913147, 0.16534458100795746, -0.03148388862609863, -0.017867151647806168, -0.1908959001302719, 0.1406359076499939, 0.0005968709010630846, 0.01869508996605873, 0.1797754168510437, 0.0994405522942543, 0.08932480961084366, -0.03600018471479416, -0.05297234654426575, 0.0051164510659873486, -0.09223673492670059, 0.05177244916558266, -0.38591957092285156, -0.23495382070541382, -0.3276839852333069, 0.06607405841350555, 0.2888581454753876, 0.3500976264476776, 0.17393283545970917, -0.016349950805306435, -0.008282099850475788, 0.0763591080904007, -0.10312836617231369, -0.06234852224588394, -0.052193619310855865, -0.1645040661096573, 0.38919368386268616, 0.04119883477687836, -0.15833601355552673, -0.12470415979623795, -0.037500977516174316, 0.2303556352853775, -0.3068476617336273, 0.11156202107667923, -0.08048883825540543, 0.06575553864240646, -0.08839535713195801, 0.37267348170280457, -0.1351127028465271, 0.22684083878993988, -0.17125241458415985, 0.09548789262771606, -0.03149392828345299, 0.12329723685979843, -0.4306693971157074, 0.12578849494457245, 0.02335774153470993, 0.011349431239068508, -0.10660824924707413, 0.15162378549575806, 0.05091647058725357, -0.15655699372291565, -0.09850313514471054, 0.016196923330426216, 0.07058005779981613, -0.19360017776489258, 0.027304016053676605, 0.14577831327915192, -0.17080429196357727, -0.025745384395122528, 0.1978994905948639, 0.5820668935775757, 0.1163925752043724, 0.09118854999542236, 0.04450533539056778, -0.04195353016257286, -0.06575396656990051, 0.004315384663641453, 0.31849998235702515, -0.19615286588668823, -0.025276612490415573, 0.2626476287841797, -0.005261218640953302, 0.09775964915752411, -0.14842626452445984, -0.08801344782114029, 0.09116727858781815, -0.005322834011167288, 0.1489717662334442, 0.2576846480369568, -0.3172885775566101, 0.0474727638065815, -0.03538424149155617, 0.12759988009929657, 0.177219957113266, 0.2597314715385437, 0.665882408618927, -0.1019960418343544, -0.06860189139842987, 0.0346401110291481, 0.11628837883472443, 0.28081437945365906, 0.16980162262916565, -0.14819878339767456, -0.15841805934906006, 0.16851316392421722, 0.000495568907354027, 0.1385800689458847, -0.07309847325086594, -0.08210137486457825, 0.11041088402271271, -0.2970566749572754, -0.0987158939242363, 0.08718782663345337, 0.14316581189632416, 0.0008051546174101532, -0.06123051047325134, 0.100250743329525, 0.011616277508437634, 0.25807565450668335, 0.372685968875885, 0.13936994969844818, 0.12628620862960815, 0.018936751410365105, -0.050672151148319244, 0.23841488361358643, 0.020641759037971497, -0.13445572555065155, -0.12131398171186447, 0.03452586382627487, -0.017159393057227135, 0.07410106062889099, 0.023722272366285324, -0.11450200527906418, -0.02033107355237007, -0.1432284265756607, 0.09403976798057556, -0.2686615288257599, -0.44478610157966614, 0.9085469841957092, 0.3121006190776825, -0.5710235834121704, 0.2672189474105835, -0.22093528509140015, 0.27190840244293213, 0.7272076606750488, -1.1612311601638794, 0.9193407297134399, 0.6945410966873169, 0.02885628491640091, -0.4801636040210724, 0.052776094526052475, -0.6024986505508423, 0.15230603516101837, -0.3074944317340851, 0.08709161728620529, -0.21155571937561035, 0.4392813444137573, 0.15495480597019196, 0.021293142810463905, -0.048317328095436096, 0.05490043759346008, 0.011619755066931248, 0.25937384366989136, -0.02852807566523552, -0.21400415897369385, 0.07817255705595016, -0.21852721273899078, -0.06225958466529846, 0.31675806641578674, 0.0788799300789833, 0.017103848978877068, 0.21629038453102112, 0.09977306425571442, 0.2055436223745346, -0.06135444715619087, -0.10473571717739105, -0.24265463650226593, -0.09688582271337509, 0.04136453941464424, -0.18476144969463348, 0.12730155885219574, 0.11077235639095306, 0.13961096107959747, -0.13795380294322968, 0.0453723669052124, -0.284913033246994, -0.12140661478042603, 0.09808820486068726, 0.13305728137493134, -0.13357356190681458, -0.2636569142341614, -0.14634546637535095, -0.2263215184211731, 0.15753209590911865, -0.22911116480827332, 0.17990237474441528, 0.28636881709098816, -0.08655713498592377, -0.20169557631015778, 0.17199328541755676, 0.20982864499092102, 0.2702612578868866, 0.2095416933298111, -0.22905267775058746, -0.25318509340286255, 0.12357176095247269, 0.20871132612228394, 0.010652954690158367, 0.28085991740226746, 0.1778547167778015, -0.20253069698810577, 0.28860417008399963, 0.024536754935979843, 0.28275370597839355, 0.3114891052246094, -0.140894815325737, 0.29880616068840027, -0.03219877555966377, 0.5437562465667725, -0.10190882533788681, -0.04350006580352783, -0.3111109137535095, 0.06095138192176819, 0.04153253510594368, 0.5524735450744629, -0.13238270580768585, -0.1789766103029251, -0.11361642926931381, -0.1876361221075058, -0.03985301032662392, 0.5187243223190308, -0.2009878158569336, -0.3040505647659302, -0.04238760843873024, -0.022696208208799362, -0.3097088932991028, 0.24101069569587708, 0.12298212200403214, 0.4387289583683014, 0.007508654147386551, -0.08448772877454758, 0.2768199145793915, -0.3225618004798889, 0.01424141600728035, -0.04596363753080368, 0.15141905844211578, 0.3825071156024933, 0.08399690687656403, -0.1021139845252037, -0.04915066063404083, -0.12116294354200363, -0.03705461695790291, 0.32128968834877014, -0.02113923244178295, 0.1430603265762329, 0.05259409174323082, -0.2731364965438843, -0.1025395616889, 0.15447233617305756, -0.029354462400078773, 0.06824453175067902, 0.46746107935905457, -0.13423527777194977, 0.1992512196302414, 0.33323216438293457, 0.2684423625469208, 0.14761832356452942, -0.3144659101963043, 0.5364325046539307, -0.30240944027900696, 0.22522619366645813, 0.016763590276241302, 0.4555380940437317, -0.006164942402392626, -0.06428126245737076, 0.07898680120706558, 0.08860766887664795, 0.3567395806312561, 0.21979449689388275, -0.2329549342393875, -0.08037663251161575, 0.33252084255218506, -0.1303253322839737, 0.089700847864151, 0.4681371748447418, 0.038834311068058014, -0.239594504237175, 0.13357561826705933, -0.1612163633108139, 0.10043968260288239, -0.24042774736881256, 0.2055811882019043, -0.26029983162879944, -0.06602892279624939, -0.04881413280963898, 0.06670530140399933, 0.2913876473903656, 0.20943082869052887, -0.29253771901130676, 0.11183879524469376, -0.18467023968696594, 0.07015479356050491, -0.1685618907213211, -0.16735021770000458, -0.0977487564086914, -0.06633319705724716, 0.05739694461226463, -0.10132463276386261, -0.011865140870213509, 0.12058836966753006, 0.3849617838859558, -0.17907477915287018, 0.3044641613960266, 0.009717918001115322, -0.051754698157310486, -0.009108657948672771, 0.22976446151733398, -0.17263716459274292, 0.017034126445651054, -0.07438910007476807, 0.21644610166549683, -0.008788123726844788, -0.04855317622423172, -0.03950643166899681, 0.06337400525808334, -0.03568434715270996, -0.19511044025421143, 0.1525794267654419, -0.19681689143180847, -0.05029397830367088, -0.21976475417613983, 0.12393714487552643, 0.21803447604179382, 0.4242079555988312, 0.21034453809261322, 0.08537258207798004, -0.2725076973438263, -0.48797133564949036, -0.3052709698677063, 0.36448177695274353, -0.41312623023986816, -0.3960042893886566, -0.1668141782283783, 0.18328548967838287, -0.4797324538230896, -0.20100821554660797, -0.002933070296421647, -0.12272391468286514, 0.21037334203720093, 0.1963297426700592, -0.1401890069246292, -0.2941035330295563, 0.0441601499915123, 0.1082843765616417, -0.08678214251995087, 0.04901363328099251, -0.10089563578367233, 0.08276204019784927, 0.09810289740562439, -0.19513143599033356, -0.22929126024246216, 0.3545833230018616, -0.21727676689624786, 0.1676168143749237, 0.020722687244415283, -0.1765637993812561, 0.13910998404026031, -0.07502435892820358, 0.06341016292572021, 0.05897541716694832, 0.2023015022277832, -0.2690597176551819, 0.046189796179533005, -0.002832518657669425, -0.10530907660722733, 0.188235342502594, -0.017506271600723267, 0.0827975645661354, -0.1495225727558136, 0.014261806383728981, 0.20586873590946198, -0.044750768691301346, 0.07379670441150665, -0.12155316770076752, 0.12133696675300598, 0.1412251591682434, 0.06197475641965866, 0.22512751817703247, -0.08424404263496399, 0.09708885103464127, -0.012941861525177956, -0.06722231954336166, -0.1841641217470169, -0.17232301831245422, -0.42108118534088135, -0.18818224966526031, -0.08019197732210159, 0.057665739208459854, -0.08820515125989914, -0.23282094299793243, -0.2627919912338257, 0.10551272332668304, 0.09285483509302139, 0.3217814266681671, -0.25419923663139343, -0.3040878474712372, -0.2747284173965454, 0.3171554207801819, -0.0300673209130764, 0.0051145353354513645, -0.03433695435523987, 0.09136698395013809, -0.03586394339799881, 0.15140528976917267, 0.0016247497405856848, -0.16123439371585846, -0.3095921277999878, 0.0030351481400430202, -0.1126803383231163, -0.011636879295110703, 0.05475044995546341, 0.03199078515172005, 0.03961698338389397, -0.16873061656951904, 0.16957929730415344, -0.04514990746974945, -0.08306404203176498, -0.16174672544002533, 0.020092470571398735, 0.1561679095029831, 0.060063883662223816, 0.00017129383923020214, -0.0007278179982677102, 0.11256325989961624, -0.007626411505043507, 0.10730424523353577, -0.02298724465072155, -0.05874674767255783, -0.038159776479005814, 0.1244521215558052, -0.10064895451068878, -0.038500405848026276, 0.08855850994586945, 0.038285329937934875, -0.0074824863113462925, -0.2261376678943634, 0.14602485299110413, 0.25050950050354004, -0.08534039556980133, -0.019604386761784554, -0.13401484489440918, -0.18061475455760956, 0.07740175724029541, 0.07549795508384705, -0.16404244303703308, -0.0434122271835804, 0.1796460598707199, 0.13517796993255615, -0.13618363440036774, -0.2621832489967346, 0.06441156566143036, 0.04576341062784195, -0.18886798620224, -0.054713454097509384, 0.004266394767910242, -0.04033626988530159, -0.2427031546831131, -0.1572612226009369, -0.03167558088898659, -0.08250921964645386, -0.097680002450943, 0.05378195270895958, -0.224288672208786, -0.08939480036497116, -0.5369574427604675, 0.3964935839176178, 0.12421713769435883, -0.07855462282896042, 0.2741902768611908, -0.04873648285865784, 0.426619291305542, -0.03670492395758629, -0.0052335187792778015, 0.16776926815509796, 0.2691236138343811, 0.2645001709461212, -0.15164299309253693, 0.17019958794116974, 0.26974543929100037, -0.0543699786067009, -0.028585970401763916, 0.005870227701961994, -0.20246188342571259, 0.20100536942481995, -0.13959646224975586, -0.7892000675201416, -0.21721455454826355, 0.16844967007637024, -0.4393007755279541, 0.021871183067560196, -0.004261991009116173, 0.18064571917057037, 0.17422838509082794, 0.04904709756374359, -0.08655934780836105, -0.15302792191505432, -0.04741073027253151, -0.24840465188026428, -0.15665926039218903, 0.08441319316625595, 0.08934274315834045, -0.1386873871088028, 0.014287030324339867, -0.13276366889476776, 0.21275417506694794, 0.21449014544487, 0.21724508702754974, 0.05591210350394249, 0.30258700251579285, 0.3331396281719208, -0.17148420214653015, -0.1498287320137024, 0.21699108183383942, 0.1887095868587494, 0.04790264368057251, -0.29300838708877563, -0.06691909581422806, 0.02782614342868328, -0.10838906466960907, -0.16255611181259155, 0.0004683232109528035, 0.1700831800699234, 0.12337763607501984, -0.055663254112005234, -0.060943011194467545, -0.13976453244686127, -0.1102362871170044, 0.12750989198684692, 0.08174493163824081, 0.12038307636976242, -0.2668784260749817, 0.21490226686000824, -0.14172853529453278, -0.053869422525167465, -0.04812314733862877, 0.15466295182704926, -0.07265329360961914, 0.06407792121171951, -0.06314311921596527, 0.20257475972175598, 0.07620096951723099, 0.06702474504709244, -0.2672382593154907, -0.2115146964788437, -0.12467322498559952, 0.05626116693019867, -0.12839260697364807, -0.01215497124940157, 0.1073918268084526, -0.010374684818089008, 0.024732695892453194, -0.22712422907352448, 0.19249580800533295, -0.04929142817854881, -0.2115468680858612, -0.003147789277136326, 0.03834652155637741, -0.2026880979537964, -0.0747595727443695, 0.0817827433347702, 0.13290207087993622, 0.09344284981489182, 0.12473268806934357, -0.062058910727500916, 0.14900358021259308, 0.07775656878948212, -0.1948263943195343, -0.12862356007099152, -0.032307688146829605, 0.1855817586183548, 0.07490989565849304, 0.054011762142181396, -0.14233997464179993, -0.1497618705034256, -0.14247702062129974, 0.2616692781448364, 0.117734894156456, 0.015239404514431953, -0.08888772875070572, 0.07326170802116394, -0.23653113842010498, -0.10744543373584747, 0.032895851880311966, -0.020563749596476555, -0.26089155673980713, -0.04746764153242111, 0.057289935648441315, -0.03760497644543648, 0.07242460548877716, 0.17280922830104828, -0.20785658061504364, -0.13432854413986206, 0.09419016540050507, 0.25988906621932983, -0.042619142681360245, 0.12922990322113037, 0.07447679340839386, 0.13351508975028992, 0.13938689231872559, -0.2781471312046051, -0.05630582198500633, 0.1267855018377304, -0.1869231015443802, -0.09233356267213821, 0.10460956394672394, -0.1886773407459259, 0.05669769272208214, -0.10074462741613388, 0.03976989537477493, 0.20051661133766174, 0.06611722707748413, -0.04322406277060509, -0.029063869267702103, 0.11122436076402664, -0.017823873087763786, 0.06367160379886627, 0.04149792343378067, 0.06750062108039856, 0.09516096115112305, -0.15579478442668915, -0.1897873878479004, -0.24395215511322021, 0.1304766833782196, 0.1372828185558319, 0.048691123723983765, -0.024148322641849518, 0.08598156273365021, 0.16618649661540985, -0.13693363964557648, -0.2936437427997589, -0.015316232107579708, 0.1900579035282135, -0.027393778786063194, -0.016316810622811317, 0.027752645313739777, -0.05420136824250221, 0.16028432548046112, 0.03877963870763779, -0.13235117495059967, -0.21775861084461212, -0.07435998320579529, 0.06864558160305023, -0.2834814488887787, -0.02760573849081993, 0.05712972208857536, -0.062344226986169815, -0.07042684406042099, -0.13768155872821808, 0.024436580017209053, -0.02386624366044998, -0.041250962764024734, 0.1352880746126175, 0.006498938892036676, -0.10177860409021378, -0.17245526611804962, -0.20301216840744019, 0.053579527884721756, 0.038633208721876144, 0.08311617374420166, -0.2537336051464081, 0.09450574964284897, 0.20879259705543518, -0.02094966359436512, -0.16281236708164215, -0.10490886121988297, -0.08273487538099289, 0.2657845616340637, -0.08182649314403534, -0.14487260580062866, -0.17873816192150116, -0.1595466434955597, 0.1297677606344223, 0.03413707762956619, 0.10055124014616013, -0.21954621374607086, 0.1983194500207901, -0.004110194742679596, -0.2969215214252472, -0.036866478621959686, 0.23250660300254822, -0.2518559694290161, -0.04247556999325752, 0.06842709332704544, 0.07008425891399384, 0.08885130286216736, -0.030580338090658188, -0.288975328207016, -0.03731854632496834, -0.07218029350042343, 0.2154335081577301, -0.1327216774225235, -0.0949416309595108, -0.049507636576890945, 0.09692928194999695, 0.038718175143003464, -0.24503891170024872, 0.10283491760492325, 0.12684297561645508, -0.23354561626911163, 0.10751491039991379, 0.18059943616390228, 0.07218523323535919, 0.21314474940299988, 0.08050961792469025, -0.2755870819091797, -0.18996843695640564, -0.07115581631660461, 0.15739549696445465, -0.09611044079065323, 0.1333644539117813, 0.08504175394773483, 0.028020288795232773, -0.10284484177827835, -0.21212339401245117, -0.13080641627311707, 0.0651158019900322, 0.11148405075073242, 0.056955985724925995, -0.09129133820533752, -0.03437889367341995, -0.22515620291233063, -0.09211260080337524, -0.04874984174966812, 0.04626980051398277, -0.2494981735944748, -0.015706155449151993, -0.2468317300081253, 0.11191998422145844, 0.03909250721335411, -0.005208732560276985, 0.1375429928302765, 0.31870532035827637, -0.05913032218813896, -0.014435123652219772, 0.11415526270866394, 0.053270284086465836, -0.12480256706476212, -0.22769401967525482, 0.2800619900226593, -0.05228652432560921, -0.2050284892320633, -0.23256035149097443, 0.030207544565200806, 0.009459136985242367, -0.16885237395763397, 0.13329081237316132, 0.1707664281129837, 0.09885590523481369, 0.06706518679857254, -0.41494300961494446, -0.08588221669197083, -0.1416861116886139, -0.07739567756652832, 0.05538328364491463, -0.08843234181404114, 0.15749303996562958, -0.081475168466568, -0.2813573479652405, 0.27928391098976135, -0.08038761466741562, 0.4103514552116394, -0.07804696261882782, 0.018536103889346123, 0.4134064316749573, -0.14119116961956024, -0.020983517169952393, 0.04842102527618408, -0.09392881393432617, -0.06501220911741257, -0.4258531332015991, 0.15870510041713715, 0.10474958270788193, 0.2513159215450287, -0.2778126001358032, 0.06061941012740135, -0.11042672395706177, 0.1515328288078308, 0.06836434453725815, -0.04761919006705284, -0.03436148911714554, -0.013758845627307892, -0.12528692185878754, 0.010667800903320312, -0.14992454648017883, -0.1686902493238449, 0.07684185355901718, 0.07733472436666489, 0.014458267949521542, 0.13132311403751373, 0.09369128197431564, -0.22236938774585724, 0.05057081952691078, -0.034345466643571854, -0.12933294475078583, 0.08918613195419312, -0.3625941574573517, -0.38241150975227356, 0.41360795497894287, 0.07919679582118988, 0.14252524077892303, -0.06300739198923111, -0.052794165909290314, 0.14916306734085083, 0.14947399497032166, -0.2250467985868454, 0.0796351432800293, -0.12877167761325836, -0.020291954278945923, -0.051011811941862106, 0.11133821308612823, -0.23224936425685883, 0.15538930892944336, 0.24205012619495392, 0.16000258922576904, 0.15804024040699005, 0.019090456888079643, -0.09741293638944626, 0.47745195031166077, -0.21713417768478394, -0.1231963261961937, 0.119931660592556, -0.03260095417499542, -0.0937768816947937, 0.6632221937179565, -0.1761183887720108, -0.021612830460071564, 0.17960010468959808, 0.09831319749355316, -0.11110900342464447, 0.17377372086048126, -0.09592653065919876, 0.32401877641677856, 0.06977535039186478, -0.22229689359664917, 0.1506900042295456, -0.009497836232185364, -0.16510234773159027, -0.2195141613483429, 0.28203892707824707, 0.10651692748069763, -0.08806714415550232, 0.32686519622802734, 0.05418526753783226, 0.11981743574142456, 0.4137391448020935, -0.0940321683883667, 0.06827925145626068, 0.17567093670368195, 0.07929957658052444, 0.03386295214295387, -0.0613740049302578, 0.03677460551261902, 0.11374548077583313, 0.011556168086826801, 0.1514054387807846, -0.017949303612113, -0.11779653280973434, 0.1153678223490715, -0.007336765993386507, 0.11035903543233871, -0.17315645515918732, -0.18138960003852844, -0.23095270991325378, -0.10496097803115845, -0.042893167585134506, 0.036341991275548935, 0.36393365263938904, 0.06411651521921158, 0.05578996613621712, -0.1622912883758545, -0.0077141523361206055, 0.10728586465120316, 0.2595091760158539, -0.38673654198646545, -0.18312346935272217, -0.27722352743148804, -0.18737535178661346, 0.14650800824165344, 0.06387615948915482, 0.011165172792971134, -0.1450810581445694, 0.1154753714799881, 0.23163941502571106, -0.00845884345471859, -0.19546271860599518, -0.2242172360420227, 0.06268826127052307, 0.015414677560329437, -0.0374167300760746, 0.0270469281822443, -0.017268018797039986, -0.26802679896354675, -0.32539302110671997, 0.30567216873168945, 0.1036207377910614, -0.16262657940387726, 0.02787782810628414, 0.018314378336071968, 0.027654098346829414, 0.0934518575668335, -0.16636104881763458, 0.0726156085729599, 0.04324560984969139, 0.06478516757488251, -0.13643306493759155, -0.029598822817206383, -0.34237635135650635, -0.32427817583084106, 0.012549471110105515, 0.05666873976588249, -0.09909044951200485, 0.14070862531661987, 0.13342073559761047, 0.21413467824459076, -0.14152368903160095, -0.4417446255683899, -0.5525509119033813, 0.07060807198286057, -0.10939289629459381, 0.25156310200691223, 0.04961885139346123, -0.10948079824447632, 0.15800411999225616, -0.04894091933965683, -0.07963552325963974, 0.053024664521217346, -0.1836170107126236, -0.10445991158485413, 0.009224199689924717, -0.13424399495124817, 0.03693939000368118, -0.14486370980739594, 0.008576629683375359, -0.010131722316145897, 0.02441580966114998, -0.005683881230652332, -0.13563114404678345, 0.07810158282518387, -0.015506882220506668, 0.05689613148570061, 0.2846105694770813, -0.3489275872707367, -0.15375512838363647, 0.11202314496040344, -0.0024340152740478516, -0.011260198429226875, 0.027906199917197227, -0.033205412328243256, -0.06713999807834625, -0.046959687024354935, 0.14454331994056702, -0.017100078985095024, 0.01179460994899273, -0.0037100075278431177, -0.07958009093999863, -0.008936168625950813, 0.3821179270744324, 0.17997080087661743, 0.044220417737960815, -0.29459306597709656, -0.11742381006479263, -0.009014875628054142, -0.0839860737323761, 0.04020370543003082, 0.27538028359413147, 0.19000953435897827, -0.1171351969242096, -0.06558748334646225, 0.06655813753604889, -0.4022102952003479, -0.01157512329518795, 0.14567409455776215, 0.0030594789423048496, -0.06296795606613159, 0.20721976459026337, 0.23148828744888306, -0.03902427479624748, -0.20371800661087036, 0.18198320269584656, 0.0940568819642067, 0.037149474024772644, 0.1724236011505127, -0.06629294157028198, 0.15667176246643066, -0.018247857689857483, -0.20234182476997375, -0.05901147425174713, 0.04455478489398956, -0.1863894909620285, -0.1361914724111557, -0.013371888548135757, -0.02520991675555706, 0.11751595884561539, 0.052827876061201096, -0.014533991925418377, -0.1866779327392578, 0.1855214536190033, 0.03900076821446419, -0.06552869826555252, -0.22024516761302948, -0.042253635823726654, -0.2384737730026245, 0.11082097887992859, 0.0703958123922348, -0.23265740275382996, -0.00017908337758854032, -0.17779779434204102, -0.005010285414755344, -0.052808381617069244, 0.06211621314287186, -0.21434301137924194, 0.04148726165294647, -0.1820649951696396, -0.1162627637386322, -0.09230716526508331, 0.08453978598117828, -0.23074983060359955, -0.06772312521934509, 0.02943774126470089, -0.13083814084529877, 0.03018835373222828, 0.004592136479914188, -0.19349415600299835, -0.26251542568206787, -0.061402104794979095, 0.288455992937088, -0.0714452713727951, -0.016349393874406815, 0.09061075001955032, 0.19378332793712616, 0.008655006065964699, -0.0661483183503151, 0.07852417230606079, 0.07838437706232071, -0.03080775961279869, 0.027840062975883484, 0.1161932572722435, 0.1850939244031906, 0.20820270478725433, 0.06769413501024246, 0.0560024231672287, -0.04305370897054672, 0.04124971851706505, 0.09879861772060394, -0.1418454796075821, -0.049620941281318665, 0.23318733274936676, 0.06388361006975174, 0.14259855449199677, -0.015681393444538116, -0.054005082696676254, -0.08453544974327087, 0.15005378425121307, 0.02340872958302498, 0.09599053114652634, 0.03415999189019203, -0.0910421684384346, 0.033109746873378754, 0.4331393241882324, -0.06186492741107941, -0.011850246228277683, 0.1853998303413391, 0.00701878871768713, -0.10787204653024673, 0.37243524193763733, -0.1204799935221672, -0.034265123307704926, -0.18637104332447052, -0.010185371153056622, -0.09182028472423553, 0.28710177540779114, 0.20748570561408997, -0.013652479276061058, -0.0631873607635498, 0.1178068146109581, 0.04796623811125755, -0.12113682925701141, -0.10443556308746338, -0.13512207567691803, 0.24602225422859192, -0.14051610231399536, -0.15439358353614807, 0.269713819026947, 0.08759768307209015, 0.1479482352733612, 0.30692198872566223, -0.006061662919819355, 0.019681785255670547, 0.30084994435310364, 0.06390991061925888, 0.02865796722471714, -0.184127077460289, 0.06272927671670914, 0.20163291692733765, 0.029353106394410133, -0.028721831738948822, 0.13845816254615784, 0.18345564603805542, 0.05915182828903198, -0.07958341389894485, -0.3190584182739258, 0.03201642259955406, -0.38738012313842773, 0.014802077785134315, 0.18993698060512543, 0.0937332957983017, -0.06139488145709038, -0.016172518953680992, -0.22100603580474854, -0.36497363448143005, -0.13009504973888397, 0.04397982358932495, -0.04061608016490936, 0.04345841333270073, -0.19417943060398102, -0.14238201081752777, 0.06818540394306183, 0.02520674280822277, -0.1389983594417572, -0.08285155892372131, -0.143670454621315, 0.22719424962997437, -0.015281224623322487, 0.21277746558189392, 0.05563053488731384, -0.04125867411494255, 0.17954543232917786, -0.23976466059684753, 0.056778524070978165, 0.14146946370601654, -0.23462337255477905, 0.0010913506848737597, -0.04079793021082878, 0.07353541254997253, -0.031672973185777664, 0.19721679389476776, -0.1156330555677414, -0.2343856692314148, -0.06335510313510895, 0.2890871465206146, -0.21847186982631683, -0.2294556200504303, 0.14813631772994995, 0.27610549330711365, 0.10809645801782608, -0.16182154417037964, -0.26675349473953247, 0.0009576435550116003, -0.19474275410175323, 0.0006906380294822156, 0.06025668978691101, -0.17359943687915802, -0.08725058287382126, -0.14142724871635437, 0.23601512610912323, -0.06660302728414536, 0.31144046783447266, 0.06769533455371857, 0.021941183134913445, -0.11209255456924438, 0.16026784479618073, -0.2845832109451294, -0.0002737375907599926, 0.34827637672424316, -0.18579034507274628, 0.0773438960313797, 0.1651407778263092, 0.192635640501976, -0.05023210123181343, -0.35443878173828125, -0.21956995129585266, -0.13001437485218048, -0.13956527411937714, -0.23579053580760956, -0.053631264716386795, 0.31730568408966064, -0.12175355106592178, -0.05221384018659592, 0.2373683750629425, -0.08403676748275757, -0.3190951645374298, 0.17605708539485931, -0.006432446651160717, -0.28542131185531616, 0.06628682464361191, -0.11836723983287811, 0.09038539230823517, 0.02517017535865307, 0.04606269672513008, -0.08187214285135269, 0.17781932651996613, 0.030881857499480247, -0.04784442111849785, -0.020120937377214432, 0.0538964569568634, 0.1709437519311905, 0.017819557338953018, 0.10102961212396622, 0.818565845489502, 0.04430345073342323, 0.6147003769874573, -0.9593636393547058, -0.7691161632537842, 0.14349301159381866, 0.13708044588565826, 0.5068424940109253, -0.24405522644519806, 0.3521971106529236, -1.5443501472473145, 0.3240813612937927, -0.12474539875984192, -0.7810290455818176, 0.08977080136537552, -0.004426074679940939, 0.09480369091033936, -0.33706650137901306, 0.34349724650382996, -0.09683286398649216, -0.28206437826156616, 0.11901530623435974, -0.36513853073120117, -0.10204204171895981, -0.32544058561325073, 0.07050395011901855, -0.2724068760871887, 0.3275139331817627, 0.12290890514850616, -0.18267375230789185, 0.1473453938961029, -0.25186648964881897, -0.2730678915977478, -0.18277014791965485, 0.01059714425355196, -0.07985437661409378, 0.14789369702339172, -0.04077744111418724, 0.22353985905647278, 0.009971179999411106, -0.06876309961080551, 0.023891154676675797, -0.27737846970558167, 0.10162216424942017, 0.0006458263960666955, 0.1561465859413147, -0.000516548054292798, -0.013972921296954155, -0.047117140144109726, 0.1783980429172516, -0.3990027606487274, -0.09701059758663177, 0.024402102455496788, -0.304506778717041, -0.20752057433128357, 0.022892188280820847, 0.318801611661911, -0.1340455710887909, 0.13029755651950836, 0.040163252502679825, 0.11724983900785446, 0.31957438588142395, 0.009799573570489883, 0.20520000159740448, -0.1904950588941574, -0.03367680683732033, 0.0022405327763408422, 0.21925868093967438, 0.1422516107559204, 0.3267214000225067, 0.12598693370819092, 0.1188395768404007, -0.17170299589633942, -0.3624226450920105, 0.007622667122632265, -0.13782036304473877, 0.3194679021835327, -0.01179272960871458, -0.0637364313006401, -0.31460654735565186, 0.03841192647814751, 0.00756758451461792, 0.1636953055858612, 0.2910975515842438, 0.10035605728626251, 0.13646908104419708, 0.0806942731142044, -0.2988751530647278, 0.37138670682907104, 0.26895055174827576, 0.294362336397171, 0.017865102738142014, -0.20098748803138733, -0.22123898565769196, -0.06477083265781403, -0.11198350042104721, -0.346708744764328, 0.14379793405532837, 0.6384713053703308, 0.053019650280475616, -0.031681306660175323, 0.2577781081199646, -0.7273955941200256, 0.11693944036960602, -0.21766558289527893, 0.1038622111082077, -0.30107539892196655, 0.19379404187202454, 0.03336702659726143, -0.1081666648387909, -0.27880579233169556, 0.07445408403873444, 0.009529156610369682, -0.17361746728420258, -0.21975351870059967, -0.034182462841272354, -0.18010815978050232, -0.3772071897983551, 0.0005256282165646553, 0.43850356340408325, -0.36310455203056335, 0.009639602154493332, -0.04739590734243393, 0.2388288676738739, 0.12346549332141876, 0.19641952216625214, 0.21741051971912384, -0.5003157258033752, -0.18826723098754883, -0.0656302347779274, -0.15005263686180115, 0.18244974315166473, 0.06903120875358582, -0.07783978432416916, 0.13418477773666382, -0.07357058674097061, 0.055645182728767395, -0.15348175168037415, 0.34019529819488525, 0.1319955736398697, 0.06593328714370728, 0.05488690361380577, 0.3006705343723297, -0.5137282609939575, -0.35088419914245605, -0.2595837414264679, -0.07208222895860672, -0.03204407915472984, 0.41551607847213745, 0.14265984296798706, -0.41849425435066223, 0.03224363178014755, -0.04774416238069534, -0.07764756679534912, -0.16845695674419403, -0.43262210488319397, 0.30017876625061035, 0.3927876949310303, 0.28766119480133057, -0.2440231740474701, -0.15058256685733795, 0.2844279408454895, 0.39066579937934875, 0.16385042667388916, 0.290149062871933, 0.2917971611022949, -0.5933936238288879, 0.1263231486082077, -0.2939780056476593, -0.027376266196370125, 0.04769408330321312, -0.24204884469509125, 0.14182564616203308, -0.512731671333313, 0.3650668263435364, 0.04765838012099266, -0.12706975638866425, 0.09376422315835953, -0.423100084066391, -0.008636509999632835, 0.02271972969174385, -0.057546574622392654, 0.0651116818189621, -0.17694567143917084, 0.2547943592071533, 0.22043320536613464, 0.1796014904975891, -0.1892629712820053, -0.003012392669916153, 0.21558718383312225, 0.3355906307697296, -0.18937472999095917, 0.23984558880329132, 0.13470815122127533, -0.24601785838603973, -0.21397706866264343, -0.23487554490566254, -0.47972285747528076, 0.3116437494754791, 0.04924516752362251, -0.09572029858827591, 0.16255608201026917, 0.2802019715309143, 0.09941192716360092, -0.4643804430961609, 0.255326509475708, -0.14671987295150757, -0.0258753951638937, 0.4900762140750885, 0.1003120094537735, 0.21043641865253448, 0.10720467567443848, -0.25324204564094543, 0.08144966512918472, -0.061137109994888306, -0.04902666434645653, 0.16683873534202576, 0.058701783418655396, -0.11699105054140091, -0.05574070289731026, -0.13857299089431763, -0.039234042167663574, 0.4612070322036743, -0.34950122237205505, -0.06784725189208984, -0.013973680324852467, -0.05532000958919525, 0.18600775301456451, 0.06959487497806549, 0.18637754023075104, -0.09911008924245834, 0.10602695494890213, 0.06267394125461578, 0.19958916306495667, 0.09232495725154877, -0.30271047353744507, 0.009403165429830551, -0.09391465783119202, 0.14313212037086487, -0.0055712126195430756, 0.15766994655132294, -0.09811458736658096, -0.02034006454050541, 0.18698635697364807, -0.06020398810505867, -0.07646410912275314, 0.013010426424443722, -0.07986954599618912, -0.08192559331655502, 0.05946680158376694, -0.1397755742073059, 0.005535440053790808, 0.3184540867805481, 0.2950812578201294, 0.2596467435359955, -0.13546785712242126, 0.03537648171186447, 0.09610334783792496, -0.46848049759864807, -0.30659469962120056, -0.3331448435783386, -0.3298496901988983, 0.280414342880249, 0.06052496284246445, -0.1551750749349594, 0.002797627355903387, -0.3288448750972748, 0.028308939188718796, -0.04938618466258049, 0.07094107568264008, 0.1839665174484253, -0.017983706668019295, -0.22560805082321167, -0.07114747166633606, 0.018108833581209183, -0.001939549227245152, 0.0040094004943966866, 0.08605118840932846, -0.02223515324294567, 0.012357650324702263, -0.21559448540210724, 0.20551611483097076, -0.08830859512090683, 0.017815403640270233, 0.05331253632903099, -0.0830642580986023, -0.057362522929906845, -0.011170690879225731, 0.025040747597813606, -0.006148333195596933, 0.2852347791194916, 0.07987121492624283, 0.20538803935050964, 0.009371327236294746, 0.08238179236650467, -0.01862836629152298, -0.36565276980400085, -0.12561224400997162, -0.05193987861275673, 0.20402449369430542, -0.02430717833340168, 0.03725059702992439, -0.5603201389312744, 0.1644880622625351, 0.29531794786453247, 0.466176301240921, 0.07969861477613449, 0.07891151309013367, 0.6767813563346863, -0.03532079607248306, -0.1751161366701126, 0.8958897590637207, -0.06564727425575256, 0.09371982514858246, 0.2782627046108246, 0.23370690643787384, 0.07138334214687347, 0.2748148441314697, 0.05628908798098564, 0.00017525079601909965, -0.3967840075492859, -0.07876691222190857, -0.13320492208003998, -0.348177433013916, 0.08810041099786758, -0.0812477245926857, 0.00083787931362167, -0.12868908047676086, -0.0348629467189312, -0.20949071645736694, 0.21426118910312653, 0.05054597929120064, 0.20680640637874603, -0.21183985471725464, -0.3487623929977417, -0.006788130383938551, -0.07132560014724731, 0.24451610445976257, -0.1590627282857895, -0.03170381486415863, -0.24821728467941284, 0.13859328627586365, -0.15459021925926208, -0.23816493153572083, 0.2038566619157791, -0.018905095756053925, 0.446261465549469, -0.024972401559352875, -0.008640047162771225, -0.2488924264907837, 0.3045418858528137, 0.2449050396680832, 0.687141478061676, -0.7111845016479492, -0.03812943026423454, 0.46946626901626587, 0.10262877494096756, -0.05310551077127457, 0.7508963942527771, -0.20785515010356903, 0.2037971466779709, -0.0335962288081646, 0.22166191041469574, 0.12078624218702316, 0.22852657735347748, -0.1924896240234375, 0.047139428555965424, -0.41409429907798767, 0.31566885113716125, -0.10052354633808136, -0.05950606241822243, 0.0792824998497963, 0.11574188619852066, 0.08345086872577667, 0.021698428317904472, 0.05048184469342232, -0.2384309470653534, 0.12663854658603668, 0.1083148866891861, -0.13258251547813416, 0.07261651009321213, 0.03296080604195595, -0.18963831663131714, 0.02006893791258335, -0.09193149954080582, 0.06911638379096985, 0.2968943119049072, 0.240645170211792, 0.14063571393489838, -0.023912742733955383, -0.09193110466003418, -0.1301964521408081, -0.055737756192684174, -0.11368432641029358, -0.02815488912165165, -0.005833828821778297, -0.05917150527238846, -0.06951643526554108, -0.16295139491558075, 0.04941566288471222, 0.017126716673374176, 0.06296940892934799, 0.08240938931703568, 0.0028760365676134825, -0.27826452255249023, 0.16604267060756683, -0.25869983434677124, -0.05381789803504944, 0.21444755792617798, -0.05427948012948036, -0.44568490982055664, 0.07339780032634735, -0.15082953870296478, -0.28340813517570496, 0.15916350483894348, 0.13357388973236084, -0.042382098734378815, -0.26700252294540405, -0.03584080934524536, 0.3055938482284546, -0.04204832389950752, -0.03986496850848198, 0.24354472756385803, 0.09621323645114899, 0.08760438114404678, -0.12254765629768372, 0.09642013907432556, 0.057124827057123184, 0.03283391520380974, -0.0549004040658474, -0.2062850445508957, 0.05762563645839691, -0.02420337125658989, -0.21357783675193787, 0.1305764764547348, -0.0720813050866127, 0.05663022771477699, -0.09544313699007034, 0.09221823513507843, 0.15809404850006104, 0.03420194983482361, 0.014862439595162868, -0.05723130330443382, 8.460468961857259e-05, 0.06433078646659851, 0.3881993889808655, -0.002115910639986396, -0.16575859487056732, -0.5081652998924255, 0.07393314689397812, 0.07669106870889664, -0.08003050088882446, -0.007625768426805735, -0.07436494529247284, 0.5085324645042419, -0.18305093050003052, -0.2529143691062927, -0.024313103407621384, -0.08124101161956787, -0.333933025598526, -0.11986877769231796, -0.09461674839258194, -0.04235968738794327, 0.2900654673576355, -0.026803787797689438, 0.14577363431453705, -0.03663270175457001, -0.02835567109286785, 0.12728068232536316, 0.010624812915921211, -0.06005958467721939, -0.2288322001695633, 0.13159459829330444, -0.13629397749900818, -0.016189051792025566, -0.03484059497714043, 0.05600867420434952, 0.11107604205608368, -0.12541399896144867, -0.1563679426908493, -0.05842198058962822, 0.1009821742773056, 0.3215601444244385, 0.08816851675510406, 0.13389742374420166, -0.19366104900836945, 0.10579551756381989, 0.019427912309765816, -0.08638933300971985, -0.1848546415567398, -0.02766217663884163, -0.0067530432716012, 0.1708553433418274, 0.10561146587133408, 0.07809654623270035, 0.08075697720050812, -0.04854264482855797, -0.2075546383857727, 0.15826907753944397, 0.04118522256612778, -0.5027393102645874, 0.021169515326619148, -0.055703312158584595, -0.019223026931285858, 0.10436216741800308, 0.12618032097816467, -0.010212910361588001, 0.15754538774490356, 0.07809823006391525, 0.10360724478960037, -0.025025442242622375, 0.10830708593130112, -0.23211412131786346, -0.11985014379024506, -0.1664208322763443, -0.15206657350063324, -0.2760331630706787, -0.07262502610683441, 0.2635224759578705, 0.05466749891638756, 0.06495744735002518, -0.21254919469356537, 0.06423534452915192, 0.015467194840312004, -0.2545943856239319, -0.13526946306228638, 0.15906503796577454, 0.11187630891799927, -0.016803797334432602, 0.03557134047150612, -0.24645653367042542, -0.11661037802696228, -0.05470544099807739, 0.20120345056056976, 0.008944610133767128, -0.021929781883955002, -0.0870688408613205, -0.06757250428199768, 0.12388905882835388, -0.1544838398694992, -0.10286314785480499, -0.13409028947353363, 0.05959013104438782, -0.18364021182060242, -0.1466744840145111, -0.46856579184532166, 0.1235022246837616, -0.09830330312252045, -0.13805827498435974, 0.00431862473487854, 0.1266372799873352, -0.8999189138412476, -0.12848351895809174, -0.11212366819381714, -0.11487028747797012, -0.09860291332006454, -0.17407993972301483, -0.18983128666877747, 0.04814930632710457, 0.01487412117421627, -0.003967530559748411, -0.19835126399993896, 0.14472033083438873, -0.09015297889709473, 0.1694040596485138, -0.010552562773227692, -0.4482528865337372, -0.09288875013589859, -0.086182601749897, 0.04996988922357559, -0.10625705868005753, -0.004422429949045181, -0.1521845906972885, -0.09137552231550217, 0.05950716882944107, -0.08996802568435669, -0.09902649372816086, 0.22304320335388184, -0.019199753180146217, 0.05326082929968834, -0.26409581303596497, 0.10232197493314743, -0.14286766946315765, -0.37661004066467285, 0.33668074011802673, -0.014572229236364365, 0.2859398126602173, -0.4015716016292572, -0.011979114264249802, -0.13013704121112823, -0.8056814074516296, 0.39792782068252563, 0.8589231371879578, 0.5277584791183472, 0.14598652720451355, -0.19495075941085815, 0.5545186400413513, -0.20399466156959534, 0.3821747601032257, -1.5731950998306274, 0.31577274203300476, -0.6914191246032715, 0.4713723957538605, 0.3597323000431061, 0.7341161966323853, -0.07978284358978271, -0.09237301349639893, -0.23173324763774872, 0.016746463254094124, -0.4184275269508362, -0.7625631093978882, 